svm_type c_svc
kernel_type polynomial
degree 5
gamma 1
coef0 0
nr_class 2
total_sv 6764
rho 3.57133
label 0 1
nr_sv 3402 3362
SV
3 1:0.12247209 2:0.31957048 3:0.40491113 4:0.99995565 5:1.1110495e-05 6:1.1110495e-05 7:1.1110495e-05 8:1.1110495e-05 9:0.00034255569 10:0.44110754 11:0.5588814 12:1.1110742e-05 13:0.62472057 14:0.0036764706 
1.002962995315148 1:0.16499536 2:0.58588701 3:0.056078251 4:0.66775185 5:0.33221489 6:1.1110495e-05 7:1.1110495e-05 8:1.1110495e-05 9:0.3952536 10:0.031121185 11:0.70443207 12:0.26444674 13:0.64311886 14:0.0036764706 
3 1:0.12220284 2:0.33175698 3:0.36605287 4:0.99995565 5:1.1110495e-05 6:1.1110495e-05 7:1.1110495e-05 8:1.1110495e-05 9:0.00034255569 10:0.28666821 11:0.71332067 12:1.1110741e-05 13:0.54548407 14:0.0041666669 
0.3100404800692851 1:0.17408128 2:0.49892125 3:0.05192991 4:0.43443146 5:0.56553531 6:1.1110495e-05 7:1.1110495e-05 8:1.1110495e-05 9:0.42556369 10:0.034454405 11:0.90553647 12:0.060009111 13:0.34108666 14:0.0041666669 
3 1:0.12886532 2:0.18028343 3:0.54303408 4:0.99995565 5:1.1110495e-05 6:1.1110495e-05 7:1.1110495e-05 8:1.1110495e-05 9:0.00034255569 10:0.99997783 11:1.1110742e-05 12:1.1110742e-05 13:0.0002509224 14:0.0046568625 
3 1:0.1369624 2:0.17127056 3:0.54767895 4:0.99995565 5:1.1110495e-05 6:1.1110495e-05 7:1.1110495e-05 8:1.1110495e-05 9:0.00034255569 10:0.99997783 11:1.1110742e-05 12:1.1110742e-05 13:0.0002509224 14:0.0046568625 
3 1:0.1307324 2:0.18020876 3:0.55103368 4:0.99995565 5:1.1110495e-05 6:1.1110495e-05 7:1.1110495e-05 8:1.1110495e-05 9:0.00034255569 10:0.99997783 11:1.1110742e-05 12:1.1110742e-05 13:0.0002509224 14:0.0046568625 
3 1:0.12905793 2:0.18295413 3:0.5489381 4:0.99995565 5:1.1110495e-05 6:1.1110495e-05 7:1.1110495e-05 8:1.1110495e-05 9:0.00034255569 10:0.99997783 11:1.1110742e-05 12:1.1110742e-05 13:0.0002509224 14:0.0046568625 
3 1:0.12949865 2:0.18954428 3:0.54584008 4:0.99995565 5:1.1110495e-05 6:1.1110495e-05 7:1.1110495e-05 8:1.1110495e-05 9:0.00034255569 10:0.99997783 11:1.1110742e-05 12:1.1110742e-05 13:0.0002509224 14:0.0046568625 
3 1:0.13120648 2:0.19322537 3:0.54162234 4:0.99995565 5:1.1110495e-05 6:1.1110495e-05 7:1.1110495e-05 8:1.1110495e-05 9:0.00034255569 10:0.99997783 11:1.1110742e-05 12:1.1110742e-05 13:0.0002509224 14:0.0046568625 
3 1:0.13369545 2:0.19759113 3:0.54087716 4:0.99995565 5:1.1110495e-05 6:1.1110495e-05 7:1.1110495e-05 8:1.1110495e-05 9:0.00034255569 10:0.99997783 11:1.1110742e-05 12:1.1110742e-05 13:0.0002509224 14:0.0046568625 
3 1:0.13488831 2:0.1986091 3:0.5472647 4:0.99995565 5:1.1110495e-05 6:1.1110495e-05 7:1.1110495e-05 8:1.1110495e-05 9:0.00034255569 10:0.99997783 11:1.1110742e-05 12:1.1110742e-05 13:0.0002509224 14:0.0046568625 
3 1:0.14471185 2:0.19142604 3:0.47731096 4:0.99995565 5:1.1110495e-05 6:1.1110495e-05 7:1.1110495e-05 8:1.1110495e-05 9:0.00034255569 10:0.98886704 11:0.011121851 12:1.1110741e-05 13:0.055736646 14:0.0046568625 
3 1:0.13844857 2:0.31627613 3:0.23106103 4:0.99995565 5:1.1110495e-05 6:1.1110495e-05 7:1.1110495e-05 8:1.1110495e-05 9:0.00034255569 10:0.79554015 11:0.20444874 12:1.1110741e-05 13:0.46116677 14:0.0046568625 
3 1:0.12680237 2:0.30437148 3:0.31384662 4:0.99995565 5:1.1110495e-05 6:1.1110495e-05 7:1.1110495e-05 8:1.1110495e-05 9:0.00034255569 10:0.74109751 11:0.25889137 12:1.1110741e-05 13:0.52068293 14:0.0046568625 
3 1:0.1305266 2:0.27519208 3:0.30605528 4:0.99995565 5:1.1110495e-05 6:1.1110495e-05 7:1.1110495e-05 8:1.1110495e-05 9:0.00034255569 10:0.99108922 11:0.0088997046 12:1.1110742e-05 13:0.046440192 14:0.0046568625 
3 1:0.12686594 2:0.15139578 3:0.69006491 4:0.99995565 5:1.1110495e-05 6:1.1110495e-05 7:1.1110495e-05 8:1.1110495e-05 9:0.00034255569 10:0.99997783 11:1.1110742e-05 12:1.1110742e-05 13:0.0002509224 14:0.0046568625 
3 1:0.12751251 2:0.1641673 3:0.67415214 4:0.99995565 5:1.1110495e-05 6:1.1110495e-05 7:1.1110495e-05 8:1.1110495e-05 9:0.00034255569 10:0.99997783 11:1.1110742e-05 12:1.1110742e-05 13:0.0002509224 14:0.0046568625 
3 1:0.13327877 2:0.15631378 3:0.50199294 4:0.99995565 5:1.1110495e-05 6:1.1110495e-05 7:1.1110495e-05 8:1.1110495e-05 9:0.00034255569 10:0.99220026 11:0.0077886293 12:1.1110741e-05 13:0.041607484 14:0.005147059 
3 1:0.13883796 2:0.15233493 3:0.51253802 4:0.99995565 5:1.1110495e-05 6:1.1110495e-05 7:1.1110495e-05 8:1.1110495e-05 9:0.00034255569 10:0.99886674 11:0.0011221849 12:1.1110742e-05 13:0.0080845477 14:0.005147059 
3 1:0.13351475 2:0.15556297 3:0.51620221 4:0.99995565 5:1.1110495e-05 6:1.1110495e-05 7:1.1110495e-05 8:1.1110495e-05 9:0.00034255569 10:0.99997783 11:1.1110742e-05 12:1.1110742e-05 13:0.0002509224 14:0.005147059 
3 1:0.13576993 2:0.16793847 3:0.51461607 4:0.99995565 5:1.1110495e-05 6:1.1110495e-05 7:1.1110495e-05 8:1.1110495e-05 9:0.00034255569 10:0.99997783 11:1.1110742e-05 12:1.1110742e-05 13:0.0002509224 14:0.005147059 
3 1:0.1379108 2:0.16965312 3:0.50900382 4:0.99995565 5:1.1110495e-05 6:1.1110495e-05 7:1.1110495e-05 8:1.1110495e-05 9:0.00034255569 10:0.99331135 11:0.0066775554 12:1.1110741e-05 13:0.036628824 14:0.005147059 
3 1:0.14220873 2:0.19344008 3:0.44477963 4:0.99995565 5:1.1110495e-05 6:1.1110495e-05 7:1.1110495e-05 8:1.1110495e-05 9:0.00034255569 10:0.97664523 11:0.023343666 12:1.1110741e-05 13:0.10096267 14:0.005147059 
3 1:0.13860932 2:0.15893817 3:0.41492686 4:0.99995565 5:1.1110495e-05 6:1.1110495e-05 7:1.1110495e-05 8:1.1110495e-05 9:0.00034255569 10:0.98331171 11:0.016677223 12:1.1110742e-05 13:0.077321857 14:0.005147059 
3 1:0.13110276 2:0.1718207 3:0.49085796 4:0.99995565 5:1.1110495e-05 6:1.1110495e-05 7:1.1110495e-05 8:1.1110495e-05 9:0.00034255569 10:0.98331171 11:0.016677223 12:1.1110742e-05 13:0.077321857 14:0.005147059 
3 1:0.087573856 2:0.41957101 3:0.34492242 4:0.99995565 5:1.1110495e-05 6:1.1110495e-05 7:1.1110495e-05 8:1.1110495e-05 9:0.00034255569 10:0.0088997046 11:0.99108922 12:1.1110742e-05 13:0.046440192 14:0.0012254902 
3 1:0.072300084 2:0.45409846 3:0.509839 4:0.99995565 5:1.1110495e-05 6:1.1110495e-05 7:1.1110495e-05 8:1.1110495e-05 9:0.00034255569 10:1.1110742e-05 11:0.99997783 12:1.1110742e-05 13:0.0002509224 14:0.0022058825 
3 1:0.073089421 2:0.44818902 3:0.48117906 4:0.99995565 5:1.1110495e-05 6:1.1110495e-05 7:1.1110495e-05 8:1.1110495e-05 9:0.00034255569 10:1.1110742e-05 11:0.99997783 12:1.1110742e-05 13:0.0002509224 14:0.0022058825 
3 1:0.072112136 2:0.44519171 3:0.46352765 4:0.99995565 5:1.1110495e-05 6:1.1110495e-05 7:1.1110495e-05 8:1.1110495e-05 9:0.00034255569 10:1.1110742e-05 11:0.99997783 12:1.1110742e-05 13:0.0002509224 14:0.0022058825 
3 1:0.072494507 2:0.43743131 3:0.4544557 4:0.99995565 5:1.1110495e-05 6:1.1110495e-05 7:1.1110495e-05 8:1.1110495e-05 9:0.00034255569 10:1.1110742e-05 11:0.99997783 12:1.1110742e-05 13:0.0002509224 14:0.0022058825 
3 1:0.64193398 2:0.20208459 3:0.13300148 4:0.035564691 5:0.0011221599 6:0.022232099 7:0.93773681 8:0.0033442588 9:0.18034115 10:0.9533127 11:0.046676222 12:1.1110741e-05 13:0.17180498 14:0.0036764706 
0.2659633129440409 1:0.4861595 2:0.20771454 3:0.32751161 4:0.33888116 5:1.1110494e-05 6:0.042230986 7:0.51553804 8:0.1033387 9:0.6689263 10:0.82109487 11:0.17667189 12:0.0022332589 13:0.43849662 14:0.0041666669 
3 1:0.078050174 2:0.31038955 3:0.31401622 4:0.99995565 5:1.1110495e-05 6:1.1110495e-05 7:1.1110495e-05 8:1.1110495e-05 9:0.00034255569 10:0.71887606 11:0.28111285 12:1.1110741e-05 13:0.54080534 14:0.0041666669 
3 1:0.087487057 2:0.42243189 3:0.42431769 4:0.99995565 5:1.1110495e-05 6:1.1110495e-05 7:1.1110495e-05 8:1.1110495e-05 9:0.00034255569 10:0.26555783 11:0.73443109 12:1.1110741e-05 13:0.52695996 14:0.0046568625 
3 1:0.094432712 2:0.4359948 3:0.4537026 4:0.99995565 5:1.1110495e-05 6:1.1110495e-05 7:1.1110495e-05 8:1.1110495e-05 9:0.00034255569 10:0.056675889 11:0.94220191 12:0.0011221848 13:0.20607805 14:0.0046568625 
3 1:0.074812204 2:0.31102443 3:0.24705701 4:0.99995565 5:1.1110495e-05 6:1.1110495e-05 7:1.1110495e-05 8:1.1110495e-05 9:0.00034255569 10:0.59776896 11:0.40221992 12:1.1110741e-05 13:0.61353189 14:0.0046568625 
3 1:0.093480214 2:0.4002097 3:0.3875728 4:0.99995565 5:1.1110495e-05 6:1.1110495e-05 7:1.1110495e-05 8:1.1110495e-05 9:0.00034255569 10:0.30111217 11:0.69554347 12:0.003344333 13:0.57618707 14:0.005147059 
3 1:0.092700936 2:0.28534025 3:0.37979469 4:0.99995565 5:1.1110495e-05 6:1.1110495e-05 7:1.1110495e-05 8:1.1110495e-05 9:0.00034255569 10:0.75220829 11:0.24778065 12:1.1110742e-05 13:0.50975072 14:0.0056372546 
3 1:0.10743079 2:0.36657199 3:0.34566325 4:0.99995565 5:1.1110495e-05 6:1.1110495e-05 7:1.1110495e-05 8:1.1110495e-05 9:0.00034255569 10:0.46221793 11:0.53332669 12:0.0044554072 13:0.65180647 14:0.0056372546 
3 1:0.092111088 2:0.21534258 3:0.29840362 4:0.99995565 5:1.1110495e-05 6:1.1110495e-05 7:1.1110495e-05 8:1.1110495e-05 9:0.00034255569 10:0.9522016 11:0.047787298 12:1.1110741e-05 13:0.1748434 14:0.0056372546 
3 1:0.084429599 2:0.25693703 3:0.32467359 4:0.99995565 5:1.1110495e-05 6:1.1110495e-05 7:1.1110495e-05 8:1.1110495e-05 9:0.00034255569 10:0.90220326 11:0.097785629 12:1.1110741e-05 13:0.29157403 14:0.0056372546 
3 1:0.074744612 2:0.26475936 3:0.31911758 4:0.99995565 5:1.1110495e-05 6:1.1110495e-05 7:1.1110495e-05 8:1.1110495e-05 9:0.00034255569 10:0.88442612 11:0.11556282 12:1.1110742e-05 13:0.32598072 14:0.0056372546 
3 1:0.080053002 2:0.21138975 3:0.29200622 4:0.99440038 5:1.1110495e-05 6:1.1110495e-05 7:1.1110495e-05 8:0.0055663581 9:0.021659231 10:0.97331202 11:0.026676888 12:1.1110741e-05 13:0.11207894 14:0.0056372546 
3 1:0.10623435 2:0.11638901 3:0.77887785 4:0.99995565 5:1.1110495e-05 6:1.1110495e-05 7:1.1110495e-05 8:1.1110495e-05 9:0.00034255569 10:0.99997783 11:1.1110742e-05 12:1.1110742e-05 13:0.0002509224 14:0.0046568625 
3 1:0.11558907 2:0.10136196 3:0.75076967 4:0.99995565 5:1.1110495e-05 6:1.1110495e-05 7:1.1110495e-05 8:1.1110495e-05 9:0.00034255569 10:0.99997783 11:1.1110742e-05 12:1.1110742e-05 13:0.0002509224 14:0.0046568625 
3 1:0.1196529 2:0.094252795 3:0.71818179 4:0.99995565 5:1.1110495e-05 6:1.1110495e-05 7:1.1110495e-05 8:1.1110495e-05 9:0.00034255569 10:0.99997783 11:1.1110742e-05 12:1.1110742e-05 13:0.0002509224 14:0.0046568625 
3 1:0.14942317 2:0.1040343 3:0.4480769 4:0.94884735 5:1.1110495e-05 6:1.1110495e-05 7:1.1110495e-05 8:0.051119387 9:0.12564005 10:0.99997783 11:1.1110742e-05 12:1.1110742e-05 13:0.0002509224 14:0.0046568625 
3 1:0.17014317 2:0.12293353 3:0.45914042 4:0.92440426 5:0.0055663581 6:1.1110495e-05 7:1.1110495e-05 8:0.070007227 9:0.17892721 10:0.99997783 11:1.1110742e-05 12:1.1110742e-05 13:0.0002509224 14:0.0046568625 
3 1:0.13067287 2:0.16098487 3:0.42522821 4:0.96440202 5:0.0022332096 6:1.1110495e-05 7:1.1110495e-05 8:0.033342596 9:0.10080408 10:0.99997783 11:1.1110742e-05 12:1.1110742e-05 13:0.0002509224 14:0.0046568625 
3 1:0.14316759 2:0.16188516 3:0.40897101 4:0.93662578 5:0.016676852 6:1.1110495e-05 7:1.1110495e-05 8:0.046675187 9:0.16955265 10:0.99886674 11:0.0011221849 12:1.1110742e-05 13:0.0080845477 14:0.0046568625 
3 1:0.11465393 2:0.17638814 3:0.39243558 4:0.9832899 5:1.1110495e-05 6:1.1110495e-05 7:1.1110495e-05 8:0.016676852 9:0.052950487 10:0.99442244 11:0.005566481 12:1.1110741e-05 13:0.031479973 14:0.0046568625 
3 1:0.10167316 2:0.18647328 3:0.37350342 4:0.97217941 5:1.1110495e-05 6:1.1110495e-05 7:1.1110495e-05 8:0.027787348 9:0.079143845 10:0.99775565 11:0.0022332589 12:1.1110741e-05 13:0.014564781 14:0.0046568625 
3 1:0.15144905 2:0.17459308 3:0.3565793 4:0.91329378 5:1.1110495e-05 6:1.1110495e-05 7:0.003344259 8:0.083339825 9:0.19213931 10:0.99664456 11:0.003344333 12:1.1110741e-05 13:0.020517599 14:0.0046568625 
3 1:0.24760003 2:0.16365609 3:0.33582881 4:0.80107778 5:0.003344259 6:1.1110495e-05 7:0.0022332096 8:0.19333372 9:0.32819676 10:0.99886674 11:0.0011221849 12:1.1110742e-05 13:0.0080845477 14:0.0046568625 
3 1:0.14591843 2:0.18703696 3:0.3162019 4:0.9155159 5:1.1110495e-05 6:1.1110495e-05 7:1.1110495e-05 8:0.084450871 9:0.18013623 10:0.99664456 11:0.003344333 12:1.1110741e-05 13:0.020517599 14:0.0046568625 
2.458941667280449 1:0.30361429 2:0.029301286 3:0.12589452 4:0.53220373 5:0.06445197 6:0.06445197 7:0.23777565 8:0.10111659 9:0.78435081 10:0.99997783 11:1.1110742e-05 12:1.1110742e-05 13:0.0002509224 14:0.005147059 
3 1:0.27169532 2:0.035972167 3:0.11095785 4:0.64775288 5:0.015565802 6:0.066674076 7:0.14555858 8:0.12444864 9:0.66264117 10:0.99997783 11:1.1110742e-05 12:1.1110742e-05 13:0.0002509224 14:0.005147059 
3 1:0.40011311 2:0.053581599 3:0.11173323 4:0.51220489 5:0.0033442588 6:0.0033442588 7:0.3011055 8:0.18000111 9:0.65295374 10:0.99997783 11:1.1110742e-05 12:1.1110742e-05 13:0.0002509224 14:0.005147059 
3 1:0.12485281 2:0.15869595 3:0.39576754 4:0.97106832 5:1.1110495e-05 6:1.1110495e-05 7:1.1110495e-05 8:0.028898396 9:0.081583954 10:0.99997783 11:1.1110742e-05 12:1.1110742e-05 13:0.0002509224 14:0.0056372546 
3 1:0.1424218 2:0.12665959 3:0.39090893 4:0.94107002 5:0.016676852 6:1.1110495e-05 7:1.1110495e-05 8:0.04223099 9:0.16112879 10:0.99997783 11:1.1110742e-05 12:1.1110742e-05 13:0.0002509224 14:0.0056372546 
3 1:0.1013545 2:0.11912903 3:0.40306592 4:0.99551141 5:0.0044553084 6:1.1110495e-05 7:1.1110495e-05 8:1.1110495e-05 9:0.018005198 10:0.99997783 11:1.1110742e-05 12:1.1110742e-05 13:0.0002509224 14:0.0056372546 
3 1:0.13073951 2:0.1117865 3:0.39922312 4:0.97106832 5:0.003344259 6:1.1110495e-05 7:1.1110495e-05 8:0.025565248 9:0.087957457 10:0.99997783 11:1.1110742e-05 12:1.1110742e-05 13:0.0002509224 14:0.0056372546 
3 1:0.19251755 2:0.091941327 3:0.39031669 4:0.87218487 5:0.013343703 6:0.0055663576 7:0.023343148 8:0.085561916 9:0.31305131 10:0.99997783 11:1.1110742e-05 12:1.1110742e-05 13:0.0002509224 14:0.0056372546 
3 1:0.1293968 2:0.10066513 3:0.38039079 4:0.94884729 5:0.040008888 6:0.0011221599 7:1.1110494e-05 8:0.010010555 9:0.14442001 10:0.99997783 11:1.1110742e-05 12:1.1110742e-05 13:0.0002509224 14:0.0056372546 
2.933620172480235 1:0.17302056 2:0.084549546 3:0.3697761 4:0.87774014 5:0.052230433 6:0.016676851 7:0.022232099 8:0.031120494 9:0.3290129 10:0.99997783 11:1.1110742e-05 12:1.1110742e-05 13:0.0002509224 14:0.0056372546 
3 1:0.14613609 2:0.083083048 3:0.3574276 4:0.89107275 5:0.052230436 6:0.024454199 7:0.018898953 8:0.013343704 9:0.29843229 10:0.99997783 11:1.1110742e-05 12:1.1110742e-05 13:0.0002509224 14:0.0056372546 
3 1:0.16899006 2:0.08321289 3:0.35237312 4:0.82885396 5:0.1077829 6:0.033342592 7:0.012232654 8:0.0177879 9:0.39431268 10:0.99997783 11:1.1110742e-05 12:1.1110742e-05 13:0.0002509224 14:0.0056372546 
1.709501996136476 1:0.45104751 2:0.094516225 3:0.11725001 4:0.4655408 5:0.0011221599 6:0.0011221599 7:0.25777456 8:0.27444032 9:0.66824001 10:0.97775632 11:0.022232592 12:1.1110741e-05 13:0.097161472 14:0.0056372546 
3 1:0.52483183 2:0.12799464 3:0.10263525 4:0.45554137 5:1.1110494e-05 6:1.1110494e-05 7:0.024454197 8:0.51998222 9:0.49037474 10:0.99997783 11:1.1110742e-05 12:1.1110742e-05 13:0.0002509224 14:0.0056372546 
3 1:0.1258537 2:0.19663647 3:0.38139758 4:0.99995565 5:1.1110495e-05 6:1.1110495e-05 7:1.1110495e-05 8:1.1110495e-05 9:0.00034255569 10:0.99997783 11:1.1110742e-05 12:1.1110742e-05 13:0.0002509224 14:0.0061274511 
3 1:0.11888479 2:0.19699186 3:0.37292206 4:0.99995565 5:1.1110495e-05 6:1.1110495e-05 7:1.1110495e-05 8:1.1110495e-05 9:0.00034255569 10:0.98220062 11:0.017788297 12:1.1110741e-05 13:0.081411459 14:0.0061274511 
3 1:0.11835805 2:0.20895346 3:0.34723192 4:0.99995565 5:1.1110495e-05 6:1.1110495e-05 7:1.1110495e-05 8:1.1110495e-05 9:0.00034255569 10:0.95664591 11:0.043343 12:1.1110741e-05 13:0.16253592 14:0.0061274511 
3 1:0.10820878 2:0.22008905 3:0.33292666 4:0.99995565 5:1.1110495e-05 6:1.1110495e-05 7:1.1110495e-05 8:1.1110495e-05 9:0.00034255569 10:0.95664591 11:0.043343 12:1.1110741e-05 13:0.16253592 14:0.0061274511 
3 1:0.11358029 2:0.21673572 3:0.31992865 4:0.9899562 5:1.1110495e-05 6:1.1110495e-05 7:1.1110495e-05 8:0.010010556 9:0.035082545 10:0.94997942 11:0.047787298 12:0.0022332589 13:0.18905811 14:0.0061274511 
3 1:0.10726684 2:0.22102942 3:0.29341435 4:0.98217887 5:1.1110495e-05 6:1.1110495e-05 7:1.1110495e-05 8:0.017787902 9:0.055741996 10:0.92109156 11:0.078897379 12:1.1110742e-05 13:0.25141263 14:0.0061274511 
3 1:0.10622306 2:0.1578797 3:0.43637729 4:0.99995565 5:1.1110495e-05 6:1.1110495e-05 7:1.1110495e-05 8:1.1110495e-05 9:0.00034255569 10:0.99997783 11:1.1110742e-05 12:1.1110742e-05 13:0.0002509224 14:0.0036764706 
3 1:0.10690679 2:0.15143457 3:0.44325742 4:0.99995565 5:1.1110495e-05 6:1.1110495e-05 7:1.1110495e-05 8:1.1110495e-05 9:0.00034255569 10:0.99997783 11:1.1110742e-05 12:1.1110742e-05 13:0.0002509224 14:0.0036764706 
3 1:0.10643369 2:0.15145455 3:0.44390655 4:0.99995565 5:1.1110495e-05 6:1.1110495e-05 7:1.1110495e-05 8:1.1110495e-05 9:0.00034255569 10:0.99997783 11:1.1110742e-05 12:1.1110742e-05 13:0.0002509224 14:0.0036764706 
3 1:0.10471746 2:0.14614174 3:0.45921844 4:0.99995565 5:1.1110495e-05 6:1.1110495e-05 7:1.1110495e-05 8:1.1110495e-05 9:0.00034255569 10:0.99997783 11:1.1110742e-05 12:1.1110742e-05 13:0.0002509224 14:0.0036764706 
3 1:0.10162865 2:0.13356841 3:0.44619879 4:0.99995565 5:1.1110495e-05 6:1.1110495e-05 7:1.1110495e-05 8:1.1110495e-05 9:0.00034255569 10:0.99997783 11:1.1110742e-05 12:1.1110742e-05 13:0.0002509224 14:0.0036764706 
3 1:0.10500747 2:0.15993834 3:0.43154517 4:0.99995565 5:1.1110495e-05 6:1.1110495e-05 7:1.1110495e-05 8:1.1110495e-05 9:0.00034255569 10:0.99997783 11:1.1110742e-05 12:1.1110742e-05 13:0.0002509224 14:0.0041666669 
3 1:0.10881165 2:0.15261692 3:0.43791121 4:0.99995565 5:1.1110495e-05 6:1.1110495e-05 7:1.1110495e-05 8:1.1110495e-05 9:0.00034255569 10:0.99997783 11:1.1110742e-05 12:1.1110742e-05 13:0.0002509224 14:0.0041666669 
3 1:0.107552 2:0.15213279 3:0.44235101 4:0.99995565 5:1.1110495e-05 6:1.1110495e-05 7:1.1110495e-05 8:1.1110495e-05 9:0.00034255569 10:0.99997783 11:1.1110742e-05 12:1.1110742e-05 13:0.0002509224 14:0.0041666669 
3 1:0.10925337 2:0.14363672 3:0.45165429 4:0.99995565 5:1.1110495e-05 6:1.1110495e-05 7:1.1110495e-05 8:1.1110495e-05 9:0.00034255569 10:0.99997783 11:1.1110742e-05 12:1.1110742e-05 13:0.0002509224 14:0.0041666669 
3 1:0.10179235 2:0.13768966 3:0.47070402 4:0.99995565 5:1.1110495e-05 6:1.1110495e-05 7:1.1110495e-05 8:1.1110495e-05 9:0.00034255569 10:0.99997783 11:1.1110742e-05 12:1.1110742e-05 13:0.0002509224 14:0.0041666669 
3 1:0.10167535 2:0.14407729 3:0.46287864 4:0.99995565 5:1.1110495e-05 6:1.1110495e-05 7:1.1110495e-05 8:1.1110495e-05 9:0.00034255569 10:0.99997783 11:1.1110742e-05 12:1.1110742e-05 13:0.0002509224 14:0.0041666669 
3 1:0.11215208 2:0.13049175 3:0.4414843 4:0.99995565 5:1.1110495e-05 6:1.1110495e-05 7:1.1110495e-05 8:1.1110495e-05 9:0.00034255569 10:0.99997783 11:1.1110742e-05 12:1.1110742e-05 13:0.0002509224 14:0.0041666669 
3 1:0.1130268 2:0.084985964 3:0.48387375 4:0.99995565 5:1.1110495e-05 6:1.1110495e-05 7:1.1110495e-05 8:1.1110495e-05 9:0.00034255569 10:0.99997783 11:1.1110742e-05 12:1.1110742e-05 13:0.0002509224 14:0.0041666669 
3 1:0.11661296 2:0.094801269 3:0.52132952 4:0.99995565 5:1.1110495e-05 6:1.1110495e-05 7:1.1110495e-05 8:1.1110495e-05 9:0.00034255569 10:0.99997783 11:1.1110742e-05 12:1.1110742e-05 13:0.0002509224 14:0.0041666669 
3 1:0.13511941 2:0.097912528 3:0.573286 4:0.99995565 5:1.1110495e-05 6:1.1110495e-05 7:1.1110495e-05 8:1.1110495e-05 9:0.00034255569 10:0.99997783 11:1.1110742e-05 12:1.1110742e-05 13:0.0002509224 14:0.0041666669 
3 1:0.11322385 2:0.11792546 3:0.57788324 4:0.99995565 5:1.1110495e-05 6:1.1110495e-05 7:1.1110495e-05 8:1.1110495e-05 9:0.00034255569 10:0.99997783 11:1.1110742e-05 12:1.1110742e-05 13:0.0002509224 14:0.0041666669 
3 1:0.10823222 2:0.14362164 3:0.51132613 4:0.99995565 5:1.1110495e-05 6:1.1110495e-05 7:1.1110495e-05 8:1.1110495e-05 9:0.00034255569 10:0.99997783 11:1.1110742e-05 12:1.1110742e-05 13:0.0002509224 14:0.0041666669 
3 1:0.10659156 2:0.15926787 3:0.41745818 4:0.99995565 5:1.1110495e-05 6:1.1110495e-05 7:1.1110495e-05 8:1.1110495e-05 9:0.00034255569 10:0.99997783 11:1.1110742e-05 12:1.1110742e-05 13:0.0002509224 14:0.0046568625 
3 1:0.11095297 2:0.15301725 3:0.42857814 4:0.99995565 5:1.1110495e-05 6:1.1110495e-05 7:1.1110495e-05 8:1.1110495e-05 9:0.00034255569 10:0.99997783 11:1.1110742e-05 12:1.1110742e-05 13:0.0002509224 14:0.0046568625 
3 1:0.10575974 2:0.15479669 3:0.43489167 4:0.99995565 5:1.1110495e-05 6:1.1110495e-05 7:1.1110495e-05 8:1.1110495e-05 9:0.00034255569 10:0.99997783 11:1.1110742e-05 12:1.1110742e-05 13:0.0002509224 14:0.0046568625 
3 1:0.10574757 2:0.14818831 3:0.44567162 4:0.99995565 5:1.1110495e-05 6:1.1110495e-05 7:1.1110495e-05 8:1.1110495e-05 9:0.00034255569 10:0.99997783 11:1.1110742e-05 12:1.1110742e-05 13:0.0002509224 14:0.0046568625 
3 1:0.1113948 2:0.14061184 3:0.45479545 4:0.99995565 5:1.1110495e-05 6:1.1110495e-05 7:1.1110495e-05 8:1.1110495e-05 9:0.00034255569 10:0.99997783 11:1.1110742e-05 12:1.1110742e-05 13:0.0002509224 14:0.0046568625 
3 1:0.11460435 2:0.14601123 3:0.44245619 4:0.99995565 5:1.1110495e-05 6:1.1110495e-05 7:1.1110495e-05 8:1.1110495e-05 9:0.00034255569 10:0.99997783 11:1.1110742e-05 12:1.1110742e-05 13:0.0002509224 14:0.0046568625 
3 1:0.12126234 2:0.13111594 3:0.42905724 4:0.99995565 5:1.1110495e-05 6:1.1110495e-05 7:1.1110495e-05 8:1.1110495e-05 9:0.00034255569 10:0.99997783 11:1.1110742e-05 12:1.1110742e-05 13:0.0002509224 14:0.0046568625 
3 1:0.11967508 2:0.11378124 3:0.41449094 4:0.99995565 5:1.1110495e-05 6:1.1110495e-05 7:1.1110495e-05 8:1.1110495e-05 9:0.00034255569 10:0.99997783 11:1.1110742e-05 12:1.1110742e-05 13:0.0002509224 14:0.0046568625 
3 1:0.12275777 2:0.11709855 3:0.45000318 4:0.99995565 5:1.1110495e-05 6:1.1110495e-05 7:1.1110495e-05 8:1.1110495e-05 9:0.00034255569 10:0.99775565 11:0.0022332589 12:1.1110741e-05 13:0.014564781 14:0.0046568625 
3 1:0.12318539 2:0.1021751 3:0.51993626 4:0.99995565 5:1.1110495e-05 6:1.1110495e-05 7:1.1110495e-05 8:1.1110495e-05 9:0.00034255569 10:0.99997783 11:1.1110742e-05 12:1.1110742e-05 13:0.0002509224 14:0.0046568625 
3 1:0.13154681 2:0.10554408 3:0.54558301 4:0.99995565 5:1.1110495e-05 6:1.1110495e-05 7:1.1110495e-05 8:1.1110495e-05 9:0.00034255569 10:0.99997783 11:1.1110742e-05 12:1.1110742e-05 13:0.0002509224 14:0.0046568625 
3 1:0.1325931 2:0.10523818 3:0.54610145 4:0.99995565 5:1.1110495e-05 6:1.1110495e-05 7:1.1110495e-05 8:1.1110495e-05 9:0.00034255569 10:0.99997783 11:1.1110742e-05 12:1.1110742e-05 13:0.0002509224 14:0.0046568625 
3 1:0.11807036 2:0.12265302 3:0.54444605 4:0.99995565 5:1.1110495e-05 6:1.1110495e-05 7:1.1110495e-05 8:1.1110495e-05 9:0.00034255569 10:0.99997783 11:1.1110742e-05 12:1.1110742e-05 13:0.0002509224 14:0.0046568625 
3 1:0.11255718 2:0.14750832 3:0.49335447 4:0.99995565 5:1.1110495e-05 6:1.1110495e-05 7:1.1110495e-05 8:1.1110495e-05 9:0.00034255569 10:0.99997783 11:1.1110742e-05 12:1.1110742e-05 13:0.0002509224 14:0.0046568625 
3 1:0.12403874 2:0.16423666 3:0.22521035 4:0.99773353 5:0.0022332096 6:1.1110495e-05 7:1.1110495e-05 8:1.1110495e-05 9:0.01011306 10:0.99886674 11:0.0011221849 12:1.1110742e-05 13:0.0080845477 14:0.005147059 
3 1:0.13376702 2:0.1616416 3:0.23961113 4:0.9388479 5:0.06111883 6:1.1110495e-05 7:1.1110495e-05 8:1.1110495e-05 9:0.14318441 10:0.99886674 11:0.0011221849 12:1.1110742e-05 13:0.0080845477 14:0.005147059 
3 1:0.11933014 2:0.13881686 3:0.33233836 4:0.99995565 5:1.1110495e-05 6:1.1110495e-05 7:1.1110495e-05 8:1.1110495e-05 9:0.00034255569 10:0.99997783 11:1.1110742e-05 12:1.1110742e-05 13:0.0002509224 14:0.005147059 
1.131761215156627 1:0.076544315 2:0.34637329 3:0.12997366 4:0.99995565 5:1.1110495e-05 6:1.1110495e-05 7:1.1110495e-05 8:1.1110495e-05 9:0.00034255569 10:0.31111184 11:0.68887705 12:1.1110741e-05 13:0.56445849 14:0.005147059 
3 1:0.11431582 2:0.23622574 3:0.20324907 4:0.99995565 5:1.1110495e-05 6:1.1110495e-05 7:1.1110495e-05 8:1.1110495e-05 9:0.00034255569 10:0.97775632 11:0.022232592 12:1.1110741e-05 13:0.097161472 14:0.0056372546 
3 1:0.10083266 2:0.56373256 3:0.59160429 4:0.99995565 5:1.1110495e-05 6:1.1110495e-05 7:1.1110495e-05 8:1.1110495e-05 9:0.00034255569 10:1.1110742e-05 11:0.99997783 12:1.1110742e-05 13:0.0002509224 14:0.0041666669 
3 1:0.10283262 2:0.54853839 3:0.61332935 4:0.99995565 5:1.1110495e-05 6:1.1110495e-05 7:1.1110495e-05 8:1.1110495e-05 9:0.00034255569 10:1.1110742e-05 11:0.99997783 12:1.1110742e-05 13:0.0002509224 14:0.0041666669 
3 1:0.10318479 2:0.56378317 3:0.60072345 4:0.99995565 5:1.1110495e-05 6:1.1110495e-05 7:1.1110495e-05 8:1.1110495e-05 9:0.00034255569 10:1.1110742e-05 11:0.99997783 12:1.1110742e-05 13:0.0002509224 14:0.0041666669 
3 1:0.10239573 2:0.55966842 3:0.59607029 4:0.99995565 5:1.1110495e-05 6:1.1110495e-05 7:1.1110495e-05 8:1.1110495e-05 9:0.00034255569 10:1.1110742e-05 11:0.99997783 12:1.1110742e-05 13:0.0002509224 14:0.0041666669 
3 1:0.10354862 2:0.55917454 3:0.58625317 4:0.99995565 5:1.1110495e-05 6:1.1110495e-05 7:1.1110495e-05 8:1.1110495e-05 9:0.00034255569 10:1.1110742e-05 11:0.99997783 12:1.1110742e-05 13:0.0002509224 14:0.0041666669 
3 1:0.10451516 2:0.55920017 3:0.5951069 4:0.99995565 5:1.1110495e-05 6:1.1110495e-05 7:1.1110495e-05 8:1.1110495e-05 9:0.00034255569 10:1.1110742e-05 11:0.99997783 12:1.1110742e-05 13:0.0002509224 14:0.0041666669 
3 1:0.10150868 2:0.57128727 3:0.58173078 4:0.99995565 5:1.1110495e-05 6:1.1110495e-05 7:1.1110495e-05 8:1.1110495e-05 9:0.00034255569 10:1.1110742e-05 11:0.99997783 12:1.1110742e-05 13:0.0002509224 14:0.0046568625 
3 1:0.10205556 2:0.57490349 3:0.57739961 4:0.99995565 5:1.1110495e-05 6:1.1110495e-05 7:1.1110495e-05 8:1.1110495e-05 9:0.00034255569 10:1.1110742e-05 11:0.99997783 12:1.1110742e-05 13:0.0002509224 14:0.0046568625 
3 1:0.10505951 2:0.55932981 3:0.59469742 4:0.99995565 5:1.1110495e-05 6:1.1110495e-05 7:1.1110495e-05 8:1.1110495e-05 9:0.00034255569 10:1.1110742e-05 11:0.99997783 12:1.1110742e-05 13:0.0002509224 14:0.0046568625 
3 1:0.10340234 2:0.58064044 3:0.57559115 4:0.99995565 5:1.1110495e-05 6:1.1110495e-05 7:1.1110495e-05 8:1.1110495e-05 9:0.00034255569 10:1.1110742e-05 11:0.99997783 12:1.1110742e-05 13:0.0002509224 14:0.0046568625 
2.784712124012074 1:0.10367951 2:0.58051652 3:0.56972635 4:0.99995565 5:1.1110495e-05 6:1.1110495e-05 7:1.1110495e-05 8:1.1110495e-05 9:0.00034255569 10:1.1110742e-05 11:0.99997783 12:1.1110742e-05 13:0.0002509224 14:0.0046568625 
3 1:0.10225205 2:0.58818269 3:0.54352689 4:0.99995565 5:1.1110495e-05 6:1.1110495e-05 7:1.1110495e-05 8:1.1110495e-05 9:0.00034255569 10:1.1110742e-05 11:0.99997783 12:1.1110742e-05 13:0.0002509224 14:0.005147059 
3 1:0.10479723 2:0.59108251 3:0.55358732 4:0.99995565 5:1.1110495e-05 6:1.1110495e-05 7:1.1110495e-05 8:1.1110495e-05 9:0.00034255569 10:1.1110742e-05 11:0.99997783 12:1.1110742e-05 13:0.0002509224 14:0.005147059 
3 1:0.091868259 2:0.41191649 3:0.54210585 4:0.99995565 5:1.1110495e-05 6:1.1110495e-05 7:1.1110495e-05 8:1.1110495e-05 9:0.00034255569 10:0.13667324 11:0.8633157 12:1.1110742e-05 13:0.36319852 14:0.0056372546 
3 1:0.096805684 2:0.41182202 3:0.55408388 4:0.9966225 5:1.1110495e-05 6:1.1110495e-05 7:1.1110495e-05 8:0.0033442592 9:0.014176381 10:0.098896712 11:0.90109223 12:1.1110742e-05 13:0.2938149 14:0.0056372546 
3 1:0.095559478 2:0.42599949 3:0.55535185 4:0.99995565 5:1.1110495e-05 6:1.1110495e-05 7:1.1110495e-05 8:1.1110495e-05 9:0.00034255569 10:0.063342333 11:0.93664658 12:1.1110741e-05 13:0.21500199 14:0.0056372546 
3 1:0.096814245 2:0.43956628 3:0.55901176 4:0.99995565 5:1.1110495e-05 6:1.1110495e-05 7:1.1110495e-05 8:1.1110495e-05 9:0.00034255569 10:0.0022332589 11:0.99775565 12:1.1110741e-05 13:0.014564781 14:0.0056372546 
3 1:0.09760426 2:0.45714027 3:0.55518186 4:0.99995565 5:1.1110495e-05 6:1.1110495e-05 7:1.1110495e-05 8:1.1110495e-05 9:0.00034255569 10:1.1110742e-05 11:0.99997783 12:1.1110742e-05 13:0.0002509224 14:0.0056372546 
3 1:0.097676858 2:0.43924499 3:0.5452736 4:0.99995565 5:1.1110495e-05 6:1.1110495e-05 7:1.1110495e-05 8:1.1110495e-05 9:0.00034255569 10:0.042231929 11:0.957757 12:1.1110742e-05 13:0.15939286 14:0.0056372546 
3 1:0.099533565 2:0.44029433 3:0.53396702 4:0.99995565 5:1.1110495e-05 6:1.1110495e-05 7:1.1110495e-05 8:1.1110495e-05 9:0.00034255569 10:0.01889937 11:0.98108953 12:1.1110741e-05 13:0.085436717 14:0.0056372546 
3 1:0.10001934 2:0.44858915 3:0.53658116 4:0.99995565 5:1.1110495e-05 6:1.1110495e-05 7:1.1110495e-05 8:1.1110495e-05 9:0.00034255569 10:0.012232927 11:0.98775601 12:1.1110742e-05 13:0.060225688 14:0.0056372546 
3 1:0.10003775 2:0.46554667 3:0.53777963 4:0.99995565 5:1.1110495e-05 6:1.1110495e-05 7:1.1110495e-05 8:1.1110495e-05 9:0.00034255569 10:0.024454743 11:0.9755342 12:1.1110742e-05 13:0.10471452 14:0.0056372546 
3 1:0.099217124 2:0.4601005 3:0.52188402 4:0.99995565 5:1.1110495e-05 6:1.1110495e-05 7:1.1110495e-05 8:1.1110495e-05 9:0.00034255569 10:0.063342333 11:0.93331331 12:0.003344333 13:0.2350698 14:0.0056372546 
3 1:0.090457365 2:0.38332546 3:0.40300065 4:0.99995565 5:1.1110495e-05 6:1.1110495e-05 7:1.1110495e-05 8:1.1110495e-05 9:0.00034255569 10:0.11556282 11:0.88442612 12:1.1110742e-05 13:0.32598072 14:0.0061274511 
3 1:0.091763027 2:0.37784106 3:0.39285696 4:0.99995565 5:1.1110495e-05 6:1.1110495e-05 7:1.1110495e-05 8:1.1110495e-05 9:0.00034255569 10:0.20778196 11:0.79220694 12:1.1110741e-05 13:0.46525809 14:0.0061274511 
3 1:0.087081462 2:0.34677958 3:0.38011163 4:0.99995565 5:1.1110495e-05 6:1.1110495e-05 7:1.1110495e-05 8:1.1110495e-05 9:0.00034255569 10:0.65998912 11:0.33999977 12:1.1110741e-05 13:0.58361673 14:0.0061274511 
3 1:0.10663669 2:0.17992412 3:0.48819563 4:0.99995565 5:1.1110495e-05 6:1.1110495e-05 7:1.1110495e-05 8:1.1110495e-05 9:0.00034255569 10:0.99997783 11:1.1110742e-05 12:1.1110742e-05 13:0.0002509224 14:0.0036764706 
3 1:0.097924374 2:0.20252745 3:0.49765483 4:0.99995565 5:1.1110495e-05 6:1.1110495e-05 7:1.1110495e-05 8:1.1110495e-05 9:0.00034255569 10:0.99997783 11:1.1110742e-05 12:1.1110742e-05 13:0.0002509224 14:0.0036764706 
3 1:0.098908931 2:0.20064749 3:0.48928517 4:0.99995565 5:1.1110495e-05 6:1.1110495e-05 7:1.1110495e-05 8:1.1110495e-05 9:0.00034255569 10:0.99997783 11:1.1110742e-05 12:1.1110742e-05 13:0.0002509224 14:0.0036764706 
3 1:0.11133316 2:0.13462542 3:0.54823899 4:0.99995565 5:1.1110495e-05 6:1.1110495e-05 7:1.1110495e-05 8:1.1110495e-05 9:0.00034255569 10:0.99997783 11:1.1110742e-05 12:1.1110742e-05 13:0.0002509224 14:0.0041666669 
3 1:0.097739816 2:0.16948161 3:0.44139275 4:0.99995565 5:1.1110495e-05 6:1.1110495e-05 7:1.1110495e-05 8:1.1110495e-05 9:0.00034255569 10:0.99997783 11:1.1110742e-05 12:1.1110742e-05 13:0.0002509224 14:0.0041666669 
3 1:0.1028745 2:0.13986674 3:0.57650656 4:0.9899562 5:0.010010556 6:1.1110495e-05 7:1.1110495e-05 8:1.1110495e-05 9:0.035082549 10:0.99997783 11:1.1110742e-05 12:1.1110742e-05 13:0.0002509224 14:0.0041666669 
3 1:0.095818199 2:0.16898003 3:0.54206222 4:0.99995565 5:1.1110495e-05 6:1.1110495e-05 7:1.1110495e-05 8:1.1110495e-05 9:0.00034255569 10:0.99997783 11:1.1110742e-05 12:1.1110742e-05 13:0.0002509224 14:0.0041666669 
3 1:0.093327805 2:0.1190657 3:0.58596957 4:0.99995565 5:1.1110495e-05 6:1.1110495e-05 7:1.1110495e-05 8:1.1110495e-05 9:0.00034255569 10:0.99997783 11:1.1110742e-05 12:1.1110742e-05 13:0.0002509224 14:0.0041666669 
3 1:0.084090509 2:0.15772583 3:0.67915779 4:0.99995565 5:1.1110495e-05 6:1.1110495e-05 7:1.1110495e-05 8:1.1110495e-05 9:0.00034255569 10:0.99997783 11:1.1110742e-05 12:1.1110742e-05 13:0.0002509224 14:0.0041666669 
3 1:0.081855692 2:0.16074349 3:0.67928404 4:0.99995565 5:1.1110495e-05 6:1.1110495e-05 7:1.1110495e-05 8:1.1110495e-05 9:0.00034255569 10:0.99997783 11:1.1110742e-05 12:1.1110742e-05 13:0.0002509224 14:0.0041666669 
3 1:0.081222452 2:0.16669634 3:0.67428255 4:0.99995565 5:1.1110495e-05 6:1.1110495e-05 7:1.1110495e-05 8:1.1110495e-05 9:0.00034255569 10:0.99997783 11:1.1110742e-05 12:1.1110742e-05 13:0.0002509224 14:0.0041666669 
3 1:0.07941673 2:0.18026842 3:0.6717816 4:0.99995565 5:1.1110495e-05 6:1.1110495e-05 7:1.1110495e-05 8:1.1110495e-05 9:0.00034255569 10:0.99997783 11:1.1110742e-05 12:1.1110742e-05 13:0.0002509224 14:0.0041666669 
3 1:0.10550775 2:0.12324776 3:0.67803442 4:0.99995565 5:1.1110495e-05 6:1.1110495e-05 7:1.1110495e-05 8:1.1110495e-05 9:0.00034255569 10:0.99997783 11:1.1110742e-05 12:1.1110742e-05 13:0.0002509224 14:0.0046568625 
3 1:0.090814471 2:0.1068612 3:0.54851866 4:0.99773353 5:1.1110495e-05 6:1.1110495e-05 7:1.1110495e-05 8:0.0022332096 9:0.010113061 10:0.99997783 11:1.1110742e-05 12:1.1110742e-05 13:0.0002509224 14:0.0046568625 
3 1:0.10785919 2:0.11369641 3:0.59250152 4:0.9966225 5:0.0033442592 6:1.1110495e-05 7:1.1110495e-05 8:1.1110495e-05 9:0.014176379 10:0.99997783 11:1.1110742e-05 12:1.1110742e-05 13:0.0002509224 14:0.0046568625 
3 1:0.11269011 2:0.13432723 3:0.59576112 4:0.9899562 5:0.010010556 6:1.1110495e-05 7:1.1110495e-05 8:1.1110495e-05 9:0.035082549 10:0.99997783 11:1.1110742e-05 12:1.1110742e-05 13:0.0002509224 14:0.0046568625 
3 1:0.089226834 2:0.14156461 3:0.57328612 4:0.99995565 5:1.1110495e-05 6:1.1110495e-05 7:1.1110495e-05 8:1.1110495e-05 9:0.00034255569 10:0.99997783 11:1.1110742e-05 12:1.1110742e-05 13:0.0002509224 14:0.0046568625 
3 1:0.090492375 2:0.094455883 3:0.65263164 4:0.99995565 5:1.1110495e-05 6:1.1110495e-05 7:1.1110495e-05 8:1.1110495e-05 9:0.00034255569 10:0.99997783 11:1.1110742e-05 12:1.1110742e-05 13:0.0002509224 14:0.0046568625 
3 1:0.092164755 2:0.12279725 3:0.6532678 4:0.99995565 5:1.1110495e-05 6:1.1110495e-05 7:1.1110495e-05 8:1.1110495e-05 9:0.00034255569 10:0.99997783 11:1.1110742e-05 12:1.1110742e-05 13:0.0002509224 14:0.0046568625 
3 1:0.087293565 2:0.10931118 3:0.72182435 4:0.99995565 5:1.1110495e-05 6:1.1110495e-05 7:1.1110495e-05 8:1.1110495e-05 9:0.00034255569 10:0.99997783 11:1.1110742e-05 12:1.1110742e-05 13:0.0002509224 14:0.0046568625 
3 1:0.093183495 2:0.14292043 3:0.60277563 4:0.99995565 5:1.1110495e-05 6:1.1110495e-05 7:1.1110495e-05 8:1.1110495e-05 9:0.00034255569 10:0.99997783 11:1.1110742e-05 12:1.1110742e-05 13:0.0002509224 14:0.0046568625 
3 1:0.093982741 2:0.15538119 3:0.65554661 4:0.99995565 5:1.1110495e-05 6:1.1110495e-05 7:1.1110495e-05 8:1.1110495e-05 9:0.00034255569 10:0.99997783 11:1.1110742e-05 12:1.1110742e-05 13:0.0002509224 14:0.0046568625 
3 1:0.089168116 2:0.1560812 3:0.666457 4:0.99995565 5:1.1110495e-05 6:1.1110495e-05 7:1.1110495e-05 8:1.1110495e-05 9:0.00034255569 10:0.99997783 11:1.1110742e-05 12:1.1110742e-05 13:0.0002509224 14:0.0046568625 
3 1:0.086124606 2:0.16443086 3:0.66822588 4:0.99995565 5:1.1110495e-05 6:1.1110495e-05 7:1.1110495e-05 8:1.1110495e-05 9:0.00034255569 10:0.99997783 11:1.1110742e-05 12:1.1110742e-05 13:0.0002509224 14:0.0046568625 
3 1:0.083625957 2:0.16962054 3:0.66853529 4:0.99995565 5:1.1110495e-05 6:1.1110495e-05 7:1.1110495e-05 8:1.1110495e-05 9:0.00034255569 10:0.99997783 11:1.1110742e-05 12:1.1110742e-05 13:0.0002509224 14:0.0046568625 
3 1:0.082824036 2:0.16728073 3:0.66763335 4:0.99995565 5:1.1110495e-05 6:1.1110495e-05 7:1.1110495e-05 8:1.1110495e-05 9:0.00034255569 10:0.99997783 11:1.1110742e-05 12:1.1110742e-05 13:0.0002509224 14:0.0046568625 
3 1:0.080488719 2:0.16989484 3:0.66443908 4:0.99995565 5:1.1110495e-05 6:1.1110495e-05 7:1.1110495e-05 8:1.1110495e-05 9:0.00034255569 10:0.99997783 11:1.1110742e-05 12:1.1110742e-05 13:0.0002509224 14:0.0046568625 
3 1:0.077896662 2:0.18421252 3:0.66231328 4:0.99995565 5:1.1110495e-05 6:1.1110495e-05 7:1.1110495e-05 8:1.1110495e-05 9:0.00034255569 10:0.99997783 11:1.1110742e-05 12:1.1110742e-05 13:0.0002509224 14:0.0046568625 
3 1:0.097980298 2:0.087474756 3:0.70873058 4:0.99995565 5:1.1110495e-05 6:1.1110495e-05 7:1.1110495e-05 8:1.1110495e-05 9:0.00034255569 10:0.99997783 11:1.1110742e-05 12:1.1110742e-05 13:0.0002509224 14:0.005147059 
3 1:0.10378198 2:0.086671285 3:0.71622062 4:0.99995565 5:1.1110495e-05 6:1.1110495e-05 7:1.1110495e-05 8:1.1110495e-05 9:0.00034255569 10:0.99997783 11:1.1110742e-05 12:1.1110742e-05 13:0.0002509224 14:0.005147059 
3 1:0.11124476 2:0.090192609 3:0.71730602 4:0.99995565 5:1.1110495e-05 6:1.1110495e-05 7:1.1110495e-05 8:1.1110495e-05 9:0.00034255569 10:0.99997783 11:1.1110742e-05 12:1.1110742e-05 13:0.0002509224 14:0.005147059 
3 1:0.10634709 2:0.089680471 3:0.73344922 4:0.99995565 5:1.1110495e-05 6:1.1110495e-05 7:1.1110495e-05 8:1.1110495e-05 9:0.00034255569 10:0.99997783 11:1.1110742e-05 12:1.1110742e-05 13:0.0002509224 14:0.005147059 
3 1:0.11554425 2:0.070866913 3:0.75715786 4:0.99995565 5:1.1110495e-05 6:1.1110495e-05 7:1.1110495e-05 8:1.1110495e-05 9:0.00034255569 10:0.99997783 11:1.1110742e-05 12:1.1110742e-05 13:0.0002509224 14:0.005147059 
3 1:0.10888199 2:0.14094362 3:0.65261418 4:0.99995565 5:1.1110495e-05 6:1.1110495e-05 7:1.1110495e-05 8:1.1110495e-05 9:0.00034255569 10:0.99997783 11:1.1110742e-05 12:1.1110742e-05 13:0.0002509224 14:0.005147059 
3 1:0.12482941 2:0.068229645 3:0.71742827 4:0.99995565 5:1.1110495e-05 6:1.1110495e-05 7:1.1110495e-05 8:1.1110495e-05 9:0.00034255569 10:0.99997783 11:1.1110742e-05 12:1.1110742e-05 13:0.0002509224 14:0.005147059 
3 1:0.13407156 2:0.076153979 3:0.66278815 4:0.99995565 5:1.1110495e-05 6:1.1110495e-05 7:1.1110495e-05 8:1.1110495e-05 9:0.00034255569 10:0.99997783 11:1.1110742e-05 12:1.1110742e-05 13:0.0002509224 14:0.005147059 
3 1:0.11871134 2:0.14219676 3:0.57035375 4:0.99995565 5:1.1110495e-05 6:1.1110495e-05 7:1.1110495e-05 8:1.1110495e-05 9:0.00034255569 10:0.99997783 11:1.1110742e-05 12:1.1110742e-05 13:0.0002509224 14:0.005147059 
3 1:0.10503905 2:0.098167025 3:0.5865829 4:0.95662463 5:0.031120494 6:0.004455308 7:0.004455308 8:0.0033442588 9:0.13526984 10:0.99997783 11:1.1110742e-05 12:1.1110742e-05 13:0.0002509224 14:0.005147059 
3 1:0.11711463 2:0.13438122 3:0.55882388 4:0.99217826 5:0.0077884565 6:1.1110495e-05 7:1.1110495e-05 8:1.1110495e-05 9:0.028572174 10:0.99997783 11:1.1110742e-05 12:1.1110742e-05 13:0.0002509224 14:0.005147059 
3 1:0.093461238 2:0.11992984 3:0.56338125 4:0.99995565 5:1.1110495e-05 6:1.1110495e-05 7:1.1110495e-05 8:1.1110495e-05 9:0.00034255569 10:0.99997783 11:1.1110742e-05 12:1.1110742e-05 13:0.0002509224 14:0.005147059 
3 1:0.093229689 2:0.12936437 3:0.60503298 4:0.99995565 5:1.1110495e-05 6:1.1110495e-05 7:1.1110495e-05 8:1.1110495e-05 9:0.00034255569 10:0.99997783 11:1.1110742e-05 12:1.1110742e-05 13:0.0002509224 14:0.005147059 
3 1:0.093576804 2:0.14311808 3:0.61737716 4:0.99995565 5:1.1110495e-05 6:1.1110495e-05 7:1.1110495e-05 8:1.1110495e-05 9:0.00034255569 10:0.99997783 11:1.1110742e-05 12:1.1110742e-05 13:0.0002509224 14:0.005147059 
3 1:0.082757644 2:0.12452694 3:0.71041691 4:0.99995565 5:1.1110495e-05 6:1.1110495e-05 7:1.1110495e-05 8:1.1110495e-05 9:0.00034255569 10:0.99997783 11:1.1110742e-05 12:1.1110742e-05 13:0.0002509224 14:0.005147059 
3 1:0.36155874 2:0.13039775 3:0.15480538 4:0.5688684 5:0.0033442588 6:0.014454752 7:0.27444032 8:0.13889228 9:0.64012754 10:0.99997783 11:1.1110742e-05 12:1.1110742e-05 13:0.0002509224 14:0.005147059 
3 1:0.090879604 2:0.15126149 3:0.56501544 4:0.99995565 5:1.1110495e-05 6:1.1110495e-05 7:1.1110495e-05 8:1.1110495e-05 9:0.00034255569 10:0.99997783 11:1.1110742e-05 12:1.1110742e-05 13:0.0002509224 14:0.005147059 
3 1:0.095514603 2:0.16340712 3:0.6450147 4:0.99995565 5:1.1110495e-05 6:1.1110495e-05 7:1.1110495e-05 8:1.1110495e-05 9:0.00034255569 10:0.99997783 11:1.1110742e-05 12:1.1110742e-05 13:0.0002509224 14:0.005147059 
3 1:0.091021746 2:0.1701522 3:0.65305811 4:0.99995565 5:1.1110495e-05 6:1.1110495e-05 7:1.1110495e-05 8:1.1110495e-05 9:0.00034255569 10:0.99997783 11:1.1110742e-05 12:1.1110742e-05 13:0.0002509224 14:0.005147059 
3 1:0.085141577 2:0.17416695 3:0.65751141 4:0.99995565 5:1.1110495e-05 6:1.1110495e-05 7:1.1110495e-05 8:1.1110495e-05 9:0.00034255569 10:0.99997783 11:1.1110742e-05 12:1.1110742e-05 13:0.0002509224 14:0.005147059 
3 1:0.084245071 2:0.1742623 3:0.65789044 4:0.99995565 5:1.1110495e-05 6:1.1110495e-05 7:1.1110495e-05 8:1.1110495e-05 9:0.00034255569 10:0.99997783 11:1.1110742e-05 12:1.1110742e-05 13:0.0002509224 14:0.005147059 
3 1:0.084542379 2:0.1755802 3:0.6537509 4:0.99995565 5:1.1110495e-05 6:1.1110495e-05 7:1.1110495e-05 8:1.1110495e-05 9:0.00034255569 10:0.99997783 11:1.1110742e-05 12:1.1110742e-05 13:0.0002509224 14:0.005147059 
3 1:0.082260273 2:0.17419147 3:0.65016532 4:0.99995565 5:1.1110495e-05 6:1.1110495e-05 7:1.1110495e-05 8:1.1110495e-05 9:0.00034255569 10:0.99997783 11:1.1110742e-05 12:1.1110742e-05 13:0.0002509224 14:0.005147059 
3 1:0.080969676 2:0.18490736 3:0.6448409 4:0.99995565 5:1.1110495e-05 6:1.1110495e-05 7:1.1110495e-05 8:1.1110495e-05 9:0.00034255569 10:0.99997783 11:1.1110742e-05 12:1.1110742e-05 13:0.0002509224 14:0.005147059 
3 1:0.10010776 2:0.089580648 3:0.6677773 4:0.99995565 5:1.1110495e-05 6:1.1110495e-05 7:1.1110495e-05 8:1.1110495e-05 9:0.00034255569 10:0.99997783 11:1.1110742e-05 12:1.1110742e-05 13:0.0002509224 14:0.0056372546 
3 1:0.10701582 2:0.087888367 3:0.68720597 4:0.99995565 5:1.1110495e-05 6:1.1110495e-05 7:1.1110495e-05 8:1.1110495e-05 9:0.00034255569 10:0.99997783 11:1.1110742e-05 12:1.1110742e-05 13:0.0002509224 14:0.0056372546 
3 1:0.11347726 2:0.086626127 3:0.69767642 4:0.99995565 5:1.1110495e-05 6:1.1110495e-05 7:1.1110495e-05 8:1.1110495e-05 9:0.00034255569 10:0.99997783 11:1.1110742e-05 12:1.1110742e-05 13:0.0002509224 14:0.0056372546 
3 1:0.11191756 2:0.081895143 3:0.71559799 4:0.99995565 5:1.1110495e-05 6:1.1110495e-05 7:1.1110495e-05 8:1.1110495e-05 9:0.00034255569 10:0.99997783 11:1.1110742e-05 12:1.1110742e-05 13:0.0002509224 14:0.0056372546 
3 1:0.12457237 2:0.074446134 3:0.74031687 4:0.99995565 5:1.1110495e-05 6:1.1110495e-05 7:1.1110495e-05 8:1.1110495e-05 9:0.00034255569 10:0.99997783 11:1.1110742e-05 12:1.1110742e-05 13:0.0002509224 14:0.0056372546 
3 1:0.11149234 2:0.13659719 3:0.61374778 4:0.99995565 5:1.1110495e-05 6:1.1110495e-05 7:1.1110495e-05 8:1.1110495e-05 9:0.00034255569 10:0.99997783 11:1.1110742e-05 12:1.1110742e-05 13:0.0002509224 14:0.0056372546 
3 1:0.12841152 2:0.078509912 3:0.69623441 4:0.99995565 5:1.1110495e-05 6:1.1110495e-05 7:1.1110495e-05 8:1.1110495e-05 9:0.00034255569 10:0.99997783 11:1.1110742e-05 12:1.1110742e-05 13:0.0002509224 14:0.0056372546 
3 1:0.13002782 2:0.090152629 3:0.62923712 4:0.99995565 5:1.1110495e-05 6:1.1110495e-05 7:1.1110495e-05 8:1.1110495e-05 9:0.00034255569 10:0.99997783 11:1.1110742e-05 12:1.1110742e-05 13:0.0002509224 14:0.0056372546 
3 1:0.12166798 2:0.16551811 3:0.55634058 4:0.99995565 5:1.1110495e-05 6:1.1110495e-05 7:1.1110495e-05 8:1.1110495e-05 9:0.00034255569 10:0.99997783 11:1.1110742e-05 12:1.1110742e-05 13:0.0002509224 14:0.0056372546 
3 1:0.096604146 2:0.15271661 3:0.5202046 4:0.99106723 5:0.0088995062 6:1.1110495e-05 7:1.1110495e-05 8:1.1110495e-05 9:0.031870954 10:0.99997783 11:1.1110742e-05 12:1.1110742e-05 13:0.0002509224 14:0.0056372546 
3 1:0.12991844 2:0.064006731 3:0.60211319 4:0.96662414 5:0.033342596 6:1.1110495e-05 7:1.1110495e-05 8:1.1110495e-05 9:0.09108045 10:0.99997783 11:1.1110742e-05 12:1.1110742e-05 13:0.0002509224 14:0.0056372546 
3 1:0.10239017 2:0.074100554 3:0.50166452 4:0.99995565 5:1.1110495e-05 6:1.1110495e-05 7:1.1110495e-05 8:1.1110495e-05 9:0.00034255569 10:0.99997783 11:1.1110742e-05 12:1.1110742e-05 13:0.0002509224 14:0.0056372546 
3 1:0.091916502 2:0.11252043 3:0.56372082 4:0.99995565 5:1.1110495e-05 6:1.1110495e-05 7:1.1110495e-05 8:1.1110495e-05 9:0.00034255569 10:0.99997783 11:1.1110742e-05 12:1.1110742e-05 13:0.0002509224 14:0.0056372546 
3 1:0.09897171 2:0.14639975 3:0.5628162 4:0.99995565 5:1.1110495e-05 6:1.1110495e-05 7:1.1110495e-05 8:1.1110495e-05 9:0.00034255569 10:0.99997783 11:1.1110742e-05 12:1.1110742e-05 13:0.0002509224 14:0.0056372546 
3 1:0.095522307 2:0.15405072 3:0.58166951 4:0.99995565 5:1.1110495e-05 6:1.1110495e-05 7:1.1110495e-05 8:1.1110495e-05 9:0.00034255569 10:0.99997783 11:1.1110742e-05 12:1.1110742e-05 13:0.0002509224 14:0.0056372546 
3 1:0.089837432 2:0.14221291 3:0.69338429 4:0.99995565 5:1.1110495e-05 6:1.1110495e-05 7:1.1110495e-05 8:1.1110495e-05 9:0.00034255569 10:0.99997783 11:1.1110742e-05 12:1.1110742e-05 13:0.0002509224 14:0.0056372546 
3 1:0.39052969 2:0.13601436 3:0.1471542 4:0.57220149 5:0.0077884551 6:0.0011221598 7:0.18333425 8:0.23555355 9:0.6315617 10:0.99997783 11:1.1110742e-05 12:1.1110742e-05 13:0.0002509224 14:0.0056372546 
3 1:0.093042642 2:0.1578825 3:0.5184058 4:0.99995565 5:1.1110495e-05 6:1.1110495e-05 7:1.1110495e-05 8:1.1110495e-05 9:0.00034255569 10:0.99997783 11:1.1110742e-05 12:1.1110742e-05 13:0.0002509224 14:0.0056372546 
3 1:0.092976056 2:0.16988373 3:0.62814379 4:0.99995565 5:1.1110495e-05 6:1.1110495e-05 7:1.1110495e-05 8:1.1110495e-05 9:0.00034255569 10:0.99997783 11:1.1110742e-05 12:1.1110742e-05 13:0.0002509224 14:0.0056372546 
3 1:0.091398552 2:0.17556703 3:0.63007438 4:0.99995565 5:1.1110495e-05 6:1.1110495e-05 7:1.1110495e-05 8:1.1110495e-05 9:0.00034255569 10:0.99997783 11:1.1110742e-05 12:1.1110742e-05 13:0.0002509224 14:0.0056372546 
3 1:0.089945972 2:0.17979334 3:0.62968653 4:0.99995565 5:1.1110495e-05 6:1.1110495e-05 7:1.1110495e-05 8:1.1110495e-05 9:0.00034255569 10:0.99997783 11:1.1110742e-05 12:1.1110742e-05 13:0.0002509224 14:0.0056372546 
3 1:0.085915677 2:0.1816237 3:0.62552524 4:0.99995565 5:1.1110495e-05 6:1.1110495e-05 7:1.1110495e-05 8:1.1110495e-05 9:0.00034255569 10:0.99997783 11:1.1110742e-05 12:1.1110742e-05 13:0.0002509224 14:0.0056372546 
3 1:0.083405353 2:0.18311787 3:0.61705869 4:0.99995565 5:1.1110495e-05 6:1.1110495e-05 7:1.1110495e-05 8:1.1110495e-05 9:0.00034255569 10:0.99997783 11:1.1110742e-05 12:1.1110742e-05 13:0.0002509224 14:0.0056372546 
3 1:0.0831571 2:0.18462026 3:0.59263229 4:0.99995565 5:1.1110495e-05 6:1.1110495e-05 7:1.1110495e-05 8:1.1110495e-05 9:0.00034255569 10:0.99997783 11:1.1110742e-05 12:1.1110742e-05 13:0.0002509224 14:0.0056372546 
3 1:0.088639036 2:0.19012499 3:0.55663747 4:0.99995565 5:1.1110495e-05 6:1.1110495e-05 7:1.1110495e-05 8:1.1110495e-05 9:0.00034255569 10:0.99997783 11:1.1110742e-05 12:1.1110742e-05 13:0.0002509224 14:0.0056372546 
3 1:0.3207607 2:0.089186102 3:0.21024668 4:0.68108439 5:0.012232654 6:1.1110494e-05 7:0.12222654 8:0.18444531 9:0.54942828 10:0.99997783 11:1.1110742e-05 12:1.1110742e-05 13:0.0002509224 14:0.0061274511 
3 1:0.26198131 2:0.070809223 3:0.24983215 4:0.7321927 5:0.035564695 6:0.0222321 7:0.10889396 8:0.10111661 9:0.56210768 10:0.99997783 11:1.1110742e-05 12:1.1110742e-05 13:0.0002509224 14:0.0061274511 
3 1:0.21107183 2:0.060996387 3:0.28159609 4:0.82774293 5:0.015565803 6:0.0066774073 7:0.034453645 8:0.11556026 9:0.3853204 10:0.99997783 11:1.1110742e-05 12:1.1110742e-05 13:0.0002509224 14:0.0061274511 
3 1:0.18883359 2:0.068367675 3:0.3029471 4:0.86662966 5:0.0033442588 6:1.1110494e-05 7:0.034453642 8:0.095561355 9:0.30051777 10:0.99997783 11:1.1110742e-05 12:1.1110742e-05 13:0.0002509224 14:0.0061274511 
3 1:0.18396141 2:0.063661151 3:0.34359235 4:0.85996336 5:0.018898951 6:0.0022332093 7:0.025565246 8:0.093339257 9:0.33146057 10:0.99997783 11:1.1110742e-05 12:1.1110742e-05 13:0.0002509224 14:0.0061274511 
3 1:0.096220434 2:0.13791862 3:0.39132249 4:0.99106723 5:1.1110495e-05 6:1.1110495e-05 7:1.1110495e-05 8:0.0088995062 9:0.03187095 10:0.99997783 11:1.1110742e-05 12:1.1110742e-05 13:0.0002509224 14:0.0061274511 
3 1:0.11539796 2:0.11883394 3:0.39252087 4:0.99995565 5:1.1110495e-05 6:1.1110495e-05 7:1.1110495e-05 8:1.1110495e-05 9:0.00034255569 10:0.99997783 11:1.1110742e-05 12:1.1110742e-05 13:0.0002509224 14:0.0061274511 
3 1:0.12764953 2:0.075815789 3:0.45834196 4:0.97440141 5:0.012232654 6:1.1110494e-05 7:0.0011221599 8:0.012232654 9:0.087455183 10:0.99997783 11:1.1110742e-05 12:1.1110742e-05 13:0.0002509224 14:0.0061274511 
3 1:0.13049726 2:0.096391857 3:0.50190586 4:0.99995565 5:1.1110495e-05 6:1.1110495e-05 7:1.1110495e-05 8:1.1110495e-05 9:0.00034255569 10:0.99997783 11:1.1110742e-05 12:1.1110742e-05 13:0.0002509224 14:0.0061274511 
3 1:0.1311654 2:0.11608468 3:0.47304812 4:0.99551141 5:0.0044553084 6:1.1110495e-05 7:1.1110495e-05 8:1.1110495e-05 9:0.018005198 10:0.99997783 11:1.1110742e-05 12:1.1110742e-05 13:0.0002509224 14:0.0061274511 
3 1:0.10934772 2:0.11063667 3:0.48756289 4:0.99995565 5:1.1110495e-05 6:1.1110495e-05 7:1.1110495e-05 8:1.1110495e-05 9:0.00034255569 10:0.99997783 11:1.1110742e-05 12:1.1110742e-05 13:0.0002509224 14:0.0061274511 
3 1:0.1246665 2:0.084447697 3:0.57492739 4:0.99995565 5:1.1110495e-05 6:1.1110495e-05 7:1.1110495e-05 8:1.1110495e-05 9:0.00034255569 10:0.99997783 11:1.1110742e-05 12:1.1110742e-05 13:0.0002509224 14:0.0061274511 
3 1:0.11070479 2:0.062568597 3:0.59459722 4:0.99995565 5:1.1110495e-05 6:1.1110495e-05 7:1.1110495e-05 8:1.1110495e-05 9:0.00034255569 10:0.99997783 11:1.1110742e-05 12:1.1110742e-05 13:0.0002509224 14:0.0061274511 
3 1:0.10581892 2:0.11507765 3:0.52437508 4:0.99995565 5:1.1110495e-05 6:1.1110495e-05 7:1.1110495e-05 8:1.1110495e-05 9:0.00034255569 10:0.99997783 11:1.1110742e-05 12:1.1110742e-05 13:0.0002509224 14:0.0061274511 
3 1:0.10582472 2:0.1326631 3:0.46357587 4:0.99995565 5:1.1110495e-05 6:1.1110495e-05 7:1.1110495e-05 8:1.1110495e-05 9:0.00034255569 10:0.99997783 11:1.1110742e-05 12:1.1110742e-05 13:0.0002509224 14:0.0061274511 
3 1:0.10826942 2:0.13600244 3:0.40851712 4:0.97329038 5:0.022232099 6:1.1110494e-05 7:1.1110494e-05 8:0.004455308 9:0.08409328 10:0.99997783 11:1.1110742e-05 12:1.1110742e-05 13:0.0002509224 14:0.0061274511 
3 1:0.12871726 2:0.12301174 3:0.4210718 4:0.94440311 5:0.0177879 6:1.1110494e-05 7:0.007788456 8:0.030009445 9:0.16704872 10:0.99997783 11:1.1110742e-05 12:1.1110742e-05 13:0.0002509224 14:0.0061274511 
3 1:0.37011948 2:0.10300136 3:0.18333676 4:0.56553525 5:0.012232654 6:0.027787345 7:0.2633298 8:0.13111494 9:0.67945325 10:0.99997783 11:1.1110742e-05 12:1.1110742e-05 13:0.0002509224 14:0.0061274511 
3 1:0.11937551 2:0.11301792 3:0.28812823 4:0.97662354 5:0.0088995053 6:1.1110494e-05 7:1.1110494e-05 8:0.014454752 9:0.078671448 10:0.99997783 11:1.1110742e-05 12:1.1110742e-05 13:0.0002509224 14:0.0061274511 
3 1:0.10487564 2:0.1113579 3:0.3000499 4:0.98217881 5:0.0055663581 6:1.1110495e-05 7:1.1110495e-05 8:0.012232655 9:0.062554926 10:0.99997783 11:1.1110742e-05 12:1.1110742e-05 13:0.0002509224 14:0.0061274511 
3 1:0.13858803 2:0.12027652 3:0.24909568 4:0.93662578 5:0.018898953 6:1.1110495e-05 7:1.1110495e-05 8:0.044453088 9:0.17085208 10:0.99997783 11:1.1110742e-05 12:1.1110742e-05 13:0.0002509224 14:0.0061274511 
3 1:0.1929478 2:0.11198313 3:0.2090176 4:0.87996227 5:0.0066774073 6:1.1110495e-05 7:0.0022332096 8:0.11111606 9:0.25094137 10:0.99997783 11:1.1110742e-05 12:1.1110742e-05 13:0.0002509224 14:0.0061274511 
3 1:0.2889533 2:0.11371273 3:0.17598113 4:0.74330318 5:0.0033442592 6:1.1110495e-05 7:0.013343705 8:0.2399978 9:0.39753035 10:0.99997783 11:1.1110742e-05 12:1.1110742e-05 13:0.0002509224 14:0.0061274511 
3 1:0.20358583 2:0.12540416 3:0.14346731 4:0.85107499 5:0.0088995062 6:1.1110495e-05 7:0.003344259 8:0.1366702 9:0.2923077 10:0.99997783 11:1.1110742e-05 12:1.1110742e-05 13:0.0002509224 14:0.0061274511 
3 1:0.45159093 2:0.12031935 3:0.11865672 4:0.53664798 5:1.1110494e-05 6:1.1110494e-05 7:0.047786236 8:0.41554359 9:0.52472103 10:0.99997783 11:1.1110742e-05 12:1.1110742e-05 13:0.0002509224 14:0.0061274511 
3 1:0.094126731 2:0.10716974 3:0.51780838 4:0.99773353 5:1.1110495e-05 6:1.1110495e-05 7:1.1110495e-05 8:0.0022332096 9:0.010113061 10:0.99997783 11:1.1110742e-05 12:1.1110742e-05 13:0.0002509224 14:0.0066176476 
3 1:0.092298016 2:0.16060907 3:0.40921375 4:0.99995565 5:1.1110495e-05 6:1.1110495e-05 7:1.1110495e-05 8:1.1110495e-05 9:0.00034255569 10:0.99997783 11:1.1110742e-05 12:1.1110742e-05 13:0.0002509224 14:0.0066176476 
3 1:0.091315784 2:0.16630961 3:0.3783685 4:0.99995565 5:1.1110495e-05 6:1.1110495e-05 7:1.1110495e-05 8:1.1110495e-05 9:0.00034255569 10:0.99997783 11:1.1110742e-05 12:1.1110742e-05 13:0.0002509224 14:0.0066176476 
3 1:0.086555272 2:0.16774803 3:0.34149733 4:0.99995565 5:1.1110495e-05 6:1.1110495e-05 7:1.1110495e-05 8:1.1110495e-05 9:0.00034255569 10:0.99997783 11:1.1110742e-05 12:1.1110742e-05 13:0.0002509224 14:0.0066176476 
3 1:0.092762671 2:0.16522473 3:0.31276554 4:0.99773347 5:0.0011221599 6:1.1110494e-05 7:1.1110494e-05 8:0.0011221599 9:0.011036143 10:0.99997783 11:1.1110742e-05 12:1.1110742e-05 13:0.0002509224 14:0.0066176476 
0.05283428342270279 1:0.32619646 2:0.14757971 3:0.73647434 4:0.46998501 5:1.1110494e-05 6:0.43776456 7:0.091117159 8:0.0011221599 9:0.58562082 10:0.99664456 11:0.003344333 12:1.1110741e-05 13:0.020517599 14:0.00073529413 
0.06797831445710524 1:0.64275187 2:0.070305288 3:0.87844914 4:1.1110495e-05 5:1.1110495e-05 6:0.18666743 7:0.8132993 8:1.1110495e-05 9:0.299335 10:0.99775565 11:0.0022332589 12:1.1110741e-05 13:0.014564781 14:0.0012254902 
3 1:0.52077997 2:0.45945394 3:0.60713702 4:0.00112216 5:0.00112216 6:0.99773353 7:1.1110495e-05 8:1.1110495e-05 9:0.011036105 10:0.1288957 11:0.87109321 12:1.1110741e-05 13:0.34991267 14:0.0012254902 
0.6975130190684041 1:0.56097585 2:0.29647523 3:0.80051261 4:1.1110494e-05 5:1.1110494e-05 6:0.67886227 7:0.32110438 8:1.1110494e-05 9:0.39026031 10:0.52332699 11:0.47666189 12:1.1110741e-05 13:0.63005674 14:0.0017156863 
3 1:0.47648576 2:0.56138992 3:0.40782869 4:1.1110495e-05 5:1.1110495e-05 6:0.99995559 7:1.1110495e-05 8:1.1110495e-05 9:0.00034259268 10:1.1110742e-05 11:0.99886674 12:0.0011221849 13:0.0080845477 14:0.0017156863 
3 1:0.45714718 2:0.54307067 3:0.37346247 4:1.1110495e-05 5:1.1110495e-05 6:0.99995559 7:1.1110495e-05 8:1.1110495e-05 9:0.00034259268 10:1.1110742e-05 11:0.99997783 12:1.1110742e-05 13:0.0002509224 14:0.0017156863 
3 1:0.432639 2:0.48864362 3:0.34368926 4:1.1110495e-05 5:1.1110495e-05 6:0.99995559 7:1.1110495e-05 8:1.1110495e-05 9:0.00034259268 10:1.1110742e-05 11:0.99997783 12:1.1110742e-05 13:0.0002509224 14:0.0017156863 
0.5666415026945101 1:0.53287965 2:0.35375503 3:0.74290943 4:1.1110494e-05 5:1.1110494e-05 6:0.89329481 7:0.10667185 8:1.1110494e-05 9:0.21119781 10:0.44888502 11:0.54888171 12:0.0022332589 13:0.6393913 14:0.0022058825 
1.112108784312058 1:0.57312399 2:0.25415254 3:0.59352076 4:0.0011221599 5:1.1110494e-05 6:0.72219324 7:0.26888508 8:0.007788456 9:0.3937912 10:0.74443072 11:0.25555816 12:1.1110741e-05 13:0.51746553 14:0.0022058825 
3 1:0.34632564 2:0.38907731 3:0.53986239 4:0.28332874 5:0.020010002 6:0.69663912 7:1.1110495e-05 8:1.1110495e-05 9:0.42727268 10:0.33555549 11:0.66443342 12:1.1110741e-05 13:0.5808934 14:0.0022058825 
0.9935958602043632 1:0.51480108 2:0.56522632 3:0.58702469 4:1.1110494e-05 5:1.1110494e-05 6:0.9988445 7:0.0011221599 8:1.1110494e-05 9:0.00568977 10:0.13222894 11:0.82665026 12:0.041120857 13:0.50620878 14:0.0026960785 
3 1:0.50182199 2:0.63661593 3:0.49756452 4:1.1110495e-05 5:1.1110495e-05 6:0.99995559 7:1.1110495e-05 8:1.1110495e-05 9:0.00034259268 10:1.1110741e-05 11:0.92775798 12:0.072230928 13:0.2362151 14:0.0031862748 
3 1:0.50180715 2:0.61274457 3:0.53032398 4:1.1110495e-05 5:1.1110495e-05 6:0.99995559 7:1.1110495e-05 8:1.1110495e-05 9:0.00034259268 10:1.1110742e-05 11:0.99886674 12:0.0011221849 13:0.0080845477 14:0.0031862748 
3 1:0.40361017 2:0.4149864 3:0.54306245 4:0.1933337 5:0.057785679 6:0.74774736 7:1.1110494e-05 8:0.0011221599 9:0.43963927 10:0.35555482 11:0.64443409 12:1.1110741e-05 13:0.59252071 14:0.0031862748 
3 1:0.32321146 2:0.31285867 3:0.63035309 4:0.38554525 5:0.030009445 6:0.57109052 7:0.0066774068 8:0.0066774068 9:0.53404123 10:0.53110451 11:0.46888438 12:1.1110741e-05 13:0.62928516 14:0.0031862748 
3 1:0.39244714 2:0.44633955 3:0.51525503 4:0.18777846 5:0.025565246 6:0.78663409 7:1.1110494e-05 8:1.1110494e-05 9:0.37083316 10:0.24333635 11:0.75665259 12:1.1110742e-05 13:0.50521004 14:0.0031862748 
3 1:0.43614498 2:0.41329515 3:0.52738911 4:0.12889284 5:0.050008334 6:0.81663239 7:0.0022332093 8:0.0022332093 9:0.37687829 10:0.3955535 11:0.60443544 12:1.1110742e-05 13:0.61104339 14:0.0036764706 
1.613747173775458 1:0.4476794 2:0.49640316 3:0.47192866 4:0.065563031 5:0.0066774073 6:0.92773741 7:1.1110495e-05 8:1.1110495e-05 9:0.17517272 10:0.11778496 11:0.88220394 12:1.1110741e-05 13:0.33007532 14:0.0036764706 
3 1:0.41876942 2:0.44166481 3:0.47967651 4:0.15444697 5:0.05556358 6:0.78996724 7:1.1110494e-05 8:1.1110494e-05 9:0.39490974 10:0.27777964 11:0.71443176 12:0.0077886293 13:0.57697368 14:0.0041666669 
3 1:0.18466179 2:0.25057641 3:0.59219599 4:0.70330542 5:0.048897289 6:0.24777514 7:1.1110495e-05 8:1.1110495e-05 9:0.46045238 10:0.71554279 11:0.28111285 12:0.003344333 13:0.56006867 14:0.0041666669 
3 1:0.11802742 2:0.19729988 3:0.50585204 4:0.99995565 5:1.1110495e-05 6:1.1110495e-05 7:1.1110495e-05 8:1.1110495e-05 9:0.00034255569 10:0.99997783 11:1.1110742e-05 12:1.1110742e-05 13:0.0002509224 14:0.0041666669 
3 1:0.11411391 2:0.2288775 3:0.38697475 4:0.99995565 5:1.1110495e-05 6:1.1110495e-05 7:1.1110495e-05 8:1.1110495e-05 9:0.00034255569 10:0.99775565 11:0.0022332589 12:1.1110741e-05 13:0.014564781 14:0.0041666669 
3 1:0.4834491 2:0.56570333 3:0.43181545 4:1.1110495e-05 5:0.017787902 6:0.98217881 7:1.1110495e-05 8:1.1110495e-05 9:0.055742033 10:0.050009448 11:0.94997948 12:1.1110742e-05 13:0.18084662 14:0.0046568625 
3 1:0.48841488 2:0.60143137 3:0.4520376 4:1.1110495e-05 5:1.1110495e-05 6:0.99995559 7:1.1110495e-05 8:1.1110495e-05 9:0.00034259268 10:1.1110742e-05 11:0.99886674 12:0.0011221849 13:0.0080845477 14:0.0046568625 
3 1:0.44615451 2:0.48130181 3:0.41529304 4:0.078895621 5:0.053341486 6:0.86774075 7:1.1110495e-05 8:1.1110495e-05 9:0.2982811 10:0.17111652 11:0.82887238 12:1.1110741e-05 13:0.41669655 14:0.0046568625 
3 1:0.42432827 2:0.49067473 3:0.45224714 4:0.1144492 5:0.011121605 6:0.87440699 7:1.1110494e-05 8:1.1110494e-05 9:0.25830418 10:0.14889506 11:0.85109389 12:1.1110742e-05 13:0.38314125 14:0.0046568625 
3 1:0.076081842 2:0.13828629 3:0.85448509 4:0.99995565 5:1.1110495e-05 6:1.1110495e-05 7:1.1110495e-05 8:1.1110495e-05 9:0.00034255569 10:0.99997783 11:1.1110742e-05 12:1.1110742e-05 13:0.0002509224 14:0.0046568625 
3 1:0.17607644 2:0.16988744 3:0.6607182 4:0.69775015 5:0.08889506 6:0.21333259 7:1.1110494e-05 8:1.1110494e-05 9:0.49464497 10:0.80331767 11:0.19667122 12:1.1110741e-05 13:0.45137709 14:0.0046568625 
3 1:0.13892002 2:0.056437701 3:0.6308189 4:0.99995565 5:1.1110495e-05 6:1.1110495e-05 7:1.1110495e-05 8:1.1110495e-05 9:0.00034255569 10:0.99997783 11:1.1110742e-05 12:1.1110742e-05 13:0.0002509224 14:0.0046568625 
3 1:0.13330318 2:0.086110927 3:0.60878032 4:0.99995565 5:1.1110495e-05 6:1.1110495e-05 7:1.1110495e-05 8:1.1110495e-05 9:0.00034255569 10:0.99997783 11:1.1110742e-05 12:1.1110742e-05 13:0.0002509224 14:0.0046568625 
3 1:0.11848755 2:0.1829057 3:0.50233996 4:0.99995565 5:1.1110495e-05 6:1.1110495e-05 7:1.1110495e-05 8:1.1110495e-05 9:0.00034255569 10:0.99997783 11:1.1110742e-05 12:1.1110742e-05 13:0.0002509224 14:0.0046568625 
3 1:0.11685479 2:0.19963543 3:0.38263521 4:0.99995565 5:1.1110495e-05 6:1.1110495e-05 7:1.1110495e-05 8:1.1110495e-05 9:0.00034255569 10:0.99997783 11:1.1110742e-05 12:1.1110742e-05 13:0.0002509224 14:0.0046568625 
3 1:0.47669739 2:0.54866993 3:0.39063063 4:1.1110495e-05 5:0.018898953 6:0.98106778 7:1.1110495e-05 8:1.1110495e-05 9:0.058489613 10:0.05112052 11:0.94886839 12:1.1110741e-05 13:0.1838125 14:0.005147059 
3 1:0.47986695 2:0.57906985 3:0.40792894 4:1.1110495e-05 5:1.1110495e-05 6:0.99995559 7:1.1110495e-05 8:1.1110495e-05 9:0.00034259268 10:1.1110742e-05 11:0.99886674 12:0.0011221849 13:0.0080845477 14:0.005147059 
3 1:0.47470608 2:0.55918521 3:0.38923171 4:1.1110495e-05 5:1.1110495e-05 6:0.99995559 7:1.1110495e-05 8:1.1110495e-05 9:0.00034259268 10:1.1110742e-05 11:0.99997783 12:1.1110742e-05 13:0.0002509224 14:0.005147059 
3 1:0.46947142 2:0.56921428 3:0.3866742 4:1.1110495e-05 5:1.1110495e-05 6:0.99995559 7:1.1110495e-05 8:1.1110495e-05 9:0.00034259268 10:1.1110742e-05 11:0.99997783 12:1.1110742e-05 13:0.0002509224 14:0.005147059 
3 1:0.46400893 2:0.54875022 3:0.37125397 4:0.00112216 5:0.0022332096 6:0.99662244 7:1.1110495e-05 8:1.1110495e-05 9:0.015458702 10:0.005566481 11:0.99442244 12:1.1110741e-05 13:0.031479973 14:0.005147059 
0.2241755433906133 1:0.42071995 2:0.47161993 3:0.35704049 4:0.065563023 5:0.084450863 6:0.8499639 7:1.1110494e-05 8:1.1110494e-05 9:0.32669461 10:0.13667324 11:0.8633157 12:1.1110742e-05 13:0.36319852 14:0.005147059 
3 1:0.15737194 2:0.061345451 3:0.5845325 4:0.9221822 5:0.077784576 6:1.1110495e-05 7:1.1110495e-05 8:1.1110495e-05 9:0.17008154 10:0.99997783 11:1.1110742e-05 12:1.1110742e-05 13:0.0002509224 14:0.005147059 
3 1:0.11895799 2:0.189796 3:0.35844776 4:0.99995565 5:1.1110495e-05 6:1.1110495e-05 7:1.1110495e-05 8:1.1110495e-05 9:0.00034255569 10:0.99664456 11:0.003344333 12:1.1110741e-05 13:0.020517599 14:0.005147059 
3 1:0.11813981 2:0.28936198 3:0.26575872 4:0.99995565 5:1.1110495e-05 6:1.1110495e-05 7:1.1110495e-05 8:1.1110495e-05 9:0.00034255569 10:0.66887772 11:0.33111119 12:1.1110741e-05 13:0.57808942 14:0.005147059 
3 1:0.1261408 2:0.39050043 3:0.19644699 4:0.99995565 5:1.1110495e-05 6:1.1110495e-05 7:1.1110495e-05 8:1.1110495e-05 9:0.00034255569 10:0.050009448 11:0.94997948 12:1.1110742e-05 13:0.18084662 14:0.005147059 
3 1:0.12112889 2:0.36066431 3:0.23350132 4:0.99995565 5:1.1110495e-05 6:1.1110495e-05 7:1.1110495e-05 8:1.1110495e-05 9:0.00034255569 10:0.12778464 11:0.8722043 12:1.1110742e-05 13:0.34797525 14:0.005147059 
3 1:0.10143491 2:0.28740504 3:0.36927539 4:0.99995565 5:1.1110495e-05 6:1.1110495e-05 7:1.1110495e-05 8:1.1110495e-05 9:0.00034255569 10:0.87998182 11:0.12000712 12:1.1110742e-05 13:0.33412659 14:0.005147059 
3 1:0.089365497 2:0.14086591 3:0.56135947 4:0.99995565 5:1.1110495e-05 6:1.1110495e-05 7:1.1110495e-05 8:1.1110495e-05 9:0.00034255569 10:0.99997783 11:1.1110742e-05 12:1.1110742e-05 13:0.0002509224 14:0.005147059 
3 1:0.08498019 2:0.10028584 3:0.63385612 4:0.99995565 5:1.1110495e-05 6:1.1110495e-05 7:1.1110495e-05 8:1.1110495e-05 9:0.00034255569 10:0.99997783 11:1.1110742e-05 12:1.1110742e-05 13:0.0002509224 14:0.005147059 
3 1:0.099114016 2:0.21042605 3:0.4229272 4:0.99995565 5:1.1110495e-05 6:1.1110495e-05 7:1.1110495e-05 8:1.1110495e-05 9:0.00034255569 10:0.99997783 11:1.1110742e-05 12:1.1110742e-05 13:0.0002509224 14:0.005147059 
3 1:0.38568413 2:0.211761 3:0.24685737 4:1.1110495e-05 5:0.58108997 6:0.4188768 7:1.1110495e-05 8:1.1110495e-05 9:0.42270797 10:0.943313 11:0.056675889 12:1.1110741e-05 13:0.19830348 14:0.0056372546 
3 1:0.36738044 2:0.22202495 3:0.24313603 4:1.1110495e-05 5:0.73441482 6:0.26555195 7:1.1110495e-05 8:1.1110495e-05 9:0.35986942 10:0.9710899 11:0.028899038 12:1.1110742e-05 13:0.11927003 14:0.0056372546 
3 1:0.329788 2:0.22833574 3:0.23004238 4:0.0011221599 5:0.83885342 6:0.16000222 7:1.1110494e-05 8:1.1110494e-05 9:0.27866462 10:0.86887103 11:0.13111785 12:1.1110741e-05 13:0.35375765 14:0.0056372546 
2.217768966309907 1:0.19512561 2:0.47434211 3:0.035847276 4:0.43998674 5:0.55998003 6:1.1110495e-05 7:1.1110495e-05 8:1.1110495e-05 9:0.42643505 10:0.3300001 11:0.58999145 12:0.080008447 13:0.80031621 14:0.0056372546 
3 1:0.10863546 2:0.39319837 3:0.2998721 4:0.99995565 5:1.1110495e-05 6:1.1110495e-05 7:1.1110495e-05 8:1.1110495e-05 9:0.00034255569 10:0.47110653 11:0.52777129 12:0.0011221848 13:0.63671708 14:0.0056372546 
3 1:0.098762937 2:0.28626159 3:0.42799914 4:0.99995565 5:1.1110495e-05 6:1.1110495e-05 7:1.1110495e-05 8:1.1110495e-05 9:0.00034255569 10:0.73554218 11:0.26444674 12:1.1110741e-05 13:0.52592826 14:0.0056372546 
3 1:0.096759818 2:0.25057051 3:0.48209652 4:0.99995565 5:1.1110495e-05 6:1.1110495e-05 7:1.1110495e-05 8:1.1110495e-05 9:0.00034255569 10:0.75665259 11:0.24333635 12:1.1110742e-05 13:0.50521004 14:0.0056372546 
3 1:0.11625677 2:0.28495237 3:0.32341036 4:0.99995565 5:1.1110495e-05 6:1.1110495e-05 7:1.1110495e-05 8:1.1110495e-05 9:0.00034255569 10:0.75776362 11:0.24111418 12:0.0011221848 13:0.51045763 14:0.0061274511 
0.2477397470656973 1:0.37695351 2:0.017480168 3:0.81973648 4:1.1110495e-05 5:0.53331488 6:0.46665189 7:1.1110495e-05 8:1.1110495e-05 9:0.42953745 10:0.99997783 11:1.1110742e-05 12:1.1110742e-05 13:0.0002509224 14:0.0022058825 
3 1:0.095724694 2:0.49877724 3:0.41058448 4:0.99995565 5:1.1110495e-05 6:1.1110495e-05 7:1.1110495e-05 8:1.1110495e-05 9:0.00034255569 10:1.1110742e-05 11:0.99997783 12:1.1110742e-05 13:0.0002509224 14:0.0026960785 
3 1:0.097125649 2:0.49922916 3:0.40726021 4:0.99995565 5:1.1110495e-05 6:1.1110495e-05 7:1.1110495e-05 8:1.1110495e-05 9:0.00034255569 10:1.1110742e-05 11:0.99997783 12:1.1110742e-05 13:0.0002509224 14:0.0031862748 
3 1:0.098179154 2:0.49183106 3:0.39921674 4:0.99995565 5:1.1110495e-05 6:1.1110495e-05 7:1.1110495e-05 8:1.1110495e-05 9:0.00034255569 10:1.1110742e-05 11:0.99997783 12:1.1110742e-05 13:0.0002509224 14:0.0036764706 
3 1:0.097537234 2:0.14223173 3:0.46899873 4:0.99995565 5:1.1110495e-05 6:1.1110495e-05 7:1.1110495e-05 8:1.1110495e-05 9:0.00034255569 10:0.99997783 11:1.1110742e-05 12:1.1110742e-05 13:0.0002509224 14:0.0036764706 
3 1:0.17014644 2:0.11379549 3:0.64969021 4:0.64219773 5:0.35776904 6:1.1110495e-05 7:1.1110495e-05 8:1.1110495e-05 9:0.405435 10:0.99997783 11:1.1110742e-05 12:1.1110742e-05 13:0.0002509224 14:0.0036764706 
3 1:0.12699476 2:0.16014957 3:0.42913139 4:0.99995565 5:1.1110495e-05 6:1.1110495e-05 7:1.1110495e-05 8:1.1110495e-05 9:0.00034255569 10:0.99997783 11:1.1110742e-05 12:1.1110742e-05 13:0.0002509224 14:0.0036764706 
3 1:0.18983659 2:0.12904039 3:0.58197814 4:0.71663797 5:0.092228211 6:0.19111161 7:1.1110494e-05 8:1.1110494e-05 9:0.48160988 10:0.99886674 11:0.0011221849 12:1.1110742e-05 13:0.0080845477 14:0.0036764706 
3 1:0.10201693 2:0.4880254 3:0.38379985 4:0.99995565 5:1.1110495e-05 6:1.1110495e-05 7:1.1110495e-05 8:1.1110495e-05 9:0.00034255569 10:0.0066775554 11:0.99331135 12:1.1110741e-05 13:0.036628827 14:0.0041666669 
3 1:0.10452244 2:0.13886294 3:0.46481559 4:0.99995565 5:1.1110495e-05 6:1.1110495e-05 7:1.1110495e-05 8:1.1110495e-05 9:0.00034255569 10:0.99997783 11:1.1110742e-05 12:1.1110742e-05 13:0.0002509224 14:0.0041666669 
3 1:0.1110624 2:0.15609066 3:0.57183528 4:0.99995565 5:1.1110495e-05 6:1.1110495e-05 7:1.1110495e-05 8:1.1110495e-05 9:0.00034255569 10:0.99997783 11:1.1110742e-05 12:1.1110742e-05 13:0.0002509224 14:0.0041666669 
3 1:0.20726702 2:0.042691913 3:0.68937182 4:0.53442591 5:0.46554086 6:1.1110495e-05 7:1.1110495e-05 8:1.1110495e-05 9:0.42944372 10:0.99997783 11:1.1110742e-05 12:1.1110742e-05 13:0.0002509224 14:0.0041666669 
3 1:0.21680288 2:0.04806979 3:0.67288375 4:0.3299928 5:0.66997397 6:1.1110495e-05 7:1.1110495e-05 8:1.1110495e-05 9:0.39428273 10:0.99997783 11:1.1110742e-05 12:1.1110742e-05 13:0.0002509224 14:0.0041666669 
3 1:0.13692509 2:0.13014248 3:0.54027045 4:0.99995565 5:1.1110495e-05 6:1.1110495e-05 7:1.1110495e-05 8:1.1110495e-05 9:0.00034255569 10:0.99997783 11:1.1110742e-05 12:1.1110742e-05 13:0.0002509224 14:0.0041666669 
3 1:0.16004685 2:0.12920359 3:0.62842745 4:0.7521916 5:0.24777514 6:1.1110495e-05 7:1.1110495e-05 8:1.1110495e-05 9:0.34812251 10:0.99997783 11:1.1110742e-05 12:1.1110742e-05 13:0.0002509224 14:0.0041666669 
3 1:0.18135205 2:0.12267339 3:0.55704528 4:0.77219051 5:0.14000335 6:0.087784022 7:1.1110495e-05 8:1.1110495e-05 9:0.42791951 10:0.99997783 11:1.1110742e-05 12:1.1110742e-05 13:0.0002509224 14:0.0041666669 
3 1:0.13908856 2:0.1336551 3:0.37334055 4:0.95773578 5:0.04223099 6:1.1110495e-05 7:1.1110495e-05 8:1.1110495e-05 9:0.10897141 10:0.99997783 11:1.1110742e-05 12:1.1110742e-05 13:0.0002509224 14:0.0041666669 
1.66142541290775 1:0.1147851 2:0.17946523 3:0.52263552 4:0.96884626 5:0.024454199 6:0.0066774073 7:1.1110495e-05 8:1.1110495e-05 9:0.096376836 10:0.99997783 11:1.1110742e-05 12:1.1110742e-05 13:0.0002509224 14:0.0041666669 
3 1:0.095138364 2:0.21455088 3:0.5347724 4:0.99995565 5:1.1110495e-05 6:1.1110495e-05 7:1.1110495e-05 8:1.1110495e-05 9:0.00034255569 10:0.99997783 11:1.1110742e-05 12:1.1110742e-05 13:0.0002509224 14:0.0041666669 
3 1:0.094165064 2:0.19117728 3:0.57895964 4:0.99995565 5:1.1110495e-05 6:1.1110495e-05 7:1.1110495e-05 8:1.1110495e-05 9:0.00034255569 10:0.99997783 11:1.1110742e-05 12:1.1110742e-05 13:0.0002509224 14:0.0041666669 
3 1:0.09567637 2:0.17000048 3:0.60816157 4:0.99995565 5:1.1110495e-05 6:1.1110495e-05 7:1.1110495e-05 8:1.1110495e-05 9:0.00034255569 10:0.99997783 11:1.1110742e-05 12:1.1110742e-05 13:0.0002509224 14:0.0041666669 
3 1:0.094725996 2:0.17060259 3:0.62218767 4:0.99995565 5:1.1110495e-05 6:1.1110495e-05 7:1.1110495e-05 8:1.1110495e-05 9:0.00034255569 10:0.99997783 11:1.1110742e-05 12:1.1110742e-05 13:0.0002509224 14:0.0041666669 
3 1:0.10625352 2:0.32579491 3:0.27260858 4:0.99995565 5:1.1110495e-05 6:1.1110495e-05 7:1.1110495e-05 8:1.1110495e-05 9:0.00034255569 10:0.53110451 11:0.46888438 12:1.1110741e-05 13:0.62928516 14:0.0046568625 
3 1:0.10234881 2:0.13940583 3:0.45965689 4:0.99995565 5:1.1110495e-05 6:1.1110495e-05 7:1.1110495e-05 8:1.1110495e-05 9:0.00034255569 10:0.99997783 11:1.1110742e-05 12:1.1110742e-05 13:0.0002509224 14:0.0046568625 
3 1:0.11698298 2:0.1560366 3:0.56633651 4:0.99995565 5:1.1110495e-05 6:1.1110495e-05 7:1.1110495e-05 8:1.1110495e-05 9:0.00034255569 10:0.99997783 11:1.1110742e-05 12:1.1110742e-05 13:0.0002509224 14:0.0046568625 
3 1:0.13609806 2:0.090785451 3:0.63376015 4:0.99995565 5:1.1110495e-05 6:1.1110495e-05 7:1.1110495e-05 8:1.1110495e-05 9:0.00034255569 10:0.99997783 11:1.1110742e-05 12:1.1110742e-05 13:0.0002509224 14:0.0046568625 
3 1:0.15144373 2:0.081732742 3:0.61537766 4:0.99995565 5:1.1110495e-05 6:1.1110495e-05 7:1.1110495e-05 8:1.1110495e-05 9:0.00034255569 10:0.99997783 11:1.1110742e-05 12:1.1110742e-05 13:0.0002509224 14:0.0046568625 
3 1:0.19158602 2:0.058185823 3:0.6483227 4:0.79774463 5:0.20222211 6:1.1110495e-05 7:1.1110495e-05 8:1.1110495e-05 9:0.31307414 10:0.99997783 11:1.1110742e-05 12:1.1110742e-05 13:0.0002509224 14:0.0046568625 
3 1:0.16794512 2:0.068363532 3:0.60761231 4:0.99884456 5:0.00112216 6:1.1110495e-05 7:1.1110495e-05 8:1.1110495e-05 9:0.0056897341 10:0.99997783 11:1.1110742e-05 12:1.1110742e-05 13:0.0002509224 14:0.0046568625 
3 1:0.13486138 2:0.13791357 3:0.52615738 4:0.99995565 5:1.1110495e-05 6:1.1110495e-05 7:1.1110495e-05 8:1.1110495e-05 9:0.00034255569 10:0.99997783 11:1.1110742e-05 12:1.1110742e-05 13:0.0002509224 14:0.0046568625 
3 1:0.14424028 2:0.13690375 3:0.59052348 4:0.99217826 5:0.0077884565 6:1.1110495e-05 7:1.1110495e-05 8:1.1110495e-05 9:0.028572174 10:0.99997783 11:1.1110742e-05 12:1.1110742e-05 13:0.0002509224 14:0.0046568625 
3 1:0.14850508 2:0.12745012 3:0.53951615 4:0.87996233 5:0.12000446 6:1.1110495e-05 7:1.1110495e-05 8:1.1110495e-05 9:0.2282431 10:0.99997783 11:1.1110742e-05 12:1.1110742e-05 13:0.0002509224 14:0.0046568625 
3 1:0.12864383 2:0.075868607 3:0.4892104 4:0.98440087 5:0.012232654 6:0.0011221599 7:1.1110494e-05 8:0.0022332093 9:0.056371443 10:0.99997783 11:1.1110742e-05 12:1.1110742e-05 13:0.0002509224 14:0.0046568625 
3 1:0.12515612 2:0.099630624 3:0.47003448 4:0.97884572 5:0.021121051 6:1.1110495e-05 7:1.1110495e-05 8:1.1110495e-05 9:0.063862853 10:0.99997783 11:1.1110742e-05 12:1.1110742e-05 13:0.0002509224 14:0.0046568625 
3 1:0.13476995 2:0.15895048 3:0.47527188 4:0.93440372 5:0.052230436 6:0.013343704 7:1.1110495e-05 8:1.1110495e-05 9:0.17114022 10:0.99997783 11:1.1110742e-05 12:1.1110742e-05 13:0.0002509224 14:0.0046568625 
3 1:0.10427105 2:0.1983401 3:0.52729464 4:0.99995565 5:1.1110495e-05 6:1.1110495e-05 7:1.1110495e-05 8:1.1110495e-05 9:0.00034255569 10:0.99997783 11:1.1110742e-05 12:1.1110742e-05 13:0.0002509224 14:0.0046568625 
3 1:0.098139219 2:0.18496311 3:0.58074999 4:0.99995565 5:1.1110495e-05 6:1.1110495e-05 7:1.1110495e-05 8:1.1110495e-05 9:0.00034255569 10:0.99331135 11:0.0066775554 12:1.1110741e-05 13:0.036628824 14:0.0046568625 
3 1:0.092762776 2:0.22225066 3:0.51900721 4:0.99995565 5:1.1110495e-05 6:1.1110495e-05 7:1.1110495e-05 8:1.1110495e-05 9:0.00034255569 10:0.99997783 11:1.1110742e-05 12:1.1110742e-05 13:0.0002509224 14:0.0046568625 
3 1:0.095261157 2:0.20116581 3:0.56271589 4:0.99995565 5:1.1110495e-05 6:1.1110495e-05 7:1.1110495e-05 8:1.1110495e-05 9:0.00034255569 10:0.99997783 11:1.1110742e-05 12:1.1110742e-05 13:0.0002509224 14:0.0046568625 
3 1:0.096701831 2:0.18292473 3:0.57707268 4:0.99995565 5:1.1110495e-05 6:1.1110495e-05 7:1.1110495e-05 8:1.1110495e-05 9:0.00034255569 10:0.99997783 11:1.1110742e-05 12:1.1110742e-05 13:0.0002509224 14:0.0046568625 
3 1:0.093757056 2:0.1866779 3:0.59606153 4:0.99995565 5:1.1110495e-05 6:1.1110495e-05 7:1.1110495e-05 8:1.1110495e-05 9:0.00034255569 10:0.99997783 11:1.1110742e-05 12:1.1110742e-05 13:0.0002509224 14:0.0046568625 
3 1:0.10569794 2:0.30109605 3:0.21723603 4:0.99995565 5:1.1110495e-05 6:1.1110495e-05 7:1.1110495e-05 8:1.1110495e-05 9:0.00034255569 10:0.58221394 11:0.41777498 12:1.1110741e-05 13:0.61868548 14:0.005147059 
3 1:0.14196421 2:0.066912591 3:0.41219971 4:0.9110716 5:0.07556247 6:0.0055663576 7:0.007788456 8:1.1110494e-05 9:0.21550979 10:0.99997783 11:1.1110742e-05 12:1.1110742e-05 13:0.0002509224 14:0.005147059 
3 1:0.19730759 2:0.071574904 3:0.47071296 4:0.79885566 5:0.14222544 6:0.055563584 7:0.003344259 8:1.1110495e-05 9:0.39552528 10:0.99997783 11:1.1110742e-05 12:1.1110742e-05 13:0.0002509224 14:0.005147059 
3 1:0.20584884 2:0.067742862 3:0.51555723 4:0.75108051 5:0.1977779 6:0.050008334 7:1.1110494e-05 8:0.0011221599 9:0.43062505 10:0.99997783 11:1.1110742e-05 12:1.1110742e-05 13:0.0002509224 14:0.005147059 
3 1:0.18144065 2:0.068783067 3:0.50537014 4:0.80107778 5:0.19666687 6:0.0022332096 7:1.1110495e-05 8:1.1110495e-05 9:0.31774497 10:0.99997783 11:1.1110742e-05 12:1.1110742e-05 13:0.0002509224 14:0.005147059 
3 1:0.17639136 2:0.071240231 3:0.57247132 4:0.9455142 5:0.054452535 6:1.1110495e-05 7:1.1110495e-05 8:1.1110495e-05 9:0.13161989 10:0.99997783 11:1.1110742e-05 12:1.1110742e-05 13:0.0002509224 14:0.005147059 
3 1:0.15255609 2:0.083648361 3:0.58314222 4:0.99995565 5:1.1110495e-05 6:1.1110495e-05 7:1.1110495e-05 8:1.1110495e-05 9:0.00034255569 10:0.99997783 11:1.1110742e-05 12:1.1110742e-05 13:0.0002509224 14:0.005147059 
3 1:0.13068634 2:0.13770808 3:0.50675869 4:0.99995565 5:1.1110495e-05 6:1.1110495e-05 7:1.1110495e-05 8:1.1110495e-05 9:0.00034255569 10:0.99886674 11:0.0011221849 12:1.1110742e-05 13:0.0080845477 14:0.005147059 
3 1:0.13953383 2:0.1358861 3:0.57109827 4:0.99995565 5:1.1110495e-05 6:1.1110495e-05 7:1.1110495e-05 8:1.1110495e-05 9:0.00034255569 10:0.99997783 11:1.1110742e-05 12:1.1110742e-05 13:0.0002509224 14:0.005147059 
3 1:0.14902328 2:0.12971735 3:0.52749896 4:0.99106723 5:0.0088995062 6:1.1110495e-05 7:1.1110495e-05 8:1.1110495e-05 9:0.031870954 10:0.99997783 11:1.1110742e-05 12:1.1110742e-05 13:0.0002509224 14:0.005147059 
3 1:0.12269659 2:0.069418341 3:0.58607006 4:0.99884456 5:0.00112216 6:1.1110495e-05 7:1.1110495e-05 8:1.1110495e-05 9:0.0056897341 10:0.99997783 11:1.1110742e-05 12:1.1110742e-05 13:0.0002509224 14:0.005147059 
3 1:0.12011659 2:0.093625203 3:0.56009591 4:0.99995565 5:1.1110495e-05 6:1.1110495e-05 7:1.1110495e-05 8:1.1110495e-05 9:0.00034255569 10:0.99997783 11:1.1110742e-05 12:1.1110742e-05 13:0.0002509224 14:0.005147059 
3 1:0.11334639 2:0.1629582 3:0.51727313 4:0.99995565 5:1.1110495e-05 6:1.1110495e-05 7:1.1110495e-05 8:1.1110495e-05 9:0.00034255569 10:0.99997783 11:1.1110742e-05 12:1.1110742e-05 13:0.0002509224 14:0.005147059 
3 1:0.10266779 2:0.20611122 3:0.51180905 4:0.99995565 5:1.1110495e-05 6:1.1110495e-05 7:1.1110495e-05 8:1.1110495e-05 9:0.00034255569 10:0.99997783 11:1.1110742e-05 12:1.1110742e-05 13:0.0002509224 14:0.005147059 
3 1:0.094062641 2:0.22804789 3:0.49501944 4:0.99995565 5:1.1110495e-05 6:1.1110495e-05 7:1.1110495e-05 8:1.1110495e-05 9:0.00034255569 10:0.99997783 11:1.1110742e-05 12:1.1110742e-05 13:0.0002509224 14:0.005147059 
3 1:0.094890445 2:0.20653324 3:0.54076838 4:0.99995565 5:1.1110495e-05 6:1.1110495e-05 7:1.1110495e-05 8:1.1110495e-05 9:0.00034255569 10:0.99997783 11:1.1110742e-05 12:1.1110742e-05 13:0.0002509224 14:0.005147059 
3 1:0.099305488 2:0.19209644 3:0.55068952 4:0.99995565 5:1.1110495e-05 6:1.1110495e-05 7:1.1110495e-05 8:1.1110495e-05 9:0.00034255569 10:0.99997783 11:1.1110742e-05 12:1.1110742e-05 13:0.0002509224 14:0.005147059 
3 1:0.09819971 2:0.19806451 3:0.55336952 4:0.99995565 5:1.1110495e-05 6:1.1110495e-05 7:1.1110495e-05 8:1.1110495e-05 9:0.00034255569 10:0.99997783 11:1.1110742e-05 12:1.1110742e-05 13:0.0002509224 14:0.005147059 
3 1:0.16890396 2:0.081831127 3:0.29633105 4:0.83996445 5:0.12222654 6:0.025565246 7:0.011121605 8:0.0011221599 9:0.34470665 10:0.99997783 11:1.1110742e-05 12:1.1110742e-05 13:0.0002509224 14:0.0056372546 
3 1:0.17077154 2:0.080829747 3:0.31416184 4:0.80107772 5:0.18444531 6:0.0088995053 7:0.0011221599 8:0.004455308 9:0.34995243 10:0.99997783 11:1.1110742e-05 12:1.1110742e-05 13:0.0002509224 14:0.0056372546 
3 1:0.21416755 2:0.079325095 3:0.35026303 4:0.56442422 5:0.3533248 6:0.082228765 7:1.1110494e-05 8:1.1110494e-05 9:0.55677265 10:0.99997783 11:1.1110742e-05 12:1.1110742e-05 13:0.0002509224 14:0.0056372546 
3 1:0.19976331 2:0.069384202 3:0.34707344 4:0.6566413 5:0.25444141 6:0.087784015 7:1.1110494e-05 8:0.0011221599 9:0.52550113 10:0.99997783 11:1.1110742e-05 12:1.1110742e-05 13:0.0002509224 14:0.0056372546 
3 1:0.18809526 2:0.077527076 3:0.38553965 4:0.69552809 5:0.28888398 6:0.015565803 7:1.1110495e-05 8:1.1110495e-05 9:0.42020872 10:0.99997783 11:1.1110742e-05 12:1.1110742e-05 13:0.0002509224 14:0.0056372546 
3 1:0.17282715 2:0.092158876 3:0.39692473 4:0.78552306 5:0.19777791 6:0.016676852 7:1.1110495e-05 8:1.1110495e-05 9:0.35955071 10:0.99997783 11:1.1110742e-05 12:1.1110742e-05 13:0.0002509224 14:0.0056372546 
3 1:0.14454533 2:0.11964437 3:0.4122265 4:0.92662632 5:0.067785122 6:0.0055663576 7:1.1110494e-05 8:1.1110494e-05 9:0.17534056 10:0.99220026 11:0.0077886293 12:1.1110741e-05 13:0.041607484 14:0.0056372546 
3 1:0.11297189 2:0.16878441 3:0.42899224 4:0.99995565 5:1.1110495e-05 6:1.1110495e-05 7:1.1110495e-05 8:1.1110495e-05 9:0.00034255569 10:0.96109021 11:0.038898703 12:1.1110741e-05 13:0.1497941 14:0.0056372546 
3 1:0.10789029 2:0.18560952 3:0.37520155 4:0.99217826 5:0.00112216 6:1.1110495e-05 7:1.1110495e-05 8:0.0066774073 9:0.030516326 10:0.97220093 11:0.027787963 12:1.1110741e-05 13:0.11569532 14:0.0056372546 
3 1:0.11114059 2:0.18196878 3:0.37248233 4:0.99328929 5:0.00112216 6:1.1110495e-05 7:1.1110495e-05 8:0.0055663581 9:0.027002562 10:0.99331135 11:0.0066775554 12:1.1110741e-05 13:0.036628824 14:0.0056372546 
3 1:0.12643613 2:0.17896144 3:0.28950799 4:0.96995729 5:1.1110495e-05 6:1.1110495e-05 7:1.1110495e-05 8:0.030009447 9:0.083996706 10:0.98664492 11:0.013344001 12:1.1110742e-05 13:0.06462165 14:0.0056372546 
3 1:0.11167829 2:0.1611927 3:0.2770372 4:0.99328935 5:0.0066774078 6:1.1110495e-05 7:1.1110495e-05 8:1.1110495e-05 9:0.025173772 10:0.99886674 11:0.0011221849 12:1.1110742e-05 13:0.0080845477 14:0.0056372546 
3 1:0.11060634 2:0.17382321 3:0.23160779 4:0.99995565 5:1.1110495e-05 6:1.1110495e-05 7:1.1110495e-05 8:1.1110495e-05 9:0.00034255569 10:0.99886674 11:0.0011221849 12:1.1110742e-05 13:0.0080845477 14:0.0056372546 
3 1:0.18216152 2:0.13729186 3:0.40294471 4:0.77774578 5:0.22222102 6:1.1110495e-05 7:1.1110495e-05 8:1.1110495e-05 9:0.32937568 10:0.99997783 11:1.1110742e-05 12:1.1110742e-05 13:0.0002509224 14:0.0036764706 
2.017809213918864 1:0.23248583 2:0.10418892 3:0.51575321 4:0.033342596 5:0.96662414 6:1.1110495e-05 7:1.1110495e-05 8:1.1110495e-05 9:0.09108045 10:0.99997783 11:1.1110742e-05 12:1.1110742e-05 13:0.0002509224 14:0.0036764706 
3 1:0.21186386 2:0.097555354 3:0.52017105 4:0.28666189 5:0.71330488 6:1.1110495e-05 7:1.1110495e-05 8:1.1110495e-05 9:0.3725138 10:0.99997783 11:1.1110742e-05 12:1.1110742e-05 13:0.0002509224 14:0.0036764706 
3 1:0.17981598 2:0.14787185 3:0.40312779 4:0.85107499 5:0.14889175 6:1.1110495e-05 7:1.1110495e-05 8:1.1110495e-05 9:0.26170006 10:0.99997783 11:1.1110742e-05 12:1.1110742e-05 13:0.0002509224 14:0.0041666669 
3 1:0.1938355 2:0.141605 3:0.47371155 4:0.66108555 5:0.33888119 6:1.1110495e-05 7:1.1110495e-05 8:1.1110495e-05 9:0.39808324 10:0.99997783 11:1.1110742e-05 12:1.1110742e-05 13:0.0002509224 14:0.0041666669 
3 1:0.18002924 2:0.12727587 3:0.53036988 4:0.86774075 5:0.13222601 6:1.1110495e-05 7:1.1110495e-05 8:1.1110495e-05 9:0.24294519 10:0.99997783 11:1.1110742e-05 12:1.1110742e-05 13:0.0002509224 14:0.0041666669 
3 1:0.14364979 2:0.095308833 3:0.72366297 4:0.99995565 5:1.1110495e-05 6:1.1110495e-05 7:1.1110495e-05 8:1.1110495e-05 9:0.00034255569 10:0.99997783 11:1.1110742e-05 12:1.1110742e-05 13:0.0002509224 14:0.0046568625 
2.05798289274074 1:0.15201214 2:0.084605828 3:0.73816401 4:0.99995565 5:1.1110495e-05 6:1.1110495e-05 7:1.1110495e-05 8:1.1110495e-05 9:0.00034255569 10:0.99997783 11:1.1110742e-05 12:1.1110742e-05 13:0.0002509224 14:0.0046568625 
3 1:0.15303467 2:0.089769498 3:0.74521476 4:0.99995565 5:1.1110495e-05 6:1.1110495e-05 7:1.1110495e-05 8:1.1110495e-05 9:0.00034255569 10:0.99997783 11:1.1110742e-05 12:1.1110742e-05 13:0.0002509224 14:0.0046568625 
3 1:0.19180055 2:0.16691852 3:0.39306265 4:0.73663694 5:0.26332983 6:1.1110495e-05 7:1.1110495e-05 8:1.1110495e-05 9:0.35845703 10:0.99997783 11:1.1110742e-05 12:1.1110742e-05 13:0.0002509224 14:0.0046568625 
3 1:0.18221211 2:0.1438885 3:0.49809948 4:0.9899562 5:0.010010556 6:1.1110495e-05 7:1.1110495e-05 8:1.1110495e-05 9:0.035082549 10:0.99997783 11:1.1110742e-05 12:1.1110742e-05 13:0.0002509224 14:0.0046568625 
3 1:0.1799345 2:0.12343722 3:0.55798662 4:0.98662305 5:0.013343704 6:1.1110495e-05 7:1.1110495e-05 8:1.1110495e-05 9:0.044281431 10:0.99997783 11:1.1110742e-05 12:1.1110742e-05 13:0.0002509224 14:0.0046568625 
3 1:0.14026313 2:0.17756945 3:0.57250589 4:0.99995565 5:1.1110495e-05 6:1.1110495e-05 7:1.1110495e-05 8:1.1110495e-05 9:0.00034255569 10:0.99997783 11:1.1110742e-05 12:1.1110742e-05 13:0.0002509224 14:0.0046568625 
1.622099728617159 1:0.39012247 2:0.14981228 3:0.40256619 4:0.041119937 5:0.46887395 6:0.44776401 7:0.042230986 8:1.1110494e-05 9:0.60884857 10:0.99997783 11:1.1110742e-05 12:1.1110742e-05 13:0.0002509224 14:0.005147059 
3 1:0.38791859 2:0.15807456 3:0.40121901 4:0.010010555 5:0.51109385 6:0.47776234 7:0.0011221599 8:1.1110494e-05 9:0.46586528 10:0.99886674 11:0.0011221849 12:1.1110742e-05 13:0.0080845477 14:0.005147059 
3 1:0.21519913 2:0.13876715 3:0.49281242 4:0.45665243 5:0.54331434 6:1.1110495e-05 7:1.1110495e-05 8:1.1110495e-05 9:0.42858288 10:0.99997783 11:1.1110742e-05 12:1.1110742e-05 13:0.0002509224 14:0.005147059 
3 1:0.37891632 2:0.14503562 3:0.43018228 4:0.10556081 5:0.39554471 6:0.49220601 7:0.0066774073 8:1.1110495e-05 9:0.61306661 10:0.9666456 11:0.033343337 12:1.1110742e-05 13:0.13318245 14:0.005147059 
3 1:0.37469533 2:0.14743839 3:0.43963298 4:0.15111382 5:0.34888062 6:0.49887228 7:0.0011221599 8:1.1110494e-05 9:0.6260637 10:0.93775767 11:0.062231261 12:1.1110742e-05 13:0.21226814 14:0.005147059 
0.4658221093748652 1:0.3330977 2:0.11519153 3:0.44818631 4:0.42332092 5:0.13333704 6:0.44331983 7:1.1110494e-05 8:1.1110494e-05 9:0.61725438 10:0.99997783 11:1.1110742e-05 12:1.1110742e-05 13:0.0002509224 14:0.005147059 
3 1:0.17969282 2:0.1236796 3:0.33544508 4:0.75885791 5:0.23444255 6:0.0066774073 7:1.1110495e-05 8:1.1110495e-05 9:0.36234388 10:0.99997783 11:1.1110742e-05 12:1.1110742e-05 13:0.0002509224 14:0.005147059 
3 1:0.14483911 2:0.15742835 3:0.4862369 4:0.96217996 5:0.037786793 6:1.1110495e-05 7:1.1110495e-05 8:1.1110495e-05 9:0.10019506 10:0.99997783 11:1.1110742e-05 12:1.1110742e-05 13:0.0002509224 14:0.005147059 
2.496528282961259 1:0.38205144 2:0.12106317 3:0.31658211 4:0.070007227 5:0.35110274 6:0.53775907 7:0.041119941 8:1.1110495e-05 9:0.6328907 10:0.93997979 11:0.056675889 12:0.003344333 13:0.21839279 14:0.0056372546 
3 1:0.29108664 2:0.0934119 3:0.4204925 4:0.33443698 5:0.42109883 6:0.24444197 7:1.1110494e-05 8:1.1110494e-05 9:0.66801709 10:0.99331135 11:0.0066775554 12:1.1110741e-05 13:0.036628824 14:0.0056372546 
3 1:0.31116512 2:0.094921164 3:0.43364292 4:0.26888508 5:0.43776456 6:0.29332814 7:1.1110494e-05 8:1.1110494e-05 9:0.66781598 10:0.99108922 11:0.0088997046 12:1.1110742e-05 13:0.046440192 14:0.0056372546 
3 1:0.32678661 2:0.093477622 3:0.44409233 4:0.25444141 5:0.33332592 6:0.41221043 7:1.1110494e-05 8:1.1110494e-05 9:0.67105198 10:0.99997783 11:1.1110742e-05 12:1.1110742e-05 13:0.0002509224 14:0.0056372546 
3 1:0.34473246 2:0.099832609 3:0.45725092 4:0.1566691 5:0.45331928 6:0.38776737 7:0.0022332096 8:1.1110495e-05 9:0.64007598 10:0.99331135 11:0.0066775554 12:1.1110741e-05 13:0.036628824 14:0.0056372546 
3 1:0.32917225 2:0.1049189 3:0.46819213 4:0.18555637 5:0.46109667 6:0.35332483 7:1.1110495e-05 8:1.1110495e-05 9:0.64454085 10:0.99997783 11:1.1110742e-05 12:1.1110742e-05 13:0.0002509224 14:0.0056372546 
3 1:0.34648335 2:0.12569699 3:0.45410946 4:0.1366702 5:0.48442867 6:0.37887898 7:1.1110495e-05 8:1.1110495e-05 9:0.61578989 10:0.99997783 11:1.1110742e-05 12:1.1110742e-05 13:0.0002509224 14:0.0056372546 
3 1:0.33127984 2:0.11763148 3:0.49206144 4:0.12000446 5:0.53553694 6:0.34443644 7:1.1110495e-05 8:1.1110495e-05 9:0.59414601 10:0.99775565 11:0.0022332589 12:1.1110741e-05 13:0.014564781 14:0.0056372546 
3 1:0.33389381 2:0.11206599 3:0.50671136 4:0.13889228 5:0.4877618 6:0.37332371 7:1.1110494e-05 8:1.1110494e-05 9:0.61664504 10:0.99664456 11:0.003344333 12:1.1110741e-05 13:0.020517599 14:0.0056372546 
3 1:0.34534273 2:0.093322381 3:0.55361629 4:0.10444976 5:0.45443031 6:0.44109771 7:1.1110494e-05 8:1.1110494e-05 9:0.5937838 10:0.99997783 11:1.1110742e-05 12:1.1110742e-05 13:0.0002509224 14:0.0056372546 
3 1:0.29370043 2:0.098362602 3:0.26112726 4:0.004455308 5:0.98328984 6:0.012232654 7:1.1110494e-05 8:1.1110494e-05 9:0.058909412 10:0.99997783 11:1.1110742e-05 12:1.1110742e-05 13:0.0002509224 14:0.0012254902 
3 1:0.23154673 2:0.10359427 3:0.29244301 4:0.1522249 5:0.84774184 6:1.1110495e-05 7:1.1110495e-05 8:1.1110495e-05 9:0.26528335 10:0.99997783 11:1.1110742e-05 12:1.1110742e-05 13:0.0002509224 14:0.0017156863 
3 1:0.29797247 2:0.1002713 3:0.26917455 4:1.1110495e-05 5:0.95884681 6:0.041119941 7:1.1110495e-05 8:1.1110495e-05 9:0.10680703 10:0.99997783 11:1.1110742e-05 12:1.1110742e-05 13:0.0002509224 14:0.0017156863 
3 1:0.24353853 2:0.11155529 3:0.38833895 4:0.067785129 5:0.9321816 6:1.1110495e-05 7:1.1110495e-05 8:1.1110495e-05 9:0.15426683 10:0.99997783 11:1.1110742e-05 12:1.1110742e-05 13:0.0002509224 14:0.0022058825 
3 1:0.2350138 2:0.11208323 3:0.32450393 4:0.16111329 5:0.83885348 6:1.1110495e-05 7:1.1110495e-05 8:1.1110495e-05 9:0.2745797 10:0.99997783 11:1.1110742e-05 12:1.1110742e-05 13:0.0002509224 14:0.0022058825 
3 1:0.2341979 2:0.11578473 3:0.32004213 4:0.10556082 5:0.89440596 6:1.1110495e-05 7:1.1110495e-05 8:1.1110495e-05 9:0.20972668 10:0.99997783 11:1.1110742e-05 12:1.1110742e-05 13:0.0002509224 14:0.0022058825 
3 1:0.29648754 2:0.10421064 3:0.42639554 4:0.017787902 5:0.98217887 6:1.1110495e-05 7:1.1110495e-05 8:1.1110495e-05 9:0.055741992 10:0.99997783 11:1.1110742e-05 12:1.1110742e-05 13:0.0002509224 14:0.0026960785 
3 1:0.24541417 2:0.1195721 3:0.34773293 4:0.026676297 5:0.97329044 6:1.1110495e-05 7:1.1110495e-05 8:1.1110495e-05 9:0.076675355 10:0.99997783 11:1.1110742e-05 12:1.1110742e-05 13:0.0002509224 14:0.0026960785 
3 1:0.29504099 2:0.12346815 3:0.34598547 4:0.02334315 5:0.93995893 6:0.036675744 7:1.1110495e-05 8:1.1110495e-05 9:0.1661465 10:0.99997783 11:1.1110742e-05 12:1.1110742e-05 13:0.0002509224 14:0.0026960785 
3 1:0.32507709 2:0.1024365 3:0.34107932 4:0.0011221599 5:0.75552469 6:0.24333093 7:1.1110494e-05 8:1.1110494e-05 9:0.35017768 10:0.99997783 11:1.1110742e-05 12:1.1110742e-05 13:0.0002509224 14:0.0026960785 
3 1:0.26481134 2:0.088884577 3:0.35382888 4:0.14000335 5:0.83996451 6:0.020010002 7:1.1110495e-05 8:1.1110495e-05 9:0.31083411 10:0.99997783 11:1.1110742e-05 12:1.1110742e-05 13:0.0002509224 14:0.0026960785 
3 1:0.32797059 2:0.12322675 3:0.72514939 4:1.1110495e-05 5:0.93107057 6:0.068896182 7:1.1110495e-05 8:1.1110495e-05 9:0.15607028 10:0.99997783 11:1.1110742e-05 12:1.1110742e-05 13:0.0002509224 14:0.0031862748 
3 1:0.28533655 2:0.095565297 3:0.43655688 4:1.1110495e-05 5:0.99995565 6:1.1110495e-05 7:1.1110495e-05 8:1.1110495e-05 9:0.00034255566 10:0.99997783 11:1.1110742e-05 12:1.1110742e-05 13:0.0002509224 14:0.0031862748 
3 1:0.27605057 2:0.097377777 3:0.40687403 4:0.00112216 5:0.95773572 6:0.041119941 7:1.1110495e-05 8:1.1110495e-05 9:0.11212522 10:0.99997783 11:1.1110742e-05 12:1.1110742e-05 13:0.0002509224 14:0.0031862748 
3 1:0.33021301 2:0.076650418 3:0.52441204 4:0.0066774073 5:0.92329323 6:0.070007227 7:1.1110495e-05 8:1.1110495e-05 9:0.18239135 10:0.99997783 11:1.1110742e-05 12:1.1110742e-05 13:0.0002509224 14:0.0031862748 
3 1:0.3049171 2:0.11575411 3:0.35127547 4:0.028898394 5:0.94218099 6:0.028898394 7:1.1110494e-05 8:1.1110494e-05 9:0.16229133 10:0.99997783 11:1.1110742e-05 12:1.1110742e-05 13:0.0002509224 14:0.0031862748 
3 1:0.38087144 2:0.12283579 3:0.31412083 4:1.1110495e-05 5:0.58108997 6:0.4188768 7:1.1110495e-05 8:1.1110495e-05 9:0.42270797 10:0.99997783 11:1.1110742e-05 12:1.1110742e-05 13:0.0002509224 14:0.0031862748 
3 1:0.2611748 2:0.083727114 3:0.35762393 4:0.17222378 5:0.80218881 6:0.025565248 7:1.1110495e-05 8:1.1110495e-05 9:0.35648179 10:0.99997783 11:1.1110742e-05 12:1.1110742e-05 13:0.0002509224 14:0.0031862748 
3 1:0.41225532 2:0.090671785 3:0.20624645 4:1.1110495e-05 5:0.45109719 6:0.54886955 7:1.1110495e-05 8:1.1110495e-05 9:0.42794445 10:0.99997783 11:1.1110742e-05 12:1.1110742e-05 13:0.0002509224 14:0.0031862748 
3 1:0.4199025 2:0.091200292 3:0.20083044 4:1.1110493e-05 5:0.34332535 6:0.65553021 7:0.0011221598 8:1.1110493e-05 9:0.40495777 10:0.99997783 11:1.1110742e-05 12:1.1110742e-05 13:0.0002509224 14:0.0031862748 
3 1:0.30411991 2:0.13222335 3:0.60738122 4:0.0011221599 5:0.96662408 6:0.032231543 7:1.1110494e-05 8:1.1110494e-05 9:0.094068639 10:0.99997783 11:1.1110742e-05 12:1.1110742e-05 13:0.0002509224 14:0.0036764706 
3 1:0.2669782 2:0.093844011 3:0.40844795 4:0.048897289 5:0.95106947 6:1.1110495e-05 7:1.1110495e-05 8:1.1110495e-05 9:0.12157494 10:0.99997783 11:1.1110742e-05 12:1.1110742e-05 13:0.0002509224 14:0.0036764706 
3 1:0.28312951 2:0.08162035 3:0.46224308 4:0.0055663581 5:0.98773408 6:0.0066774073 7:1.1110495e-05 8:1.1110495e-05 9:0.046467289 10:0.99997783 11:1.1110742e-05 12:1.1110742e-05 13:0.0002509224 14:0.0036764706 
3 1:0.27493423 2:0.1289492 3:0.40194336 4:0.02334315 5:0.96662414 6:0.010010556 7:1.1110495e-05 8:1.1110495e-05 9:0.10368005 10:0.99997783 11:1.1110742e-05 12:1.1110742e-05 13:0.0002509224 14:0.0036764706 
3 1:0.28882927 2:0.12528107 3:0.34064379 4:0.091117166 5:0.84663081 6:0.062229879 7:1.1110495e-05 8:1.1110495e-05 9:0.33073533 10:0.99997783 11:1.1110742e-05 12:1.1110742e-05 13:0.0002509224 14:0.0036764706 
0.3497927102275441 1:0.48962221 2:0.14602865 3:0.2088085 4:1.1110495e-05 5:1.1110495e-05 6:0.99995559 7:1.1110495e-05 8:1.1110495e-05 9:0.00034259268 10:0.99997783 11:1.1110742e-05 12:1.1110742e-05 13:0.0002509224 14:0.0036764706 
2.767977155804999 1:0.39075425 2:0.11364523 3:0.24125254 4:0.0044553084 5:0.43554252 6:0.55998003 7:1.1110495e-05 8:1.1110495e-05 9:0.44182286 10:0.99997783 11:1.1110742e-05 12:1.1110742e-05 13:0.0002509224 14:0.0036764706 
3 1:0.39002478 2:0.088791855 3:0.19943616 4:1.1110495e-05 5:0.55109167 6:0.44776404 7:0.00112216 8:1.1110495e-05 9:0.43246117 10:0.99997783 11:1.1110742e-05 12:1.1110742e-05 13:0.0002509224 14:0.0036764706 
1.519060723814115 1:0.53743923 2:0.24150087 3:0.089223728 4:1.1110494e-05 5:0.0011221599 6:0.94440311 7:0.054452531 8:1.1110494e-05 9:0.13692839 10:0.92553586 11:0.074453078 12:1.1110742e-05 13:0.24134557 14:0.0036764706 
3 1:0.3095642 2:0.13596809 3:0.55667514 4:0.0022332096 5:0.99773353 6:1.1110495e-05 7:1.1110495e-05 8:1.1110495e-05 9:0.01011306 10:0.99997783 11:1.1110742e-05 12:1.1110742e-05 13:0.0002509224 14:0.0041666669 
3 1:0.30875826 2:0.091833472 3:0.40033036 4:0.0066774073 5:0.95106947 6:0.04223099 7:1.1110495e-05 8:1.1110495e-05 9:0.13362333 10:0.99997783 11:1.1110742e-05 12:1.1110742e-05 13:0.0002509224 14:0.0041666669 
3 1:0.31554872 2:0.074657328 3:0.49823597 4:0.0033442592 5:0.97217941 6:0.024454201 7:1.1110495e-05 8:1.1110495e-05 9:0.085430965 10:0.99997783 11:1.1110742e-05 12:1.1110742e-05 13:0.0002509224 14:0.0041666669 
3 1:0.25135595 2:0.10844436 3:0.56513739 4:0.23444255 5:0.75330263 6:0.012232655 7:1.1110495e-05 8:1.1110495e-05 9:0.37751871 10:0.99997783 11:1.1110742e-05 12:1.1110742e-05 13:0.0002509224 14:0.0041666669 
3 1:0.33181429 2:0.064945169 3:0.8678472 4:1.1110495e-05 5:0.95773578 6:0.04223099 7:1.1110495e-05 8:1.1110495e-05 9:0.1089714 10:0.99997783 11:1.1110742e-05 12:1.1110742e-05 13:0.0002509224 14:0.0041666669 
3 1:0.35296306 2:0.087517321 3:0.71007627 4:1.1110495e-05 5:0.89218384 6:0.10778291 7:1.1110495e-05 8:1.1110495e-05 9:0.21266083 10:0.99997783 11:1.1110742e-05 12:1.1110742e-05 13:0.0002509224 14:0.0041666669 
3 1:0.3803812 2:0.1025623 3:0.67089993 4:1.1110495e-05 5:0.79330045 6:0.20666631 7:1.1110495e-05 8:1.1110495e-05 9:0.31682608 10:0.99997783 11:1.1110742e-05 12:1.1110742e-05 13:0.0002509224 14:0.0041666669 
3 1:0.34919405 2:0.11076676 3:0.59247863 4:1.1110495e-05 5:0.78774518 6:0.21222156 7:1.1110495e-05 8:1.1110495e-05 9:0.32141083 10:0.99997783 11:1.1110742e-05 12:1.1110742e-05 13:0.0002509224 14:0.0041666669 
3 1:0.37291029 2:0.12055839 3:0.48199555 4:1.1110495e-05 5:0.63108724 6:0.36887953 7:1.1110495e-05 8:1.1110495e-05 9:0.40930736 10:0.99997783 11:1.1110742e-05 12:1.1110742e-05 13:0.0002509224 14:0.0041666669 
3 1:0.38136247 2:0.13124669 3:0.42182586 4:1.1110495e-05 5:0.50998282 6:0.48998395 7:1.1110495e-05 8:1.1110495e-05 9:0.43079484 10:0.99997783 11:1.1110742e-05 12:1.1110742e-05 13:0.0002509224 14:0.0041666669 
3 1:0.39330691 2:0.13572741 3:0.3667798 4:1.1110495e-05 5:0.45443034 6:0.5455364 7:1.1110495e-05 8:1.1110495e-05 9:0.42833683 10:0.99997783 11:1.1110742e-05 12:1.1110742e-05 13:0.0002509224 14:0.0041666669 
3 1:0.39476341 2:0.13481557 3:0.31811735 4:1.1110494e-05 5:0.41776568 6:0.582201 7:1.1110494e-05 8:1.1110494e-05 9:0.42248043 10:0.99997783 11:1.1110742e-05 12:1.1110742e-05 13:0.0002509224 14:0.0041666669 
3 1:0.35665527 2:0.12690915 3:0.27948904 4:1.1110494e-05 5:0.61664355 6:0.38332316 7:1.1110494e-05 8:1.1110494e-05 9:0.41384941 10:0.99997783 11:1.1110742e-05 12:1.1110742e-05 13:0.0002509224 14:0.0041666669 
3 1:0.39145818 2:0.11872683 3:0.22988929 4:1.1110494e-05 5:0.49887228 6:0.5010944 7:1.1110494e-05 8:1.1110494e-05 9:0.43091759 10:0.99997783 11:1.1110742e-05 12:1.1110742e-05 13:0.0002509224 14:0.0041666669 
3 1:0.39955655 2:0.10838152 3:0.21017668 4:1.1110495e-05 5:0.52664858 6:0.47331819 7:1.1110495e-05 8:1.1110495e-05 9:0.43003508 10:0.99997783 11:1.1110742e-05 12:1.1110742e-05 13:0.0002509224 14:0.0041666669 
3 1:0.37964416 2:0.09707047 3:0.20567568 4:1.1110495e-05 5:0.65219718 6:0.34776959 7:1.1110495e-05 8:1.1110495e-05 9:0.40166458 10:0.99997783 11:1.1110742e-05 12:1.1110742e-05 13:0.0002509224 14:0.0041666669 
3 1:0.36250103 2:0.095809132 3:0.19886969 4:1.1110495e-05 5:0.78774518 6:0.21222156 7:1.1110495e-05 8:1.1110495e-05 9:0.32141083 10:0.99997783 11:1.1110742e-05 12:1.1110742e-05 13:0.0002509224 14:0.0041666669 
3 1:0.10225455 2:0.25701791 3:0.23988463 4:0.99995565 5:1.1110495e-05 6:1.1110495e-05 7:1.1110495e-05 8:1.1110495e-05 9:0.00034255569 10:0.99997783 11:1.1110742e-05 12:1.1110742e-05 13:0.0002509224 14:0.0041666669 
3 1:0.48317015 2:0.14730676 3:0.34657529 4:1.1110495e-05 5:0.19777791 6:0.79885566 7:0.003344259 8:1.1110495e-05 9:0.32262287 10:0.99997783 11:1.1110742e-05 12:1.1110742e-05 13:0.0002509224 14:0.0046568625 
3 1:0.48151883 2:0.14083962 3:0.3324182 4:1.1110494e-05 5:0.12222654 6:0.87774014 7:1.1110494e-05 8:1.1110494e-05 9:0.23097944 10:0.99997783 11:1.1110742e-05 12:1.1110742e-05 13:0.0002509224 14:0.0046568625 
3 1:0.44656539 2:0.1343693 3:0.33022559 4:1.1110494e-05 5:0.30443865 6:0.69552803 7:1.1110494e-05 8:1.1110494e-05 9:0.38210845 10:0.99997783 11:1.1110742e-05 12:1.1110742e-05 13:0.0002509224 14:0.0046568625 
3 1:0.43548465 2:0.1335194 3:0.33075276 4:0.00112216 5:0.3588801 6:0.63997561 7:1.1110495e-05 8:1.1110495e-05 9:0.41087723 10:0.99997783 11:1.1110742e-05 12:1.1110742e-05 13:0.0002509224 14:0.0046568625 
3 1:0.37950754 2:0.14468925 3:0.34864002 4:0.14222543 5:0.34110329 6:0.51553804 7:0.0011221599 8:1.1110494e-05 9:0.61734867 10:0.95109051 11:0.048898369 12:1.1110741e-05 13:0.17785712 14:0.0046568625 
3 1:0.40177527 2:0.1301976 3:0.28131852 4:1.1110494e-05 5:0.44220877 6:0.55775791 7:1.1110494e-05 8:1.1110494e-05 9:0.42676181 10:0.99997783 11:1.1110742e-05 12:1.1110742e-05 13:0.0002509224 14:0.0046568625 
0.9771137937473499 1:0.31352139 2:0.064500876 3:0.89931208 4:1.1110495e-05 5:0.99995565 6:1.1110495e-05 7:1.1110495e-05 8:1.1110495e-05 9:0.00034255566 10:0.99997783 11:1.1110742e-05 12:1.1110742e-05 13:0.0002509224 14:0.0046568625 
3 1:0.24869362 2:0.098475635 3:0.68114549 4:0.067785129 5:0.9321816 6:1.1110495e-05 7:1.1110495e-05 8:1.1110495e-05 9:0.15426683 10:0.99997783 11:1.1110742e-05 12:1.1110742e-05 13:0.0002509224 14:0.0046568625 
3 1:0.20706303 2:0.10510015 3:0.69579011 4:0.34999171 5:0.64997506 6:1.1110495e-05 7:1.1110495e-05 8:1.1110495e-05 9:0.40252596 10:0.99997783 11:1.1110742e-05 12:1.1110742e-05 13:0.0002509224 14:0.0046568625 
3 1:0.21613476 2:0.10137556 3:0.70190316 4:0.025565248 5:0.97440147 6:1.1110495e-05 7:1.1110495e-05 8:1.1110495e-05 9:0.074177325 10:0.99997783 11:1.1110742e-05 12:1.1110742e-05 13:0.0002509224 14:0.0046568625 
3 1:0.21766648 2:0.10798349 3:0.67781168 4:0.0066774078 5:0.99328935 6:1.1110495e-05 7:1.1110495e-05 8:1.1110495e-05 9:0.025173772 10:0.99997783 11:1.1110742e-05 12:1.1110742e-05 13:0.0002509224 14:0.0046568625 
3 1:0.2153208 2:0.12939653 3:0.58120722 4:0.23666465 5:0.76330215 6:1.1110495e-05 7:1.1110495e-05 8:1.1110495e-05 9:0.3402487 10:0.98886704 11:0.011121851 12:1.1110741e-05 13:0.055736646 14:0.0046568625 
3 1:0.20504138 2:0.12807211 3:0.63470083 4:0.32443756 5:0.67552918 6:1.1110495e-05 7:1.1110495e-05 8:1.1110495e-05 9:0.39179495 10:0.99997783 11:1.1110742e-05 12:1.1110742e-05 13:0.0002509224 14:0.0046568625 
3 1:0.19380301 2:0.12297778 3:0.7000156 4:0.75552475 5:0.24444199 6:1.1110495e-05 7:1.1110495e-05 8:1.1110495e-05 9:0.34580415 10:0.99997783 11:1.1110742e-05 12:1.1110742e-05 13:0.0002509224 14:0.0046568625 
3 1:0.18440484 2:0.1279393 3:0.67560685 4:0.88107336 5:0.1188934 6:1.1110495e-05 7:1.1110495e-05 8:1.1110495e-05 9:0.22686407 10:0.99997783 11:1.1110742e-05 12:1.1110742e-05 13:0.0002509224 14:0.0046568625 
3 1:0.1806822 2:0.13452637 3:0.58693671 4:0.85885239 5:0.1411144 6:1.1110495e-05 7:1.1110495e-05 8:1.1110495e-05 9:0.25312546 10:0.99997783 11:1.1110742e-05 12:1.1110742e-05 13:0.0002509224 14:0.0046568625 
3 1:0.20436479 2:0.14422284 3:0.47172663 4:0.70886064 5:0.27777347 6:0.013343703 7:1.1110494e-05 8:1.1110494e-05 9:0.40858018 10:0.99997783 11:1.1110742e-05 12:1.1110742e-05 13:0.0002509224 14:0.0046568625 
3 1:0.10972472 2:0.27490768 3:0.22131813 4:0.99995565 5:1.1110495e-05 6:1.1110495e-05 7:1.1110495e-05 8:1.1110495e-05 9:0.00034255569 10:0.98331171 11:0.016677223 12:1.1110742e-05 13:0.077321857 14:0.0046568625 
3 1:0.10777853 2:0.2502521 3:0.2410351 4:0.99995565 5:1.1110495e-05 6:1.1110495e-05 7:1.1110495e-05 8:1.1110495e-05 9:0.00034255569 10:0.99997783 11:1.1110742e-05 12:1.1110742e-05 13:0.0002509224 14:0.0046568625 
0.7831583451592604 1:0.30219889 2:0.07831008 3:0.80817199 4:1.1110495e-05 5:0.99995565 6:1.1110495e-05 7:1.1110495e-05 8:1.1110495e-05 9:0.00034255566 10:0.99997783 11:1.1110742e-05 12:1.1110742e-05 13:0.0002509224 14:0.005147059 
3 1:0.29565871 2:0.081947736 3:0.82647246 4:1.1110495e-05 5:0.99995565 6:1.1110495e-05 7:1.1110495e-05 8:1.1110495e-05 9:0.00034255566 10:0.99997783 11:1.1110742e-05 12:1.1110742e-05 13:0.0002509224 14:0.005147059 
