svm_type c_svc
kernel_type polynomial
degree 4
gamma 1
coef0 0
nr_class 2
total_sv 10075
rho -6.51088
label 0 1
nr_sv 5093 4982
SV
3 1:0.39589342 2:0.065783389 3:0.7306785 4:0.59553361 5:1.1110494e-05 6:1.1110494e-05 7:0.1077829 8:0.29666129 9:0.5651105 10:0.99995559 11:1.1110495e-05 12:1.1110495e-05 13:1.1110495e-05 14:1.1110495e-05 15:0.00034259274 16:2.430425e-05 17:0.19333333 18:2.4509804e-05 19:0.036758147 20:0.076919645 21:0.008207514 22:0.39320305 23:0.40720376 24:0.028400198 25:0.0087243523 26:0.040583327 27:0.65574127 
3 1:0.11486676 2:0.11314905 3:0.86491585 4:0.99995565 5:1.1110495e-05 6:1.1110495e-05 7:1.1110495e-05 8:1.1110495e-05 9:0.00034255569 10:0.99995559 11:1.1110495e-05 12:1.1110495e-05 13:1.1110495e-05 14:1.1110495e-05 15:0.00034259274 16:1.2163252e-07 17:0.23 18:7.3529416e-05 19:0.17024019 20:0.12270623 21:0.26442382 22:0.055053197 23:0.14813137 24:0.066107608 25:0.10612459 26:0.067213058 27:0.93880582 
3 1:0.11219173 2:0.12219766 3:0.84797066 4:0.99995565 5:1.1110495e-05 6:1.1110495e-05 7:1.1110495e-05 8:1.1110495e-05 9:0.00034255569 10:0.99995559 11:1.1110495e-05 12:1.1110495e-05 13:1.1110495e-05 14:1.1110495e-05 15:0.00034259274 16:1.2059152e-07 17:0.24222222 18:7.3529416e-05 19:0.074801452 20:0.054220483 21:0.08457309 22:0.30369991 23:0.39397946 24:0.028710455 25:0.044189423 26:0.01582573 27:0.76712257 
3 1:0.10671218 2:0.13327147 3:0.85795319 4:0.99995565 5:1.1110495e-05 6:1.1110495e-05 7:1.1110495e-05 8:1.1110495e-05 9:0.00034255569 10:0.99995559 11:1.1110495e-05 12:1.1110495e-05 13:1.1110495e-05 14:1.1110495e-05 15:0.00034259274 16:7.2743518e-08 17:0.18555556 18:7.3529416e-05 19:0.16652699 20:0.15070719 21:0.25978053 22:0.069942944 23:0.19067299 24:0.034140237 25:0.10879859 26:0.0194306 27:0.89886349 
3 1:0.098331995 2:0.14351162 3:0.87993598 4:0.99995565 5:1.1110495e-05 6:1.1110495e-05 7:1.1110495e-05 8:1.1110495e-05 9:0.00034255569 10:0.99995559 11:1.1110495e-05 12:1.1110495e-05 13:1.1110495e-05 14:1.1110495e-05 15:0.00034259274 16:3.9659145e-07 17:0.25111112 18:7.3529416e-05 19:0.13782246 20:0.091992497 21:0.25132194 22:0.082065426 23:0.19986665 24:0.067836627 25:0.10804125 26:0.061053131 27:0.94272989 
3 1:0.093650445 2:0.082728349 3:0.96313906 4:0.97995675 5:0.020010002 6:1.1110495e-05 7:1.1110495e-05 8:1.1110495e-05 9:0.061195802 10:0.99995559 11:1.1110495e-05 12:1.1110495e-05 13:1.1110495e-05 14:1.1110495e-05 15:0.00034259274 16:4.4858184e-06 17:0.095555559 18:7.3529416e-05 19:0.011861344 20:0.053993288 21:0.46920034 22:0.34367773 23:0.091722846 24:0.021903154 25:0.0066585215 26:0.00098271493 27:0.61329782 
3 1:0.098036975 2:0.15981677 3:0.85129607 4:0.99440038 5:0.0055663581 6:1.1110495e-05 7:1.1110495e-05 8:1.1110495e-05 9:0.021659233 10:0.9988445 11:0.0011221599 12:1.1110495e-05 13:1.1110495e-05 14:1.1110495e-05 15:0.0056897704 16:9.8863329e-06 17:0.17222223 18:7.3529416e-05 19:0.016937722 20:0.079179391 21:0.70446038 22:0.16323319 23:0.031479143 24:0.0026441696 25:0.0020658178 26:2.7540563e-07 27:0.45679432 
3 1:0.091937229 2:0.18791063 3:0.67034805 4:0.99995565 5:1.1110495e-05 6:1.1110495e-05 7:1.1110495e-05 8:1.1110495e-05 9:0.00034255569 10:0.67108494 11:0.32888174 12:1.1110495e-05 13:1.1110495e-05 14:1.1110495e-05 15:0.39379218 16:1.1030035e-06 17:0.25444445 18:7.3529416e-05 19:0.13168563 20:0.13245797 21:0.29297721 22:0.12029352 23:0.11051048 24:0.051426012 25:0.091073096 26:0.069576144 27:0.93720418 
3 1:0.093336254 2:0.19696818 3:0.59314632 4:0.99995565 5:1.1110495e-05 6:1.1110495e-05 7:1.1110495e-05 8:1.1110495e-05 9:0.00034255569 10:0.56664634 11:0.4333204 12:1.1110495e-05 13:1.1110495e-05 14:1.1110495e-05 15:0.42538008 16:3.4484498e-07 17:0.27000001 18:7.3529416e-05 19:0.1093706 20:0.093124703 21:0.25529346 22:0.1214583 23:0.15607752 24:0.06856247 25:0.13596356 26:0.060149428 27:0.95301473 
3 1:0.099658273 2:0.18765135 3:0.60189581 4:0.98773402 5:1.1110494e-05 6:1.1110494e-05 7:0.0011221599 8:0.011121605 9:0.043556079 10:0.43887562 11:0.56109107 12:1.1110495e-05 13:1.1110495e-05 14:1.1110495e-05 15:0.42626703 16:1.3735799e-05 17:0.22555555 18:7.3529416e-05 19:0.1642216 20:0.085883282 21:0.039072707 22:0.020652499 23:0.018088743 24:0.11084754 25:0.24474297 26:0.31649062 27:0.83643174 
3 1:0.093297504 2:0.28021806 3:0.54218423 4:0.99995565 5:1.1110495e-05 6:1.1110495e-05 7:1.1110495e-05 8:1.1110495e-05 9:0.00034255569 10:1.1110495e-05 11:0.99995559 12:1.1110495e-05 13:1.1110495e-05 14:1.1110495e-05 15:0.00034259268 16:8.5639925e-08 17:0.25999999 18:7.3529416e-05 19:0.12916052 20:0.11471643 21:0.16548009 22:0.088549599 23:0.16903877 24:0.081432223 25:0.15658335 26:0.095038973 27:0.98286629 
3 1:0.097429171 2:0.31726965 3:0.54404908 4:0.99995565 5:1.1110495e-05 6:1.1110495e-05 7:1.1110495e-05 8:1.1110495e-05 9:0.00034255569 10:1.1110495e-05 11:0.99773353 12:0.0022332093 13:1.1110495e-05 14:1.1110495e-05 15:0.01011306 16:2.0601196e-07 17:0.2888889 18:7.3529416e-05 19:0.095235854 20:0.063573442 21:0.13012405 22:0.14337462 23:0.26109129 24:0.069230989 25:0.12114146 26:0.11622832 27:0.95423996 
3 1:0.091856457 2:0.34504527 3:0.56428444 4:0.99995565 5:1.1110495e-05 6:1.1110495e-05 7:1.1110495e-05 8:1.1110495e-05 9:0.00034255569 10:1.1110495e-05 11:0.86662972 12:0.13333705 13:1.1110495e-05 14:1.1110495e-05 15:0.24424063 16:1.2967025e-07 17:0.27333334 18:7.3529416e-05 19:0.10133661 20:0.088045456 21:0.11029529 22:0.10449418 23:0.21119057 24:0.12321929 25:0.18115696 26:0.080261685 27:0.97306961 
3 1:0.085517555 2:0.10522053 3:0.71855587 4:0.99995565 5:1.1110495e-05 6:1.1110495e-05 7:1.1110495e-05 8:1.1110495e-05 9:0.00034255569 10:0.99995559 11:1.1110495e-05 12:1.1110495e-05 13:1.1110495e-05 14:1.1110495e-05 15:0.00034259274 16:1.5418212e-06 17:0.28666666 18:0.00012254903 19:0.029990777 20:0.041897148 21:0.039147917 22:0.44883579 23:0.4160018 24:0.0035646984 25:0.007787853 26:0.012774103 27:0.57850891 
3 1:0.10221824 2:0.13672832 3:0.84414095 4:0.99995565 5:1.1110495e-05 6:1.1110495e-05 7:1.1110495e-05 8:1.1110495e-05 9:0.00034255569 10:0.99995559 11:1.1110495e-05 12:1.1110495e-05 13:1.1110495e-05 14:1.1110495e-05 15:0.00034259274 16:8.6979739e-08 17:0.21222222 18:0.00012254903 19:0.077619649 20:0.056813002 21:0.16175087 22:0.16826425 23:0.31282523 24:0.088113435 25:0.10783452 26:0.026779059 27:0.89954907 
0.35972886925744 1:0.055389982 2:0.040885467 3:0.97865313 4:0.98662305 5:0.013343704 6:1.1110495e-05 7:1.1110495e-05 8:1.1110495e-05 9:0.044281431 10:0.99662244 11:0.003344259 12:1.1110495e-05 13:1.1110495e-05 14:1.1110495e-05 15:0.014176415 16:4.1803755e-06 17:0.045555554 18:0.00012254903 19:0.00036743277 20:0.19414142 21:0.78210723 22:0.015637366 23:0.0076720403 24:3.670657e-07 25:7.3780211e-05 26:3.670657e-07 27:0.29644904 
1.999949000653999 1:0.10428714 2:0.2864919 3:0.6467275 4:0.99995565 5:1.1110495e-05 6:1.1110495e-05 7:1.1110495e-05 8:1.1110495e-05 9:0.00034255569 10:1.1110495e-05 11:0.99995559 12:1.1110495e-05 13:1.1110495e-05 14:1.1110495e-05 15:0.00034259268 16:1.289238e-06 17:0.26444444 18:0.00012254903 19:0.089632057 20:0.21298382 21:0.33313793 22:0.14050375 23:0.1119187 24:0.039923139 25:0.045543253 26:0.026357353 27:0.86451954 
3 1:0.10079142 2:0.39040196 3:0.5529294 4:0.99995565 5:1.1110495e-05 6:1.1110495e-05 7:1.1110495e-05 8:1.1110495e-05 9:0.00034255569 10:1.1110495e-05 11:0.64886403 12:0.35110274 13:1.1110495e-05 14:1.1110495e-05 15:0.40295166 16:6.2655047e-08 17:0.21555555 18:0.00012254903 19:0.14282358 20:0.086840004 21:0.16397813 22:0.080879331 23:0.15567993 24:0.1286816 25:0.16690002 26:0.074217401 27:0.97876132 
3 1:0.10166954 2:0.1144635 3:0.70219076 4:0.99995565 5:1.1110495e-05 6:1.1110495e-05 7:1.1110495e-05 8:1.1110495e-05 9:0.00034255569 10:0.99995559 11:1.1110495e-05 12:1.1110495e-05 13:1.1110495e-05 14:1.1110495e-05 15:0.00034259274 16:1.4614244e-06 17:0.29666665 18:0.00017156864 19:0.03598709 20:0.029220309 21:0.029920321 22:0.35738811 23:0.52486068 24:0.0033834979 25:0.010712413 26:0.0085275266 27:0.54938287 
3 1:0.11643801 2:0.12711285 3:0.79974079 4:0.99995565 5:1.1110495e-05 6:1.1110495e-05 7:1.1110495e-05 8:1.1110495e-05 9:0.00034255569 10:0.99995559 11:1.1110495e-05 12:1.1110495e-05 13:1.1110495e-05 14:1.1110495e-05 15:0.00034259274 16:1.8562136e-07 17:0.25 18:0.00017156864 19:0.17004183 20:0.16281945 21:0.28434405 22:0.080703974 23:0.1215262 24:0.047889177 25:0.099073969 26:0.0336014 27:0.91478252 
3 1:0.12567799 2:0.25772801 3:0.36079606 4:0.99995565 5:1.1110495e-05 6:1.1110495e-05 7:1.1110495e-05 8:1.1110495e-05 9:0.00034255569 10:1.1110495e-05 11:0.99995559 12:1.1110495e-05 13:1.1110495e-05 14:1.1110495e-05 15:0.00034259268 16:2.421921e-07 17:0.2888889 18:0.00022058823 19:0.10778904 20:0.092417523 21:0.12944038 22:0.08210735 23:0.21970122 24:0.1161309 25:0.15699664 26:0.095416844 27:0.97523355 
3 1:0.11714399 2:0.13113399 3:0.77057755 4:0.99995565 5:1.1110495e-05 6:1.1110495e-05 7:1.1110495e-05 8:1.1110495e-05 9:0.00034255569 10:0.99995559 11:1.1110495e-05 12:1.1110495e-05 13:1.1110495e-05 14:1.1110495e-05 15:0.00034259274 16:1.1908066e-07 17:0.23555556 18:0.00022058823 19:0.15146044 20:0.16400732 21:0.24753362 22:0.082811132 23:0.15199816 24:0.038000885 25:0.092490144 26:0.071698189 27:0.93968797 
3 1:0.11260697 2:0.16560051 3:0.79234695 4:0.99995565 5:1.1110495e-05 6:1.1110495e-05 7:1.1110495e-05 8:1.1110495e-05 9:0.00034255569 10:0.7966336 11:0.19777791 12:0.0055663576 13:1.1110495e-05 14:1.1110495e-05 15:0.32979986 16:2.0940074e-06 17:0.21777777 18:0.00022058823 19:0.030484954 20:0.071392372 21:0.19089583 22:0.25135306 23:0.25105542 24:0.068002716 25:0.11391471 26:0.022900933 27:0.87610239 
3 1:0.11830018 2:0.11302167 3:0.70275259 4:0.99995565 5:1.1110495e-05 6:1.1110495e-05 7:1.1110495e-05 8:1.1110495e-05 9:0.00034255569 10:0.99995559 11:1.1110495e-05 12:1.1110495e-05 13:1.1110495e-05 14:1.1110495e-05 15:0.00034259274 16:1.6378257e-07 17:0.28 18:0.00026960784 19:0.27549103 20:0.21280307 21:0.16359255 22:0.067388244 23:0.084412411 24:0.040521968 25:0.072176293 26:0.083614409 27:0.91283184 
3 1:0.11908194 2:0.13812634 3:0.69982904 4:0.99995565 5:1.1110495e-05 6:1.1110495e-05 7:1.1110495e-05 8:1.1110495e-05 9:0.00034255569 10:0.99995559 11:1.1110495e-05 12:1.1110495e-05 13:1.1110495e-05 14:1.1110495e-05 15:0.00034259274 16:8.4876071e-08 17:0.28 18:0.00026960784 19:0.27719355 20:0.1909605 21:0.20093442 22:0.050390229 23:0.075740665 24:0.03407868 25:0.094649605 26:0.076052353 27:0.90145296 
3 1:0.12485616 2:0.28183627 3:0.35219479 4:0.99995565 5:1.1110495e-05 6:1.1110495e-05 7:1.1110495e-05 8:1.1110495e-05 9:0.00034255569 10:1.1110495e-05 11:0.99995559 12:1.1110495e-05 13:1.1110495e-05 14:1.1110495e-05 15:0.00034259268 16:1.7608019e-07 17:0.28333333 18:0.00026960784 19:0.13485979 20:0.084338591 21:0.15482379 22:0.091998257 23:0.1633798 24:0.10511748 25:0.18252896 26:0.082953341 27:0.97950977 
0.8351440226280401 1:0.15773208 2:0.28487182 3:0.83424884 4:0.9899562 5:0.010010556 6:1.1110495e-05 7:1.1110495e-05 8:1.1110495e-05 9:0.035082549 10:0.090006113 11:0.88996172 12:0.02001 13:1.1110495e-05 14:1.1110495e-05 15:0.24790996 16:8.3675797e-05 17:0.047777779 18:0.00026960784 19:0.16073225 20:0.00032148915 21:0.00061451923 22:0.00037554323 23:0.00078237144 24:0.00029588456 25:0.0053760218 26:0.8315019 27:0.23729333 
3 1:0.12062864 2:0.10379853 3:0.67103624 4:0.99995565 5:1.1110495e-05 6:1.1110495e-05 7:1.1110495e-05 8:1.1110495e-05 9:0.00034255569 10:0.99995559 11:1.1110495e-05 12:1.1110495e-05 13:1.1110495e-05 14:1.1110495e-05 15:0.00034259274 16:1.0350393e-07 17:0.30333334 18:0.00031862748 19:0.3496244 20:0.20179152 21:0.12463226 22:0.024071148 23:0.044129882 24:0.032763265 25:0.09354122 26:0.12944634 27:0.85389543 
3 1:0.12211178 2:0.11364342 3:0.674209 4:0.99995565 5:1.1110495e-05 6:1.1110495e-05 7:1.1110495e-05 8:1.1110495e-05 9:0.00034255569 10:0.99995559 11:1.1110495e-05 12:1.1110495e-05 13:1.1110495e-05 14:1.1110495e-05 15:0.00034259274 16:9.767362e-08 17:0.31222221 18:0.00031862748 19:0.317357 20:0.19060276 21:0.16079669 22:0.056240138 23:0.059220742 24:0.03663088 25:0.08063405 26:0.098517694 27:0.89243954 
3 1:0.11375288 2:0.12679198 3:0.6863609 4:0.99995565 5:1.1110495e-05 6:1.1110495e-05 7:1.1110495e-05 8:1.1110495e-05 9:0.00034255569 10:0.99995559 11:1.1110495e-05 12:1.1110495e-05 13:1.1110495e-05 14:1.1110495e-05 15:0.00034259274 16:9.4624191e-08 17:0.30333334 18:0.00031862748 19:0.27822539 20:0.20588705 21:0.15051138 22:0.047658063 23:0.076019019 24:0.031413343 25:0.087147988 26:0.12313768 27:0.90724498 
3 1:0.11723563 2:0.12826663 3:0.68610352 4:0.99995565 5:1.1110495e-05 6:1.1110495e-05 7:1.1110495e-05 8:1.1110495e-05 9:0.00034255569 10:0.99995559 11:1.1110495e-05 12:1.1110495e-05 13:1.1110495e-05 14:1.1110495e-05 15:0.00034259274 16:9.0749317e-08 17:0.30777779 18:0.00031862748 19:0.33480111 20:0.20665227 21:0.14602897 22:0.044158544 23:0.064449467 24:0.03193409 25:0.09388794 26:0.078087628 27:0.87466913 
3 1:0.11735795 2:0.13572341 3:0.6824832 4:0.99995565 5:1.1110495e-05 6:1.1110495e-05 7:1.1110495e-05 8:1.1110495e-05 9:0.00034255569 10:0.99995559 11:1.1110495e-05 12:1.1110495e-05 13:1.1110495e-05 14:1.1110495e-05 15:0.00034259274 16:1.265995e-07 17:0.29666665 18:0.00031862748 19:0.32594231 20:0.18345107 21:0.15658459 22:0.043349806 23:0.062139858 24:0.022169791 25:0.094692796 26:0.11166978 27:0.87906897 
3 1:0.12159698 2:0.13890655 3:0.67846543 4:0.99995565 5:1.1110495e-05 6:1.1110495e-05 7:1.1110495e-05 8:1.1110495e-05 9:0.00034255569 10:0.99995559 11:1.1110495e-05 12:1.1110495e-05 13:1.1110495e-05 14:1.1110495e-05 15:0.00034259274 16:1.1501307e-07 17:0.29666665 18:0.00031862748 19:0.28925893 20:0.15484466 21:0.16572762 22:0.043055523 23:0.081718713 24:0.049928974 25:0.11007172 26:0.10539395 27:0.92105496 
3 1:0.13069271 2:0.29886332 3:0.31693104 4:0.99995565 5:1.1110495e-05 6:1.1110495e-05 7:1.1110495e-05 8:1.1110495e-05 9:0.00034255569 10:1.1110495e-05 11:0.99995559 12:1.1110495e-05 13:1.1110495e-05 14:1.1110495e-05 15:0.00034259268 16:2.4591824e-07 17:0.26444444 18:0.00031862748 19:0.14453813 20:0.078390785 21:0.11464372 22:0.077726468 23:0.20442192 24:0.1139794 25:0.15459786 26:0.11170173 27:0.97697037 
3 1:0.13039804 2:0.095525257 3:0.66423047 4:0.99995565 5:1.1110495e-05 6:1.1110495e-05 7:1.1110495e-05 8:1.1110495e-05 9:0.00034255569 10:0.99995559 11:1.1110495e-05 12:1.1110495e-05 13:1.1110495e-05 14:1.1110495e-05 15:0.00034259274 16:9.6826746e-08 17:0.30000001 18:0.00036764707 19:0.32903385 20:0.15075326 21:0.12452912 22:0.04303148 23:0.054042716 24:0.0300643 25:0.10656342 26:0.16198182 27:0.88595223 
3 1:0.12992828 2:0.10384621 3:0.66956341 4:0.99995565 5:1.1110495e-05 6:1.1110495e-05 7:1.1110495e-05 8:1.1110495e-05 9:0.00034255569 10:0.99995559 11:1.1110495e-05 12:1.1110495e-05 13:1.1110495e-05 14:1.1110495e-05 15:0.00034259274 16:1.1343867e-07 17:0.31777778 18:0.00036764707 19:0.371292 20:0.171307 21:0.098218165 22:0.036057856 23:0.04893541 24:0.032507826 25:0.093415186 26:0.14826663 27:0.85663497 
3 1:0.12293015 2:0.11600992 3:0.67874849 4:0.99995565 5:1.1110495e-05 6:1.1110495e-05 7:1.1110495e-05 8:1.1110495e-05 9:0.00034255569 10:0.99995559 11:1.1110495e-05 12:1.1110495e-05 13:1.1110495e-05 14:1.1110495e-05 15:0.00034259274 16:1.1751528e-07 17:0.30666667 18:0.00036764707 19:0.33284 20:0.20757315 21:0.11234967 22:0.025024582 23:0.053001091 24:0.021924281 25:0.095667116 26:0.15162013 27:0.85618687 
3 1:0.1169164 2:0.12655275 3:0.68093163 4:0.99995565 5:1.1110495e-05 6:1.1110495e-05 7:1.1110495e-05 8:1.1110495e-05 9:0.00034255569 10:0.99995559 11:1.1110495e-05 12:1.1110495e-05 13:1.1110495e-05 14:1.1110495e-05 15:0.00034259274 16:1.0914181e-07 17:0.3311111 18:0.00036764707 19:0.28851402 20:0.18230267 21:0.12408924 22:0.038459171 23:0.055209611 24:0.035379492 25:0.1259671 26:0.15007871 27:0.90261072 
3 1:0.11533233 2:0.12560913 3:0.67804748 4:0.99995565 5:1.1110495e-05 6:1.1110495e-05 7:1.1110495e-05 8:1.1110495e-05 9:0.00034255569 10:0.99995559 11:1.1110495e-05 12:1.1110495e-05 13:1.1110495e-05 14:1.1110495e-05 15:0.00034259274 16:7.2006173e-08 17:0.32333332 18:0.00036764707 19:0.22340007 20:0.16311279 21:0.13675025 22:0.047894776 23:0.10944242 24:0.069846064 25:0.1250919 26:0.12446172 27:0.95968968 
3 1:0.11736403 2:0.13147216 3:0.66994631 4:0.99995565 5:1.1110495e-05 6:1.1110495e-05 7:1.1110495e-05 8:1.1110495e-05 9:0.00034255569 10:0.99995559 11:1.1110495e-05 12:1.1110495e-05 13:1.1110495e-05 14:1.1110495e-05 15:0.00034259274 16:5.8039191e-08 17:0.29555556 18:0.00036764707 19:0.23755583 20:0.15874042 21:0.17669836 22:0.048443202 23:0.089569099 24:0.062410489 25:0.11107428 26:0.11550835 27:0.94697601 
3 1:0.12371337 2:0.13701768 3:0.66287118 4:0.99995565 5:1.1110495e-05 6:1.1110495e-05 7:1.1110495e-05 8:1.1110495e-05 9:0.00034255569 10:0.99995559 11:1.1110495e-05 12:1.1110495e-05 13:1.1110495e-05 14:1.1110495e-05 15:0.00034259274 16:6.9691083e-08 17:0.30444443 18:0.00036764707 19:0.32318816 20:0.14792883 21:0.1578846 22:0.035409711 23:0.053348903 24:0.03127712 25:0.13910012 26:0.11186259 27:0.88563442 
3 1:0.1271137 2:0.31931978 3:0.29042554 4:0.99995565 5:1.1110495e-05 6:1.1110495e-05 7:1.1110495e-05 8:1.1110495e-05 9:0.00034255569 10:1.1110495e-05 11:0.99995559 12:1.1110495e-05 13:1.1110495e-05 14:1.1110495e-05 15:0.00034259268 16:1.8608223e-07 17:0.23666666 18:0.00036764707 19:0.15436535 20:0.060299698 21:0.12493969 22:0.077665672 23:0.15713908 24:0.10528237 25:0.20537788 26:0.11493014 27:0.97028005 
3 1:0.12618606 2:0.28118968 3:0.3685174 4:0.99995565 5:1.1110495e-05 6:1.1110495e-05 7:1.1110495e-05 8:1.1110495e-05 9:0.00034255569 10:1.1110495e-05 11:0.99995559 12:1.1110495e-05 13:1.1110495e-05 14:1.1110495e-05 15:0.00034259268 16:4.6620181e-07 17:0.23999999 18:0.00036764707 19:0.064813115 20:0.044168055 21:0.14806259 22:0.28970042 23:0.29508758 24:0.044034213 25:0.069531038 26:0.044603042 27:0.85532993 
0.04150262763868458 1:0.16499536 2:0.58588701 3:0.056078251 4:0.66775185 5:0.33221489 6:1.1110495e-05 7:1.1110495e-05 8:1.1110495e-05 9:0.3952536 10:0.0077884556 11:0.04556413 12:0.44554189 13:0.49665016 14:0.004455308 15:0.56570005 16:3.8061887e-07 17:0.10666667 18:0.00036764707 19:0.34140944 20:0.063526258 21:0.093030639 22:0.012044112 23:0.072407678 24:0.033720806 25:0.10432059 26:0.27954051 27:0.82361555 
3 1:0.12961304 2:0.32483575 3:0.25858709 4:0.99995565 5:1.1110495e-05 6:1.1110495e-05 7:1.1110495e-05 8:1.1110495e-05 9:0.00034255569 10:1.1110495e-05 11:0.99995559 12:1.1110495e-05 13:1.1110495e-05 14:1.1110495e-05 15:0.00034259268 16:1.9472522e-07 17:0.24111111 18:0.00041666668 19:0.13765731 20:0.10957196 21:0.15806013 22:0.070403583 23:0.20780775 24:0.061209716 25:0.16977286 26:0.085516781 27:0.96299255 
3 1:0.12601958 2:0.30051306 3:0.32150179 4:0.99995565 5:1.1110495e-05 6:1.1110495e-05 7:1.1110495e-05 8:1.1110495e-05 9:0.00034255569 10:1.1110495e-05 11:0.99995559 12:1.1110495e-05 13:1.1110495e-05 14:1.1110495e-05 15:0.00034259268 16:1.4549653e-07 17:0.23 18:0.00041666668 19:0.067092925 20:0.055939913 21:0.12012783 22:0.33017623 23:0.25564855 24:0.069765002 25:0.066337772 26:0.034911837 27:0.86300492 
3 1:0.12886532 2:0.18028343 3:0.54303408 4:0.99995565 5:1.1110495e-05 6:1.1110495e-05 7:1.1110495e-05 8:1.1110495e-05 9:0.00034255569 10:0.9521805 11:0.04778624 12:1.1110495e-05 13:1.1110495e-05 14:1.1110495e-05 15:0.11951782 16:8.6409472e-07 17:0.23666666 18:0.00046568626 19:0.019461418 20:0.013477491 21:0.022749882 22:0.38076118 23:0.51256931 24:0.012650884 25:0.023953855 26:0.014375979 27:0.54661298 
3 1:0.1369624 2:0.17127056 3:0.54767895 4:0.99995565 5:1.1110495e-05 6:1.1110495e-05 7:1.1110495e-05 8:1.1110495e-05 9:0.00034255569 10:0.99995559 11:1.1110495e-05 12:1.1110495e-05 13:1.1110495e-05 14:1.1110495e-05 15:0.00034259274 16:4.8303985e-08 17:0.22222222 18:0.00046568626 19:0.12873279 20:0.1032325 21:0.1434961 22:0.046527937 23:0.13879867 24:0.098758765 25:0.15993707 26:0.18051623 27:0.97360879 
3 1:0.1307324 2:0.18020876 3:0.55103368 4:0.99995565 5:1.1110495e-05 6:1.1110495e-05 7:1.1110495e-05 8:1.1110495e-05 9:0.00034255569 10:0.99217826 11:0.0077884565 12:1.1110495e-05 13:1.1110495e-05 14:1.1110495e-05 15:0.028572174 16:4.0718337e-08 17:0.23111111 18:0.00046568626 19:0.16657288 20:0.11394189 21:0.1524353 22:0.042274162 23:0.1682526 24:0.087486424 25:0.17427157 26:0.094765179 27:0.96530974 
3 1:0.12905793 2:0.18295413 3:0.5489381 4:0.99995565 5:1.1110495e-05 6:1.1110495e-05 7:1.1110495e-05 8:1.1110495e-05 9:0.00034255569 10:0.94440317 11:0.05556358 12:1.1110495e-05 13:1.1110495e-05 14:1.1110495e-05 15:0.13358296 16:4.0480074e-08 17:0.18888889 18:0.00046568626 19:0.1627351 20:0.084578268 21:0.1648286 22:0.083880439 23:0.16803861 24:0.08904437 25:0.15408203 26:0.092812642 27:0.97781426 
3 1:0.12949865 2:0.18954428 3:0.54584008 4:0.99995565 5:1.1110495e-05 6:1.1110495e-05 7:1.1110495e-05 8:1.1110495e-05 9:0.00034255569 10:0.76441312 11:0.23555358 12:1.1110495e-05 13:1.1110495e-05 14:1.1110495e-05 15:0.3394382 16:4.6098194e-08 17:0.18222222 18:0.00046568626 19:0.10986712 20:0.14021401 21:0.1669907 22:0.060370848 23:0.18240756 24:0.10710831 25:0.14849044 26:0.084550992 27:0.97534907 
3 1:0.13120648 2:0.19322537 3:0.54162234 4:0.99995565 5:1.1110495e-05 6:1.1110495e-05 7:1.1110495e-05 8:1.1110495e-05 9:0.00034255569 10:0.73774797 11:0.26221877 12:1.1110495e-05 13:1.1110495e-05 14:1.1110495e-05 15:0.3577449 16:6.6657073e-08 17:0.24333334 18:0.00046568626 19:0.16065823 20:0.08357282 21:0.16452497 22:0.071473651 23:0.15379788 24:0.10639908 25:0.16988853 26:0.089684762 27:0.97642738 
3 1:0.13844857 2:0.31627613 3:0.23106103 4:0.99995565 5:1.1110495e-05 6:1.1110495e-05 7:1.1110495e-05 8:1.1110495e-05 9:0.00034255569 10:1.1110495e-05 11:0.99995559 12:1.1110495e-05 13:1.1110495e-05 14:1.1110495e-05 15:0.00034259268 16:1.8350721e-07 17:0.25 18:0.00046568626 19:0.31867507 20:0.1047511 21:0.1165178 22:0.045298275 23:0.12810756 24:0.058303576 25:0.092453562 26:0.13589305 27:0.91935074 
0.0282028547960444 1:0.12680237 2:0.30437148 3:0.31384662 4:0.99995565 5:1.1110495e-05 6:1.1110495e-05 7:1.1110495e-05 8:1.1110495e-05 9:0.00034255569 10:0.10444976 11:0.8432976 12:0.052230433 13:1.1110495e-05 14:1.1110495e-05 15:0.3318719 16:1.7017417e-05 17:0.21777777 18:0.00046568626 19:0.056210715 20:0.012017742 21:0.083055101 22:0.48208153 23:0.29485542 24:0.016010391 25:0.029728498 26:0.026040597 27:0.67285454 
3 1:0.13327877 2:0.15631378 3:0.50199294 4:0.99995565 5:1.1110495e-05 6:1.1110495e-05 7:1.1110495e-05 8:1.1110495e-05 9:0.00034255569 10:0.96662408 11:0.033342596 12:1.1110495e-05 13:1.1110495e-05 14:1.1110495e-05 15:0.091080472 16:3.2441794e-06 17:0.26444444 18:0.0005147059 19:0.38719749 20:0.038745064 21:0.0031304418 22:0.057803664 23:0.053574562 24:0.0051330924 25:0.044546645 26:0.40986905 27:0.65603465 
3 1:0.13883796 2:0.15233493 3:0.51253802 4:0.99995565 5:1.1110495e-05 6:1.1110495e-05 7:1.1110495e-05 8:1.1110495e-05 9:0.00034255569 10:0.96662408 11:0.033342596 12:1.1110495e-05 13:1.1110495e-05 14:1.1110495e-05 15:0.091080472 16:1.8116716e-06 17:0.25333333 18:0.0005147059 19:0.38815692 20:0.01290283 21:0.0054028886 22:0.0032426533 23:0.0070399772 24:0.0058628973 25:0.02834468 26:0.54904711 27:0.46429256 
3 1:0.13576993 2:0.16793847 3:0.51461607 4:0.99995565 5:1.1110495e-05 6:1.1110495e-05 7:1.1110495e-05 8:1.1110495e-05 9:0.00034255569 10:0.93551475 11:0.064451978 12:1.1110495e-05 13:1.1110495e-05 14:1.1110495e-05 15:0.14878288 16:1.0757857e-06 17:0.30333334 18:0.0005147059 19:0.42899039 20:0.02268583 21:0.0078773778 22:0.0039827325 23:0.0084494716 24:0.01381836 25:0.050080363 26:0.46411553 27:0.53611994 
3 1:0.1379108 2:0.16965312 3:0.50900382 4:0.99995565 5:1.1110495e-05 6:1.1110495e-05 7:1.1110495e-05 8:1.1110495e-05 9:0.00034255569 10:0.95551366 11:0.044453088 12:1.1110495e-05 13:1.1110495e-05 14:1.1110495e-05 15:0.11324376 16:1.7369243e-06 17:0.26777777 18:0.0005147059 19:0.39643884 20:0.01925589 21:0.011086429 22:0.023550095 23:0.02435133 24:0.0086355908 25:0.048351739 26:0.46833012 27:0.58395046 
3 1:0.11274142 2:0.13939737 3:0.66901457 4:0.99106717 5:0.004455308 6:1.1110494e-05 7:1.1110494e-05 8:0.004455308 9:0.035655517 10:0.98551196 11:0.014454753 12:1.1110495e-05 13:1.1110495e-05 14:1.1110495e-05 15:0.047223769 16:6.888029e-06 17:0.20222223 18:2.4509804e-05 19:0.86916125 20:0.058294743 21:0.0036308619 22:0.0019497047 23:0.0020985571 24:0.0011704182 25:0.002702723 26:0.0609916 27:0.25369871 
3 1:0.1018777 2:0.24141449 3:0.20748393 4:0.99995565 5:1.1110495e-05 6:1.1110495e-05 7:1.1110495e-05 8:1.1110495e-05 9:0.00034255569 10:0.11000501 11:0.88996172 12:1.1110495e-05 13:1.1110495e-05 14:1.1110495e-05 15:0.21556312 16:2.2317705e-07 17:0.30777779 18:2.4509804e-05 19:0.29756901 20:0.065053843 21:0.10522135 22:0.10474379 23:0.12920512 24:0.065902822 25:0.096360087 26:0.13594392 27:0.93874049 
3 1:0.1121057 2:0.24142374 3:0.47831672 4:0.99995565 5:1.1110495e-05 6:1.1110495e-05 7:1.1110495e-05 8:1.1110495e-05 9:0.00034255569 10:0.036675744 11:0.95551366 12:0.0055663576 13:0.0011221599 14:0.0011221599 15:0.12977089 16:1.5260556e-06 17:0.25222221 18:2.4509804e-05 19:0.39866817 20:0.25597042 21:0.063994706 22:0.0098980023 23:0.052289758 24:0.025778631 25:0.050751347 26:0.14264898 27:0.77651411 
3 1:0.079308197 2:0.21199454 3:0.53463322 4:0.99995565 5:1.1110495e-05 6:1.1110495e-05 7:1.1110495e-05 8:1.1110495e-05 9:0.00034255569 10:0.37221268 11:0.62775403 12:1.1110495e-05 13:1.1110495e-05 14:1.1110495e-05 15:0.41040465 16:1.6467694e-06 17:0.25999999 18:7.3529416e-05 19:0.28229046 20:0.14180118 21:0.16725257 22:0.072599635 23:0.067712016 24:0.042201024 25:0.10901837 26:0.11712467 27:0.9291985 
3 1:0.097980708 2:0.17011783 3:0.60307217 4:0.99995565 5:1.1110495e-05 6:1.1110495e-05 7:1.1110495e-05 8:1.1110495e-05 9:0.00034255569 10:0.84663075 11:0.15333593 12:1.1110495e-05 13:1.1110495e-05 14:1.1110495e-05 15:0.26646584 16:3.8625617e-06 17:0.21444444 18:7.3529416e-05 19:0.45541254 20:0.17644358 21:0.11504225 22:0.022217464 23:0.017347964 24:0.01727188 25:0.047477979 26:0.14878637 27:0.75320315 
3 1:0.2257829 2:0.12029845 3:0.6822263 4:0.82996511 5:1.1110495e-05 6:1.1110495e-05 7:0.035564695 8:0.1344481 9:0.33761725 10:0.92773741 11:0.072229326 12:1.1110495e-05 13:1.1110495e-05 14:1.1110495e-05 15:0.1614096 16:1.8454029e-05 17:0.16777778 18:7.3529416e-05 19:0.34070301 20:0.20591754 21:0.093299784 22:0.047897127 23:0.051729139 24:0.022891566 25:0.066590577 26:0.17097124 27:0.85655636 
3 1:0.11033195 2:0.15036784 3:0.66444391 4:0.99995565 5:1.1110495e-05 6:1.1110495e-05 7:1.1110495e-05 8:1.1110495e-05 9:0.00034255569 10:0.95551366 11:0.044453088 12:1.1110495e-05 13:1.1110495e-05 14:1.1110495e-05 15:0.11324376 16:5.4049056e-06 17:0.20444444 18:7.3529416e-05 19:0.60374808 20:0.13065159 21:0.048416674 22:0.0053516403 23:0.0049148016 24:0.01456166 25:0.045722831 26:0.14663261 27:0.60373408 
3 1:0.11055615 2:0.14347667 3:0.68244755 4:0.99995565 5:1.1110495e-05 6:1.1110495e-05 7:1.1110495e-05 8:1.1110495e-05 9:0.00034255569 10:0.99995559 11:1.1110495e-05 12:1.1110495e-05 13:1.1110495e-05 14:1.1110495e-05 15:0.00034259274 16:2.2943632e-06 17:0.16888888 18:7.3529416e-05 19:0.52451128 20:0.1304969 21:0.043308709 22:0.0073376247 23:0.016342307 24:0.01052976 25:0.058030646 26:0.2094427 27:0.66558027 
3 1:0.11681279 2:0.1295898 3:0.31700495 4:0.98106772 5:0.014454752 6:1.1110494e-05 7:1.1110494e-05 8:0.004455308 9:0.064846143 10:0.76441312 11:0.23555358 12:1.1110495e-05 13:1.1110495e-05 14:1.1110495e-05 15:0.3394382 16:7.3934048e-06 17:0.20888889 18:7.3529416e-05 19:0.12059239 20:0.050224014 21:0.027258471 22:0.016741542 23:0.088397704 24:0.10645739 25:0.30220106 26:0.28812739 27:0.83920056 
3 1:0.09910661 2:0.36618161 3:0.3973361 4:0.99995565 5:1.1110495e-05 6:1.1110495e-05 7:1.1110495e-05 8:1.1110495e-05 9:0.00034255569 10:1.1110495e-05 11:0.89551699 12:0.087784015 13:0.016676851 14:1.1110495e-05 15:0.2366762 16:5.7018764e-07 17:0.22888888 18:7.3529416e-05 19:0.31605995 20:0.085465349 21:0.088881023 22:0.035756335 23:0.12587209 24:0.068968356 25:0.13909876 26:0.13989817 27:0.91531044 
3 1:0.064597778 2:0.30729967 3:0.46879143 4:0.99995565 5:1.1110495e-05 6:1.1110495e-05 7:1.1110495e-05 8:1.1110495e-05 9:0.00034255569 10:1.1110495e-05 11:0.99995559 12:1.1110495e-05 13:1.1110495e-05 14:1.1110495e-05 15:0.00034259268 16:1.8795726e-07 17:0.25999999 18:0.00012254903 19:0.18036611 20:0.13280971 21:0.12635253 22:0.098604023 23:0.14301908 24:0.055759646 25:0.15532266 26:0.10776626 27:0.97876853 
1.791326998202024 1:0.067407049 2:0.2985568 3:0.47301361 4:0.99995565 5:1.1110495e-05 6:1.1110495e-05 7:1.1110495e-05 8:1.1110495e-05 9:0.00034255569 10:1.1110495e-05 11:0.99995559 12:1.1110495e-05 13:1.1110495e-05 14:1.1110495e-05 15:0.00034259268 16:3.8269033e-07 17:0.27000001 18:0.00012254903 19:0.12251689 20:0.18326882 21:0.3257466 22:0.12396336 23:0.074686795 24:0.044503685 25:0.077820823 26:0.04749307 27:0.89835161 
3 1:0.11376271 2:0.1584142 3:0.68503976 4:0.96440202 5:0.017787902 6:1.1110495e-05 7:0.0022332096 8:0.015565803 9:0.11506053 10:0.56553531 11:0.43443143 12:1.1110495e-05 13:1.1110495e-05 14:1.1110495e-05 15:0.42556369 16:5.8215574e-05 17:0.18222222 18:0.00012254903 19:0.24414787 20:0.3403739 21:0.081014618 22:0.04354037 23:0.038438391 24:0.013630237 25:0.059733313 26:0.17912127 27:0.82295561 
3 1:0.087688886 2:0.24801978 3:0.50523877 4:0.99995565 5:1.1110495e-05 6:1.1110495e-05 7:1.1110495e-05 8:1.1110495e-05 9:0.00034255569 10:0.13222599 11:0.86774069 12:1.1110495e-05 13:1.1110495e-05 14:1.1110495e-05 15:0.24294524 16:1.9426859e-06 17:0.27000001 18:0.00012254903 19:0.10276052 20:0.05783505 21:0.13686058 22:0.3915014 23:0.17236795 24:0.024817536 25:0.051664565 26:0.062192284 27:0.84569651 
3 1:0.085433714 2:0.41200855 3:0.35200721 4:0.99995565 5:1.1110495e-05 6:1.1110495e-05 7:1.1110495e-05 8:1.1110495e-05 9:0.00034255569 10:1.1110495e-05 11:0.38554525 12:0.61442143 13:1.1110495e-05 14:1.1110495e-05 15:0.41449931 16:2.6675022e-07 17:0.23555556 18:0.00012254903 19:0.48263919 20:0.079946473 21:0.082261063 22:0.03490451 23:0.057726387 24:0.037450563 25:0.075132117 26:0.14993973 27:0.79002249 
3 1:0.062276769 2:0.37437889 3:0.49712643 4:0.99995565 5:1.1110495e-05 6:1.1110495e-05 7:1.1110495e-05 8:1.1110495e-05 9:0.00034255569 10:1.1110495e-05 11:0.92329323 12:0.076673523 13:1.1110495e-05 14:1.1110495e-05 15:0.16836911 16:3.8753532e-07 17:0.27222222 18:0.00017156864 19:0.19162171 20:0.19502327 21:0.17637768 22:0.083212808 23:0.083527759 24:0.058331039 25:0.10292924 26:0.10897645 27:0.96037322 
3 1:0.066387653 2:0.3784239 3:0.47872114 4:0.99995565 5:1.1110495e-05 6:1.1110495e-05 7:1.1110495e-05 8:1.1110495e-05 9:0.00034255569 10:1.1110495e-05 11:0.81552142 12:0.18444532 13:1.1110495e-05 14:1.1110495e-05 15:0.29729283 16:1.0548052e-07 17:0.2888889 18:0.00017156864 19:0.15911631 20:0.12018494 21:0.14607072 22:0.089265831 23:0.19126807 24:0.082486227 25:0.13035434 26:0.081253573 27:0.97888148 
3 1:0.15416361 2:0.28390536 3:0.56295466 4:0.88218439 5:1.1110495e-05 6:1.1110495e-05 7:0.020010002 8:0.097783461 9:0.25875813 10:0.21777681 11:0.66997391 12:0.1122271 13:1.1110495e-05 14:1.1110495e-05 15:0.52565527 16:3.266591e-05 17:0.15222222 18:0.00017156864 19:0.31733614 20:0.17502747 21:0.063226134 22:0.046164181 23:0.061043497 24:0.051633466 25:0.082243457 26:0.20332563 27:0.88431025 
3 1:0.07076662 2:0.3520844 3:0.44061723 4:0.99995565 5:1.1110495e-05 6:1.1110495e-05 7:1.1110495e-05 8:1.1110495e-05 9:0.00034255569 10:1.1110495e-05 11:0.9010722 12:0.098894514 13:1.1110495e-05 14:1.1110495e-05 15:0.20072673 16:1.8163513e-07 17:0.26333332 18:0.00017156864 19:0.087583192 20:0.069852777 21:0.20240875 22:0.28700814 23:0.1895753 24:0.062760606 25:0.063492335 26:0.03731887 27:0.89809638 
3 1:0.44294119 2:0.015809076 3:0.49037534 4:0.33443695 5:0.052230425 6:0.155558 7:0.34888059 8:0.10889394 9:0.88154507 10:0.99995559 11:1.1110495e-05 12:1.1110495e-05 13:1.1110495e-05 14:1.1110495e-05 15:0.00034259274 16:7.5034723e-07 17:0.26111111 18:0.00017156864 19:0.16696262 20:0.11312469 21:0.087465867 22:0.20479079 23:0.13506311 24:0.081345193 25:0.061711032 26:0.1495367 27:0.96842504 
3 1:0.08085335 2:0.46644992 3:0.37035605 4:0.99995565 5:1.1110495e-05 6:1.1110495e-05 7:1.1110495e-05 8:1.1110495e-05 9:0.00034255569 10:1.1110495e-05 11:1.1110495e-05 12:0.99995559 13:1.1110495e-05 14:1.1110495e-05 15:0.00034259268 16:1.0653262e-07 17:0.23222223 18:0.00017156864 19:0.23861207 20:0.17703804 21:0.10477991 22:0.051828101 23:0.10627943 24:0.054077379 25:0.13701959 26:0.13036548 27:0.94841194 
3 1:0.08136189 2:0.49136963 3:0.34735361 4:0.99995565 5:1.1110495e-05 6:1.1110495e-05 7:1.1110495e-05 8:1.1110495e-05 9:0.00034255569 10:1.1110495e-05 11:1.1110495e-05 12:0.99995559 13:1.1110495e-05 14:1.1110495e-05 15:0.00034259268 16:1.0237502e-07 17:0.26666668 18:0.00017156864 19:0.17924096 20:0.13743788 21:0.15484881 22:0.080242544 23:0.1577927 24:0.065018483 25:0.12633525 26:0.099083357 27:0.97700775 
3 1:0.073089421 2:0.44818902 3:0.48117906 4:0.99995565 5:1.1110495e-05 6:1.1110495e-05 7:1.1110495e-05 8:1.1110495e-05 9:0.00034255569 10:1.1110495e-05 11:0.04223099 12:0.95773572 13:1.1110495e-05 14:1.1110495e-05 15:0.10897144 16:6.0882894e-07 17:0.27000001 18:0.00022058823 19:0.16445193 20:0.10768896 21:0.17395873 22:0.18391034 23:0.12920441 24:0.043309417 25:0.098237731 26:0.099238448 27:0.96664327 
3 1:0.072112136 2:0.44519171 3:0.46352765 4:0.99995565 5:1.1110495e-05 6:1.1110495e-05 7:1.1110495e-05 8:1.1110495e-05 9:0.00034255569 10:1.1110495e-05 11:0.018898951 12:0.98106778 13:1.1110495e-05 14:1.1110495e-05 15:0.05848961 16:3.4612688e-07 17:0.25111112 18:0.00022058823 19:0.16835363 20:0.10151874 21:0.13742022 22:0.055493582 23:0.11698543 24:0.070960283 25:0.17922717 26:0.17004091 27:0.96829021 
3 1:0.072494507 2:0.43743131 3:0.4544557 4:0.99995565 5:1.1110495e-05 6:1.1110495e-05 7:1.1110495e-05 8:1.1110495e-05 9:0.00034255569 10:1.1110495e-05 11:0.08889506 12:0.91107166 13:1.1110495e-05 14:1.1110495e-05 15:0.18663928 16:1.4260088e-07 17:0.24333334 18:0.00022058823 19:0.17555457 20:0.11844821 21:0.16971806 22:0.069123879 23:0.11490053 24:0.064546213 25:0.16285156 26:0.12485694 27:0.97364837 
3 1:0.15780383 2:0.052488253 3:0.39652604 4:0.86440754 5:0.11778235 6:1.1110494e-05 7:0.0011221599 8:0.016676851 9:0.28202385 10:0.99995559 11:1.1110495e-05 12:1.1110495e-05 13:1.1110495e-05 14:1.1110495e-05 15:0.00034259274 16:8.3428847e-07 17:0.26888889 18:0.00022058823 19:0.17710291 20:0.11264621 21:0.14673705 22:0.1633817 23:0.13608071 24:0.082728304 25:0.099255055 26:0.082068175 27:0.98208696 
0.363527585816828 1:0.12403613 2:0.2188127 3:0.71413535 4:0.9966225 5:1.1110495e-05 6:1.1110495e-05 7:1.1110495e-05 8:0.0033442592 9:0.014176381 10:0.61664355 11:0.27110717 12:0.1122271 13:1.1110495e-05 14:1.1110495e-05 15:0.55777562 16:0.00014794536 17:0.084444441 18:0.00026960784 19:0.00064743689 20:0.037097137 21:0.42865211 22:0.48791075 23:0.03845029 24:0.0069248034 25:0.00021789117 26:9.9610465e-05 27:0.48219028 
3 1:0.18797107 2:0.21094559 3:0.32187659 4:0.87551802 5:0.004455308 6:0.041119937 7:0.05556358 8:0.023343148 9:0.32311723 10:0.48776183 11:0.44998613 12:0.05556358 13:0.0066774073 14:1.1110495e-05 15:0.56148458 16:1.5440155e-05 17:0.28444445 18:0.00026960784 19:0.18751758 20:0.065835245 21:0.035097126 22:0.084376581 23:0.10990226 24:0.10597064 25:0.1908751 26:0.2204255 27:0.93734753 
3 1:0.12035725 2:0.17319271 3:0.28178072 4:0.99995565 5:1.1110495e-05 6:1.1110495e-05 7:1.1110495e-05 8:1.1110495e-05 9:0.00034255569 10:0.88551754 11:0.1144492 12:1.1110495e-05 13:1.1110495e-05 14:1.1110495e-05 15:0.22127414 16:1.9091767e-07 17:0.32444444 18:0.00031862748 19:0.11872835 20:0.099023998 21:0.12766829 22:0.078589842 23:0.16557181 24:0.14951642 25:0.15498985 26:0.1059114 27:0.98742771 
3 1:0.1819236 2:0.31004319 3:0.39219108 4:0.87662911 5:1.1110495e-05 6:1.1110495e-05 7:0.00112216 8:0.12222655 9:0.23623654 10:0.17444587 11:0.60219991 12:0.20999946 13:0.013343704 14:1.1110495e-05 15:0.61852998 16:7.8209647e-05 17:0.20666666 18:0.00036764707 19:0.29050362 20:0.18421775 21:0.17683697 22:0.06216931 23:0.067284636 24:0.03841491 25:0.041659486 26:0.13891329 27:0.89601332 
3 1:0.36439776 2:0.17391762 3:0.24375089 4:0.59997779 5:1.1110494e-05 6:1.1110494e-05 7:0.15555802 8:0.24444197 9:0.58441305 10:0.62886506 11:0.3366591 12:0.032231543 13:0.0022332093 14:1.1110495e-05 15:0.48630366 16:2.9004668e-05 17:0.24444444 18:0.00036764707 19:0.10867014 20:0.10681538 21:0.16198795 22:0.073535614 23:0.11876031 24:0.19970319 25:0.12563582 26:0.10489161 27:0.98043078 
3 1:0.13726127 2:0.24687682 3:0.38498902 4:0.93440366 5:0.011121605 6:1.1110494e-05 7:1.1110494e-05 8:0.054452531 9:0.16910525 10:0.35443586 11:0.5455364 12:0.092228219 13:0.0077884565 14:1.1110495e-05 15:0.59398597 16:0.00010407086 17:0.19 18:0.00036764707 19:0.29402536 20:0.030017028 21:0.013200493 22:0.037662491 23:0.14798905 24:0.03502097 25:0.20392813 26:0.23815647 27:0.82323408 
3 1:0.12079326 2:0.21603614 3:0.23663418 4:0.99995565 5:1.1110495e-05 6:1.1110495e-05 7:1.1110495e-05 8:1.1110495e-05 9:0.00034255569 10:0.29777235 11:0.70219439 12:1.1110495e-05 13:1.1110495e-05 14:1.1110495e-05 15:0.3786208 16:3.6465531e-07 17:0.3011111 18:0.00036764707 19:0.1006566 20:0.067294814 21:0.11532152 22:0.082530625 23:0.20348939 24:0.15328616 25:0.16060077 26:0.11682012 27:0.97319365 
1.89941418346419 1:0.072969332 2:0.29132918 3:0.39948016 4:0.99995565 5:1.1110495e-05 6:1.1110495e-05 7:1.1110495e-05 8:1.1110495e-05 9:0.00034255569 10:0.003344259 11:0.92773741 12:0.068896174 13:1.1110495e-05 14:1.1110495e-05 15:0.16975603 16:4.4275412e-06 17:0.25333333 18:0.00036764707 19:0.07331422 20:0.018887512 21:0.018491179 22:0.045540497 23:0.063110039 24:0.05204872 25:0.28212723 26:0.44648069 27:0.73396397 
0.8416657356748459 1:0.4861595 2:0.20771454 3:0.32751161 4:0.33888116 5:1.1110494e-05 6:0.042230986 7:0.51553804 8:0.1033387 9:0.6689263 10:0.60997725 11:0.2422199 12:0.14111438 13:0.0066774073 14:1.1110495e-05 15:0.5933004 16:5.4412183e-05 17:0.22444445 18:0.00041666668 19:0.16633934 20:0.11749589 21:0.093807191 22:0.10025647 23:0.1195024 24:0.11596038 25:0.17556255 26:0.11107577 27:0.9886291 
3 1:0.11358899 2:0.22337595 3:0.18852998 4:0.99995565 5:1.1110495e-05 6:1.1110495e-05 7:1.1110495e-05 8:1.1110495e-05 9:0.00034255569 10:0.2333315 11:0.76663524 12:1.1110495e-05 13:1.1110495e-05 14:1.1110495e-05 15:0.33780438 16:2.9494512e-07 17:0.32777777 18:0.00041666668 19:0.13453911 20:0.16902857 21:0.14781953 22:0.102676 23:0.18409292 24:0.055897199 25:0.10272555 26:0.1032211 27:0.97506744 
3 1:0.19989897 2:0.23190333 3:0.40022257 4:0.86662972 5:1.1110495e-05 6:1.1110495e-05 7:1.1110495e-05 8:0.13333705 9:0.24424063 10:0.51220489 11:0.38887843 12:0.086672969 13:0.012232655 14:1.1110495e-05 15:0.60638279 16:4.1104067e-05 17:0.18222222 18:0.00046568626 19:0.043538656 20:0.058824006 21:0.23243569 22:0.2472239 23:0.20631683 24:0.11297348 25:0.070508577 26:0.028178902 27:0.88836938 
3 1:0.12152401 2:0.17963348 3:0.17469579 4:0.99995565 5:1.1110495e-05 6:1.1110495e-05 7:1.1110495e-05 8:1.1110495e-05 9:0.00034255569 10:0.72219324 11:0.27777347 12:1.1110495e-05 13:1.1110495e-05 14:1.1110495e-05 15:0.36735854 16:7.8706549e-08 17:0.27666667 18:0.00046568626 19:0.09459886 20:0.10613762 21:0.16771078 22:0.095891997 23:0.17238598 24:0.10912178 25:0.18352683 26:0.07062611 27:0.97552341 
0.2185743863902641 1:0.109329 2:0.26209834 3:0.22292633 4:0.99995565 5:1.1110495e-05 6:1.1110495e-05 7:1.1110495e-05 8:1.1110495e-05 9:0.00034255569 10:0.1344481 11:0.86107445 12:0.0044553084 13:1.1110495e-05 14:1.1110495e-05 15:0.26279244 16:2.5349111e-06 17:0.22888888 18:0.00046568626 19:0.011160754 20:0.018910769 21:0.063564815 22:0.1593003 23:0.71125668 24:0.020475404 25:0.0094441557 26:0.005887141 27:0.4757174 
2.757623496049337 1:0.07758455 2:0.21762617 3:0.30448171 4:0.98773408 5:1.1110495e-05 6:1.1110495e-05 7:1.1110495e-05 8:0.012232655 9:0.041280814 10:0.53331488 11:0.40109998 12:0.057785682 13:0.0077884565 14:1.1110495e-05 15:0.56192029 16:2.4786457e-05 17:0.24777777 18:0.0005147059 19:0.40206859 20:0.29559836 21:0.024771789 22:0.022252457 23:0.014129386 24:0.013010782 25:0.018853754 26:0.20931491 27:0.68373191 
3 1:0.15989508 2:0.22611384 3:0.32011306 4:0.85551918 5:1.1110495e-05 6:0.0044553084 7:0.091117166 8:0.048897289 9:0.32533222 10:0.49331707 11:0.33443698 12:0.16000223 13:0.012232655 14:1.1110495e-05 15:0.6599201 16:3.4023069e-05 17:0.24222222 18:0.0005147059 19:0.12143545 20:0.079625793 21:0.14958045 22:0.13286877 23:0.20978419 24:0.12566097 25:0.089519948 26:0.091524422 27:0.97768241 
0.1037245508159846 1:0.096656919 2:0.18651311 3:0.2653974 4:0.99995565 5:1.1110495e-05 6:1.1110495e-05 7:1.1110495e-05 8:1.1110495e-05 9:0.00034255569 10:0.68663967 11:0.30332759 12:0.0088995062 13:0.0011221599 14:1.1110495e-05 15:0.41614631 16:2.8618485e-06 17:0.30333334 18:0.00056372548 19:0.17485411 20:0.080247849 21:0.072499782 22:0.18049605 23:0.20010449 24:0.10910322 25:0.081185602 26:0.10150889 27:0.9648518 
3 1:0.078499645 2:0.1043435 3:0.83407503 4:0.99995565 5:1.1110495e-05 6:1.1110495e-05 7:1.1110495e-05 8:1.1110495e-05 9:0.00034255569 10:0.99995559 11:1.1110495e-05 12:1.1110495e-05 13:1.1110495e-05 14:1.1110495e-05 15:0.00034259274 16:2.8971112e-06 17:0.24777777 18:7.3529416e-05 19:0.011287347 20:0.011430332 21:0.017898219 22:0.4927707 23:0.43821841 24:0.0096136034 25:0.01022759 26:0.0085538449 27:0.48871982 
3 1:0.086068183 2:0.10499692 3:0.8291564 4:0.99995565 5:1.1110495e-05 6:1.1110495e-05 7:1.1110495e-05 8:1.1110495e-05 9:0.00034255569 10:0.99995559 11:1.1110495e-05 12:1.1110495e-05 13:1.1110495e-05 14:1.1110495e-05 15:0.00034259274 16:2.5347169e-06 17:0.28666666 18:0.00017156864 19:0.011719462 20:0.0094594816 21:0.017300934 22:0.40564975 23:0.53402358 24:0.0072337408 25:0.0088688042 26:0.0057442067 27:0.4686802 
3 1:0.094351716 2:0.1058166 3:0.82211471 4:0.99995565 5:1.1110495e-05 6:1.1110495e-05 7:1.1110495e-05 8:1.1110495e-05 9:0.00034255569 10:0.99995559 11:1.1110495e-05 12:1.1110495e-05 13:1.1110495e-05 14:1.1110495e-05 15:0.00034259274 16:2.4872386e-06 17:0.28555554 18:0.00026960784 19:0.015030457 20:0.009491371 21:0.012612721 22:0.27658755 23:0.56818289 24:0.0080018071 25:0.052958217 26:0.057134986 27:0.5755921 
3 1:0.10137265 2:0.10274166 3:0.82225788 4:0.99995565 5:1.1110495e-05 6:1.1110495e-05 7:1.1110495e-05 8:1.1110495e-05 9:0.00034255569 10:0.99995559 11:1.1110495e-05 12:1.1110495e-05 13:1.1110495e-05 14:1.1110495e-05 15:0.00034259274 16:2.3375501e-06 17:0.29111111 18:0.00031862748 19:0.016465269 20:0.011324516 21:0.02216444 22:0.39256954 23:0.52267325 24:0.0087541407 25:0.012638447 26:0.013410381 27:0.51144022 
3 1:0.0989898 2:0.082719788 3:0.86209381 4:0.99995565 5:1.1110495e-05 6:1.1110495e-05 7:1.1110495e-05 8:1.1110495e-05 9:0.00034255569 10:0.99995559 11:1.1110495e-05 12:1.1110495e-05 13:1.1110495e-05 14:1.1110495e-05 15:0.00034259274 16:9.4400889e-08 17:0.28 18:0.00031862748 19:0.15671378 20:0.14912696 21:0.15540853 22:0.060369164 23:0.12122699 24:0.093571752 25:0.16642168 26:0.097161226 27:0.97884375 
3 1:0.10913742 2:0.091363765 3:0.84750915 4:0.99995565 5:1.1110495e-05 6:1.1110495e-05 7:1.1110495e-05 8:1.1110495e-05 9:0.00034255569 10:0.99995559 11:1.1110495e-05 12:1.1110495e-05 13:1.1110495e-05 14:1.1110495e-05 15:0.00034259274 16:1.2177949e-07 17:0.30666667 18:0.00041666668 19:0.12598 20:0.10760964 21:0.12713295 22:0.098770335 23:0.18101425 24:0.078708969 25:0.1541889 26:0.12659492 27:0.98637533 
3 1:0.10960703 2:0.086297803 3:0.86187065 4:0.99995565 5:1.1110495e-05 6:1.1110495e-05 7:1.1110495e-05 8:1.1110495e-05 9:0.00034255569 10:0.99995559 11:1.1110495e-05 12:1.1110495e-05 13:1.1110495e-05 14:1.1110495e-05 15:0.00034259274 16:7.6328021e-08 17:0.28111112 18:0.00041666668 19:0.15011039 20:0.10472517 21:0.14057742 22:0.075711794 23:0.1695908 24:0.09899158 25:0.14133731 26:0.11895555 27:0.98672467 
3 1:0.12596023 2:0.077818394 3:0.66017818 4:0.98217881 5:0.013343704 6:1.1110495e-05 7:1.1110495e-05 8:0.0044553084 9:0.061906926 10:0.99995559 11:1.1110495e-05 12:1.1110495e-05 13:1.1110495e-05 14:1.1110495e-05 15:0.00034259274 16:6.1547275e-05 17:0.26111111 18:0.00046568626 19:0.37438494 20:0.030710798 21:0.0093204854 22:0.0036977821 23:0.0092359753 24:0.0119985 25:0.10500973 26:0.45564184 27:0.59161639 
3 1:0.14793088 2:0.092237152 3:0.52842891 4:0.93329257 5:0.016676851 6:0.0022332093 7:0.007788456 8:0.040008888 9:0.1944298 10:0.99995559 11:1.1110495e-05 12:1.1110495e-05 13:1.1110495e-05 14:1.1110495e-05 15:0.00034259274 16:8.8986824e-05 17:0.20888889 18:0.00046568626 19:0.38215524 20:0.043470673 21:0.0085335495 22:0.0074559366 23:0.013649089 24:0.010977941 25:0.073774897 26:0.45998257 27:0.59571391 
3 1:0.1570106 2:0.092665881 3:0.49828541 4:0.92551523 5:0.0055663576 6:0.0011221599 7:0.043342035 8:0.024454197 9:0.20810969 10:0.99440038 11:0.0055663576 12:1.1110495e-05 13:1.1110495e-05 14:1.1110495e-05 15:0.021659233 16:9.0461916e-05 17:0.19777778 18:0.00046568626 19:0.33233559 20:0.063925356 21:0.030699702 22:0.0060724043 23:0.0060382695 24:0.013176017 25:0.085719474 26:0.46203318 27:0.64203006 
3 1:0.11465393 2:0.17638814 3:0.39243558 4:0.9832899 5:1.1110495e-05 6:1.1110495e-05 7:1.1110495e-05 8:0.016676852 9:0.052950487 10:0.7321927 11:0.26777405 12:1.1110495e-05 13:1.1110495e-05 14:1.1110495e-05 15:0.36126608 16:7.9892881e-05 17:0.21666667 18:0.00046568626 19:0.34249383 20:0.034011729 21:0.0083139911 22:0.0044482364 23:0.01037515 24:0.0099053653 25:0.077729441 26:0.51272225 27:0.56749225 
3 1:0.10167316 2:0.18647328 3:0.37350342 4:0.97217941 5:1.1110495e-05 6:1.1110495e-05 7:1.1110495e-05 8:0.027787348 9:0.079143845 10:0.69219494 11:0.3077718 12:1.1110495e-05 13:1.1110495e-05 14:1.1110495e-05 15:0.38380316 16:7.2229508e-05 17:0.19777778 18:0.00046568626 19:0.36570221 20:0.019027624 21:0.012151165 22:0.0067945281 23:0.018804122 24:0.02032767 25:0.08036074 26:0.47683188 27:0.5965175 
0.5560909882984831 1:0.17073904 2:0.066666096 3:0.19573684 4:0.77996778 5:0.19111161 6:1.1110494e-05 7:0.0011221599 8:0.027787345 9:0.38361847 10:0.99995559 11:1.1110495e-05 12:1.1110495e-05 13:1.1110495e-05 14:1.1110495e-05 15:0.00034259274 16:9.8193929e-08 17:0.26222223 18:0.0005147059 19:0.20983349 20:0.061384678 21:0.14500459 22:0.08158499 23:0.14116809 24:0.10225508 25:0.1388192 26:0.11994992 27:0.97210783 
3 1:0.4847717 2:0.10435776 3:0.097624429 4:0.51109391 5:1.1110495e-05 6:1.1110495e-05 7:0.014454753 8:0.47442922 9:0.47115603 10:0.99217826 11:0.0077884565 12:1.1110495e-05 13:1.1110495e-05 14:1.1110495e-05 15:0.028572174 16:1.2183413e-07 17:0.31222221 18:0.0005147059 19:0.16797382 20:0.099946037 21:0.14072213 22:0.07100381 23:0.10562629 24:0.07424967 25:0.1796048 26:0.16087349 27:0.97450519 
3 1:0.1424218 2:0.12665959 3:0.39090893 4:0.94107002 5:0.016676852 6:1.1110495e-05 7:1.1110495e-05 8:0.04223099 9:0.16112879 10:0.99551141 11:0.0044553084 12:1.1110495e-05 13:1.1110495e-05 14:1.1110495e-05 15:0.018005198 16:1.4216606e-05 17:0.23333333 18:0.00056372548 19:0.47256076 20:0.081090808 21:0.012216312 22:0.0039110654 23:0.006141216 24:0.0092138685 25:0.043169983 26:0.371696 27:0.58257198 
3 1:0.1013545 2:0.11912903 3:0.40306592 4:0.99551141 5:0.0044553084 6:1.1110495e-05 7:1.1110495e-05 8:1.1110495e-05 9:0.018005198 10:0.99995559 11:1.1110495e-05 12:1.1110495e-05 13:1.1110495e-05 14:1.1110495e-05 15:0.00034259274 16:1.0230071e-05 17:0.27777779 18:0.00056372548 19:0.47988513 20:0.031478722 21:0.011202944 22:0.0045686495 23:0.0053546778 24:0.0097730691 25:0.031765766 26:0.42597106 27:0.52055502 
3 1:0.1258537 2:0.19663647 3:0.38139758 4:0.99995565 5:1.1110495e-05 6:1.1110495e-05 7:1.1110495e-05 8:1.1110495e-05 9:0.00034255569 10:0.57997888 11:0.41998783 12:1.1110495e-05 13:1.1110495e-05 14:1.1110495e-05 15:0.42293236 16:9.4576865e-07 17:0.31333333 18:0.00061274512 19:0.51811796 20:0.071420245 21:0.047975145 22:0.027784685 23:0.027732715 24:0.034469366 25:0.06340383 26:0.20909606 27:0.71752983 
0.8383304327415557 1:0.10820878 2:0.22008905 3:0.33292666 4:0.99995565 5:1.1110495e-05 6:1.1110495e-05 7:1.1110495e-05 8:1.1110495e-05 9:0.00034255569 10:0.36332428 11:0.6133104 12:0.023343148 13:1.1110495e-05 14:1.1110495e-05 15:0.46951362 16:8.0171267e-06 17:0.27333334 18:0.00061274512 19:0.58220249 20:0.045789201 21:0.0130721 22:0.011839991 23:0.0041443952 24:0.0054528755 25:0.044763289 26:0.29273561 27:0.53629065 
3 1:0.092949472 2:0.15600905 3:0.46024659 4:0.99995565 5:1.1110495e-05 6:1.1110495e-05 7:1.1110495e-05 8:1.1110495e-05 9:0.00034255569 10:0.99995559 11:1.1110495e-05 12:1.1110495e-05 13:1.1110495e-05 14:1.1110495e-05 15:0.00034259274 16:8.1969239e-07 17:0.26666668 18:2.4509804e-05 19:0.39783671 20:0.014619747 21:0.029030414 22:0.028867973 23:0.11744367 24:0.05388359 25:0.05339627 26:0.30492157 27:0.7507264 
3 1:0.097754739 2:0.16595793 3:0.44022074 4:0.99995565 5:1.1110495e-05 6:1.1110495e-05 7:1.1110495e-05 8:1.1110495e-05 9:0.00034255569 10:0.98884511 11:0.011121605 12:1.1110495e-05 13:1.1110495e-05 14:1.1110495e-05 15:0.038216624 16:7.056006e-07 17:0.24111111 18:2.4509804e-05 19:0.44688076 20:0.025518969 21:0.032870777 22:0.018136784 23:0.04511366 24:0.038582098 25:0.039979547 26:0.3529174 27:0.67335129 
3 1:0.094037786 2:0.16016865 3:0.44099188 4:0.99995565 5:1.1110495e-05 6:1.1110495e-05 7:1.1110495e-05 8:1.1110495e-05 9:0.00034255569 10:0.99995559 11:1.1110495e-05 12:1.1110495e-05 13:1.1110495e-05 14:1.1110495e-05 15:0.00034259274 16:8.8896007e-07 17:0.26666668 18:2.4509804e-05 19:0.51016301 20:0.020533703 21:0.030491967 22:0.011956085 23:0.029992584 24:0.022237476 25:0.045355923 26:0.32926923 27:0.61476952 
3 1:0.090824358 2:0.1428706 3:0.51301724 4:0.99995565 5:1.1110495e-05 6:1.1110495e-05 7:1.1110495e-05 8:1.1110495e-05 9:0.00034255569 10:0.99995559 11:1.1110495e-05 12:1.1110495e-05 13:1.1110495e-05 14:1.1110495e-05 15:0.00034259274 16:8.2731862e-07 17:0.17 18:2.4509804e-05 19:0.28884026 20:0.0068063522 21:0.019188201 22:0.032119773 23:0.058270864 24:0.0074607842 25:0.017669918 26:0.56964386 27:0.56410819 
3 1:0.080202401 2:0.10549768 3:0.28700963 4:0.97551256 5:1.1110495e-05 6:1.1110495e-05 7:1.1110495e-05 8:0.024454201 9:0.071648471 10:0.92440426 11:0.07556247 12:1.1110495e-05 13:1.1110495e-05 14:1.1110495e-05 15:0.16664587 16:1.2529558e-05 17:0.22555555 18:2.4509804e-05 19:0.10373624 20:0.049582064 21:0.018481143 22:0.030608498 23:0.15452887 24:0.29852849 25:0.17680584 26:0.16772886 27:0.8751142 
3 1:0.092932805 2:0.18712224 3:0.29005104 4:0.95106947 5:1.1110495e-05 6:1.1110495e-05 7:1.1110495e-05 8:0.048897289 9:0.12157492 10:0.66219658 11:0.26332983 12:0.072229326 13:0.0022332093 14:1.1110495e-05 15:0.51440156 16:1.7548733e-05 17:0.23777778 18:2.4509804e-05 19:0.081179872 20:0.12615597 21:0.13353863 22:0.11402353 23:0.14646369 24:0.15960324 25:0.15714562 26:0.081889428 27:0.98653167 
1.029803392141256 1:0.21896349 2:0.014778622 3:0.94702542 4:0.77774578 5:1.1110495e-05 6:1.1110495e-05 7:1.1110495e-05 8:0.22222102 9:0.32937574 10:0.99995559 11:1.1110495e-05 12:1.1110495e-05 13:1.1110495e-05 14:1.1110495e-05 15:0.00034259274 16:3.8169619e-06 17:0.14111111 18:7.3529416e-05 19:0.0023635542 20:0.040902823 21:0.27056313 22:0.31911698 23:0.29621845 24:0.051029928 25:0.019242067 26:0.00056317972 27:0.70003933 
3 1:0.089574069 2:0.095723748 3:0.60376054 4:0.99995565 5:1.1110495e-05 6:1.1110495e-05 7:1.1110495e-05 8:1.1110495e-05 9:0.00034255569 10:0.99995559 11:1.1110495e-05 12:1.1110495e-05 13:1.1110495e-05 14:1.1110495e-05 15:0.00034259274 16:1.0695832e-06 17:0.26222223 18:7.3529416e-05 19:0.061446991 20:0.094616897 21:0.19488791 22:0.1231104 23:0.26264152 24:0.13344201 25:0.10766735 26:0.022186864 27:0.92113745 
3 1:0.090456218 2:0.13119417 3:0.51896399 4:0.99995565 5:1.1110495e-05 6:1.1110495e-05 7:1.1110495e-05 8:1.1110495e-05 9:0.00034255569 10:0.99995559 11:1.1110495e-05 12:1.1110495e-05 13:1.1110495e-05 14:1.1110495e-05 15:0.00034259274 16:3.5830351e-07 17:0.26555556 18:7.3529416e-05 19:0.12222067 20:0.077466071 21:0.1065423 22:0.068272844 23:0.36787206 24:0.089794964 25:0.09742035 26:0.070410803 27:0.9016273 
3 1:0.096858367 2:0.14934678 3:0.47948831 4:0.99995565 5:1.1110495e-05 6:1.1110495e-05 7:1.1110495e-05 8:1.1110495e-05 9:0.00034255569 10:0.99995559 11:1.1110495e-05 12:1.1110495e-05 13:1.1110495e-05 14:1.1110495e-05 15:0.00034259274 16:1.0864429e-07 17:0.25111112 18:7.3529416e-05 19:0.17768779 20:0.10843035 21:0.14715494 22:0.08638712 23:0.14104839 24:0.077301733 25:0.16711301 26:0.094876744 27:0.98008257 
3 1:0.097705401 2:0.15691377 3:0.46887404 4:0.99995565 5:1.1110495e-05 6:1.1110495e-05 7:1.1110495e-05 8:1.1110495e-05 9:0.00034255569 10:0.99995559 11:1.1110495e-05 12:1.1110495e-05 13:1.1110495e-05 14:1.1110495e-05 15:0.00034259274 16:7.2948303e-08 17:0.25222221 18:7.3529416e-05 19:0.079385869 20:0.070551135 21:0.14110099 22:0.07067918 23:0.23354562 24:0.13252233 25:0.19654216 26:0.075672723 27:0.94945943 
3 1:0.091755033 2:0.13511473 3:0.52704746 4:0.99995565 5:1.1110495e-05 6:1.1110495e-05 7:1.1110495e-05 8:1.1110495e-05 9:0.00034255569 10:0.99995559 11:1.1110495e-05 12:1.1110495e-05 13:1.1110495e-05 14:1.1110495e-05 15:0.00034259274 16:9.3939725e-08 17:0.17555556 18:7.3529416e-05 19:0.040276468 20:0.047695573 21:0.14056689 22:0.18799615 23:0.40421006 24:0.065448433 25:0.096847147 26:0.01695928 27:0.81961316 
3 1:0.085579246 2:0.090136617 3:0.61099797 4:0.99995565 5:1.1110495e-05 6:1.1110495e-05 7:1.1110495e-05 8:1.1110495e-05 9:0.00034255569 10:0.99995559 11:1.1110495e-05 12:1.1110495e-05 13:1.1110495e-05 14:1.1110495e-05 15:0.00034259274 16:1.2662655e-06 17:0.22888888 18:0.00012254903 19:0.038681921 20:0.047303535 21:0.17173441 22:0.1648604 23:0.3276225 24:0.11522787 25:0.11476184 26:0.019807575 27:0.870713 
3 1:0.092570372 2:0.12804697 3:0.52228886 4:0.99995565 5:1.1110495e-05 6:1.1110495e-05 7:1.1110495e-05 8:1.1110495e-05 9:0.00034255569 10:0.99995559 11:1.1110495e-05 12:1.1110495e-05 13:1.1110495e-05 14:1.1110495e-05 15:0.00034259274 16:3.1668253e-07 17:0.24555555 18:0.00012254903 19:0.085543394 20:0.050100733 21:0.10992688 22:0.075550161 23:0.26022509 24:0.18347706 25:0.17934653 26:0.055830184 27:0.92760181 
3 1:0.097951576 2:0.13536385 3:0.48694801 4:0.99995565 5:1.1110495e-05 6:1.1110495e-05 7:1.1110495e-05 8:1.1110495e-05 9:0.00034255569 10:0.99995559 11:1.1110495e-05 12:1.1110495e-05 13:1.1110495e-05 14:1.1110495e-05 15:0.00034259274 16:2.7366642e-07 17:0.19555555 18:0.00012254903 19:0.17452979 20:0.071671754 21:0.105358 22:0.077369429 23:0.20711648 24:0.10295899 25:0.13794471 26:0.12305079 27:0.97136867 
3 1:0.095139273 2:0.13624804 3:0.53337425 4:0.99995565 5:1.1110495e-05 6:1.1110495e-05 7:1.1110495e-05 8:1.1110495e-05 9:0.00034255569 10:0.99995559 11:1.1110495e-05 12:1.1110495e-05 13:1.1110495e-05 14:1.1110495e-05 15:0.00034259274 16:1.1641556e-07 17:0.17444444 18:0.00012254903 19:0.045165949 20:0.028808292 21:0.11059657 22:0.17892234 23:0.4555549 24:0.075709887 25:0.08540868 26:0.019833297 27:0.78624421 
1.660638198047192 1:0.056427445 2:0.10318617 3:0.53140891 4:0.98662305 5:1.1110495e-05 6:1.1110495e-05 7:1.1110495e-05 8:0.013343704 9:0.044281438 10:0.99995559 11:1.1110495e-05 12:1.1110495e-05 13:1.1110495e-05 14:1.1110495e-05 15:0.00034259274 16:1.5961541e-06 17:0.21666667 18:0.00012254903 19:0.0054715211 20:0.0040441761 21:0.0076832627 22:0.32423559 23:0.62820858 24:0.0094995918 25:0.013929504 26:0.006927799 27:0.42493495 
3 1:0.097824827 2:0.19374752 3:0.33698764 4:0.99995565 5:1.1110495e-05 6:1.1110495e-05 7:1.1110495e-05 8:1.1110495e-05 9:0.00034255569 10:0.70663857 11:0.29332817 12:1.1110495e-05 13:1.1110495e-05 14:1.1110495e-05 15:0.37622249 16:1.5771516e-06 17:0.2588889 18:0.00017156864 19:0.1502746 20:0.27505752 21:0.32326803 22:0.086868435 23:0.058060944 24:0.025293667 25:0.047616996 26:0.033559732 27:0.83402979 
3 1:0.091146812 2:0.095327891 3:0.57084596 4:0.99995565 5:1.1110495e-05 6:1.1110495e-05 7:1.1110495e-05 8:1.1110495e-05 9:0.00034255569 10:0.99995559 11:1.1110495e-05 12:1.1110495e-05 13:1.1110495e-05 14:1.1110495e-05 15:0.00034259274 16:6.9156877e-06 17:0.2 18:0.00017156864 19:0.0099347262 20:0.03947198 21:0.12633535 22:0.40070513 23:0.36583382 24:0.034337964 25:0.018498827 26:0.0048822034 27:0.66587907 
3 1:0.096467748 2:0.12369788 3:0.49933827 4:0.99995565 5:1.1110495e-05 6:1.1110495e-05 7:1.1110495e-05 8:1.1110495e-05 9:0.00034255569 10:0.99995559 11:1.1110495e-05 12:1.1110495e-05 13:1.1110495e-05 14:1.1110495e-05 15:0.00034259274 16:3.2790945e-07 17:0.23111111 18:0.00017156864 19:0.12517147 20:0.061843283 21:0.12757199 22:0.1107683 23:0.20827541 24:0.17032422 25:0.12048472 26:0.075560577 27:0.96998042 
3 1:0.10489681 2:0.082111962 3:0.56369084 4:0.99995565 5:1.1110495e-05 6:1.1110495e-05 7:1.1110495e-05 8:1.1110495e-05 9:0.00034255569 10:0.99995559 11:1.1110495e-05 12:1.1110495e-05 13:1.1110495e-05 14:1.1110495e-05 15:0.00034259274 16:2.7219089e-06 17:0.17111111 18:0.00017156864 19:0.0024796424 20:0.00121975 21:0.0037395346 22:0.026370689 23:0.38346976 24:0.540447 25:0.03823914 26:0.0040344032 27:0.474648 
3 1:0.091419891 2:0.13781856 3:0.53853303 4:0.99995565 5:1.1110495e-05 6:1.1110495e-05 7:1.1110495e-05 8:1.1110495e-05 9:0.00034255569 10:0.99995559 11:1.1110495e-05 12:1.1110495e-05 13:1.1110495e-05 14:1.1110495e-05 15:0.00034259274 16:1.3527691e-07 17:0.18777777 18:0.00017156864 19:0.034467887 20:0.025822762 21:0.13502434 22:0.15629591 23:0.51484114 24:0.053691916 25:0.068593383 26:0.011262551 27:0.72331649 
3 1:0.066305213 2:0.091395758 3:0.54950857 4:0.97995675 5:1.1110495e-05 6:1.1110495e-05 7:1.1110495e-05 8:0.020010002 9:0.061195806 10:0.99995559 11:1.1110495e-05 12:1.1110495e-05 13:1.1110495e-05 14:1.1110495e-05 15:0.00034259274 16:2.2653649e-06 17:0.21444444 18:0.00017156864 19:0.2081624 20:0.042310026 21:0.027756836 22:0.017203933 23:0.10309966 24:0.13640267 25:0.2021497 26:0.26291478 27:0.87056881 
1.648730067903212 1:0.064354576 2:0.1055688 3:0.52949607 4:0.99995565 5:1.1110495e-05 6:1.1110495e-05 7:1.1110495e-05 8:1.1110495e-05 9:0.00034255569 10:0.99995559 11:1.1110495e-05 12:1.1110495e-05 13:1.1110495e-05 14:1.1110495e-05 15:0.00034259274 16:5.6100766e-06 17:0.23666666 18:0.00017156864 19:0.097523414 20:0.031503711 21:0.032974508 22:0.029748246 23:0.12418751 24:0.15832418 25:0.34245819 26:0.18328023 27:0.8568759 
3 1:0.10123543 2:0.16662362 3:0.41735825 4:0.99995565 5:1.1110495e-05 6:1.1110495e-05 7:1.1110495e-05 8:1.1110495e-05 9:0.00034255569 10:0.99995559 11:1.1110495e-05 12:1.1110495e-05 13:1.1110495e-05 14:1.1110495e-05 15:0.00034259274 16:7.3907657e-08 17:0.18333334 18:0.00022058823 19:0.12260307 20:0.12056312 21:0.23072045 22:0.071808301 23:0.17217387 24:0.067728393 25:0.16054615 26:0.05385673 27:0.95030951 
3 1:0.10098644 2:0.16617048 3:0.40537551 4:0.99995565 5:1.1110495e-05 6:1.1110495e-05 7:1.1110495e-05 8:1.1110495e-05 9:0.00034255569 10:0.9988445 11:0.0011221599 12:1.1110495e-05 13:1.1110495e-05 14:1.1110495e-05 15:0.0056897704 16:1.5866873e-07 17:0.21666667 18:0.00022058823 19:0.12350599 20:0.24957219 21:0.18952711 22:0.10690585 23:0.15737027 24:0.042687021 25:0.094100028 26:0.036331542 27:0.92689848 
3 1:0.099747993 2:0.16077264 3:0.40383303 4:0.99995565 5:1.1110495e-05 6:1.1110495e-05 7:1.1110495e-05 8:1.1110495e-05 9:0.00034255569 10:0.99995559 11:1.1110495e-05 12:1.1110495e-05 13:1.1110495e-05 14:1.1110495e-05 15:0.00034259274 16:4.4911164e-07 17:0.25444445 18:0.00022058823 19:0.078790128 20:0.17534034 21:0.24070534 22:0.05586591 23:0.10687746 24:0.096861027 25:0.17699254 26:0.068567172 27:0.94486719 
3 1:0.14261273 2:0.047728751 3:0.57917303 4:0.92107111 5:1.1110495e-05 6:1.1110495e-05 7:0.015565803 8:0.063340932 9:0.19606185 10:0.99995559 11:1.1110495e-05 12:1.1110495e-05 13:1.1110495e-05 14:1.1110495e-05 15:0.00034259274 16:4.3721657e-06 17:0.18555556 18:0.00022058823 19:0.12069862 20:0.093081906 21:0.037049159 22:0.0079137273 23:0.029855225 24:0.058670931 25:0.2931532 26:0.35957721 27:0.78642309 
2.661473885579093 1:0.10333585 2:0.10721309 3:0.48111883 4:0.9966225 5:1.1110495e-05 6:1.1110495e-05 7:1.1110495e-05 8:0.0033442592 9:0.014176381 10:0.99995559 11:1.1110495e-05 12:1.1110495e-05 13:1.1110495e-05 14:1.1110495e-05 15:0.00034259274 16:1.6219916e-06 17:0.19444445 18:0.00022058823 19:0.10432928 20:0.024613122 21:0.024393367 22:0.046973202 23:0.35995942 24:0.17992504 25:0.17031075 26:0.089495815 27:0.84402454 
3 1:0.1064514 2:0.12432645 3:0.45077392 4:0.99995565 5:1.1110495e-05 6:1.1110495e-05 7:1.1110495e-05 8:1.1110495e-05 9:0.00034255569 10:0.99995559 11:1.1110495e-05 12:1.1110495e-05 13:1.1110495e-05 14:1.1110495e-05 15:0.00034259274 16:2.2329482e-07 17:0.2 18:0.00022058823 19:0.27549696 20:0.068846136 21:0.083333716 22:0.058415074 23:0.1167131 24:0.062703401 25:0.15693063 26:0.17756093 27:0.93018109 
1.564190288226697 1:0.097637586 2:0.098279096 3:0.64293188 4:0.99995565 5:1.1110495e-05 6:1.1110495e-05 7:1.1110495e-05 8:1.1110495e-05 9:0.00034255569 10:0.99995559 11:1.1110495e-05 12:1.1110495e-05 13:1.1110495e-05 14:1.1110495e-05 15:0.00034259274 16:5.2153014e-06 17:0.18888889 18:0.00022058823 19:0.01237914 20:0.00063333666 21:0.014034966 22:0.36588132 23:0.49126884 24:0.067968026 25:0.041111995 26:0.0067222873 27:0.56916118 
3 1:0.092330553 2:0.14214578 3:0.54017133 4:0.99995565 5:1.1110495e-05 6:1.1110495e-05 7:1.1110495e-05 8:1.1110495e-05 9:0.00034255569 10:0.99995559 11:1.1110495e-05 12:1.1110495e-05 13:1.1110495e-05 14:1.1110495e-05 15:0.00034259274 16:1.1298756e-07 17:0.22444445 18:0.00022058823 19:0.03646284 20:0.036580458 21:0.08950869 22:0.2105379 23:0.47611997 24:0.068219773 25:0.063279808 26:0.019290574 27:0.75652069 
3 1:0.096750274 2:0.10221437 3:0.247293 4:0.99773353 5:0.0022332096 6:1.1110495e-05 7:1.1110495e-05 8:1.1110495e-05 9:0.01011306 10:0.99995559 11:1.1110495e-05 12:1.1110495e-05 13:1.1110495e-05 14:1.1110495e-05 15:0.00034259274 16:5.960931e-06 17:0.19555555 18:0.00022058823 19:0.42134121 20:0.092178509 21:0.043088406 22:0.010551212 23:0.01001419 24:0.023818806 25:0.092525989 26:0.30648175 27:0.71425104 
3 1:0.1516816 2:0.11146777 3:0.22252603 4:0.91329378 5:1.1110495e-05 6:1.1110495e-05 7:1.1110495e-05 8:0.086672969 9:0.18340714 10:0.99995559 11:1.1110495e-05 12:1.1110495e-05 13:1.1110495e-05 14:1.1110495e-05 15:0.00034259274 16:7.1335321e-06 17:0.20777778 18:0.00022058823 19:0.22908932 20:0.033308871 21:0.021067252 22:0.013181373 23:0.031600736 24:0.085833944 25:0.33095098 26:0.25496754 27:0.78079385 
3 1:0.10109441 2:0.161972 3:0.42998093 4:0.99995565 5:1.1110495e-05 6:1.1110495e-05 7:1.1110495e-05 8:1.1110495e-05 9:0.00034255569 10:0.99995559 11:1.1110495e-05 12:1.1110495e-05 13:1.1110495e-05 14:1.1110495e-05 15:0.00034259274 16:5.2368609e-08 17:0.19222222 18:0.00026960784 19:0.13981134 20:0.14846255 21:0.21689984 22:0.062104899 23:0.16545601 24:0.074309289 25:0.11787433 26:0.075081721 27:0.96160197 
3 1:0.097855911 2:0.1631141 3:0.42263892 4:0.99995565 5:1.1110495e-05 6:1.1110495e-05 7:1.1110495e-05 8:1.1110495e-05 9:0.00034255569 10:0.99328929 11:0.0066774073 12:1.1110495e-05 13:1.1110495e-05 14:1.1110495e-05 15:0.025173808 16:1.9223931e-07 17:0.22555555 18:0.00026960784 19:0.13901791 20:0.27923295 21:0.24565224 22:0.083018124 23:0.11880241 24:0.048575141 25:0.042730853 26:0.042970374 27:0.89060187 
3 1:0.095167786 2:0.14597626 3:0.43832499 4:0.99995565 5:1.1110495e-05 6:1.1110495e-05 7:1.1110495e-05 8:1.1110495e-05 9:0.00034255569 10:0.99995559 11:1.1110495e-05 12:1.1110495e-05 13:1.1110495e-05 14:1.1110495e-05 15:0.00034259274 16:2.4558574e-07 17:0.25444445 18:0.00026960784 19:0.12093081 20:0.22305699 21:0.21436039 22:0.058056798 23:0.17569582 24:0.059114493 25:0.10694575 26:0.041838828 27:0.92818445 
3 1:0.098830834 2:0.094710372 3:0.49988601 4:0.99995565 5:1.1110495e-05 6:1.1110495e-05 7:1.1110495e-05 8:1.1110495e-05 9:0.00034255569 10:0.99995559 11:1.1110495e-05 12:1.1110495e-05 13:1.1110495e-05 14:1.1110495e-05 15:0.00034259274 16:3.0710421e-06 17:0.24222222 18:0.00026960784 19:0.1645909 20:0.11619024 21:0.15850542 22:0.085798301 23:0.078722179 24:0.043872293 25:0.23202631 26:0.12029438 27:0.95252848 
3 1:0.11100056 2:0.1150479 3:0.43602014 4:0.99995565 5:1.1110495e-05 6:1.1110495e-05 7:1.1110495e-05 8:1.1110495e-05 9:0.00034255569 10:0.99995559 11:1.1110495e-05 12:1.1110495e-05 13:1.1110495e-05 14:1.1110495e-05 15:0.00034259274 16:1.7328647e-07 17:0.24444444 18:0.00026960784 19:0.15075706 20:0.076657027 21:0.14382158 22:0.066801362 23:0.19693267 24:0.10020113 25:0.172111 26:0.092718117 27:0.96932781 
3 1:0.091454066 2:0.11676191 3:0.64029664 4:0.99995565 5:1.1110495e-05 6:1.1110495e-05 7:1.1110495e-05 8:1.1110495e-05 9:0.00034255569 10:0.99995559 11:1.1110495e-05 12:1.1110495e-05 13:1.1110495e-05 14:1.1110495e-05 15:0.00034259274 16:9.4683546e-06 17:0.17444444 18:0.00026960784 19:0.0027649971 20:0.013383267 21:0.018813157 22:0.42492238 23:0.49861732 24:0.015282062 25:0.024792699 26:0.0014241805 27:0.49259719 
3 1:0.09481363 2:0.13970681 3:0.53462493 4:0.99995565 5:1.1110495e-05 6:1.1110495e-05 7:1.1110495e-05 8:1.1110495e-05 9:0.00034255569 10:0.99995559 11:1.1110495e-05 12:1.1110495e-05 13:1.1110495e-05 14:1.1110495e-05 15:0.00034259274 16:1.2361195e-07 17:0.21444444 18:0.00026960784 19:0.036761004 20:0.033645771 21:0.11489107 22:0.2630516 23:0.43800312 24:0.046355929 25:0.058941472 26:0.0083500724 27:0.7435798 
0.2723197453035578 1:0.28288639 2:0.07773678 3:0.13279225 4:0.76552421 5:1.1110495e-05 6:1.1110495e-05 7:1.1110495e-05 8:0.23444255 9:0.33862346 10:0.99551141 11:0.0044553084 12:1.1110495e-05 13:1.1110495e-05 14:1.1110495e-05 15:0.018005198 16:1.0836408e-07 17:0.17777778 18:0.00026960784 19:0.10243572 20:0.059491586 21:0.14909798 22:0.059677489 23:0.20375416 24:0.14221948 25:0.20431189 26:0.079011649 27:0.95207959 
3 1:0.09840405 2:0.16392674 3:0.4360857 4:0.99995565 5:1.1110495e-05 6:1.1110495e-05 7:1.1110495e-05 8:1.1110495e-05 9:0.00034255569 10:0.99106717 11:0.0088995062 12:1.1110495e-05 13:1.1110495e-05 14:1.1110495e-05 15:0.031870987 16:5.779616e-07 17:0.19777778 18:0.00031862748 19:0.028970396 20:0.055609901 21:0.040162783 22:0.35718104 23:0.48379323 24:0.011653361 25:0.015745493 26:0.0068837241 27:0.60733277 
3 1:0.10419591 2:0.15777454 3:0.43660021 4:0.99995565 5:1.1110495e-05 6:1.1110495e-05 7:1.1110495e-05 8:1.1110495e-05 9:0.00034255569 10:0.99995559 11:1.1110495e-05 12:1.1110495e-05 13:1.1110495e-05 14:1.1110495e-05 15:0.00034259274 16:6.3525292e-08 17:0.19 18:0.00031862748 19:0.18277724 20:0.24444334 21:0.20166597 22:0.079889275 23:0.11000012 24:0.047667351 25:0.089333639 26:0.044222936 27:0.92396843 
3 1:0.10300229 2:0.15686303 3:0.4363513 4:0.99995565 5:1.1110495e-05 6:1.1110495e-05 7:1.1110495e-05 8:1.1110495e-05 9:0.00034255569 10:0.99995559 11:1.1110495e-05 12:1.1110495e-05 13:1.1110495e-05 14:1.1110495e-05 15:0.00034259274 16:6.5940185e-08 17:0.20555556 18:0.00031862748 19:0.10751081 20:0.18428153 21:0.20956893 22:0.055724643 23:0.17928462 24:0.08812885 25:0.13188967 26:0.043610919 27:0.94536507 
1.357943309542478 1:0.29044348 2:0.01475497 3:0.88944501 4:0.70552754 5:1.1110495e-05 6:1.1110495e-05 7:0.003344259 8:0.29110608 9:0.38812104 10:0.99995559 11:1.1110495e-05 12:1.1110495e-05 13:1.1110495e-05 14:1.1110495e-05 15:0.00034259274 16:1.3038813e-05 17:0.1 18:0.00031862748 19:8.7632885e-05 20:0.023121314 21:0.1446054 22:0.57796204 23:0.2441922 24:0.010031015 25:2.1853587e-07 26:2.1853587e-07 27:0.51689124 
3 1:0.10777165 2:0.10614505 3:0.46512675 4:0.99995565 5:1.1110495e-05 6:1.1110495e-05 7:1.1110495e-05 8:1.1110495e-05 9:0.00034255569 10:0.99995559 11:1.1110495e-05 12:1.1110495e-05 13:1.1110495e-05 14:1.1110495e-05 15:0.00034259274 16:1.9949277e-06 17:0.20444444 18:0.00031862748 19:0.10737111 20:0.02509648 21:0.032237295 22:0.20309946 23:0.50109917 24:0.049546011 25:0.031163586 26:0.050386872 27:0.73111629 
3 1:0.099921569 2:0.13992082 3:0.5283283 4:0.99995565 5:1.1110495e-05 6:1.1110495e-05 7:1.1110495e-05 8:1.1110495e-05 9:0.00034255569 10:0.99995559 11:1.1110495e-05 12:1.1110495e-05 13:1.1110495e-05 14:1.1110495e-05 15:0.00034259274 16:1.2309137e-07 17:0.22777778 18:0.00031862748 19:0.050213907 20:0.047949675 21:0.12932867 22:0.23947668 23:0.37812734 24:0.062866941 25:0.073122561 26:0.01891429 27:0.82265419 
3 1:0.17807005 2:0.09381967 3:0.11920596 4:0.90662748 5:1.1110495e-05 6:1.1110495e-05 7:1.1110495e-05 8:0.093339264 9:0.19299071 10:0.99995559 11:1.1110495e-05 12:1.1110495e-05 13:1.1110495e-05 14:1.1110495e-05 15:0.00034259274 16:8.1342613e-08 17:0.11 18:0.00031862748 19:0.12810265 20:0.094437219 21:0.17688897 22:0.057348192 23:0.2342343 24:0.10527863 25:0.16861527 26:0.035094779 27:0.93829674 
3 1:0.10622306 2:0.1578797 3:0.43637729 4:0.99995565 5:1.1110495e-05 6:1.1110495e-05 7:1.1110495e-05 8:1.1110495e-05 9:0.00034255569 10:0.99995559 11:1.1110495e-05 12:1.1110495e-05 13:1.1110495e-05 14:1.1110495e-05 15:0.00034259274 16:5.5587151e-07 17:0.17333333 18:0.00036764707 19:0.013591453 20:0.0099634193 21:0.025117438 22:0.37022722 23:0.53742379 24:0.0098796953 25:0.021935932 26:0.01186116 27:0.51959872 
3 1:0.10690679 2:0.15143457 3:0.44325742 4:0.99995565 5:1.1110495e-05 6:1.1110495e-05 7:1.1110495e-05 8:1.1110495e-05 9:0.00034255569 10:0.99995559 11:1.1110495e-05 12:1.1110495e-05 13:1.1110495e-05 14:1.1110495e-05 15:0.00034259274 16:2.4303979e-08 17:0.11555555 18:0.00036764707 19:0.10937131 20:0.091399916 21:0.17714912 22:0.068293847 23:0.22464493 24:0.070090987 25:0.19666092 26:0.06238896 27:0.94509763 
3 1:0.10643369 2:0.15145455 3:0.44390655 4:0.99995565 5:1.1110495e-05 6:1.1110495e-05 7:1.1110495e-05 8:1.1110495e-05 9:0.00034255569 10:0.99995559 11:1.1110495e-05 12:1.1110495e-05 13:1.1110495e-05 14:1.1110495e-05 15:0.00034259274 16:5.60613e-08 17:0.19777778 18:0.00036764707 19:0.21575727 20:0.20032807 21:0.19577518 22:0.058050506 23:0.12533198 24:0.062350452 25:0.10180876 26:0.040597793 27:0.9297992 
3 1:0.10157614 2:0.14037752 3:0.52151376 4:0.99995565 5:1.1110495e-05 6:1.1110495e-05 7:1.1110495e-05 8:1.1110495e-05 9:0.00034255569 10:0.99995559 11:1.1110495e-05 12:1.1110495e-05 13:1.1110495e-05 14:1.1110495e-05 15:0.00034259274 16:1.240369e-07 17:0.22 18:0.00036764707 19:0.035652455 20:0.042254493 21:0.12470657 22:0.23826157 23:0.38027868 24:0.064701408 25:0.095510907 26:0.018633876 27:0.81621766 
3 1:0.10881165 2:0.15261692 3:0.43791121 4:0.99995565 5:1.1110495e-05 6:1.1110495e-05 7:1.1110495e-05 8:1.1110495e-05 9:0.00034255569 10:0.99995559 11:1.1110495e-05 12:1.1110495e-05 13:1.1110495e-05 14:1.1110495e-05 15:0.00034259274 16:1.0436332e-07 17:0.15666667 18:0.00041666668 19:0.41178077 20:0.26589948 21:0.075928614 22:0.036830302 23:0.056417268 24:0.033049036 25:0.07025671 26:0.049837861 27:0.79148018 
3 1:0.107552 2:0.15213279 3:0.44235101 4:0.99995565 5:1.1110495e-05 6:1.1110495e-05 7:1.1110495e-05 8:1.1110495e-05 9:0.00034255569 10:0.99995559 11:1.1110495e-05 12:1.1110495e-05 13:1.1110495e-05 14:1.1110495e-05 15:0.00034259274 16:9.2042299e-08 17:0.15444444 18:0.00041666668 19:0.31022727 20:0.27636281 21:0.13456771 22:0.01752734 23:0.07287892 24:0.029112553 25:0.07287892 26:0.086444512 27:0.84428006 
3 1:0.10925337 2:0.14363672 3:0.45165429 4:0.99995565 5:1.1110495e-05 6:1.1110495e-05 7:1.1110495e-05 8:1.1110495e-05 9:0.00034255569 10:0.99995559 11:1.1110495e-05 12:1.1110495e-05 13:1.1110495e-05 14:1.1110495e-05 15:0.00034259274 16:1.2490158e-07 17:0.15444444 18:0.00041666668 19:0.38112125 20:0.25077772 21:0.085606717 22:0.021614749 23:0.067390718 24:0.031525012 25:0.068712078 26:0.093251772 27:0.81935549 
3 1:0.10179235 2:0.13768966 3:0.47070402 4:0.99995565 5:1.1110495e-05 6:1.1110495e-05 7:1.1110495e-05 8:1.1110495e-05 9:0.00034255569 10:0.99995559 11:1.1110495e-05 12:1.1110495e-05 13:1.1110495e-05 14:1.1110495e-05 15:0.00034259274 16:1.1245937e-07 17:0.15666667 18:0.00041666668 19:0.3932744 20:0.23272114 21:0.10190431 22:0.014928162 23:0.081453159 24:0.035379309 25:0.077221893 26:0.063117646 27:0.81581169 
3 1:0.11215208 2:0.13049175 3:0.4414843 4:0.99995565 5:1.1110495e-05 6:1.1110495e-05 7:1.1110495e-05 8:1.1110495e-05 9:0.00034255569 10:0.99995559 11:1.1110495e-05 12:1.1110495e-05 13:1.1110495e-05 14:1.1110495e-05 15:0.00034259274 16:2.3157129e-07 17:0.19111112 18:0.00041666668 19:0.25767222 20:0.36491275 21:0.15456694 22:0.018379757 23:0.064878218 24:0.029958425 25:0.051553555 26:0.058078047 27:0.80792892 
3 1:0.13511941 2:0.097912528 3:0.573286 4:0.99995565 5:1.1110495e-05 6:1.1110495e-05 7:1.1110495e-05 8:1.1110495e-05 9:0.00034255569 10:0.99995559 11:1.1110495e-05 12:1.1110495e-05 13:1.1110495e-05 14:1.1110495e-05 15:0.00034259274 16:3.5340935e-07 17:0.19 18:0.00041666668 19:0.084751211 20:0.050440758 21:0.12639295 22:0.11348987 23:0.23298994 24:0.14384143 25:0.17697887 26:0.071115002 27:0.95266509 
3 1:0.10823222 2:0.14362164 3:0.51132613 4:0.99995565 5:1.1110495e-05 6:1.1110495e-05 7:1.1110495e-05 8:1.1110495e-05 9:0.00034255569 10:0.99995559 11:1.1110495e-05 12:1.1110495e-05 13:1.1110495e-05 14:1.1110495e-05 15:0.00034259274 16:1.343134e-07 17:0.22222222 18:0.00041666668 19:0.044535939 20:0.036967985 21:0.19400299 22:0.12036099 23:0.38378391 24:0.087469503 25:0.10566169 26:0.027216973 27:0.84141785 
2.566657075502968 1:0.11607485 2:0.15498903 3:0.083968885 4:0.99884456 5:1.1110495e-05 6:1.1110495e-05 7:1.1110495e-05 8:0.00112216 9:0.0056897337 10:0.87996227 11:0.12000445 12:1.1110495e-05 13:1.1110495e-05 14:1.1110495e-05 15:0.22824311 16:3.019564e-08 17:0.097777776 18:0.00041666668 19:0.14706749 20:0.097523428 21:0.17215312 22:0.027283732 23:0.17183952 24:0.089370608 25:0.23706211 26:0.057700027 27:0.93022394 
3 1:0.11095297 2:0.15301725 3:0.42857814 4:0.99995565 5:1.1110495e-05 6:1.1110495e-05 7:1.1110495e-05 8:1.1110495e-05 9:0.00034255569 10:0.99995559 11:1.1110495e-05 12:1.1110495e-05 13:1.1110495e-05 14:1.1110495e-05 15:0.00034259274 16:1.3289794e-07 17:0.16777778 18:0.00046568626 19:0.14959227 20:0.12699147 21:0.15626134 22:0.088366337 23:0.11809935 24:0.1313449 25:0.099481486 26:0.12986287 27:0.99271744 
3 1:0.10575974 2:0.15479669 3:0.43489167 4:0.99995565 5:1.1110495e-05 6:1.1110495e-05 7:1.1110495e-05 8:1.1110495e-05 9:0.00034255569 10:0.99995559 11:1.1110495e-05 12:1.1110495e-05 13:1.1110495e-05 14:1.1110495e-05 15:0.00034259274 16:5.996651e-08 17:0.17 18:0.00046568626 19:0.2060926 20:0.079983838 21:0.16758287 22:0.080830209 23:0.15002075 24:0.096699603 25:0.16060033 26:0.058189876 27:0.96175337 
3 1:0.10574757 2:0.14818831 3:0.44567162 4:0.99995565 5:1.1110495e-05 6:1.1110495e-05 7:1.1110495e-05 8:1.1110495e-05 9:0.00034255569 10:0.99995559 11:1.1110495e-05 12:1.1110495e-05 13:1.1110495e-05 14:1.1110495e-05 15:0.00034259274 16:7.4005378e-08 17:0.16 18:0.00046568626 19:0.13546892 20:0.084668927 21:0.16544549 22:0.090160817 23:0.23066168 24:0.085584246 25:0.14507972 26:0.062930197 27:0.96049452 
3 1:0.1113948 2:0.14061184 3:0.45479545 4:0.99995565 5:1.1110495e-05 6:1.1110495e-05 7:1.1110495e-05 8:1.1110495e-05 9:0.00034255569 10:0.99995559 11:1.1110495e-05 12:1.1110495e-05 13:1.1110495e-05 14:1.1110495e-05 15:0.00034259274 16:6.8744392e-08 17:0.15555556 18:0.00046568626 19:0.39516154 20:0.17124122 21:0.12276604 22:0.027918205 23:0.081883356 24:0.035043471 25:0.064829431 26:0.10115662 27:0.84539974 
3 1:0.11460435 2:0.14601123 3:0.44245619 4:0.99995565 5:1.1110495e-05 6:1.1110495e-05 7:1.1110495e-05 8:1.1110495e-05 9:0.00034255569 10:0.99995559 11:1.1110495e-05 12:1.1110495e-05 13:1.1110495e-05 14:1.1110495e-05 15:0.00034259274 16:9.3720466e-08 17:0.17555556 18:0.00046568626 19:0.43644106 20:0.21135318 21:0.12004767 22:0.02278747 23:0.048432406 24:0.010957454 25:0.060500611 26:0.089480184 27:0.77558601 
3 1:0.12126234 2:0.13111594 3:0.42905724 4:0.99995565 5:1.1110495e-05 6:1.1110495e-05 7:1.1110495e-05 8:1.1110495e-05 9:0.00034255569 10:0.99995559 11:1.1110495e-05 12:1.1110495e-05 13:1.1110495e-05 14:1.1110495e-05 15:0.00034259274 16:1.6448649e-07 17:0.17555556 18:0.00046568626 19:0.39734742 20:0.25959718 21:0.08584892 22:0.012484736 23:0.053442128 24:0.033861246 25:0.067123093 26:0.090295233 27:0.79441887 
3 1:0.12275777 2:0.11709855 3:0.45000318 4:0.99995565 5:1.1110495e-05 6:1.1110495e-05 7:1.1110495e-05 8:1.1110495e-05 9:0.00034255569 10:0.99217826 11:0.0077884565 12:1.1110495e-05 13:1.1110495e-05 14:1.1110495e-05 15:0.028572174 16:2.5529896e-06 17:0.21333334 18:0.00046568626 19:0.36177078 20:0.078716211 21:0.082315199 22:0.14208223 23:0.14786965 24:0.041362464 25:0.080972061 26:0.064911447 27:0.88782251 
3 1:0.13154681 2:0.10554408 3:0.54558301 4:0.99995565 5:1.1110495e-05 6:1.1110495e-05 7:1.1110495e-05 8:1.1110495e-05 9:0.00034255569 10:0.99995559 11:1.1110495e-05 12:1.1110495e-05 13:1.1110495e-05 14:1.1110495e-05 15:0.00034259274 16:3.1693415e-07 17:0.21666667 18:0.00046568626 19:0.12319035 20:0.025757879 21:0.067590781 22:0.032241534 23:0.095568202 24:0.070077658 25:0.31237099 26:0.2732026 27:0.8529563 
3 1:0.1325931 2:0.10523818 3:0.54610145 4:0.99995565 5:1.1110495e-05 6:1.1110495e-05 7:1.1110495e-05 8:1.1110495e-05 9:0.00034255569 10:0.99995559 11:1.1110495e-05 12:1.1110495e-05 13:1.1110495e-05 14:1.1110495e-05 15:0.00034259274 16:2.247803e-06 17:0.19888888 18:0.00046568626 19:0.015092409 20:0.0030395198 21:0.020618634 22:0.36779904 23:0.53037488 24:0.022657622 25:0.021314178 26:0.019103687 27:0.53313071 
3 1:0.11807036 2:0.12265302 3:0.54444605 4:0.99995565 5:1.1110495e-05 6:1.1110495e-05 7:1.1110495e-05 8:1.1110495e-05 9:0.00034255569 10:0.99995559 11:1.1110495e-05 12:1.1110495e-05 13:1.1110495e-05 14:1.1110495e-05 15:0.00034259274 16:1.0898077e-06 17:0.19777778 18:0.00046568626 19:0.021049039 20:0.016487617 21:0.044900328 22:0.21076024 23:0.56770521 24:0.096559808 25:0.030666495 26:0.011871238 27:0.63626271 
3 1:0.11255718 2:0.14750832 3:0.49335447 4:0.99995565 5:1.1110495e-05 6:1.1110495e-05 7:1.1110495e-05 8:1.1110495e-05 9:0.00034255569 10:0.99995559 11:1.1110495e-05 12:1.1110495e-05 13:1.1110495e-05 14:1.1110495e-05 15:0.00034259274 16:1.711897e-07 17:0.24777777 18:0.00046568626 19:0.075025678 20:0.064188875 21:0.16205353 22:0.17639144 23:0.31143466 24:0.078360081 25:0.10820296 26:0.02434279 27:0.89708543 
3 1:0.13755929 2:0.17973007 3:0.076234825 4:0.96440202 5:0.012232655 6:1.1110495e-05 7:1.1110495e-05 8:0.02334315 9:0.10984533 10:0.69219494 11:0.3077718 12:1.1110495e-05 13:1.1110495e-05 14:1.1110495e-05 15:0.38380316 16:2.5158458e-08 17:0.093333334 18:0.00046568626 19:0.14755039 20:0.10222142 21:0.17675565 22:0.043202475 23:0.164891 24:0.10161298 25:0.20048492 26:0.063281082 27:0.95407158 
3 1:0.14298785 2:0.17903598 3:0.063943014 4:0.95884675 5:0.007788456 6:1.1110494e-05 7:1.1110494e-05 8:0.033342592 9:0.11914557 10:0.83107609 11:0.16889063 12:1.1110495e-05 13:1.1110495e-05 14:1.1110495e-05 15:0.28241548 16:5.3735523e-08 17:0.11 18:0.00046568626 19:0.087611303 20:0.064401709 21:0.18077657 22:0.034981102 23:0.22033094 24:0.11310916 25:0.25727016 26:0.041519016 27:0.90294367 
2.124483622224133 1:0.094449937 2:0.40714616 3:0.72980285 4:0.99995565 5:1.1110495e-05 6:1.1110495e-05 7:1.1110495e-05 8:1.1110495e-05 9:0.00034255569 10:1.1110495e-05 11:0.33777016 12:0.66219658 13:1.1110495e-05 14:1.1110495e-05 15:0.39762023 16:2.1417704e-07 17:0.29444444 18:7.3529416e-05 19:0.030625651 20:0.028769614 21:0.1162096 22:0.22880922 23:0.39028451 24:0.11940611 25:0.071767814 26:0.014127539 27:0.80148757 
1.606613799384691 1:0.10409568 2:0.39368346 3:0.78379762 4:0.99995565 5:1.1110495e-05 6:1.1110495e-05 7:1.1110495e-05 8:1.1110495e-05 9:0.00034255569 10:1.1110495e-05 11:0.67330712 12:0.32665965 13:1.1110495e-05 14:1.1110495e-05 15:0.39280051 16:1.465415e-07 17:0.22666667 18:7.3529416e-05 19:0.055820409 20:0.030031826 21:0.17475331 22:0.12911429 23:0.38530353 24:0.12555139 25:0.081269681 26:0.018155504 27:0.83688694 
3 1:0.11299073 2:0.21809766 3:0.97112417 4:0.99995565 5:1.1110495e-05 6:1.1110495e-05 7:1.1110495e-05 8:1.1110495e-05 9:0.00034255569 10:0.34665853 11:0.65330821 12:1.1110495e-05 13:1.1110495e-05 14:1.1110495e-05 15:0.40122882 16:1.1086804e-06 17:0.23222223 18:7.3529416e-05 19:0.14830929 20:0.11377317 21:0.27629 22:0.13928634 23:0.10952098 24:0.066065617 25:0.085874632 26:0.06088002 27:0.94411105 
3 1:0.10673672 2:0.15149432 3:0.99481988 4:0.99995565 5:1.1110495e-05 6:1.1110495e-05 7:1.1110495e-05 8:1.1110495e-05 9:0.00034255569 10:0.93773681 11:0.062229879 12:1.1110495e-05 13:1.1110495e-05 14:1.1110495e-05 15:0.14506365 16:2.5774423e-07 17:0.22666667 18:7.3529416e-05 19:0.044285551 20:0.025994686 21:0.12900114 22:0.068593144 23:0.4539046 24:0.13622122 25:0.13477719 26:0.0072224848 27:0.77747101 
3 1:0.11284805 2:0.23058081 3:0.99432254 4:0.99995565 5:1.1110495e-05 6:1.1110495e-05 7:1.1110495e-05 8:1.1110495e-05 9:0.00034255569 10:0.046675187 11:0.95329154 12:1.1110495e-05 13:1.1110495e-05 14:1.1110495e-05 15:0.11744384 16:1.9814955e-07 17:0.20888889 18:7.3529416e-05 19:0.051640857 20:0.031347618 21:0.15582488 22:0.15673083 23:0.39064664 24:0.11433247 25:0.087335207 26:0.012141516 27:0.82874924 
3 1:0.1301191 2:0.26129994 3:0.99754959 4:0.99995565 5:1.1110495e-05 6:1.1110495e-05 7:1.1110495e-05 8:1.1110495e-05 9:0.00034255569 10:0.026676295 11:0.97329044 12:1.1110495e-05 13:1.1110495e-05 14:1.1110495e-05 15:0.076675355 16:3.6035101e-07 17:0.22 18:7.3529416e-05 19:0.057225645 20:0.051488131 21:0.17484464 22:0.24535565 23:0.27223137 24:0.080930628 25:0.095727369 26:0.022196623 27:0.88142806 
3 1:0.098622955 2:0.22556487 3:0.93881482 4:0.99995565 5:1.1110495e-05 6:1.1110495e-05 7:1.1110495e-05 8:1.1110495e-05 9:0.00034255569 10:0.31221601 11:0.6877507 12:1.1110495e-05 13:1.1110495e-05 14:1.1110495e-05 15:0.38601258 16:1.9269735e-06 17:0.24333334 18:0.00012254903 19:0.13158096 20:0.10443075 21:0.12473439 22:0.028724929 23:0.20201413 24:0.17045692 25:0.16290209 26:0.075155735 27:0.95180535 
3 1:0.1037171 2:0.29557705 3:0.94139385 4:0.99995565 5:1.1110495e-05 6:1.1110495e-05 7:1.1110495e-05 8:1.1110495e-05 9:0.00034255569 10:1.1110495e-05 11:0.99995559 12:1.1110495e-05 13:1.1110495e-05 14:1.1110495e-05 15:0.00034259268 16:1.3065154e-06 17:0.23999999 18:0.00012254903 19:0.098596074 20:0.047138274 21:0.18831934 22:0.15923449 23:0.20560052 24:0.16023742 25:0.1114798 26:0.029394206 27:0.93596727 
2.35834431511418 1:0.10291328 2:0.5540368 3:0.56854135 4:0.99995565 5:1.1110495e-05 6:1.1110495e-05 7:1.1110495e-05 8:1.1110495e-05 9:0.00034255569 10:1.1110495e-05 11:1.1110495e-05 12:0.99995559 13:1.1110495e-05 14:1.1110495e-05 15:0.00034259268 16:7.3798088e-07 17:0.24444444 18:0.00031862748 19:0.043701932 20:0.046361987 21:0.14668423 22:0.13699402 23:0.44926602 24:0.083697818 25:0.073532596 26:0.019761393 27:0.80292082 
3 1:0.097412579 2:0.56314301 3:0.50342989 4:0.99995565 5:1.1110495e-05 6:1.1110495e-05 7:1.1110495e-05 8:1.1110495e-05 9:0.00034255569 10:1.1110495e-05 11:1.1110495e-05 12:0.99662244 13:0.003344259 14:1.1110495e-05 15:0.014176415 16:3.3609024e-07 17:0.24888889 18:0.00036764707 19:0.058943231 20:0.05050686 21:0.1718781 22:0.19032563 23:0.35286635 24:0.089426644 25:0.067717053 26:0.018336168 27:0.85370129 
3 1:0.091868259 2:0.41191649 3:0.54210585 4:0.99995565 5:1.1110495e-05 6:1.1110495e-05 7:1.1110495e-05 8:1.1110495e-05 9:0.00034255569 10:0.066674083 11:0.21333261 12:0.71997112 13:1.1110495e-05 14:1.1110495e-05 15:0.46408951 16:1.3527711e-06 17:0.25555557 18:0.00056372548 19:0.20255475 20:0.022060547 21:0.018020499 22:0.32320392 23:0.26600382 24:0.0073536122 25:0.027059739 26:0.13374314 27:0.76949358 
0.534232930999841 1:0.096805684 2:0.41182202 3:0.55408388 4:0.9966225 5:1.1110495e-05 6:1.1110495e-05 7:1.1110495e-05 8:0.0033442592 9:0.014176381 10:0.018898951 11:0.33221489 12:0.64886403 13:1.1110495e-05 14:1.1110495e-05 15:0.44860578 16:5.7739356e-07 17:0.28 18:0.00056372548 19:0.46852061 20:0.067472324 21:0.066582024 22:0.013386611 23:0.040858719 24:0.017392959 25:0.053768065 26:0.2720187 27:0.71542817 
3 1:0.095559478 2:0.42599949 3:0.55535185 4:0.99995565 5:1.1110495e-05 6:1.1110495e-05 7:1.1110495e-05 8:1.1110495e-05 9:0.00034255569 10:1.1110495e-05 11:0.34665853 12:0.65330821 13:1.1110495e-05 14:1.1110495e-05 15:0.40122882 16:5.6015404e-07 17:0.24888889 18:0.00056372548 19:0.51146019 20:0.059899963 21:0.078795314 22:0.032478146 23:0.042290013 24:0.020609638 25:0.058400329 26:0.19606644 27:0.73201472 
3 1:0.097676858 2:0.43924499 3:0.5452736 4:0.99995565 5:1.1110495e-05 6:1.1110495e-05 7:1.1110495e-05 8:1.1110495e-05 9:0.00034255569 10:1.1110495e-05 11:0.26444086 12:0.73552585 13:1.1110495e-05 14:1.1110495e-05 15:0.35916522 16:7.5706203e-07 17:0.27888888 18:0.00056372548 19:0.45053658 20:0.045569878 21:0.032732315 22:0.028647637 23:0.05288218 24:0.016083604 25:0.059519783 26:0.31402805 27:0.70557761 
3 1:0.099533565 2:0.44029433 3:0.53396702 4:0.99995565 5:1.1110495e-05 6:1.1110495e-05 7:1.1110495e-05 8:1.1110495e-05 9:0.00034255569 10:1.1110495e-05 11:0.24777514 12:0.75219154 13:1.1110495e-05 14:1.1110495e-05 15:0.3481226 16:6.714194e-07 17:0.25999999 18:0.00056372548 19:0.31225574 20:0.10812231 21:0.063639157 22:0.03179061 23:0.037059885 24:0.051266547 25:0.12314411 26:0.27272162 27:0.85386884 
3 1:0.10001934 2:0.44858915 3:0.53658116 4:0.99995565 5:1.1110495e-05 6:1.1110495e-05 7:1.1110495e-05 8:1.1110495e-05 9:0.00034255569 10:1.1110495e-05 11:0.20222211 12:0.79774457 13:1.1110495e-05 14:1.1110495e-05 15:0.31307423 16:3.1572964e-07 17:0.2711111 18:0.00056372548 19:0.30646887 20:0.10825457 21:0.050308865 22:0.030682806 23:0.040762253 24:0.049243193 25:0.16238165 26:0.25189775 27:0.85677385 
3 1:0.10003775 2:0.46554667 3:0.53777963 4:0.99995565 5:1.1110495e-05 6:1.1110495e-05 7:1.1110495e-05 8:1.1110495e-05 9:0.00034255569 10:1.1110495e-05 11:0.18666741 12:0.8132993 13:1.1110495e-05 14:1.1110495e-05 15:0.299335 16:2.3635666e-07 17:0.24777777 18:0.00056372548 19:0.49513215 20:0.054053515 21:0.050230294 22:0.015997402 23:0.029932026 24:0.019292412 25:0.076187938 26:0.2591742 27:0.69704038 
3 1:0.090457365 2:0.38332546 3:0.40300065 4:0.99995565 5:1.1110495e-05 6:1.1110495e-05 7:1.1110495e-05 8:1.1110495e-05 9:0.00034255569 10:1.1110495e-05 11:0.80774409 12:0.18333426 13:0.0088995062 14:1.1110495e-05 15:0.32666841 16:7.2157678e-07 17:0.29555556 18:0.00061274512 19:0.36765319 20:0.10109087 21:0.061442681 22:0.062622555 23:0.060685784 24:0.031879064 25:0.065004565 26:0.24962135 27:0.84083039 
3 1:0.091763027 2:0.37784106 3:0.39285696 4:0.99995565 5:1.1110495e-05 6:1.1110495e-05 7:1.1110495e-05 8:1.1110495e-05 9:0.00034255569 10:1.1110495e-05 11:0.82107669 12:0.17666797 13:0.0022332093 14:1.1110495e-05 15:0.29948512 16:9.6350402e-07 17:0.27777779 18:0.00061274512 19:0.40291041 20:0.12716748 21:0.05526508 22:0.023128165 23:0.046038128 24:0.0278264 25:0.096289888 26:0.22137441 27:0.8060863 
3 1:0.087081462 2:0.34677958 3:0.38011163 4:0.99995565 5:1.1110495e-05 6:1.1110495e-05 7:1.1110495e-05 8:1.1110495e-05 9:0.00034255569 10:1.1110495e-05 11:0.86885178 12:0.12111551 13:0.010010555 14:1.1110495e-05 15:0.26354846 16:1.3694464e-06 17:0.26333332 18:0.00061274512 19:0.39938736 20:0.095867813 21:0.040710267 22:0.023589594 23:0.022099953 24:0.038016669 25:0.088684887 26:0.29164344 27:0.76599765 
3 1:0.099325918 2:0.18637702 3:0.6933856 4:0.9966225 5:0.0033442592 6:1.1110495e-05 7:1.1110495e-05 8:1.1110495e-05 9:0.014176379 10:0.64886403 11:0.35110274 12:1.1110495e-05 13:1.1110495e-05 14:1.1110495e-05 15:0.40295166 16:4.1463868e-06 17:0.20444444 18:2.4509804e-05 19:0.18618625 20:0.14745146 21:0.069505103 22:0.096252784 23:0.042992454 24:0.091726564 25:0.12438384 26:0.24150151 27:0.94385689 
3 1:0.080002457 2:0.13418381 3:0.68176401 4:0.99995565 5:1.1110495e-05 6:1.1110495e-05 7:1.1110495e-05 8:1.1110495e-05 9:0.00034255569 10:0.99995559 11:1.1110495e-05 12:1.1110495e-05 13:1.1110495e-05 14:1.1110495e-05 15:0.00034259274 16:1.2572218e-06 17:0.28666666 18:2.4509804e-05 19:0.36351421 20:0.046926603 21:0.010932503 22:0.012411883 23:0.025939448 24:0.043679483 25:0.098416589 26:0.39817935 27:0.69325918 
3 1:0.086764179 2:0.18443573 3:0.63828361 4:0.99995565 5:1.1110495e-05 6:1.1110495e-05 7:1.1110495e-05 8:1.1110495e-05 9:0.00034255569 10:0.84996396 11:0.15000279 12:1.1110495e-05 13:1.1110495e-05 14:1.1110495e-05 15:0.2629005 16:4.2617506e-07 17:0.23555556 18:7.3529416e-05 19:0.18700324 20:0.062088236 21:0.068155356 22:0.13686477 23:0.27847207 24:0.10314141 25:0.091900297 26:0.072374627 27:0.93345982 
3 1:0.088625006 2:0.18876906 3:0.6428014 4:0.99995565 5:1.1110495e-05 6:1.1110495e-05 7:1.1110495e-05 8:1.1110495e-05 9:0.00034255569 10:0.70330536 11:0.29666132 12:1.1110495e-05 13:1.1110495e-05 14:1.1110495e-05 15:0.37802675 16:2.2729611e-07 17:0.26888889 18:7.3529416e-05 19:0.37027767 20:0.16429481 21:0.078455783 22:0.023075774 23:0.066149116 24:0.044074029 25:0.13998914 26:0.11368363 27:0.86125952 
3 1:0.082958058 2:0.075123623 3:0.74786741 4:0.97217941 5:1.1110495e-05 6:1.1110495e-05 7:1.1110495e-05 8:0.027787348 9:0.079143845 10:0.99995559 11:1.1110495e-05 12:1.1110495e-05 13:1.1110495e-05 14:1.1110495e-05 15:0.00034259274 16:8.4468667e-07 17:0.24888889 18:7.3529416e-05 19:0.033432938 20:0.02410233 21:0.076458745 22:0.26803458 23:0.41293347 24:0.094022259 25:0.076554209 26:0.014461493 27:0.76866293 
3 1:0.081094965 2:0.1915645 3:0.62198675 4:0.99995565 5:1.1110495e-05 6:1.1110495e-05 7:1.1110495e-05 8:1.1110495e-05 9:0.00034255569 10:0.90884954 11:0.091117166 12:1.1110495e-05 13:1.1110495e-05 14:1.1110495e-05 15:0.18983354 16:1.0361922e-06 17:0.20111111 18:0.00012254903 19:0.042077448 20:0.019346679 21:0.015525314 22:0.45670253 23:0.41981438 24:0.0066840029 25:0.018260904 26:0.021588733 27:0.57033902 
3 1:0.089551613 2:0.19712949 3:0.60440993 4:0.99995565 5:1.1110495e-05 6:1.1110495e-05 7:1.1110495e-05 8:1.1110495e-05 9:0.00034255569 10:0.60886621 11:0.39110053 12:1.1110495e-05 13:1.1110495e-05 14:1.1110495e-05 15:0.41606748 16:2.9989837e-07 17:0.23666666 18:0.00012254903 19:0.25893021 20:0.086182132 21:0.077852294 22:0.072598085 23:0.25159356 24:0.092525624 25:0.11319004 26:0.047127996 27:0.9176904 
3 1:0.09315075 2:0.20882435 3:0.58183521 4:0.99995565 5:1.1110495e-05 6:1.1110495e-05 7:1.1110495e-05 8:1.1110495e-05 9:0.00034255569 10:0.2311094 11:0.7688573 12:1.1110495e-05 13:1.1110495e-05 14:1.1110495e-05 15:0.33615342 16:8.5239873e-07 17:0.26333332 18:0.00012254903 19:0.19291259 20:0.11203916 21:0.060952671 22:0.051465183 23:0.1802626 24:0.15693581 25:0.11406641 26:0.13136554 27:0.96163291 
3 1:0.088156737 2:0.22547707 3:0.54768544 4:0.99995565 5:1.1110495e-05 6:1.1110495e-05 7:1.1110495e-05 8:1.1110495e-05 9:0.00034255569 10:0.28666186 11:0.70997173 12:0.003344259 13:1.1110495e-05 14:1.1110495e-05 15:0.38564667 16:9.441831e-06 17:0.2 18:0.00012254903 19:0.05952945 20:0.0062016654 21:0.029602055 22:0.20165554 23:0.58381283 24:0.046456069 25:0.048005506 26:0.02473682 27:0.63508195 
3 1:0.06765715 2:0.1020105 3:0.80488682 4:0.99995565 5:1.1110495e-05 6:1.1110495e-05 7:1.1110495e-05 8:1.1110495e-05 9:0.00034255569 10:0.99995559 11:1.1110495e-05 12:1.1110495e-05 13:1.1110495e-05 14:1.1110495e-05 15:0.00034259274 16:2.3066725e-06 17:0.19666667 18:0.00012254903 19:0.48268086 20:0.15511283 21:0.068807803 22:0.010910871 23:0.035047457 24:0.037929442 25:0.079100594 26:0.13041013 27:0.76077926 
3 1:0.088888958 2:0.19785556 3:0.59731615 4:0.99995565 5:1.1110495e-05 6:1.1110495e-05 7:1.1110495e-05 8:1.1110495e-05 9:0.00034255569 10:0.59553361 11:0.4044331 12:1.1110495e-05 13:1.1110495e-05 14:1.1110495e-05 15:0.41950324 16:1.0540358e-06 17:0.25555557 18:0.00017156864 19:0.056630608 20:0.033222973 21:0.019869247 22:0.35798109 23:0.46514791 24:0.016569432 25:0.021540219 26:0.029038528 27:0.63993698 
3 1:0.095506027 2:0.20377345 3:0.58464521 4:0.99995565 5:1.1110495e-05 6:1.1110495e-05 7:1.1110495e-05 8:1.1110495e-05 9:0.00034255569 10:0.36221325 11:0.63775349 12:1.1110495e-05 13:1.1110495e-05 14:1.1110495e-05 15:0.40702376 16:2.1284929e-07 17:0.26444444 18:0.00017156864 19:0.16013937 20:0.10452905 21:0.087374665 22:0.11753619 23:0.16348541 24:0.15255186 25:0.13384229 26:0.080541193 27:0.98534948 
0.9321579331471022 1:0.058285777 2:0.054927692 3:0.89280754 4:0.99995565 5:1.1110495e-05 6:1.1110495e-05 7:1.1110495e-05 8:1.1110495e-05 9:0.00034255569 10:0.99995559 11:1.1110495e-05 12:1.1110495e-05 13:1.1110495e-05 14:1.1110495e-05 15:0.00034259274 16:1.1426489e-06 17:0.18444444 18:0.00017156864 19:0.025225913 20:0.0083029596 21:0.0097338557 22:0.48669419 23:0.4468689 24:0.0081457477 25:0.0057475963 26:0.0092808725 27:0.48108661 
3 1:0.090122156 2:0.19989114 3:0.56657577 4:0.99995565 5:1.1110495e-05 6:1.1110495e-05 7:1.1110495e-05 8:1.1110495e-05 9:0.00034255569 10:0.43443143 11:0.56553531 12:1.1110495e-05 13:1.1110495e-05 14:1.1110495e-05 15:0.42556369 16:9.6572944e-07 17:0.28333333 18:0.00022058823 19:0.03172094 20:0.023945082 21:0.027957954 22:0.35821873 23:0.44454691 24:0.036762752 25:0.038703039 26:0.038144473 27:0.67271173 
3 1:0.095558666 2:0.20693749 3:0.55370498 4:0.99995565 5:1.1110495e-05 6:1.1110495e-05 7:1.1110495e-05 8:1.1110495e-05 9:0.00034255569 10:0.28555083 11:0.71441591 12:1.1110495e-05 13:1.1110495e-05 14:1.1110495e-05 15:0.37188259 16:2.9325489e-07 17:0.26555556 18:0.00022058823 19:0.16883095 20:0.12411789 21:0.12477021 22:0.11664595 23:0.12204235 24:0.10620894 25:0.13129333 26:0.10609034 27:0.99500126 
3 1:0.090652399 2:0.1728231 3:0.60057122 4:0.99995565 5:1.1110495e-05 6:1.1110495e-05 7:1.1110495e-05 8:1.1110495e-05 9:0.00034255569 10:0.96995723 11:0.030009447 12:1.1110495e-05 13:1.1110495e-05 14:1.1110495e-05 15:0.08399675 16:1.3347772e-06 17:0.26333332 18:0.00026960784 19:0.054635223 20:0.035184048 21:0.027329944 22:0.32605582 23:0.45277688 24:0.028741227 25:0.031036099 26:0.044240806 27:0.69580328 
3 1:0.094632953 2:0.17689891 3:0.6065402 4:0.99995565 5:1.1110495e-05 6:1.1110495e-05 7:1.1110495e-05 8:1.1110495e-05 9:0.00034255569 10:0.91884899 11:0.081117719 12:1.1110495e-05 13:1.1110495e-05 14:1.1110495e-05 15:0.17515525 16:1.2364511e-06 17:0.23333333 18:0.00026960784 19:0.2214192 20:0.092032664 21:0.092227936 22:0.18596204 23:0.12151985 24:0.082882427 25:0.052558329 26:0.15139759 27:0.95660895 
3 1:0.092326939 2:0.099017255 3:0.72905302 4:0.99995565 5:1.1110495e-05 6:1.1110495e-05 7:1.1110495e-05 8:1.1110495e-05 9:0.00034255569 10:0.99995559 11:1.1110495e-05 12:1.1110495e-05 13:1.1110495e-05 14:1.1110495e-05 15:0.00034259274 16:5.2661047e-08 17:0.25 18:0.00026960784 19:0.089606062 20:0.059545062 21:0.079547182 22:0.059313819 23:0.15539341 24:0.15284978 25:0.28072464 26:0.12302002 27:0.93480521 
3 1:0.093128383 2:0.14448552 3:0.59799629 4:0.99995565 5:1.1110495e-05 6:1.1110495e-05 7:1.1110495e-05 8:1.1110495e-05 9:0.00034255569 10:0.99995559 11:1.1110495e-05 12:1.1110495e-05 13:1.1110495e-05 14:1.1110495e-05 15:0.00034259274 16:1.1114416e-06 17:0.28555554 18:0.00031862748 19:0.050142318 20:0.021480685 21:0.035015695 22:0.37557155 23:0.43507543 24:0.028523901 25:0.027558906 26:0.026631506 27:0.66210943 
3 1:0.078744657 2:0.15309995 3:0.6056428 4:0.99995565 5:1.1110495e-05 6:1.1110495e-05 7:1.1110495e-05 8:1.1110495e-05 9:0.00034255569 10:0.88885063 11:0.11111605 12:1.1110495e-05 13:1.1110495e-05 14:1.1110495e-05 15:0.21700248 16:4.2829843e-06 17:0.20777778 18:0.00031862748 19:0.18027829 20:0.074598312 21:0.042064678 22:0.060948804 23:0.25697035 24:0.092188597 25:0.1129394 26:0.18001163 27:0.92823786 
3 1:0.10411923 2:0.095276311 3:0.73806846 4:0.99995565 5:1.1110495e-05 6:1.1110495e-05 7:1.1110495e-05 8:1.1110495e-05 9:0.00034255569 10:0.99995559 11:1.1110495e-05 12:1.1110495e-05 13:1.1110495e-05 14:1.1110495e-05 15:0.00034259274 16:4.0826333e-08 17:0.19777778 18:0.00031862748 19:0.13726446 20:0.074166514 21:0.11298331 22:0.069541529 23:0.20399632 24:0.089362875 25:0.18665263 26:0.12603237 27:0.96742845 
3 1:0.10007951 2:0.10037996 3:0.72891331 4:0.99995565 5:1.1110495e-05 6:1.1110495e-05 7:1.1110495e-05 8:1.1110495e-05 9:0.00034255569 10:0.99995559 11:1.1110495e-05 12:1.1110495e-05 13:1.1110495e-05 14:1.1110495e-05 15:0.00034259274 16:8.2667512e-08 17:0.24444444 18:0.00031862748 19:0.079653874 20:0.059370935 21:0.093704045 22:0.098880425 23:0.23029703 24:0.11483212 25:0.24350205 26:0.079759523 27:0.93881088 
3 1:0.10442505 2:0.18642753 3:0.57849276 4:0.99995565 5:1.1110495e-05 6:1.1110495e-05 7:1.1110495e-05 8:1.1110495e-05 9:0.00034255569 10:0.76996839 11:0.22999835 12:1.1110495e-05 13:1.1110495e-05 14:1.1110495e-05 15:0.33532146 16:2.2253071e-06 17:0.22666667 18:0.00036764707 19:0.021270212 20:0.015159741 21:0.035872512 22:0.38364235 23:0.36612165 24:0.053058844 25:0.053676981 26:0.071197711 27:0.72188669 
3 1:0.081994355 2:0.13194668 3:0.697128 4:0.99995565 5:1.1110495e-05 6:1.1110495e-05 7:1.1110495e-05 8:1.1110495e-05 9:0.00034255569 10:0.9988445 11:0.0011221599 12:1.1110495e-05 13:1.1110495e-05 14:1.1110495e-05 15:0.0056897704 16:6.7974138e-06 17:0.17111111 18:0.00036764707 19:0.0041600461 20:0.004554885 21:0.033631917 22:0.35332415 23:0.56106561 24:0.03213717 25:0.0079815183 26:0.0031447473 27:0.49073049 
3 1:0.10434623 2:0.093547858 3:0.73094392 4:0.99995565 5:1.1110495e-05 6:1.1110495e-05 7:1.1110495e-05 8:1.1110495e-05 9:0.00034255569 10:0.99995559 11:1.1110495e-05 12:1.1110495e-05 13:1.1110495e-05 14:1.1110495e-05 15:0.00034259274 16:3.184897e-08 17:0.18000001 18:0.00036764707 19:0.15910757 20:0.068972878 21:0.16950046 22:0.058768954 23:0.21919736 24:0.10600936 25:0.15627314 26:0.06217026 27:0.95106339 
3 1:0.10942495 2:0.099479653 3:0.7278285 4:0.99995565 5:1.1110495e-05 6:1.1110495e-05 7:1.1110495e-05 8:1.1110495e-05 9:0.00034255569 10:0.99995559 11:1.1110495e-05 12:1.1110495e-05 13:1.1110495e-05 14:1.1110495e-05 15:0.00034259274 16:3.9445322e-07 17:0.17222223 18:0.00036764707 19:0.022997636 20:0.0050390144 21:0.0096477289 22:0.0029497305 23:0.014655865 24:0.010446572 25:0.17548463 26:0.75877881 27:0.38460025 
3 1:0.10955657 2:0.10041882 3:0.72680867 4:0.99995565 5:1.1110495e-05 6:1.1110495e-05 7:1.1110495e-05 8:1.1110495e-05 9:0.00034255569 10:0.99995559 11:1.1110495e-05 12:1.1110495e-05 13:1.1110495e-05 14:1.1110495e-05 15:0.00034259274 16:6.9793003e-07 17:0.20222223 18:0.00036764707 19:0.023953119 20:0.0050381799 21:0.0046581132 22:0.0014142896 23:0.0077163232 24:0.0084587783 25:0.16718517 26:0.78157604 27:0.34619164 
3 1:0.088406548 2:0.21805334 3:0.56940824 4:0.99995565 5:1.1110495e-05 6:1.1110495e-05 7:1.1110495e-05 8:1.1110495e-05 9:0.00034255569 10:0.071118273 11:0.92884839 12:1.1110495e-05 13:1.1110495e-05 14:1.1110495e-05 15:0.15964155 16:5.7791181e-07 17:0.36888888 18:0.00036764707 19:0.059081797 20:0.029386312 21:0.036280312 22:0.039636802 23:0.12830088 24:0.25516856 25:0.32431972 26:0.12782568 27:0.84597868 
3 1:0.10165633 2:0.16936249 3:0.49862859 4:0.99995565 5:1.1110495e-05 6:1.1110495e-05 7:1.1110495e-05 8:1.1110495e-05 9:0.00034255569 10:0.71219379 11:0.28777292 12:1.1110495e-05 13:1.1110495e-05 14:1.1110495e-05 15:0.37314126 16:3.4197333e-06 17:0.25 18:0.00041666668 19:0.083377644 20:0.037729193 21:0.04330406 22:0.29599485 23:0.37202108 24:0.060760148 25:0.047656726 26:0.059156299 27:0.80668342 
3 1:0.088214576 2:0.14262088 3:0.69141996 4:0.99995565 5:1.1110495e-05 6:1.1110495e-05 7:1.1110495e-05 8:1.1110495e-05 9:0.00034255569 10:0.99995559 11:1.1110495e-05 12:1.1110495e-05 13:1.1110495e-05 14:1.1110495e-05 15:0.00034259274 16:5.2652085e-06 17:0.18888889 18:0.00041666668 19:0.016620994 20:0.021640247 21:0.05296655 22:0.33987856 23:0.44523883 24:0.085635729 25:0.024414046 26:0.013605039 27:0.67002875 
3 1:0.11078062 2:0.10501762 3:0.71163207 4:0.99995565 5:1.1110495e-05 6:1.1110495e-05 7:1.1110495e-05 8:1.1110495e-05 9:0.00034255569 10:0.99995559 11:1.1110495e-05 12:1.1110495e-05 13:1.1110495e-05 14:1.1110495e-05 15:0.00034259274 16:1.0094583e-07 17:0.23333333 18:0.00041666668 19:0.12132967 20:0.052539777 21:0.11782093 22:0.11606655 23:0.25447735 24:0.1112651 25:0.12336104 26:0.10313958 27:0.9606759 
3 1:0.10592699 2:0.10981297 3:0.70236933 4:0.99995565 5:1.1110495e-05 6:1.1110495e-05 7:1.1110495e-05 8:1.1110495e-05 9:0.00034255569 10:0.99995559 11:1.1110495e-05 12:1.1110495e-05 13:1.1110495e-05 14:1.1110495e-05 15:0.00034259274 16:8.1468805e-08 17:0.25666666 18:0.00041666668 19:0.13051857 20:0.04434225 21:0.09514194 22:0.080972001 23:0.16300339 24:0.12425296 25:0.23703405 26:0.12473492 27:0.95552051 
