svm_type c_svc
kernel_type rbf
gamma 1
nr_class 2
total_sv 4108
rho -2.90303
label 0 1
nr_sv 2052 2056
SV
3 1:0.13369545 2:0.19759113 3:0.54087716 4:0.99995565 5:1.1110495e-05 6:1.1110495e-05 7:1.1110495e-05 8:1.1110495e-05 9:0.00034255569 10:0.99997783 11:1.1110742e-05 12:1.1110742e-05 13:0.0002509224 14:0.46568626 
3 1:0.13488831 2:0.1986091 3:0.5472647 4:0.99995565 5:1.1110495e-05 6:1.1110495e-05 7:1.1110495e-05 8:1.1110495e-05 9:0.00034255569 10:0.99997783 11:1.1110742e-05 12:1.1110742e-05 13:0.0002509224 14:0.46568626 
3 1:0.13327877 2:0.15631378 3:0.50199294 4:0.99995565 5:1.1110495e-05 6:1.1110495e-05 7:1.1110495e-05 8:1.1110495e-05 9:0.00034255569 10:0.99220026 11:0.0077886293 12:1.1110741e-05 13:0.041607484 14:0.5147059 15:1 
3 1:0.13883796 2:0.15233493 3:0.51253802 4:0.99995565 5:1.1110495e-05 6:1.1110495e-05 7:1.1110495e-05 8:1.1110495e-05 9:0.00034255569 10:0.99886674 11:0.0011221849 12:1.1110742e-05 13:0.0080845477 14:0.5147059 15:1 
3 1:0.13351475 2:0.15556297 3:0.51620221 4:0.99995565 5:1.1110495e-05 6:1.1110495e-05 7:1.1110495e-05 8:1.1110495e-05 9:0.00034255569 10:0.99997783 11:1.1110742e-05 12:1.1110742e-05 13:0.0002509224 14:0.5147059 15:1 
3 1:0.13576993 2:0.16793847 3:0.51461607 4:0.99995565 5:1.1110495e-05 6:1.1110495e-05 7:1.1110495e-05 8:1.1110495e-05 9:0.00034255569 10:0.99997783 11:1.1110742e-05 12:1.1110742e-05 13:0.0002509224 14:0.5147059 15:1 
3 1:0.1379108 2:0.16965312 3:0.50900382 4:0.99995565 5:1.1110495e-05 6:1.1110495e-05 7:1.1110495e-05 8:1.1110495e-05 9:0.00034255569 10:0.99331135 11:0.0066775554 12:1.1110741e-05 13:0.036628824 14:0.5147059 15:1 
3 1:0.14220873 2:0.19344008 3:0.44477963 4:0.99995565 5:1.1110495e-05 6:1.1110495e-05 7:1.1110495e-05 8:1.1110495e-05 9:0.00034255569 10:0.97664523 11:0.023343666 12:1.1110741e-05 13:0.10096267 14:0.5147059 
3 1:0.13860932 2:0.15893817 3:0.41492686 4:0.99995565 5:1.1110495e-05 6:1.1110495e-05 7:1.1110495e-05 8:1.1110495e-05 9:0.00034255569 10:0.98331171 11:0.016677223 12:1.1110742e-05 13:0.077321857 14:0.5147059 
3 1:0.13110276 2:0.1718207 3:0.49085796 4:0.99995565 5:1.1110495e-05 6:1.1110495e-05 7:1.1110495e-05 8:1.1110495e-05 9:0.00034255569 10:0.98331171 11:0.016677223 12:1.1110742e-05 13:0.077321857 14:0.5147059 
3 1:0.096656919 2:0.18651311 3:0.2653974 4:0.99995565 5:1.1110495e-05 6:1.1110495e-05 7:1.1110495e-05 8:1.1110495e-05 9:0.00034255569 10:0.97886735 11:0.020010443 12:0.0011221848 13:0.097214505 14:0.56372547 
3 1:0.10743079 2:0.36657199 3:0.34566325 4:0.99995565 5:1.1110495e-05 6:1.1110495e-05 7:1.1110495e-05 8:1.1110495e-05 9:0.00034255569 10:0.46221793 11:0.53332669 12:0.0044554072 13:0.65180647 14:0.56372547 
3 1:0.092111088 2:0.21534258 3:0.29840362 4:0.99995565 5:1.1110495e-05 6:1.1110495e-05 7:1.1110495e-05 8:1.1110495e-05 9:0.00034255569 10:0.9522016 11:0.047787298 12:1.1110741e-05 13:0.1748434 14:0.56372547 
3 1:0.080053002 2:0.21138975 3:0.29200622 4:0.99440038 5:1.1110495e-05 6:1.1110495e-05 7:1.1110495e-05 8:0.0055663581 9:0.021659231 10:0.97331202 11:0.026676888 12:1.1110741e-05 13:0.11207894 14:0.56372547 
3 1:0.12485281 2:0.15869595 3:0.39576754 4:0.97106832 5:1.1110495e-05 6:1.1110495e-05 7:1.1110495e-05 8:0.028898396 9:0.081583954 10:0.99997783 11:1.1110742e-05 12:1.1110742e-05 13:0.0002509224 14:0.56372547 15:1 
3 1:0.1424218 2:0.12665959 3:0.39090893 4:0.94107002 5:0.016676852 6:1.1110495e-05 7:1.1110495e-05 8:0.04223099 9:0.16112879 10:0.99997783 11:1.1110742e-05 12:1.1110742e-05 13:0.0002509224 14:0.56372547 15:1 
3 1:0.1013545 2:0.11912903 3:0.40306592 4:0.99551141 5:0.0044553084 6:1.1110495e-05 7:1.1110495e-05 8:1.1110495e-05 9:0.018005198 10:0.99997783 11:1.1110742e-05 12:1.1110742e-05 13:0.0002509224 14:0.56372547 15:1 
3 1:0.13073951 2:0.1117865 3:0.39922312 4:0.97106832 5:0.003344259 6:1.1110495e-05 7:1.1110495e-05 8:0.025565248 9:0.087957457 10:0.99997783 11:1.1110742e-05 12:1.1110742e-05 13:0.0002509224 14:0.56372547 15:1 
3 1:0.19251755 2:0.091941327 3:0.39031669 4:0.87218487 5:0.013343703 6:0.0055663576 7:0.023343148 8:0.085561916 9:0.31305131 10:0.99997783 11:1.1110742e-05 12:1.1110742e-05 13:0.0002509224 14:0.56372547 15:1 
3 1:0.1293968 2:0.10066513 3:0.38039079 4:0.94884729 5:0.040008888 6:0.0011221599 7:1.1110494e-05 8:0.010010555 9:0.14442001 10:0.99997783 11:1.1110742e-05 12:1.1110742e-05 13:0.0002509224 14:0.56372547 15:1 
3 1:0.1258537 2:0.19663647 3:0.38139758 4:0.99995565 5:1.1110495e-05 6:1.1110495e-05 7:1.1110495e-05 8:1.1110495e-05 9:0.00034255569 10:0.99997783 11:1.1110742e-05 12:1.1110742e-05 13:0.0002509224 14:0.61274511 
3 1:0.11888479 2:0.19699186 3:0.37292206 4:0.99995565 5:1.1110495e-05 6:1.1110495e-05 7:1.1110495e-05 8:1.1110495e-05 9:0.00034255569 10:0.98220062 11:0.017788297 12:1.1110741e-05 13:0.081411459 14:0.61274511 
3 1:0.11835805 2:0.20895346 3:0.34723192 4:0.99995565 5:1.1110495e-05 6:1.1110495e-05 7:1.1110495e-05 8:1.1110495e-05 9:0.00034255569 10:0.95664591 11:0.043343 12:1.1110741e-05 13:0.16253592 14:0.61274511 
3 1:0.10820878 2:0.22008905 3:0.33292666 4:0.99995565 5:1.1110495e-05 6:1.1110495e-05 7:1.1110495e-05 8:1.1110495e-05 9:0.00034255569 10:0.95664591 11:0.043343 12:1.1110741e-05 13:0.16253592 14:0.61274511 
3 1:0.11358029 2:0.21673572 3:0.31992865 4:0.9899562 5:1.1110495e-05 6:1.1110495e-05 7:1.1110495e-05 8:0.010010556 9:0.035082545 10:0.94997942 11:0.047787298 12:0.0022332589 13:0.18905811 14:0.61274511 
3 1:0.11691237 2:0.22159588 3:0.30704847 4:0.97884566 5:0.0022332096 6:1.1110495e-05 7:1.1110495e-05 8:0.018898953 9:0.068233766 10:0.92664689 11:0.066675559 12:0.0066775554 13:0.25904885 14:0.61274511 
3 1:0.10726684 2:0.22102942 3:0.29341435 4:0.98217887 5:1.1110495e-05 6:1.1110495e-05 7:1.1110495e-05 8:0.017787902 9:0.055741996 10:0.92109156 11:0.078897379 12:1.1110742e-05 13:0.25141263 14:0.61274511 
3 1:0.11933014 2:0.13881686 3:0.33233836 4:0.99995565 5:1.1110495e-05 6:1.1110495e-05 7:1.1110495e-05 8:1.1110495e-05 9:0.00034255569 10:0.99997783 11:1.1110742e-05 12:1.1110742e-05 13:0.0002509224 14:0.5147059 
3 1:0.11431582 2:0.23622574 3:0.20324907 4:0.99995565 5:1.1110495e-05 6:1.1110495e-05 7:1.1110495e-05 8:1.1110495e-05 9:0.00034255569 10:0.97775632 11:0.022232592 12:1.1110741e-05 13:0.097161472 14:0.56372547 
3 1:0.10225205 2:0.58818269 3:0.54352689 4:0.99995565 5:1.1110495e-05 6:1.1110495e-05 7:1.1110495e-05 8:1.1110495e-05 9:0.00034255569 10:1.1110742e-05 11:0.99997783 12:1.1110742e-05 13:0.0002509224 14:0.5147059 
0.1534049226865513 1:0.10479723 2:0.59108251 3:0.55358732 4:0.99995565 5:1.1110495e-05 6:1.1110495e-05 7:1.1110495e-05 8:1.1110495e-05 9:0.00034255569 10:1.1110742e-05 11:0.99997783 12:1.1110742e-05 13:0.0002509224 14:0.5147059 
3 1:0.10285641 2:0.6047039 3:0.50115532 4:0.99995565 5:1.1110495e-05 6:1.1110495e-05 7:1.1110495e-05 8:1.1110495e-05 9:0.00034255569 10:1.1110742e-05 11:0.99997783 12:1.1110742e-05 13:0.0002509224 14:0.5147059 
3 1:0.099233806 2:0.60359961 3:0.43018144 4:0.99995565 5:1.1110495e-05 6:1.1110495e-05 7:1.1110495e-05 8:1.1110495e-05 9:0.00034255569 10:1.1110742e-05 11:0.99997783 12:1.1110742e-05 13:0.0002509224 14:0.5147059 
3 1:0.091868259 2:0.41191649 3:0.54210585 4:0.99995565 5:1.1110495e-05 6:1.1110495e-05 7:1.1110495e-05 8:1.1110495e-05 9:0.00034255569 10:0.13667324 11:0.8633157 12:1.1110742e-05 13:0.36319852 14:0.56372547 15:1 
3 1:0.096805684 2:0.41182202 3:0.55408388 4:0.9966225 5:1.1110495e-05 6:1.1110495e-05 7:1.1110495e-05 8:0.0033442592 9:0.014176381 10:0.098896712 11:0.90109223 12:1.1110742e-05 13:0.2938149 14:0.56372547 15:1 
3 1:0.095559478 2:0.42599949 3:0.55535185 4:0.99995565 5:1.1110495e-05 6:1.1110495e-05 7:1.1110495e-05 8:1.1110495e-05 9:0.00034255569 10:0.063342333 11:0.93664658 12:1.1110741e-05 13:0.21500199 14:0.56372547 15:1 
3 1:0.096814245 2:0.43956628 3:0.55901176 4:0.99995565 5:1.1110495e-05 6:1.1110495e-05 7:1.1110495e-05 8:1.1110495e-05 9:0.00034255569 10:0.0022332589 11:0.99775565 12:1.1110741e-05 13:0.014564781 14:0.56372547 15:1 
3 1:0.09760426 2:0.45714027 3:0.55518186 4:0.99995565 5:1.1110495e-05 6:1.1110495e-05 7:1.1110495e-05 8:1.1110495e-05 9:0.00034255569 10:1.1110742e-05 11:0.99997783 12:1.1110742e-05 13:0.0002509224 14:0.56372547 15:1 
3 1:0.097676858 2:0.43924499 3:0.5452736 4:0.99995565 5:1.1110495e-05 6:1.1110495e-05 7:1.1110495e-05 8:1.1110495e-05 9:0.00034255569 10:0.042231929 11:0.957757 12:1.1110742e-05 13:0.15939286 14:0.56372547 15:1 
3 1:0.099533565 2:0.44029433 3:0.53396702 4:0.99995565 5:1.1110495e-05 6:1.1110495e-05 7:1.1110495e-05 8:1.1110495e-05 9:0.00034255569 10:0.01889937 11:0.98108953 12:1.1110741e-05 13:0.085436717 14:0.56372547 15:1 
3 1:0.10001934 2:0.44858915 3:0.53658116 4:0.99995565 5:1.1110495e-05 6:1.1110495e-05 7:1.1110495e-05 8:1.1110495e-05 9:0.00034255569 10:0.012232927 11:0.98775601 12:1.1110742e-05 13:0.060225688 14:0.56372547 15:0.3839646 
3 1:0.10003775 2:0.46554667 3:0.53777963 4:0.99995565 5:1.1110495e-05 6:1.1110495e-05 7:1.1110495e-05 8:1.1110495e-05 9:0.00034255569 10:0.024454743 11:0.9755342 12:1.1110742e-05 13:0.10471452 14:0.56372547 
3 1:0.099217124 2:0.4601005 3:0.52188402 4:0.99995565 5:1.1110495e-05 6:1.1110495e-05 7:1.1110495e-05 8:1.1110495e-05 9:0.00034255569 10:0.063342333 11:0.93331331 12:0.003344333 13:0.2350698 14:0.56372547 
3 1:0.096046217 2:0.45054406 3:0.49126089 4:0.99995565 5:1.1110495e-05 6:1.1110495e-05 7:1.1110495e-05 8:1.1110495e-05 9:0.00034255569 10:0.10667422 11:0.86887103 12:0.024454741 13:0.41107604 14:0.56372547 
3 1:0.097423315 2:0.51083541 3:0.49349639 4:0.99995565 5:1.1110495e-05 6:1.1110495e-05 7:1.1110495e-05 8:1.1110495e-05 9:0.00034255569 10:0.0077886293 11:0.93775761 12:0.054453742 13:0.23353162 14:0.56372547 
3 1:0.096867092 2:0.52476519 3:0.48910415 4:0.99995565 5:1.1110495e-05 6:1.1110495e-05 7:1.1110495e-05 8:1.1110495e-05 9:0.00034255569 10:1.1110741e-05 11:0.93220228 12:0.067786627 13:0.22575088 14:0.56372547 
3 1:0.097177684 2:0.57335854 3:0.426164 4:0.99995565 5:1.1110495e-05 6:1.1110495e-05 7:1.1110495e-05 8:1.1110495e-05 9:0.00034255569 10:1.1110741e-05 11:0.93997979 12:0.060009111 13:0.20674241 14:0.56372547 
3 1:0.096516967 2:0.59940946 3:0.37554997 4:0.99995565 5:1.1110495e-05 6:1.1110495e-05 7:1.1110495e-05 8:1.1110495e-05 9:0.00034255569 10:1.1110741e-05 11:0.96109021 12:0.038898703 13:0.14979409 14:0.56372547 
3 1:0.090457365 2:0.38332546 3:0.40300065 4:0.99995565 5:1.1110495e-05 6:1.1110495e-05 7:1.1110495e-05 8:1.1110495e-05 9:0.00034255569 10:0.11556282 11:0.88442612 12:1.1110742e-05 13:0.32598072 14:0.61274511 
3 1:0.091763027 2:0.37784106 3:0.39285696 4:0.99995565 5:1.1110495e-05 6:1.1110495e-05 7:1.1110495e-05 8:1.1110495e-05 9:0.00034255569 10:0.20778196 11:0.79220694 12:1.1110741e-05 13:0.46525809 14:0.61274511 
3 1:0.087081462 2:0.34677958 3:0.38011163 4:0.99995565 5:1.1110495e-05 6:1.1110495e-05 7:1.1110495e-05 8:1.1110495e-05 9:0.00034255569 10:0.65998912 11:0.33999977 12:1.1110741e-05 13:0.58361673 14:0.61274511 
3 1:0.097980298 2:0.087474756 3:0.70873058 4:0.99995565 5:1.1110495e-05 6:1.1110495e-05 7:1.1110495e-05 8:1.1110495e-05 9:0.00034255569 10:0.99997783 11:1.1110742e-05 12:1.1110742e-05 13:0.0002509224 14:0.5147059 15:1 
3 1:0.10378198 2:0.086671285 3:0.71622062 4:0.99995565 5:1.1110495e-05 6:1.1110495e-05 7:1.1110495e-05 8:1.1110495e-05 9:0.00034255569 10:0.99997783 11:1.1110742e-05 12:1.1110742e-05 13:0.0002509224 14:0.5147059 15:1 
3 1:0.11124476 2:0.090192609 3:0.71730602 4:0.99995565 5:1.1110495e-05 6:1.1110495e-05 7:1.1110495e-05 8:1.1110495e-05 9:0.00034255569 10:0.99997783 11:1.1110742e-05 12:1.1110742e-05 13:0.0002509224 14:0.5147059 15:1 
3 1:0.10634709 2:0.089680471 3:0.73344922 4:0.99995565 5:1.1110495e-05 6:1.1110495e-05 7:1.1110495e-05 8:1.1110495e-05 9:0.00034255569 10:0.99997783 11:1.1110742e-05 12:1.1110742e-05 13:0.0002509224 14:0.5147059 15:1 
3 1:0.11554425 2:0.070866913 3:0.75715786 4:0.99995565 5:1.1110495e-05 6:1.1110495e-05 7:1.1110495e-05 8:1.1110495e-05 9:0.00034255569 10:0.99997783 11:1.1110742e-05 12:1.1110742e-05 13:0.0002509224 14:0.5147059 15:1 
3 1:0.10888199 2:0.14094362 3:0.65261418 4:0.99995565 5:1.1110495e-05 6:1.1110495e-05 7:1.1110495e-05 8:1.1110495e-05 9:0.00034255569 10:0.99997783 11:1.1110742e-05 12:1.1110742e-05 13:0.0002509224 14:0.5147059 15:0.58149129 
3 1:0.12482941 2:0.068229645 3:0.71742827 4:0.99995565 5:1.1110495e-05 6:1.1110495e-05 7:1.1110495e-05 8:1.1110495e-05 9:0.00034255569 10:0.99997783 11:1.1110742e-05 12:1.1110742e-05 13:0.0002509224 14:0.5147059 
3 1:0.13407156 2:0.076153979 3:0.66278815 4:0.99995565 5:1.1110495e-05 6:1.1110495e-05 7:1.1110495e-05 8:1.1110495e-05 9:0.00034255569 10:0.99997783 11:1.1110742e-05 12:1.1110742e-05 13:0.0002509224 14:0.5147059 
3 1:0.11871134 2:0.14219676 3:0.57035375 4:0.99995565 5:1.1110495e-05 6:1.1110495e-05 7:1.1110495e-05 8:1.1110495e-05 9:0.00034255569 10:0.99997783 11:1.1110742e-05 12:1.1110742e-05 13:0.0002509224 14:0.5147059 
3 1:0.10503905 2:0.098167025 3:0.5865829 4:0.95662463 5:0.031120494 6:0.004455308 7:0.004455308 8:0.0033442588 9:0.13526984 10:0.99997783 11:1.1110742e-05 12:1.1110742e-05 13:0.0002509224 14:0.5147059 
3 1:0.13313255 2:0.086202033 3:0.60326374 4:0.9510693 5:0.036675736 6:0.0044553075 7:0.0055663572 8:0.0022332091 9:0.14638472 10:0.99997783 11:1.1110742e-05 12:1.1110742e-05 13:0.0002509224 14:0.5147059 
3 1:0.11711463 2:0.13438122 3:0.55882388 4:0.99217826 5:0.0077884565 6:1.1110495e-05 7:1.1110495e-05 8:1.1110495e-05 9:0.028572174 10:0.99997783 11:1.1110742e-05 12:1.1110742e-05 13:0.0002509224 14:0.5147059 
3 1:0.093461238 2:0.11992984 3:0.56338125 4:0.99995565 5:1.1110495e-05 6:1.1110495e-05 7:1.1110495e-05 8:1.1110495e-05 9:0.00034255569 10:0.99997783 11:1.1110742e-05 12:1.1110742e-05 13:0.0002509224 14:0.5147059 
3 1:0.093229689 2:0.12936437 3:0.60503298 4:0.99995565 5:1.1110495e-05 6:1.1110495e-05 7:1.1110495e-05 8:1.1110495e-05 9:0.00034255569 10:0.99997783 11:1.1110742e-05 12:1.1110742e-05 13:0.0002509224 14:0.5147059 
3 1:0.093576804 2:0.14311808 3:0.61737716 4:0.99995565 5:1.1110495e-05 6:1.1110495e-05 7:1.1110495e-05 8:1.1110495e-05 9:0.00034255569 10:0.99997783 11:1.1110742e-05 12:1.1110742e-05 13:0.0002509224 14:0.5147059 
3 1:0.082757644 2:0.12452694 3:0.71041691 4:0.99995565 5:1.1110495e-05 6:1.1110495e-05 7:1.1110495e-05 8:1.1110495e-05 9:0.00034255569 10:0.99997783 11:1.1110742e-05 12:1.1110742e-05 13:0.0002509224 14:0.5147059 
3 1:0.090879604 2:0.15126149 3:0.56501544 4:0.99995565 5:1.1110495e-05 6:1.1110495e-05 7:1.1110495e-05 8:1.1110495e-05 9:0.00034255569 10:0.99997783 11:1.1110742e-05 12:1.1110742e-05 13:0.0002509224 14:0.5147059 
3 1:0.095514603 2:0.16340712 3:0.6450147 4:0.99995565 5:1.1110495e-05 6:1.1110495e-05 7:1.1110495e-05 8:1.1110495e-05 9:0.00034255569 10:0.99997783 11:1.1110742e-05 12:1.1110742e-05 13:0.0002509224 14:0.5147059 
3 1:0.091021746 2:0.1701522 3:0.65305811 4:0.99995565 5:1.1110495e-05 6:1.1110495e-05 7:1.1110495e-05 8:1.1110495e-05 9:0.00034255569 10:0.99997783 11:1.1110742e-05 12:1.1110742e-05 13:0.0002509224 14:0.5147059 
3 1:0.085141577 2:0.17416695 3:0.65751141 4:0.99995565 5:1.1110495e-05 6:1.1110495e-05 7:1.1110495e-05 8:1.1110495e-05 9:0.00034255569 10:0.99997783 11:1.1110742e-05 12:1.1110742e-05 13:0.0002509224 14:0.5147059 
3 1:0.084245071 2:0.1742623 3:0.65789044 4:0.99995565 5:1.1110495e-05 6:1.1110495e-05 7:1.1110495e-05 8:1.1110495e-05 9:0.00034255569 10:0.99997783 11:1.1110742e-05 12:1.1110742e-05 13:0.0002509224 14:0.5147059 
3 1:0.084542379 2:0.1755802 3:0.6537509 4:0.99995565 5:1.1110495e-05 6:1.1110495e-05 7:1.1110495e-05 8:1.1110495e-05 9:0.00034255569 10:0.99997783 11:1.1110742e-05 12:1.1110742e-05 13:0.0002509224 14:0.5147059 
3 1:0.082260273 2:0.17419147 3:0.65016532 4:0.99995565 5:1.1110495e-05 6:1.1110495e-05 7:1.1110495e-05 8:1.1110495e-05 9:0.00034255569 10:0.99997783 11:1.1110742e-05 12:1.1110742e-05 13:0.0002509224 14:0.5147059 
3 1:0.080969676 2:0.18490736 3:0.6448409 4:0.99995565 5:1.1110495e-05 6:1.1110495e-05 7:1.1110495e-05 8:1.1110495e-05 9:0.00034255569 10:0.99997783 11:1.1110742e-05 12:1.1110742e-05 13:0.0002509224 14:0.5147059 
3 1:0.10010776 2:0.089580648 3:0.6677773 4:0.99995565 5:1.1110495e-05 6:1.1110495e-05 7:1.1110495e-05 8:1.1110495e-05 9:0.00034255569 10:0.99997783 11:1.1110742e-05 12:1.1110742e-05 13:0.0002509224 14:0.56372547 15:1 
3 1:0.10701582 2:0.087888367 3:0.68720597 4:0.99995565 5:1.1110495e-05 6:1.1110495e-05 7:1.1110495e-05 8:1.1110495e-05 9:0.00034255569 10:0.99997783 11:1.1110742e-05 12:1.1110742e-05 13:0.0002509224 14:0.56372547 15:1 
3 1:0.11347726 2:0.086626127 3:0.69767642 4:0.99995565 5:1.1110495e-05 6:1.1110495e-05 7:1.1110495e-05 8:1.1110495e-05 9:0.00034255569 10:0.99997783 11:1.1110742e-05 12:1.1110742e-05 13:0.0002509224 14:0.56372547 15:1 
3 1:0.11191756 2:0.081895143 3:0.71559799 4:0.99995565 5:1.1110495e-05 6:1.1110495e-05 7:1.1110495e-05 8:1.1110495e-05 9:0.00034255569 10:0.99997783 11:1.1110742e-05 12:1.1110742e-05 13:0.0002509224 14:0.56372547 15:1 
3 1:0.12457237 2:0.074446134 3:0.74031687 4:0.99995565 5:1.1110495e-05 6:1.1110495e-05 7:1.1110495e-05 8:1.1110495e-05 9:0.00034255569 10:0.99997783 11:1.1110742e-05 12:1.1110742e-05 13:0.0002509224 14:0.56372547 15:1 
3 1:0.11149234 2:0.13659719 3:0.61374778 4:0.99995565 5:1.1110495e-05 6:1.1110495e-05 7:1.1110495e-05 8:1.1110495e-05 9:0.00034255569 10:0.99997783 11:1.1110742e-05 12:1.1110742e-05 13:0.0002509224 14:0.56372547 
3 1:0.12841152 2:0.078509912 3:0.69623441 4:0.99995565 5:1.1110495e-05 6:1.1110495e-05 7:1.1110495e-05 8:1.1110495e-05 9:0.00034255569 10:0.99997783 11:1.1110742e-05 12:1.1110742e-05 13:0.0002509224 14:0.56372547 15:0.22138101 
3 1:0.13002782 2:0.090152629 3:0.62923712 4:0.99995565 5:1.1110495e-05 6:1.1110495e-05 7:1.1110495e-05 8:1.1110495e-05 9:0.00034255569 10:0.99997783 11:1.1110742e-05 12:1.1110742e-05 13:0.0002509224 14:0.56372547 
3 1:0.12166798 2:0.16551811 3:0.55634058 4:0.99995565 5:1.1110495e-05 6:1.1110495e-05 7:1.1110495e-05 8:1.1110495e-05 9:0.00034255569 10:0.99997783 11:1.1110742e-05 12:1.1110742e-05 13:0.0002509224 14:0.56372547 
3 1:0.096604146 2:0.15271661 3:0.5202046 4:0.99106723 5:0.0088995062 6:1.1110495e-05 7:1.1110495e-05 8:1.1110495e-05 9:0.031870954 10:0.99997783 11:1.1110742e-05 12:1.1110742e-05 13:0.0002509224 14:0.56372547 
3 1:0.12991844 2:0.064006731 3:0.60211319 4:0.96662414 5:0.033342596 6:1.1110495e-05 7:1.1110495e-05 8:1.1110495e-05 9:0.09108045 10:0.99997783 11:1.1110742e-05 12:1.1110742e-05 13:0.0002509224 14:0.56372547 
3 1:0.10239017 2:0.074100554 3:0.50166452 4:0.99995565 5:1.1110495e-05 6:1.1110495e-05 7:1.1110495e-05 8:1.1110495e-05 9:0.00034255569 10:0.99997783 11:1.1110742e-05 12:1.1110742e-05 13:0.0002509224 14:0.56372547 
3 1:0.091916502 2:0.11252043 3:0.56372082 4:0.99995565 5:1.1110495e-05 6:1.1110495e-05 7:1.1110495e-05 8:1.1110495e-05 9:0.00034255569 10:0.99997783 11:1.1110742e-05 12:1.1110742e-05 13:0.0002509224 14:0.56372547 
3 1:0.09897171 2:0.14639975 3:0.5628162 4:0.99995565 5:1.1110495e-05 6:1.1110495e-05 7:1.1110495e-05 8:1.1110495e-05 9:0.00034255569 10:0.99997783 11:1.1110742e-05 12:1.1110742e-05 13:0.0002509224 14:0.56372547 
3 1:0.095522307 2:0.15405072 3:0.58166951 4:0.99995565 5:1.1110495e-05 6:1.1110495e-05 7:1.1110495e-05 8:1.1110495e-05 9:0.00034255569 10:0.99997783 11:1.1110742e-05 12:1.1110742e-05 13:0.0002509224 14:0.56372547 
3 1:0.089837432 2:0.14221291 3:0.69338429 4:0.99995565 5:1.1110495e-05 6:1.1110495e-05 7:1.1110495e-05 8:1.1110495e-05 9:0.00034255569 10:0.99997783 11:1.1110742e-05 12:1.1110742e-05 13:0.0002509224 14:0.56372547 
3 1:0.093042642 2:0.1578825 3:0.5184058 4:0.99995565 5:1.1110495e-05 6:1.1110495e-05 7:1.1110495e-05 8:1.1110495e-05 9:0.00034255569 10:0.99997783 11:1.1110742e-05 12:1.1110742e-05 13:0.0002509224 14:0.56372547 
3 1:0.092976056 2:0.16988373 3:0.62814379 4:0.99995565 5:1.1110495e-05 6:1.1110495e-05 7:1.1110495e-05 8:1.1110495e-05 9:0.00034255569 10:0.99997783 11:1.1110742e-05 12:1.1110742e-05 13:0.0002509224 14:0.56372547 
3 1:0.091398552 2:0.17556703 3:0.63007438 4:0.99995565 5:1.1110495e-05 6:1.1110495e-05 7:1.1110495e-05 8:1.1110495e-05 9:0.00034255569 10:0.99997783 11:1.1110742e-05 12:1.1110742e-05 13:0.0002509224 14:0.56372547 
3 1:0.089945972 2:0.17979334 3:0.62968653 4:0.99995565 5:1.1110495e-05 6:1.1110495e-05 7:1.1110495e-05 8:1.1110495e-05 9:0.00034255569 10:0.99997783 11:1.1110742e-05 12:1.1110742e-05 13:0.0002509224 14:0.56372547 
3 1:0.085915677 2:0.1816237 3:0.62552524 4:0.99995565 5:1.1110495e-05 6:1.1110495e-05 7:1.1110495e-05 8:1.1110495e-05 9:0.00034255569 10:0.99997783 11:1.1110742e-05 12:1.1110742e-05 13:0.0002509224 14:0.56372547 
3 1:0.083405353 2:0.18311787 3:0.61705869 4:0.99995565 5:1.1110495e-05 6:1.1110495e-05 7:1.1110495e-05 8:1.1110495e-05 9:0.00034255569 10:0.99997783 11:1.1110742e-05 12:1.1110742e-05 13:0.0002509224 14:0.56372547 
3 1:0.0831571 2:0.18462026 3:0.59263229 4:0.99995565 5:1.1110495e-05 6:1.1110495e-05 7:1.1110495e-05 8:1.1110495e-05 9:0.00034255569 10:0.99997783 11:1.1110742e-05 12:1.1110742e-05 13:0.0002509224 14:0.56372547 
3 1:0.088639036 2:0.19012499 3:0.55663747 4:0.99995565 5:1.1110495e-05 6:1.1110495e-05 7:1.1110495e-05 8:1.1110495e-05 9:0.00034255569 10:0.99997783 11:1.1110742e-05 12:1.1110742e-05 13:0.0002509224 14:0.56372547 
1.566703518554387 1:0.3207607 2:0.089186102 3:0.21024668 4:0.68108439 5:0.012232654 6:1.1110494e-05 7:0.12222654 8:0.18444531 9:0.54942828 10:0.99997783 11:1.1110742e-05 12:1.1110742e-05 13:0.0002509224 14:0.61274511 15:1 
3 1:0.21107183 2:0.060996387 3:0.28159609 4:0.82774293 5:0.015565803 6:0.0066774073 7:0.034453645 8:0.11556026 9:0.3853204 10:0.99997783 11:1.1110742e-05 12:1.1110742e-05 13:0.0002509224 14:0.61274511 15:1 
3 1:0.18883359 2:0.068367675 3:0.3029471 4:0.86662966 5:0.0033442588 6:1.1110494e-05 7:0.034453642 8:0.095561355 9:0.30051777 10:0.99997783 11:1.1110742e-05 12:1.1110742e-05 13:0.0002509224 14:0.61274511 
3 1:0.18396141 2:0.063661151 3:0.34359235 4:0.85996336 5:0.018898951 6:0.0022332093 7:0.025565246 8:0.093339257 9:0.33146057 10:0.99997783 11:1.1110742e-05 12:1.1110742e-05 13:0.0002509224 14:0.61274511 
3 1:0.096220434 2:0.13791862 3:0.39132249 4:0.99106723 5:1.1110495e-05 6:1.1110495e-05 7:1.1110495e-05 8:0.0088995062 9:0.03187095 10:0.99997783 11:1.1110742e-05 12:1.1110742e-05 13:0.0002509224 14:0.61274511 15:1 
3 1:0.11539796 2:0.11883394 3:0.39252087 4:0.99995565 5:1.1110495e-05 6:1.1110495e-05 7:1.1110495e-05 8:1.1110495e-05 9:0.00034255569 10:0.99997783 11:1.1110742e-05 12:1.1110742e-05 13:0.0002509224 14:0.61274511 
3 1:0.12764953 2:0.075815789 3:0.45834196 4:0.97440141 5:0.012232654 6:1.1110494e-05 7:0.0011221599 8:0.012232654 9:0.087455183 10:0.99997783 11:1.1110742e-05 12:1.1110742e-05 13:0.0002509224 14:0.61274511 
3 1:0.13049726 2:0.096391857 3:0.50190586 4:0.99995565 5:1.1110495e-05 6:1.1110495e-05 7:1.1110495e-05 8:1.1110495e-05 9:0.00034255569 10:0.99997783 11:1.1110742e-05 12:1.1110742e-05 13:0.0002509224 14:0.61274511 
3 1:0.1311654 2:0.11608468 3:0.47304812 4:0.99551141 5:0.0044553084 6:1.1110495e-05 7:1.1110495e-05 8:1.1110495e-05 9:0.018005198 10:0.99997783 11:1.1110742e-05 12:1.1110742e-05 13:0.0002509224 14:0.61274511 
3 1:0.10934772 2:0.11063667 3:0.48756289 4:0.99995565 5:1.1110495e-05 6:1.1110495e-05 7:1.1110495e-05 8:1.1110495e-05 9:0.00034255569 10:0.99997783 11:1.1110742e-05 12:1.1110742e-05 13:0.0002509224 14:0.61274511 
3 1:0.1246665 2:0.084447697 3:0.57492739 4:0.99995565 5:1.1110495e-05 6:1.1110495e-05 7:1.1110495e-05 8:1.1110495e-05 9:0.00034255569 10:0.99997783 11:1.1110742e-05 12:1.1110742e-05 13:0.0002509224 14:0.61274511 
3 1:0.080274969 2:0.13597335 3:0.42964607 4:0.99773353 5:1.1110495e-05 6:1.1110495e-05 7:1.1110495e-05 8:0.0022332096 9:0.010113061 10:0.91220295 11:0.087785959 12:1.1110741e-05 13:0.27081621 14:0.61274511 
3 1:0.11070479 2:0.062568597 3:0.59459722 4:0.99995565 5:1.1110495e-05 6:1.1110495e-05 7:1.1110495e-05 8:1.1110495e-05 9:0.00034255569 10:0.99997783 11:1.1110742e-05 12:1.1110742e-05 13:0.0002509224 14:0.61274511 
3 1:0.10581892 2:0.11507765 3:0.52437508 4:0.99995565 5:1.1110495e-05 6:1.1110495e-05 7:1.1110495e-05 8:1.1110495e-05 9:0.00034255569 10:0.99997783 11:1.1110742e-05 12:1.1110742e-05 13:0.0002509224 14:0.61274511 
3 1:0.10582472 2:0.1326631 3:0.46357587 4:0.99995565 5:1.1110495e-05 6:1.1110495e-05 7:1.1110495e-05 8:1.1110495e-05 9:0.00034255569 10:0.99997783 11:1.1110742e-05 12:1.1110742e-05 13:0.0002509224 14:0.61274511 
3 1:0.10826942 2:0.13600244 3:0.40851712 4:0.97329038 5:0.022232099 6:1.1110494e-05 7:1.1110494e-05 8:0.004455308 9:0.08409328 10:0.99997783 11:1.1110742e-05 12:1.1110742e-05 13:0.0002509224 14:0.61274511 
3 1:0.12871726 2:0.12301174 3:0.4210718 4:0.94440311 5:0.0177879 6:1.1110494e-05 7:0.007788456 8:0.030009445 9:0.16704872 10:0.99997783 11:1.1110742e-05 12:1.1110742e-05 13:0.0002509224 14:0.61274511 
3 1:0.11937551 2:0.11301792 3:0.28812823 4:0.97662354 5:0.0088995053 6:1.1110494e-05 7:1.1110494e-05 8:0.014454752 9:0.078671448 10:0.99997783 11:1.1110742e-05 12:1.1110742e-05 13:0.0002509224 14:0.61274511 
3 1:0.10487564 2:0.1113579 3:0.3000499 4:0.98217881 5:0.0055663581 6:1.1110495e-05 7:1.1110495e-05 8:0.012232655 9:0.062554926 10:0.99997783 11:1.1110742e-05 12:1.1110742e-05 13:0.0002509224 14:0.61274511 
3 1:0.13858803 2:0.12027652 3:0.24909568 4:0.93662578 5:0.018898953 6:1.1110495e-05 7:1.1110495e-05 8:0.044453088 9:0.17085208 10:0.99997783 11:1.1110742e-05 12:1.1110742e-05 13:0.0002509224 14:0.61274511 
3 1:0.1929478 2:0.11198313 3:0.2090176 4:0.87996227 5:0.0066774073 6:1.1110495e-05 7:0.0022332096 8:0.11111606 9:0.25094137 10:0.99997783 11:1.1110742e-05 12:1.1110742e-05 13:0.0002509224 14:0.61274511 
3 1:0.094126731 2:0.10716974 3:0.51780838 4:0.99773353 5:1.1110495e-05 6:1.1110495e-05 7:1.1110495e-05 8:0.0022332096 9:0.010113061 10:0.99997783 11:1.1110742e-05 12:1.1110742e-05 13:0.0002509224 14:0.66176474 15:1 
3 1:0.092298016 2:0.16060907 3:0.40921375 4:0.99995565 5:1.1110495e-05 6:1.1110495e-05 7:1.1110495e-05 8:1.1110495e-05 9:0.00034255569 10:0.99997783 11:1.1110742e-05 12:1.1110742e-05 13:0.0002509224 14:0.66176474 
3 1:0.091315784 2:0.16630961 3:0.3783685 4:0.99995565 5:1.1110495e-05 6:1.1110495e-05 7:1.1110495e-05 8:1.1110495e-05 9:0.00034255569 10:0.99997783 11:1.1110742e-05 12:1.1110742e-05 13:0.0002509224 14:0.66176474 
3 1:0.086555272 2:0.16774803 3:0.34149733 4:0.99995565 5:1.1110495e-05 6:1.1110495e-05 7:1.1110495e-05 8:1.1110495e-05 9:0.00034255569 10:0.99997783 11:1.1110742e-05 12:1.1110742e-05 13:0.0002509224 14:0.66176474 
3 1:0.092762671 2:0.16522473 3:0.31276554 4:0.99773347 5:0.0011221599 6:1.1110494e-05 7:1.1110494e-05 8:0.0011221599 9:0.011036143 10:0.99997783 11:1.1110742e-05 12:1.1110742e-05 13:0.0002509224 14:0.66176474 
2.695734769981767 1:0.4834491 2:0.56570333 3:0.43181545 4:1.1110495e-05 5:0.017787902 6:0.98217881 7:1.1110495e-05 8:1.1110495e-05 9:0.055742033 10:0.050009448 11:0.94997948 12:1.1110742e-05 13:0.18084662 14:0.46568626 15:1 
3 1:0.47669739 2:0.54866993 3:0.39063063 4:1.1110495e-05 5:0.018898953 6:0.98106778 7:1.1110495e-05 8:1.1110495e-05 9:0.058489613 10:0.05112052 11:0.94886839 12:1.1110741e-05 13:0.1838125 14:0.5147059 15:1 
3 1:0.47986695 2:0.57906985 3:0.40792894 4:1.1110495e-05 5:1.1110495e-05 6:0.99995559 7:1.1110495e-05 8:1.1110495e-05 9:0.00034259268 10:1.1110742e-05 11:0.99886674 12:0.0011221849 13:0.0080845477 14:0.5147059 15:1 
3 1:0.44578189 2:0.50388646 3:0.36914086 4:0.043342039 5:0.091117166 6:0.86551863 7:1.1110495e-05 8:1.1110495e-05 9:0.29797551 10:0.13667324 11:0.8633157 12:1.1110742e-05 13:0.36319852 14:0.5147059 
3 1:0.47470608 2:0.55918521 3:0.38923171 4:1.1110495e-05 5:1.1110495e-05 6:0.99995559 7:1.1110495e-05 8:1.1110495e-05 9:0.00034259268 10:1.1110742e-05 11:0.99997783 12:1.1110742e-05 13:0.0002509224 14:0.5147059 
0.06707643660641503 1:0.46947142 2:0.56921428 3:0.3866742 4:1.1110495e-05 5:1.1110495e-05 6:0.99995559 7:1.1110495e-05 8:1.1110495e-05 9:0.00034259268 10:1.1110742e-05 11:0.99997783 12:1.1110742e-05 13:0.0002509224 14:0.5147059 
3 1:0.46400893 2:0.54875022 3:0.37125397 4:0.00112216 5:0.0022332096 6:0.99662244 7:1.1110495e-05 8:1.1110495e-05 9:0.015458702 10:0.005566481 11:0.99442244 12:1.1110741e-05 13:0.031479973 14:0.5147059 
3 1:0.42071995 2:0.47161993 3:0.35704049 4:0.065563023 5:0.084450863 6:0.8499639 7:1.1110494e-05 8:1.1110494e-05 9:0.32669461 10:0.13667324 11:0.8633157 12:1.1110742e-05 13:0.36319852 14:0.5147059 
0.6149379179904463 1:0.43282738 2:0.50556076 3:0.28866917 4:0.0077884565 5:0.1166713 6:0.87551808 7:1.1110495e-05 8:1.1110495e-05 9:0.25171164 10:0.10334101 11:0.89664793 12:1.1110742e-05 13:0.30265373 14:0.5147059 
3 1:0.11625542 2:0.040661518 3:0.67695403 4:0.97662359 5:0.02334315 6:1.1110495e-05 7:1.1110495e-05 8:1.1110495e-05 9:0.069087476 10:0.99997783 11:1.1110742e-05 12:1.1110742e-05 13:0.0002509224 14:0.5147059 
3 1:0.14648347 2:0.043670677 3:0.62775165 4:0.91996008 5:0.080006674 6:1.1110495e-05 7:1.1110495e-05 8:1.1110495e-05 9:0.17347446 10:0.99997783 11:1.1110742e-05 12:1.1110742e-05 13:0.0002509224 14:0.5147059 
3 1:0.15737194 2:0.061345451 3:0.5845325 4:0.9221822 5:0.077784576 6:1.1110495e-05 7:1.1110495e-05 8:1.1110495e-05 9:0.17008154 10:0.99997783 11:1.1110742e-05 12:1.1110742e-05 13:0.0002509224 14:0.5147059 
3 1:0.11895799 2:0.189796 3:0.35844776 4:0.99995565 5:1.1110495e-05 6:1.1110495e-05 7:1.1110495e-05 8:1.1110495e-05 9:0.00034255569 10:0.99664456 11:0.003344333 12:1.1110741e-05 13:0.020517599 14:0.5147059 
3 1:0.089365497 2:0.14086591 3:0.56135947 4:0.99995565 5:1.1110495e-05 6:1.1110495e-05 7:1.1110495e-05 8:1.1110495e-05 9:0.00034255569 10:0.99997783 11:1.1110742e-05 12:1.1110742e-05 13:0.0002509224 14:0.5147059 
3 1:0.08498019 2:0.10028584 3:0.63385612 4:0.99995565 5:1.1110495e-05 6:1.1110495e-05 7:1.1110495e-05 8:1.1110495e-05 9:0.00034255569 10:0.99997783 11:1.1110742e-05 12:1.1110742e-05 13:0.0002509224 14:0.5147059 
3 1:0.099114016 2:0.21042605 3:0.4229272 4:0.99995565 5:1.1110495e-05 6:1.1110495e-05 7:1.1110495e-05 8:1.1110495e-05 9:0.00034255569 10:0.99997783 11:1.1110742e-05 12:1.1110742e-05 13:0.0002509224 14:0.5147059 
0.3207297002320249 1:0.11102196 2:0.54606676 3:0.68590724 4:0.98551202 5:0.014454754 6:1.1110495e-05 7:1.1110495e-05 8:1.1110495e-05 9:0.047223732 10:0.058898035 11:0.9388687 12:0.0022332589 13:0.21814075 14:0.56372547 
3 1:0.10863546 2:0.39319837 3:0.2998721 4:0.99995565 5:1.1110495e-05 6:1.1110495e-05 7:1.1110495e-05 8:1.1110495e-05 9:0.00034255569 10:0.47110653 11:0.52777129 12:0.0011221848 13:0.63671708 14:0.56372547 
3 1:0.11625677 2:0.28495237 3:0.32341036 4:0.99995565 5:1.1110495e-05 6:1.1110495e-05 7:1.1110495e-05 8:1.1110495e-05 9:0.00034255569 10:0.75776362 11:0.24111418 12:0.0011221848 13:0.51045763 14:0.61274511 
3 1:0.11537493 2:0.37491661 3:0.28425112 4:0.99995565 5:1.1110495e-05 6:1.1110495e-05 7:1.1110495e-05 8:1.1110495e-05 9:0.00034255569 10:0.36999878 11:0.60665756 12:0.023343666 13:0.69067806 14:0.61274511 
3 1:0.10317767 2:0.32165077 3:0.37123689 4:0.99995565 5:1.1110495e-05 6:1.1110495e-05 7:1.1110495e-05 8:1.1110495e-05 9:0.00034255569 10:0.67221093 11:0.29555681 12:0.032232258 13:0.6717149 14:0.61274511 
3 1:0.1096884 2:0.30563354 3:0.38344219 4:0.99995565 5:1.1110495e-05 6:1.1110495e-05 7:1.1110495e-05 8:1.1110495e-05 9:0.00034255569 10:0.71554279 11:0.27777964 12:0.0066775554 13:0.57232702 14:0.61274511 
3 1:0.11675558 2:0.35748026 3:0.33845598 4:0.99773353 5:0.0022332096 6:1.1110495e-05 7:1.1110495e-05 8:1.1110495e-05 9:0.01011306 10:0.60221326 11:0.35999912 12:0.037787631 13:0.72544861 14:0.61274511 
3 1:0.11698298 2:0.1560366 3:0.56633651 4:0.99995565 5:1.1110495e-05 6:1.1110495e-05 7:1.1110495e-05 8:1.1110495e-05 9:0.00034255569 10:0.99997783 11:1.1110742e-05 12:1.1110742e-05 13:0.0002509224 14:0.46568626 15:0.43891007 
3 1:0.18144065 2:0.068783067 3:0.50537014 4:0.80107778 5:0.19666687 6:0.0022332096 7:1.1110495e-05 8:1.1110495e-05 9:0.31774497 10:0.99997783 11:1.1110742e-05 12:1.1110742e-05 13:0.0002509224 14:0.5147059 
3 1:0.17639136 2:0.071240231 3:0.57247132 4:0.9455142 5:0.054452535 6:1.1110495e-05 7:1.1110495e-05 8:1.1110495e-05 9:0.13161989 10:0.99997783 11:1.1110742e-05 12:1.1110742e-05 13:0.0002509224 14:0.5147059 
3 1:0.15255609 2:0.083648361 3:0.58314222 4:0.99995565 5:1.1110495e-05 6:1.1110495e-05 7:1.1110495e-05 8:1.1110495e-05 9:0.00034255569 10:0.99997783 11:1.1110742e-05 12:1.1110742e-05 13:0.0002509224 14:0.5147059 
3 1:0.13068634 2:0.13770808 3:0.50675869 4:0.99995565 5:1.1110495e-05 6:1.1110495e-05 7:1.1110495e-05 8:1.1110495e-05 9:0.00034255569 10:0.99886674 11:0.0011221849 12:1.1110742e-05 13:0.0080845477 14:0.5147059 
3 1:0.13953383 2:0.1358861 3:0.57109827 4:0.99995565 5:1.1110495e-05 6:1.1110495e-05 7:1.1110495e-05 8:1.1110495e-05 9:0.00034255569 10:0.99997783 11:1.1110742e-05 12:1.1110742e-05 13:0.0002509224 14:0.5147059 
3 1:0.14902328 2:0.12971735 3:0.52749896 4:0.99106723 5:0.0088995062 6:1.1110495e-05 7:1.1110495e-05 8:1.1110495e-05 9:0.031870954 10:0.99997783 11:1.1110742e-05 12:1.1110742e-05 13:0.0002509224 14:0.5147059 
3 1:0.12269659 2:0.069418341 3:0.58607006 4:0.99884456 5:0.00112216 6:1.1110495e-05 7:1.1110495e-05 8:1.1110495e-05 9:0.0056897341 10:0.99997783 11:1.1110742e-05 12:1.1110742e-05 13:0.0002509224 14:0.5147059 
3 1:0.12011659 2:0.093625203 3:0.56009591 4:0.99995565 5:1.1110495e-05 6:1.1110495e-05 7:1.1110495e-05 8:1.1110495e-05 9:0.00034255569 10:0.99997783 11:1.1110742e-05 12:1.1110742e-05 13:0.0002509224 14:0.5147059 
3 1:0.11334639 2:0.1629582 3:0.51727313 4:0.99995565 5:1.1110495e-05 6:1.1110495e-05 7:1.1110495e-05 8:1.1110495e-05 9:0.00034255569 10:0.99997783 11:1.1110742e-05 12:1.1110742e-05 13:0.0002509224 14:0.5147059 
3 1:0.10266779 2:0.20611122 3:0.51180905 4:0.99995565 5:1.1110495e-05 6:1.1110495e-05 7:1.1110495e-05 8:1.1110495e-05 9:0.00034255569 10:0.99997783 11:1.1110742e-05 12:1.1110742e-05 13:0.0002509224 14:0.5147059 
3 1:0.094062641 2:0.22804789 3:0.49501944 4:0.99995565 5:1.1110495e-05 6:1.1110495e-05 7:1.1110495e-05 8:1.1110495e-05 9:0.00034255569 10:0.99997783 11:1.1110742e-05 12:1.1110742e-05 13:0.0002509224 14:0.5147059 
3 1:0.094890445 2:0.20653324 3:0.54076838 4:0.99995565 5:1.1110495e-05 6:1.1110495e-05 7:1.1110495e-05 8:1.1110495e-05 9:0.00034255569 10:0.99997783 11:1.1110742e-05 12:1.1110742e-05 13:0.0002509224 14:0.5147059 
3 1:0.099305488 2:0.19209644 3:0.55068952 4:0.99995565 5:1.1110495e-05 6:1.1110495e-05 7:1.1110495e-05 8:1.1110495e-05 9:0.00034255569 10:0.99997783 11:1.1110742e-05 12:1.1110742e-05 13:0.0002509224 14:0.5147059 
3 1:0.09819971 2:0.19806451 3:0.55336952 4:0.99995565 5:1.1110495e-05 6:1.1110495e-05 7:1.1110495e-05 8:1.1110495e-05 9:0.00034255569 10:0.99997783 11:1.1110742e-05 12:1.1110742e-05 13:0.0002509224 14:0.5147059 
3 1:0.10674968 2:0.18287811 3:0.35925311 4:0.99995565 5:1.1110495e-05 6:1.1110495e-05 7:1.1110495e-05 8:1.1110495e-05 9:0.00034255569 10:0.94220197 11:0.057786968 12:1.1110742e-05 13:0.20113693 14:0.56372547 15:1 
3 1:0.17077154 2:0.080829747 3:0.31416184 4:0.80107772 5:0.18444531 6:0.0088995053 7:0.0011221599 8:0.004455308 9:0.34995243 10:0.99997783 11:1.1110742e-05 12:1.1110742e-05 13:0.0002509224 14:0.56372547 
2.436896050025518 1:0.21416755 2:0.079325095 3:0.35026303 4:0.56442422 5:0.3533248 6:0.082228765 7:1.1110494e-05 8:1.1110494e-05 9:0.55677265 10:0.99997783 11:1.1110742e-05 12:1.1110742e-05 13:0.0002509224 14:0.56372547 
3 1:0.18809526 2:0.077527076 3:0.38553965 4:0.69552809 5:0.28888398 6:0.015565803 7:1.1110495e-05 8:1.1110495e-05 9:0.42020872 10:0.99997783 11:1.1110742e-05 12:1.1110742e-05 13:0.0002509224 14:0.56372547 
3 1:0.17282715 2:0.092158876 3:0.39692473 4:0.78552306 5:0.19777791 6:0.016676852 7:1.1110495e-05 8:1.1110495e-05 9:0.35955071 10:0.99997783 11:1.1110742e-05 12:1.1110742e-05 13:0.0002509224 14:0.56372547 
3 1:0.14454533 2:0.11964437 3:0.4122265 4:0.92662632 5:0.067785122 6:0.0055663576 7:1.1110494e-05 8:1.1110494e-05 9:0.17534056 10:0.99220026 11:0.0077886293 12:1.1110741e-05 13:0.041607484 14:0.56372547 
3 1:0.19749862 2:0.08497256 3:0.46024856 4:0.71330476 5:0.27444029 6:0.0044553075 7:0.0077884551 8:1.1110493e-05 9:0.40877923 10:0.97997844 11:0.020010443 12:1.1110741e-05 13:0.08940132 14:0.56372547 
3 1:0.13762434 2:0.10142398 3:0.54646236 4:0.99773353 5:0.0022332096 6:1.1110495e-05 7:1.1110495e-05 8:1.1110495e-05 9:0.01011306 10:0.95442379 11:0.045565151 12:1.1110742e-05 13:0.16874133 14:0.56372547 
3 1:0.11297189 2:0.16878441 3:0.42899224 4:0.99995565 5:1.1110495e-05 6:1.1110495e-05 7:1.1110495e-05 8:1.1110495e-05 9:0.00034255569 10:0.96109021 11:0.038898703 12:1.1110741e-05 13:0.1497941 14:0.56372547 
3 1:0.10789029 2:0.18560952 3:0.37520155 4:0.99217826 5:0.00112216 6:1.1110495e-05 7:1.1110495e-05 8:0.0066774073 9:0.030516326 10:0.97220093 11:0.027787963 12:1.1110741e-05 13:0.11569532 14:0.56372547 
3 1:0.11114059 2:0.18196878 3:0.37248233 4:0.99328929 5:0.00112216 6:1.1110495e-05 7:1.1110495e-05 8:0.0055663581 9:0.027002562 10:0.99331135 11:0.0066775554 12:1.1110741e-05 13:0.036628824 14:0.56372547 
3 1:0.12643613 2:0.17896144 3:0.28950799 4:0.96995729 5:1.1110495e-05 6:1.1110495e-05 7:1.1110495e-05 8:0.030009447 9:0.083996706 10:0.98664492 11:0.013344001 12:1.1110742e-05 13:0.06462165 14:0.56372547 
3 1:0.11167829 2:0.1611927 3:0.2770372 4:0.99328935 5:0.0066774078 6:1.1110495e-05 7:1.1110495e-05 8:1.1110495e-05 9:0.025173772 10:0.99886674 11:0.0011221849 12:1.1110742e-05 13:0.0080845477 14:0.56372547 
3 1:0.11060634 2:0.17382321 3:0.23160779 4:0.99995565 5:1.1110495e-05 6:1.1110495e-05 7:1.1110495e-05 8:1.1110495e-05 9:0.00034255569 10:0.99886674 11:0.0011221849 12:1.1110742e-05 13:0.0080845477 14:0.56372547 
3 1:0.14026313 2:0.17756945 3:0.57250589 4:0.99995565 5:1.1110495e-05 6:1.1110495e-05 7:1.1110495e-05 8:1.1110495e-05 9:0.00034255569 10:0.99997783 11:1.1110742e-05 12:1.1110742e-05 13:0.0002509224 14:0.46568626 
3 1:0.21519913 2:0.13876715 3:0.49281242 4:0.45665243 5:0.54331434 6:1.1110495e-05 7:1.1110495e-05 8:1.1110495e-05 9:0.42858288 10:0.99997783 11:1.1110742e-05 12:1.1110742e-05 13:0.0002509224 14:0.5147059 
3 1:0.14483911 2:0.15742835 3:0.4862369 4:0.96217996 5:0.037786793 6:1.1110495e-05 7:1.1110495e-05 8:1.1110495e-05 9:0.10019506 10:0.99997783 11:1.1110742e-05 12:1.1110742e-05 13:0.0002509224 14:0.5147059 
3 1:0.38205144 2:0.12106317 3:0.31658211 4:0.070007227 5:0.35110274 6:0.53775907 7:0.041119941 8:1.1110495e-05 9:0.6328907 10:0.93997979 11:0.056675889 12:0.003344333 13:0.21839279 14:0.56372547 15:1 
3 1:0.35136163 2:0.09556292 3:0.32942811 4:0.14666963 5:0.44331983 6:0.37665686 7:0.033342592 8:1.1110494e-05 9:0.69804823 10:0.98331171 11:0.016677223 12:1.1110742e-05 13:0.077321857 14:0.56372547 15:1 
0.09857370724490179 1:0.28126091 2:0.094831422 3:0.4012593 4:0.37443474 5:0.38776734 6:0.22999834 7:0.007788456 8:1.1110494e-05 9:0.6903888 10:0.98775601 11:0.012232927 12:1.1110742e-05 13:0.060225688 14:0.56372547 15:1 
3 1:0.29108664 2:0.0934119 3:0.4204925 4:0.33443698 5:0.42109883 6:0.24444197 7:1.1110494e-05 8:1.1110494e-05 9:0.66801709 10:0.99331135 11:0.0066775554 12:1.1110741e-05 13:0.036628824 14:0.56372547 15:1 
3 1:0.31116512 2:0.094921164 3:0.43364292 4:0.26888508 5:0.43776456 6:0.29332814 7:1.1110494e-05 8:1.1110494e-05 9:0.66781598 10:0.99108922 11:0.0088997046 12:1.1110742e-05 13:0.046440192 14:0.56372547 15:0.96418136 
3 1:0.32678661 2:0.093477622 3:0.44409233 4:0.25444141 5:0.33332592 6:0.41221043 7:1.1110494e-05 8:1.1110494e-05 9:0.67105198 10:0.99997783 11:1.1110742e-05 12:1.1110742e-05 13:0.0002509224 14:0.56372547 
3 1:0.34473246 2:0.099832609 3:0.45725092 4:0.1566691 5:0.45331928 6:0.38776737 7:0.0022332096 8:1.1110495e-05 9:0.64007598 10:0.99331135 11:0.0066775554 12:1.1110741e-05 13:0.036628824 14:0.56372547 
3 1:0.32917225 2:0.1049189 3:0.46819213 4:0.18555637 5:0.46109667 6:0.35332483 7:1.1110495e-05 8:1.1110495e-05 9:0.64454085 10:0.99997783 11:1.1110742e-05 12:1.1110742e-05 13:0.0002509224 14:0.56372547 
3 1:0.34648335 2:0.12569699 3:0.45410946 4:0.1366702 5:0.48442867 6:0.37887898 7:1.1110495e-05 8:1.1110495e-05 9:0.61578989 10:0.99997783 11:1.1110742e-05 12:1.1110742e-05 13:0.0002509224 14:0.56372547 
3 1:0.33127984 2:0.11763148 3:0.49206144 4:0.12000446 5:0.53553694 6:0.34443644 7:1.1110495e-05 8:1.1110495e-05 9:0.59414601 10:0.99775565 11:0.0022332589 12:1.1110741e-05 13:0.014564781 14:0.56372547 
3 1:0.33389381 2:0.11206599 3:0.50671136 4:0.13889228 5:0.4877618 6:0.37332371 7:1.1110494e-05 8:1.1110494e-05 9:0.61664504 10:0.99664456 11:0.003344333 12:1.1110741e-05 13:0.020517599 14:0.56372547 
3 1:0.34534273 2:0.093322381 3:0.55361629 4:0.10444976 5:0.45443031 6:0.44109771 7:1.1110494e-05 8:1.1110494e-05 9:0.5937838 10:0.99997783 11:1.1110742e-05 12:1.1110742e-05 13:0.0002509224 14:0.56372547 
1.654023767271097 1:0.44656539 2:0.1343693 3:0.33022559 4:1.1110494e-05 5:0.30443865 6:0.69552803 7:1.1110494e-05 8:1.1110494e-05 9:0.38210845 10:0.99997783 11:1.1110742e-05 12:1.1110742e-05 13:0.0002509224 14:0.46568626 15:1 
3 1:0.43548465 2:0.1335194 3:0.33075276 4:0.00112216 5:0.3588801 6:0.63997561 7:1.1110495e-05 8:1.1110495e-05 9:0.41087723 10:0.99997783 11:1.1110742e-05 12:1.1110742e-05 13:0.0002509224 14:0.46568626 15:1 
0.5540987165026851 1:0.29878619 2:0.088420965 3:0.71311396 4:1.1110495e-05 5:0.99995565 6:1.1110495e-05 7:1.1110495e-05 8:1.1110495e-05 9:0.00034255566 10:0.99997783 11:1.1110742e-05 12:1.1110742e-05 13:0.0002509224 14:0.46568626 
2.521897000862002 1:0.24869362 2:0.098475635 3:0.68114549 4:0.067785129 5:0.9321816 6:1.1110495e-05 7:1.1110495e-05 8:1.1110495e-05 9:0.15426683 10:0.99997783 11:1.1110742e-05 12:1.1110742e-05 13:0.0002509224 14:0.46568626 
3 1:0.20706303 2:0.10510015 3:0.69579011 4:0.34999171 5:0.64997506 6:1.1110495e-05 7:1.1110495e-05 8:1.1110495e-05 9:0.40252596 10:0.99997783 11:1.1110742e-05 12:1.1110742e-05 13:0.0002509224 14:0.46568626 
3 1:0.20504138 2:0.12807211 3:0.63470083 4:0.32443756 5:0.67552918 6:1.1110495e-05 7:1.1110495e-05 8:1.1110495e-05 9:0.39179495 10:0.99997783 11:1.1110742e-05 12:1.1110742e-05 13:0.0002509224 14:0.46568626 
3 1:0.30219889 2:0.07831008 3:0.80817199 4:1.1110495e-05 5:0.99995565 6:1.1110495e-05 7:1.1110495e-05 8:1.1110495e-05 9:0.00034255566 10:0.99997783 11:1.1110742e-05 12:1.1110742e-05 13:0.0002509224 14:0.5147059 15:0.12561251 
3 1:0.29565871 2:0.081947736 3:0.82647246 4:1.1110495e-05 5:0.99995565 6:1.1110495e-05 7:1.1110495e-05 8:1.1110495e-05 9:0.00034255566 10:0.99997783 11:1.1110742e-05 12:1.1110742e-05 13:0.0002509224 14:0.5147059 15:0.5521934 
3 1:0.31059217 2:0.081568703 3:0.76429015 4:1.1110495e-05 5:0.99995565 6:1.1110495e-05 7:1.1110495e-05 8:1.1110495e-05 9:0.00034255566 10:0.99997783 11:1.1110742e-05 12:1.1110742e-05 13:0.0002509224 14:0.5147059 
3 1:0.33568949 2:0.079216152 3:0.74379754 4:1.1110495e-05 5:0.99995565 6:1.1110495e-05 7:1.1110495e-05 8:1.1110495e-05 9:0.00034255566 10:0.99997783 11:1.1110742e-05 12:1.1110742e-05 13:0.0002509224 14:0.5147059 
3 1:0.29551443 2:0.085749574 3:0.66680557 4:1.1110495e-05 5:0.99995565 6:1.1110495e-05 7:1.1110495e-05 8:1.1110495e-05 9:0.00034255566 10:0.99997783 11:1.1110742e-05 12:1.1110742e-05 13:0.0002509224 14:0.5147059 
3 1:0.22448178 2:0.10014915 3:0.65735936 4:0.2266652 5:0.77330154 6:1.1110495e-05 7:1.1110495e-05 8:1.1110495e-05 9:0.33279955 10:0.99997783 11:1.1110742e-05 12:1.1110742e-05 13:0.0002509224 14:0.5147059 
3 1:0.19612969 2:0.11263289 3:0.6756196 4:0.71108276 5:0.28888398 6:1.1110495e-05 7:1.1110495e-05 8:1.1110495e-05 9:0.37376493 10:0.99997783 11:1.1110742e-05 12:1.1110742e-05 13:0.0002509224 14:0.5147059 
3 1:0.21055542 2:0.1149151 3:0.67715812 4:0.14889175 5:0.85107499 6:1.1110495e-05 7:1.1110495e-05 8:1.1110495e-05 9:0.26170006 10:0.99997783 11:1.1110742e-05 12:1.1110742e-05 13:0.0002509224 14:0.5147059 
3 1:0.2103634 2:0.11748777 3:0.66503185 4:0.13222601 5:0.86774075 6:1.1110495e-05 7:1.1110495e-05 8:1.1110495e-05 9:0.24294519 10:0.99997783 11:1.1110742e-05 12:1.1110742e-05 13:0.0002509224 14:0.5147059 
3 1:0.19602092 2:0.13608269 3:0.5901351 4:0.5899784 5:0.40998837 6:1.1110495e-05 7:1.1110495e-05 8:1.1110495e-05 9:0.42079917 10:0.9755342 11:0.024454743 12:1.1110742e-05 13:0.10471451 14:0.5147059 
3 1:0.19451718 2:0.11834041 3:0.64863974 4:0.74441427 5:0.2555525 6:1.1110495e-05 7:1.1110495e-05 8:1.1110495e-05 9:0.35338855 10:0.99997783 11:1.1110742e-05 12:1.1110742e-05 13:0.0002509224 14:0.5147059 
3 1:0.18254414 2:0.12288119 3:0.71402466 4:0.99995565 5:1.1110495e-05 6:1.1110495e-05 7:1.1110495e-05 8:1.1110495e-05 9:0.00034255569 10:0.99997783 11:1.1110742e-05 12:1.1110742e-05 13:0.0002509224 14:0.5147059 
3 1:0.17439279 2:0.12812045 3:0.75374138 4:0.99995565 5:1.1110495e-05 6:1.1110495e-05 7:1.1110495e-05 8:1.1110495e-05 9:0.00034255569 10:0.99997783 11:1.1110742e-05 12:1.1110742e-05 13:0.0002509224 14:0.5147059 
3 1:0.16156729 2:0.13481106 3:0.74924904 4:0.99995565 5:1.1110495e-05 6:1.1110495e-05 7:1.1110495e-05 8:1.1110495e-05 9:0.00034255569 10:0.99997783 11:1.1110742e-05 12:1.1110742e-05 13:0.0002509224 14:0.5147059 
3 1:0.16233376 2:0.13860354 3:0.67222172 4:0.99995565 5:1.1110495e-05 6:1.1110495e-05 7:1.1110495e-05 8:1.1110495e-05 9:0.00034255569 10:0.99997783 11:1.1110742e-05 12:1.1110742e-05 13:0.0002509224 14:0.5147059 
3 1:0.49877486 2:0.18629356 3:0.25923675 4:1.1110495e-05 5:0.041119941 6:0.95773572 7:0.00112216 8:1.1110495e-05 9:0.11212521 10:0.99997783 11:1.1110742e-05 12:1.1110742e-05 13:0.0002509224 14:0.56372547 15:1 
3 1:0.49321333 2:0.18044674 3:0.26280978 4:1.1110495e-05 5:1.1110495e-05 6:0.99995559 7:1.1110495e-05 8:1.1110495e-05 9:0.00034259268 10:0.99997783 11:1.1110742e-05 12:1.1110742e-05 13:0.0002509224 14:0.56372547 15:1 
3 1:0.48848113 2:0.15495972 3:0.26739356 4:1.1110494e-05 5:0.028898394 6:0.9688462 7:0.0022332093 8:1.1110494e-05 9:0.091313943 10:0.99997783 11:1.1110742e-05 12:1.1110742e-05 13:0.0002509224 14:0.56372547 15:1 
3 1:0.49108842 2:0.1563479 3:0.27102304 4:1.1110495e-05 5:0.074451424 6:0.92551529 7:1.1110495e-05 8:1.1110495e-05 9:0.16491164 10:0.99997783 11:1.1110742e-05 12:1.1110742e-05 13:0.0002509224 14:0.56372547 15:1 
3 1:0.47452039 2:0.14883284 3:0.25654826 4:1.1110495e-05 5:0.051119387 6:0.94884735 7:1.1110495e-05 8:1.1110495e-05 9:0.12564005 10:0.99997783 11:1.1110742e-05 12:1.1110742e-05 13:0.0002509224 14:0.56372547 15:1 
3 1:0.46468851 2:0.14589725 3:0.25254402 4:1.1110494e-05 5:0.1888895 6:0.81107718 7:1.1110494e-05 8:1.1110494e-05 9:0.30135694 10:0.99997783 11:1.1110742e-05 12:1.1110742e-05 13:0.0002509224 14:0.56372547 15:1 
3 1:0.2443053 2:0.11344061 3:0.5931772 4:0.21444367 5:0.78552312 6:1.1110495e-05 7:1.1110495e-05 8:1.1110495e-05 9:0.32321244 10:0.99997783 11:1.1110742e-05 12:1.1110742e-05 13:0.0002509224 14:0.56372547 
3 1:0.25120354 2:0.12336641 3:0.60160875 4:0.24999726 5:0.74996948 6:1.1110495e-05 7:1.1110495e-05 8:1.1110495e-05 9:0.34964752 10:0.99775565 11:0.0022332589 12:1.1110741e-05 13:0.014564781 14:0.56372547 
3 1:0.24645451 2:0.12521124 3:0.59343022 4:0.24666411 5:0.75330269 6:1.1110495e-05 7:1.1110495e-05 8:1.1110495e-05 9:0.34735388 10:0.99997783 11:1.1110742e-05 12:1.1110742e-05 13:0.0002509224 14:0.56372547 
3 1:0.25923148 2:0.11554049 3:0.59699392 4:0.22888732 5:0.77107948 6:1.1110495e-05 7:1.1110495e-05 8:1.1110495e-05 9:0.33448517 10:0.99997783 11:1.1110742e-05 12:1.1110742e-05 13:0.0002509224 14:0.56372547 
3 1:0.26206988 2:0.1074293 3:0.56158698 4:0.24666411 5:0.75330269 6:1.1110495e-05 7:1.1110495e-05 8:1.1110495e-05 9:0.34735388 10:0.99997783 11:1.1110742e-05 12:1.1110742e-05 13:0.0002509224 14:0.56372547 
3 1:0.2633062 2:0.10301542 3:0.52934802 4:0.21888787 5:0.78107893 6:1.1110495e-05 7:1.1110495e-05 8:1.1110495e-05 9:0.32676125 10:0.99997783 11:1.1110742e-05 12:1.1110742e-05 13:0.0002509224 14:0.56372547 
3 1:0.23914197 2:0.10931045 3:0.52058119 4:0.20666631 5:0.79330045 6:1.1110495e-05 7:1.1110495e-05 8:1.1110495e-05 9:0.31682605 10:0.99997783 11:1.1110742e-05 12:1.1110742e-05 13:0.0002509224 14:0.56372547 
3 1:0.2498417 2:0.11624502 3:0.51599324 4:0.057785682 5:0.94218105 6:1.1110495e-05 7:1.1110495e-05 8:1.1110495e-05 9:0.13746558 10:0.99997783 11:1.1110742e-05 12:1.1110742e-05 13:0.0002509224 14:0.56372547 
3 1:0.21516746 2:0.11919047 3:0.53961825 4:0.31221601 5:0.68775076 6:1.1110495e-05 7:1.1110495e-05 8:1.1110495e-05 9:0.38601252 10:0.99997783 11:1.1110742e-05 12:1.1110742e-05 13:0.0002509224 14:0.56372547 
3 1:0.19257955 2:0.13816738 3:0.51190102 4:0.68330652 5:0.31666023 6:1.1110495e-05 7:1.1110495e-05 8:1.1110495e-05 9:0.38816479 10:0.97664523 11:0.023343666 12:1.1110741e-05 13:0.10096267 14:0.56372547 
3 1:0.18116677 2:0.13603821 3:0.49842039 4:0.80774409 5:0.19222267 6:1.1110495e-05 7:1.1110495e-05 8:1.1110495e-05 9:0.30435237 10:0.99997783 11:1.1110742e-05 12:1.1110742e-05 13:0.0002509224 14:0.56372547 
3 1:0.18788451 2:0.1421902 3:0.51759243 4:0.79996675 5:0.20000002 6:1.1110495e-05 7:1.1110495e-05 8:1.1110495e-05 9:0.31116977 10:0.99997783 11:1.1110742e-05 12:1.1110742e-05 13:0.0002509224 14:0.56372547 
3 1:0.1854361 2:0.14427404 3:0.52154428 4:0.84329766 5:0.1566691 6:1.1110495e-05 7:1.1110495e-05 8:1.1110495e-05 9:0.26997799 10:0.99997783 11:1.1110742e-05 12:1.1110742e-05 13:0.0002509224 14:0.56372547 
3 1:0.17861494 2:0.14463036 3:0.52382278 4:0.88662857 5:0.11333816 6:1.1110495e-05 7:1.1110495e-05 8:1.1110495e-05 9:0.2198579 10:0.99997783 11:1.1110742e-05 12:1.1110742e-05 13:0.0002509224 14:0.56372547 
3 1:0.17792575 2:0.15033177 3:0.48565111 4:0.88996172 5:0.11000501 6:1.1110495e-05 7:1.1110495e-05 8:1.1110495e-05 9:0.21556312 10:0.99997783 11:1.1110742e-05 12:1.1110742e-05 13:0.0002509224 14:0.56372547 
3 1:0.19500145 2:0.081758007 3:0.77726161 4:0.83663136 5:0.16333538 6:1.1110495e-05 7:1.1110495e-05 8:1.1110495e-05 9:0.27684644 10:0.99997783 11:1.1110742e-05 12:1.1110742e-05 13:0.0002509224 14:0.61274511 15:1 
3 1:0.11014965 2:0.18375847 3:0.52518672 4:0.99995565 5:1.1110495e-05 6:1.1110495e-05 7:1.1110495e-05 8:1.1110495e-05 9:0.00034255569 10:0.99997783 11:1.1110742e-05 12:1.1110742e-05 13:0.0002509224 14:0.46568626 15:1 
3 1:0.11127003 2:0.17443174 3:0.56146526 4:0.99995565 5:1.1110495e-05 6:1.1110495e-05 7:1.1110495e-05 8:1.1110495e-05 9:0.00034255569 10:0.99997783 11:1.1110742e-05 12:1.1110742e-05 13:0.0002509224 14:0.46568626 15:1 
3 1:0.1178683 2:0.15877117 3:0.57771754 4:0.99995565 5:1.1110495e-05 6:1.1110495e-05 7:1.1110495e-05 8:1.1110495e-05 9:0.00034255569 10:0.99997783 11:1.1110742e-05 12:1.1110742e-05 13:0.0002509224 14:0.46568626 15:0.32023555 
2.357920100541525 1:0.11288688 2:0.18190652 3:0.5350334 4:0.99995565 5:1.1110495e-05 6:1.1110495e-05 7:1.1110495e-05 8:1.1110495e-05 9:0.00034255569 10:0.99997783 11:1.1110742e-05 12:1.1110742e-05 13:0.0002509224 14:0.46568626 
3 1:0.12068207 2:0.14599761 3:0.39374194 4:0.98106772 5:0.0088995053 6:0.0055663576 7:0.004455308 8:1.1110494e-05 9:0.070779093 10:0.99997783 11:1.1110742e-05 12:1.1110742e-05 13:0.0002509224 14:0.5147059 
3 1:0.1298878 2:0.15887755 3:0.47730097 4:0.94884735 5:0.051119387 6:1.1110495e-05 7:1.1110495e-05 8:1.1110495e-05 9:0.12564006 10:0.99997783 11:1.1110742e-05 12:1.1110742e-05 13:0.0002509224 14:0.5147059 
3 1:0.11926213 2:0.15707414 3:0.53706443 4:0.99995565 5:1.1110495e-05 6:1.1110495e-05 7:1.1110495e-05 8:1.1110495e-05 9:0.00034255569 10:0.99997783 11:1.1110742e-05 12:1.1110742e-05 13:0.0002509224 14:0.5147059 
3 1:0.11830375 2:0.15368323 3:0.58072424 4:0.99995565 5:1.1110495e-05 6:1.1110495e-05 7:1.1110495e-05 8:1.1110495e-05 9:0.00034255569 10:0.99997783 11:1.1110742e-05 12:1.1110742e-05 13:0.0002509224 14:0.5147059 
3 1:0.11664115 2:0.16425198 3:0.57565624 4:0.99995565 5:1.1110495e-05 6:1.1110495e-05 7:1.1110495e-05 8:1.1110495e-05 9:0.00034255569 10:0.99997783 11:1.1110742e-05 12:1.1110742e-05 13:0.0002509224 14:0.5147059 
3 1:0.11516582 2:0.18935211 3:0.49637046 4:0.99995565 5:1.1110495e-05 6:1.1110495e-05 7:1.1110495e-05 8:1.1110495e-05 9:0.00034255569 10:0.99997783 11:1.1110742e-05 12:1.1110742e-05 13:0.0002509224 14:0.5147059 
3 1:0.11334107 2:0.1861155 3:0.54311585 4:0.99995565 5:1.1110495e-05 6:1.1110495e-05 7:1.1110495e-05 8:1.1110495e-05 9:0.00034255569 10:0.99997783 11:1.1110742e-05 12:1.1110742e-05 13:0.0002509224 14:0.5147059 
3 1:0.11160451 2:0.17905974 3:0.61245781 4:0.99995565 5:1.1110495e-05 6:1.1110495e-05 7:1.1110495e-05 8:1.1110495e-05 9:0.00034255569 10:0.99997783 11:1.1110742e-05 12:1.1110742e-05 13:0.0002509224 14:0.5147059 
3 1:0.10701561 2:0.17448953 3:0.6536507 4:0.99995565 5:1.1110495e-05 6:1.1110495e-05 7:1.1110495e-05 8:1.1110495e-05 9:0.00034255569 10:0.99997783 11:1.1110742e-05 12:1.1110742e-05 13:0.0002509224 14:0.5147059 
3 1:0.10118718 2:0.20770718 3:0.59630543 4:0.99995565 5:1.1110495e-05 6:1.1110495e-05 7:1.1110495e-05 8:1.1110495e-05 9:0.00034255569 10:0.99997783 11:1.1110742e-05 12:1.1110742e-05 13:0.0002509224 14:0.5147059 
3 1:0.10017446 2:0.20491304 3:0.65252233 4:0.99995565 5:1.1110495e-05 6:1.1110495e-05 7:1.1110495e-05 8:1.1110495e-05 9:0.00034255569 10:0.99997783 11:1.1110742e-05 12:1.1110742e-05 13:0.0002509224 14:0.5147059 
3 1:0.097972661 2:0.23150307 3:0.59826154 4:0.99995565 5:1.1110495e-05 6:1.1110495e-05 7:1.1110495e-05 8:1.1110495e-05 9:0.00034255569 10:0.97664523 11:0.023343666 12:1.1110741e-05 13:0.10096267 14:0.5147059 
3 1:0.090818115 2:0.21895331 3:0.60520661 4:0.99995565 5:1.1110495e-05 6:1.1110495e-05 7:1.1110495e-05 8:1.1110495e-05 9:0.00034255569 10:0.98775601 11:0.012232927 12:1.1110742e-05 13:0.060225688 14:0.5147059 
3 1:0.14615358 2:0.127533 3:0.26826459 4:0.97329026 5:0.0077884551 6:0.0011221598 7:0.01445475 8:0.0033442583 9:0.094499327 10:0.99997783 11:1.1110742e-05 12:1.1110742e-05 13:0.0002509224 14:0.56372547 15:1 
3 1:0.15270786 2:0.13467385 3:0.26391158 4:0.94440311 5:0.010010555 6:0.0022332093 7:0.0066774068 8:0.03667574 9:0.16678368 10:0.99997783 11:1.1110742e-05 12:1.1110742e-05 13:0.0002509224 14:0.56372547 15:1 
3 1:0.143426 2:0.14413276 3:0.24748474 4:0.96217996 5:0.0066774073 6:1.1110495e-05 7:0.003344259 8:0.027787346 9:0.11761908 10:0.99775565 11:0.0022332589 12:1.1110741e-05 13:0.014564781 14:0.56372547 15:1 
3 1:0.11758969 2:0.17223176 3:0.40068617 4:0.99773353 5:0.0022332096 6:1.1110495e-05 7:1.1110495e-05 8:1.1110495e-05 9:0.01011306 10:0.99775565 11:0.0022332589 12:1.1110741e-05 13:0.014564781 14:0.56372547 
3 1:0.11340326 2:0.17973283 3:0.46460831 4:0.99328935 5:0.0066774078 6:1.1110495e-05 7:1.1110495e-05 8:1.1110495e-05 9:0.025173772 10:0.99997783 11:1.1110742e-05 12:1.1110742e-05 13:0.0002509224 14:0.56372547 
3 1:0.11194754 2:0.22212102 3:0.43119287 4:0.98773402 5:0.0011221599 6:1.1110494e-05 7:1.1110494e-05 8:0.011121605 9:0.043556079 10:0.95886809 11:0.041120857 12:1.1110742e-05 13:0.156222 14:0.56372547 
3 1:0.10073269 2:0.22661981 3:0.53656369 4:0.99995565 5:1.1110495e-05 6:1.1110495e-05 7:1.1110495e-05 8:1.1110495e-05 9:0.00034255569 10:0.99331135 11:0.0066775554 12:1.1110741e-05 13:0.036628824 14:0.56372547 
3 1:0.098406285 2:0.23485747 3:0.56113821 4:0.99884456 5:1.1110495e-05 6:1.1110495e-05 7:1.1110495e-05 8:0.00112216 9:0.0056897337 10:0.97220093 11:0.027787963 12:1.1110741e-05 13:0.11569532 14:0.56372547 
3 1:0.090939015 2:0.2130958 3:0.60789973 4:0.99995565 5:1.1110495e-05 6:1.1110495e-05 7:1.1110495e-05 8:1.1110495e-05 9:0.00034255569 10:0.99997783 11:1.1110742e-05 12:1.1110742e-05 13:0.0002509224 14:0.56372547 
3 1:0.39442092 2:0.29550394 3:0.40530667 4:0.23333149 5:0.11889339 6:0.56775737 7:0.015565802 8:0.064451978 9:0.71804601 10:0.54332632 11:0.45666257 12:1.1110741e-05 13:0.62762564 14:0.56372547 
3 1:0.19837996 2:0.24178196 3:0.52769113 4:0.71552694 5:0.060007777 6:0.21222155 7:0.011121605 8:0.0011221599 9:0.4939352 10:0.77776301 11:0.22222593 12:1.1110742e-05 13:0.48228645 14:0.56372547 
3 1:0.11374383 2:0.17423052 3:0.53624892 4:0.99995565 5:1.1110495e-05 6:1.1110495e-05 7:1.1110495e-05 8:1.1110495e-05 9:0.00034255569 10:0.99997783 11:1.1110742e-05 12:1.1110742e-05 13:0.0002509224 14:0.61274511 
3 1:0.10923681 2:0.18463422 3:0.56658435 4:0.99995565 5:1.1110495e-05 6:1.1110495e-05 7:1.1110495e-05 8:1.1110495e-05 9:0.00034255569 10:0.98553383 11:0.014455074 12:1.1110741e-05 13:0.068932168 14:0.61274511 
3 1:0.10670418 2:0.20505236 3:0.53829712 4:0.99995565 5:1.1110495e-05 6:1.1110495e-05 7:1.1110495e-05 8:1.1110495e-05 9:0.00034255569 10:0.93220228 11:0.067786627 12:1.1110741e-05 13:0.22575089 14:0.61274511 
3 1:0.10485636 2:0.20278153 3:0.55403548 4:0.99995565 5:1.1110495e-05 6:1.1110495e-05 7:1.1110495e-05 8:1.1110495e-05 9:0.00034255569 10:0.92886907 11:0.057786968 12:0.013344001 13:0.2647804 14:0.61274511 
3 1:0.13711168 2:0.14855869 3:0.45194757 4:0.92773741 5:0.020010002 6:0.052230436 7:1.1110495e-05 8:1.1110495e-05 9:0.18782856 10:0.93220228 11:0.067786627 12:1.1110741e-05 13:0.22575089 14:0.61274511 
3 1:0.30584553 2:0.11787096 3:0.47743407 4:0.32999277 5:0.40776622 6:0.20222209 7:0.0088995053 8:0.051119383 9:0.77599025 10:0.8766486 11:0.12334034 12:1.1110742e-05 13:0.34012392 14:0.61274511 
3 1:0.1592124 2:0.17687261 3:0.52306747 4:0.8499639 5:0.064451978 6:0.085561916 7:1.1110494e-05 8:1.1110494e-05 9:0.32650948 10:0.89998114 11:0.10000778 12:1.1110741e-05 13:0.29604325 14:0.61274511 
3 1:0.10327082 2:0.20104153 3:0.51906353 4:0.99995565 5:1.1110495e-05 6:1.1110495e-05 7:1.1110495e-05 8:1.1110495e-05 9:0.00034255569 10:0.94553512 11:0.05112052 12:0.003344333 13:0.20391972 14:0.61274511 
3 1:0.10784856 2:0.21343493 3:0.63059658 4:0.99884456 5:1.1110495e-05 6:1.1110495e-05 7:1.1110495e-05 8:0.00112216 9:0.0056897337 10:0.97997844 11:0.020010443 12:1.1110741e-05 13:0.08940132 14:0.5147059 
1.831929268122628 1:0.21755666 2:0.16962261 3:0.29409856 4:0.65330815 5:0.041119937 6:0.28666186 7:0.014454752 8:0.004455308 9:0.52991956 10:0.96553451 11:0.034454405 12:1.1110741e-05 13:0.13657036 14:0.56372547 15:1 
3 1:0.22624984 2:0.17840283 3:0.30110508 4:0.63664246 5:0.04778624 6:0.3144381 7:1.1110495e-05 8:0.00112216 9:0.49976248 10:0.93220228 11:0.067786627 12:1.1110741e-05 13:0.22575089 14:0.56372547 15:1 
3 1:0.25316861 2:0.17212799 3:0.30289161 4:0.56220216 5:0.054452535 6:0.37999004 7:1.1110495e-05 8:0.003344259 9:0.54001576 10:0.96109021 11:0.038898703 12:1.1110741e-05 13:0.1497941 14:0.56372547 15:1 
3 1:0.31709829 2:0.18928796 3:0.31864312 4:0.35554692 5:0.15222488 6:0.4877618 7:0.004455308 8:1.1110494e-05 9:0.63913125 10:0.90442544 11:0.095563486 12:1.1110742e-05 13:0.28705382 14:0.56372547 15:0.25360075 
3 1:0.33324119 2:0.14900689 3:0.37339735 4:0.31999335 5:0.12555969 6:0.55442476 7:1.1110494e-05 8:1.1110494e-05 9:0.59177035 10:0.99775565 11:0.0022332589 12:1.1110741e-05 13:0.014564781 14:0.56372547 
3 1:0.31700572 2:0.13316233 3:0.37989387 4:0.39221156 5:0.1033387 6:0.50442755 7:1.1110494e-05 8:1.1110494e-05 9:0.58846205 10:0.99997783 11:1.1110742e-05 12:1.1110742e-05 13:0.0002509224 14:0.56372547 
3 1:0.27591035 2:0.11938249 3:0.38831648 4:0.45443031 5:0.1888895 6:0.35665795 7:1.1110494e-05 8:1.1110494e-05 9:0.64691901 10:0.99997783 11:1.1110742e-05 12:1.1110742e-05 13:0.0002509224 14:0.56372547 
3 1:0.25148937 2:0.10195115 3:0.41088787 4:0.46331871 5:0.3977668 6:0.13889228 7:1.1110494e-05 8:1.1110494e-05 9:0.61983216 10:0.99997783 11:1.1110742e-05 12:1.1110742e-05 13:0.0002509224 14:0.56372547 
3 1:0.22034287 2:0.10505762 3:0.4236283 4:0.52775961 5:0.36332428 6:0.10889396 7:1.1110495e-05 8:1.1110495e-05 9:0.58831888 10:0.99997783 11:1.1110742e-05 12:1.1110742e-05 13:0.0002509224 14:0.56372547 
3 1:0.17901205 2:0.10337733 3:0.4352532 4:0.6566413 5:0.31110495 6:0.032231543 7:1.1110494e-05 8:1.1110494e-05 9:0.46625674 10:0.99997783 11:1.1110742e-05 12:1.1110742e-05 13:0.0002509224 14:0.56372547 
3 1:0.13663605 2:0.1049423 3:0.43911836 4:0.83218718 5:0.16777958 6:1.1110495e-05 7:1.1110495e-05 8:1.1110495e-05 9:0.28131267 10:0.99997783 11:1.1110742e-05 12:1.1110742e-05 13:0.0002509224 14:0.56372547 
3 1:0.1207618 2:0.1139528 3:0.45597249 4:0.88885069 5:0.11111606 6:1.1110495e-05 7:1.1110495e-05 8:1.1110495e-05 9:0.21700244 10:0.99997783 11:1.1110742e-05 12:1.1110742e-05 13:0.0002509224 14:0.56372547 
3 1:0.10899889 2:0.12410627 3:0.47446147 4:0.95662469 5:0.043342039 6:1.1110495e-05 7:1.1110495e-05 8:1.1110495e-05 9:0.11111685 10:0.99997783 11:1.1110742e-05 12:1.1110742e-05 13:0.0002509224 14:0.56372547 
3 1:0.11201064 2:0.12978821 3:0.47161707 4:0.98328984 5:0.013343703 6:0.0022332093 7:1.1110494e-05 8:0.0011221599 9:0.059369735 10:0.99997783 11:1.1110742e-05 12:1.1110742e-05 13:0.0002509224 14:0.56372547 
3 1:0.11533579 2:0.13075483 3:0.39609104 4:0.93884784 5:0.056674629 6:0.004455308 7:1.1110494e-05 8:1.1110494e-05 9:0.15303263 10:0.99997783 11:1.1110742e-05 12:1.1110742e-05 13:0.0002509224 14:0.56372547 
3 1:0.098457724 2:0.1471636 3:0.3505519 4:0.99995565 5:1.1110495e-05 6:1.1110495e-05 7:1.1110495e-05 8:1.1110495e-05 9:0.00034255569 10:0.99997783 11:1.1110742e-05 12:1.1110742e-05 13:0.0002509224 14:0.56372547 
3 1:0.087235197 2:0.1498313 3:0.34078276 4:0.99995565 5:1.1110495e-05 6:1.1110495e-05 7:1.1110495e-05 8:1.1110495e-05 9:0.00034255569 10:0.99997783 11:1.1110742e-05 12:1.1110742e-05 13:0.0002509224 14:0.56372547 
3 1:0.091846809 2:0.14450341 3:0.34637752 4:0.99551141 5:0.0044553084 6:1.1110495e-05 7:1.1110495e-05 8:1.1110495e-05 9:0.018005198 10:0.99997783 11:1.1110742e-05 12:1.1110742e-05 13:0.0002509224 14:0.56372547 
3 1:0.10878811 2:0.16391017 3:0.49891943 4:0.99551141 5:0.0044553084 6:1.1110495e-05 7:1.1110495e-05 8:1.1110495e-05 9:0.018005198 10:0.99997783 11:1.1110742e-05 12:1.1110742e-05 13:0.0002509224 14:0.56372547 
3 1:0.32267734 2:0.057491168 3:0.38956761 4:0.10444976 5:0.58331203 6:0.31110495 7:0.0011221599 8:1.1110494e-05 9:0.57248837 10:0.99997783 11:1.1110742e-05 12:1.1110742e-05 13:0.0002509224 14:0.56372547 15:1 
3 1:0.37022245 2:0.063220628 3:0.38900974 4:0.00112216 5:0.66886288 6:0.3299928 7:1.1110495e-05 8:1.1110495e-05 9:0.3993533 10:0.99997783 11:1.1110742e-05 12:1.1110742e-05 13:0.0002509224 14:0.56372547 15:1 
3 1:0.31016538 2:0.063567206 3:0.38832065 4:0.084450871 5:0.71663803 6:0.19666687 7:0.0022332096 8:1.1110495e-05 9:0.48531693 10:0.99997783 11:1.1110742e-05 12:1.1110742e-05 13:0.0002509224 14:0.56372547 15:1 
3 1:0.36002615 2:0.065624192 3:0.39293534 4:0.017787902 5:0.72108221 6:0.25444144 7:0.0066774078 8:1.1110495e-05 9:0.42828068 10:0.99997783 11:1.1110742e-05 12:1.1110742e-05 13:0.0002509224 14:0.56372547 15:1 
3 1:0.33929878 2:0.075523019 3:0.39308807 4:1.1110495e-05 5:0.88107336 6:0.1188934 7:1.1110495e-05 8:1.1110495e-05 9:0.22686407 10:0.99997783 11:1.1110742e-05 12:1.1110742e-05 13:0.0002509224 14:0.56372547 15:1 
3 1:0.36943716 2:0.080618478 3:0.39419022 4:1.1110495e-05 5:0.69552809 6:0.30443868 7:1.1110495e-05 8:1.1110495e-05 9:0.38210839 10:0.99997783 11:1.1110742e-05 12:1.1110742e-05 13:0.0002509224 14:0.56372547 15:0.54772937 
3 1:0.39268273 2:0.087796867 3:0.39265656 4:1.1110494e-05 5:0.62219876 6:0.37332371 7:0.004455308 8:1.1110494e-05 9:0.42713234 10:0.99997783 11:1.1110742e-05 12:1.1110742e-05 13:0.0002509224 14:0.56372547 
3 1:0.38557947 2:0.085650064 3:0.38916627 4:1.1110495e-05 5:0.60219991 6:0.39776686 7:1.1110495e-05 8:1.1110495e-05 9:0.41784301 10:0.99997783 11:1.1110742e-05 12:1.1110742e-05 13:0.0002509224 14:0.56372547 
3 1:0.38034683 2:0.089840807 3:0.38369343 4:1.1110494e-05 5:0.65886343 6:0.34110329 7:1.1110494e-05 8:1.1110494e-05 9:0.39899901 10:0.99997783 11:1.1110742e-05 12:1.1110742e-05 13:0.0002509224 14:0.56372547 
0.4134006463784388 1:0.40062401 2:0.088366397 3:0.36951023 4:1.1110495e-05 5:0.51220495 6:0.48776183 7:1.1110495e-05 8:1.1110495e-05 9:0.43073347 10:0.99886674 11:0.0011221849 12:1.1110742e-05 13:0.0080845477 14:0.56372547 
3 1:0.37218803 2:0.075144537 3:0.36806807 4:0.012232654 5:0.70886064 6:0.2788845 7:1.1110494e-05 8:1.1110494e-05 9:0.40645355 10:0.99997783 11:1.1110742e-05 12:1.1110742e-05 13:0.0002509224 14:0.56372547 
3 1:0.42043966 2:0.089327231 3:0.38475627 4:1.1110494e-05 5:0.35221377 6:0.6433087 7:0.004455308 8:1.1110494e-05 9:0.41983426 10:0.99997783 11:1.1110742e-05 12:1.1110742e-05 13:0.0002509224 14:0.56372547 
3 1:0.41019559 2:0.097883247 3:0.39243409 4:1.1110494e-05 5:0.5010944 6:0.49776125 7:0.0011221599 8:1.1110494e-05 9:0.43578431 10:0.99997783 11:1.1110742e-05 12:1.1110742e-05 13:0.0002509224 14:0.56372547 
3 1:0.37527087 2:0.078428969 3:0.37592015 4:0.0022332093 5:0.64219767 6:0.34776956 7:0.007788456 8:1.1110494e-05 9:0.43698201 10:0.99997783 11:1.1110742e-05 12:1.1110742e-05 13:0.0002509224 14:0.56372547 
3 1:0.34262273 2:0.069989711 3:0.3709701 4:0.022232099 5:0.78663409 6:0.18111216 7:0.010010555 8:1.1110494e-05 9:0.3908681 10:0.99997783 11:1.1110742e-05 12:1.1110742e-05 13:0.0002509224 14:0.56372547 
3 1:0.21011971 2:0.074646831 3:0.34915751 4:0.51553804 5:0.4499861 6:0.007788456 7:0.015565802 8:0.011121605 9:0.53033537 10:0.99997783 11:1.1110742e-05 12:1.1110742e-05 13:0.0002509224 14:0.56372547 
3 1:0.19870263 2:0.075210378 3:0.34405968 4:0.56442422 5:0.39998889 6:0.034453642 7:0.0011221599 8:1.1110494e-05 9:0.5052278 10:0.99997783 11:1.1110742e-05 12:1.1110742e-05 13:0.0002509224 14:0.56372547 
3 1:0.48127577 2:0.14305583 3:0.41430104 4:0.004455308 5:0.17111272 6:0.82218766 7:0.0022332093 8:1.1110494e-05 9:0.3112514 10:0.99775565 11:0.0022332589 12:1.1110741e-05 13:0.014564781 14:0.46568626 15:1 
3 1:0.14105576 2:0.11155914 3:0.43783349 4:0.9088496 5:0.091117166 6:1.1110495e-05 7:1.1110495e-05 8:1.1110495e-05 9:0.18983351 10:0.99997783 11:1.1110742e-05 12:1.1110742e-05 13:0.0002509224 14:0.5147059 15:1 
3 1:0.24136987 2:0.07043694 3:0.49211383 4:0.31888229 5:0.62442088 6:0.056674629 7:1.1110494e-05 8:1.1110494e-05 9:0.51039809 10:0.99997783 11:1.1110742e-05 12:1.1110742e-05 13:0.0002509224 14:0.5147059 15:1 
3 1:0.30135155 2:0.070960172 3:0.52266657 4:0.30554971 5:0.36221325 6:0.33221489 7:1.1110495e-05 8:1.1110495e-05 9:0.68126506 10:0.99997783 11:1.1110742e-05 12:1.1110742e-05 13:0.0002509224 14:0.5147059 
3 1:0.19685441 2:0.087318398 3:0.55052835 4:0.58331209 5:0.41665468 6:1.1110495e-05 7:1.1110495e-05 8:1.1110495e-05 9:0.42224973 10:0.99997783 11:1.1110742e-05 12:1.1110742e-05 13:0.0002509224 14:0.5147059 
3 1:0.18142988 2:0.092066325 3:0.55662847 4:0.74108112 5:0.25888565 6:1.1110495e-05 7:1.1110495e-05 8:1.1110495e-05 9:0.35558474 10:0.99997783 11:1.1110742e-05 12:1.1110742e-05 13:0.0002509224 14:0.5147059 
3 1:0.17292424 2:0.12219553 3:0.37961063 4:0.7755236 5:0.058896728 6:0.16555747 7:1.1110494e-05 8:1.1110494e-05 9:0.41128832 10:0.99997783 11:1.1110742e-05 12:1.1110742e-05 13:0.0002509224 14:0.56372547 
3 1:0.18396696 2:0.14190756 3:0.36832979 4:0.75774682 5:0.044453084 6:0.1977779 7:1.1110494e-05 8:1.1110494e-05 9:0.4159058 10:0.99997783 11:1.1110742e-05 12:1.1110742e-05 13:0.0002509224 14:0.56372547 
3 1:0.21320415 2:0.1428299 3:0.36370206 4:0.67997336 5:0.061118826 6:0.25888562 7:1.1110494e-05 8:1.1110494e-05 9:0.48662543 10:0.99553353 11:0.0044554076 12:1.1110742e-05 13:0.02612677 14:0.56372547 
3 1:0.24193232 2:0.13299134 3:0.36415091 4:0.59108943 5:0.063340932 6:0.3455475 7:1.1110495e-05 8:1.1110495e-05 9:0.52999896 10:0.98220062 11:0.017788297 12:1.1110741e-05 13:0.081411459 14:0.56372547 
3 1:0.25549892 2:0.13603239 3:0.35865226 4:0.558869 5:0.055563584 6:0.38554528 7:1.1110495e-05 8:1.1110495e-05 9:0.53029639 10:0.99997783 11:1.1110742e-05 12:1.1110742e-05 13:0.0002509224 14:0.56372547 
3 1:0.11330181 2:0.12786894 3:0.69466615 4:0.99995565 5:1.1110495e-05 6:1.1110495e-05 7:1.1110495e-05 8:1.1110495e-05 9:0.00034255569 10:0.98108953 11:0.01889937 12:1.1110741e-05 13:0.085436709 14:0.5147059 
3 1:0.092662498 2:0.19104938 3:0.30030754 4:0.95773578 5:1.1110495e-05 6:1.1110495e-05 7:0.0066774078 8:0.035564695 9:0.12036324 10:0.96553451 11:0.034454405 12:1.1110741e-05 13:0.13657036 14:0.56372547 15:1 
3 1:0.084251516 2:0.17948087 3:0.3062073 4:0.97662359 5:1.1110495e-05 6:1.1110495e-05 7:1.1110495e-05 8:0.02334315 9:0.069087483 10:0.99664456 11:0.003344333 12:1.1110741e-05 13:0.020517599 14:0.56372547 15:1 
3 1:0.10764474 2:0.17058922 3:0.30920935 4:0.94440311 5:1.1110494e-05 6:1.1110494e-05 7:0.007788456 8:0.047786236 9:0.1475099 10:0.99997783 11:1.1110742e-05 12:1.1110742e-05 13:0.0002509224 14:0.56372547 15:1 
3 1:0.10386179 2:0.16891193 3:0.30496979 4:0.95773578 5:1.1110495e-05 6:1.1110495e-05 7:1.1110495e-05 8:0.04223099 9:0.1089714 10:0.99664456 11:0.003344333 12:1.1110741e-05 13:0.020517599 14:0.56372547 15:1 
3 1:0.097490273 2:0.1848968 3:0.30224639 4:0.96440202 5:1.1110495e-05 6:1.1110495e-05 7:0.0022332096 8:0.033342596 9:0.10080408 10:0.98664492 11:0.013344001 12:1.1110742e-05 13:0.06462165 14:0.56372547 15:1 
3 1:0.12724487 2:0.16536705 3:0.30169302 4:0.92218208 5:0.0011221599 6:1.1110494e-05 7:0.026676295 8:0.050008334 9:0.20437878 10:0.99664456 11:0.003344333 12:1.1110741e-05 13:0.020517599 14:0.56372547 15:1 
3 1:0.12692362 2:0.15284766 3:0.30521822 4:0.92884845 5:1.1110495e-05 6:1.1110495e-05 7:0.043342039 8:0.027787346 9:0.18914253 10:0.99886674 11:0.0011221849 12:1.1110742e-05 13:0.0080845477 14:0.56372547 
3 1:0.10201908 2:0.14912689 3:0.29177585 4:0.95884675 5:0.0011221599 6:1.1110494e-05 7:0.016676851 8:0.023343148 9:0.12676783 10:0.99442244 11:0.005566481 12:1.1110741e-05 13:0.031479973 14:0.56372547 
3 1:0.12098268 2:0.19465916 3:0.30513644 4:0.95106941 5:1.1110494e-05 6:1.1110494e-05 7:0.0011221599 8:0.047786236 9:0.12483117 10:0.99331135 11:0.0066775554 12:1.1110741e-05 13:0.036628824 14:0.56372547 
3 1:0.13630651 2:0.1898582 3:0.30272222 4:0.91107166 5:1.1110495e-05 6:1.1110495e-05 7:0.010010556 8:0.078895621 9:0.20601006 10:0.99997783 11:1.1110742e-05 12:1.1110742e-05 13:0.0002509224 14:0.56372547 
3 1:0.11503483 2:0.1205803 3:0.76642096 4:0.99995565 5:1.1110495e-05 6:1.1110495e-05 7:1.1110495e-05 8:1.1110495e-05 9:0.00034255569 10:0.99997783 11:1.1110742e-05 12:1.1110742e-05 13:0.0002509224 14:0.5147059 15:1 
3 1:0.12207191 2:0.11705995 3:0.78870803 4:0.99995565 5:1.1110495e-05 6:1.1110495e-05 7:1.1110495e-05 8:1.1110495e-05 9:0.00034255569 10:0.99997783 11:1.1110742e-05 12:1.1110742e-05 13:0.0002509224 14:0.5147059 15:1 
3 1:0.13733265 2:0.15975754 3:0.58985674 4:0.99773353 5:0.0022332096 6:1.1110495e-05 7:1.1110495e-05 8:1.1110495e-05 9:0.01011306 10:0.99997783 11:1.1110742e-05 12:1.1110742e-05 13:0.0002509224 14:0.5147059 
3 1:0.12407843 2:0.13258587 3:0.72050363 4:0.99995565 5:1.1110495e-05 6:1.1110495e-05 7:1.1110495e-05 8:1.1110495e-05 9:0.00034255569 10:0.99997783 11:1.1110742e-05 12:1.1110742e-05 13:0.0002509224 14:0.5147059 
3 1:0.12408419 2:0.13131437 3:0.73355776 4:0.99995565 5:1.1110495e-05 6:1.1110495e-05 7:1.1110495e-05 8:1.1110495e-05 9:0.00034255569 10:0.99997783 11:1.1110742e-05 12:1.1110742e-05 13:0.0002509224 14:0.5147059 
3 1:0.12346042 2:0.13269231 3:0.73444301 4:0.99995565 5:1.1110495e-05 6:1.1110495e-05 7:1.1110495e-05 8:1.1110495e-05 9:0.00034255569 10:0.99997783 11:1.1110742e-05 12:1.1110742e-05 13:0.0002509224 14:0.5147059 
3 1:0.11945612 2:0.12555981 3:0.73316592 4:0.99995565 5:1.1110495e-05 6:1.1110495e-05 7:1.1110495e-05 8:1.1110495e-05 9:0.00034255569 10:0.99997783 11:1.1110742e-05 12:1.1110742e-05 13:0.0002509224 14:0.5147059 
3 1:0.11945139 2:0.11977003 3:0.73321003 4:0.99995565 5:1.1110495e-05 6:1.1110495e-05 7:1.1110495e-05 8:1.1110495e-05 9:0.00034255569 10:0.99997783 11:1.1110742e-05 12:1.1110742e-05 13:0.0002509224 14:0.5147059 
3 1:0.11817395 2:0.11812682 3:0.73300523 4:0.99995565 5:1.1110495e-05 6:1.1110495e-05 7:1.1110495e-05 8:1.1110495e-05 9:0.00034255569 10:0.99997783 11:1.1110742e-05 12:1.1110742e-05 13:0.0002509224 14:0.5147059 
3 1:0.12090198 2:0.11555788 3:0.73532295 4:0.99995565 5:1.1110495e-05 6:1.1110495e-05 7:1.1110495e-05 8:1.1110495e-05 9:0.00034255569 10:0.99997783 11:1.1110742e-05 12:1.1110742e-05 13:0.0002509224 14:0.5147059 
3 1:0.11730941 2:0.1139461 3:0.74082714 4:0.99995565 5:1.1110495e-05 6:1.1110495e-05 7:1.1110495e-05 8:1.1110495e-05 9:0.00034255569 10:0.99997783 11:1.1110742e-05 12:1.1110742e-05 13:0.0002509224 14:0.5147059 
3 1:0.12110265 2:0.11341768 3:0.74519247 4:0.99995565 5:1.1110495e-05 6:1.1110495e-05 7:1.1110495e-05 8:1.1110495e-05 9:0.00034255569 10:0.99997783 11:1.1110742e-05 12:1.1110742e-05 13:0.0002509224 14:0.5147059 
3 1:0.11720363 2:0.11369415 3:0.7444517 4:0.99995565 5:1.1110495e-05 6:1.1110495e-05 7:1.1110495e-05 8:1.1110495e-05 9:0.00034255569 10:0.99997783 11:1.1110742e-05 12:1.1110742e-05 13:0.0002509224 14:0.5147059 
3 1:0.11883851 2:0.1119535 3:0.74716157 4:0.99995565 5:1.1110495e-05 6:1.1110495e-05 7:1.1110495e-05 8:1.1110495e-05 9:0.00034255569 10:0.99997783 11:1.1110742e-05 12:1.1110742e-05 13:0.0002509224 14:0.5147059 
3 1:0.11523031 2:0.11222823 3:0.74718362 4:0.99995565 5:1.1110495e-05 6:1.1110495e-05 7:1.1110495e-05 8:1.1110495e-05 9:0.00034255569 10:0.99997783 11:1.1110742e-05 12:1.1110742e-05 13:0.0002509224 14:0.5147059 
3 1:0.11922248 2:0.12583688 3:0.75056511 4:0.99995565 5:1.1110495e-05 6:1.1110495e-05 7:1.1110495e-05 8:1.1110495e-05 9:0.00034255569 10:0.99997783 11:1.1110742e-05 12:1.1110742e-05 13:0.0002509224 14:0.5147059 
3 1:0.11716541 2:0.13519621 3:0.74593329 4:0.99995565 5:1.1110495e-05 6:1.1110495e-05 7:1.1110495e-05 8:1.1110495e-05 9:0.00034255569 10:0.99997783 11:1.1110742e-05 12:1.1110742e-05 13:0.0002509224 14:0.5147059 
3 1:0.11687069 2:0.13926721 3:0.74628162 4:0.99995565 5:1.1110495e-05 6:1.1110495e-05 7:1.1110495e-05 8:1.1110495e-05 9:0.00034255569 10:0.99997783 11:1.1110742e-05 12:1.1110742e-05 13:0.0002509224 14:0.5147059 
3 1:0.11095215 2:0.14256358 3:0.74951506 4:0.99995565 5:1.1110495e-05 6:1.1110495e-05 7:1.1110495e-05 8:1.1110495e-05 9:0.00034255569 10:0.99997783 11:1.1110742e-05 12:1.1110742e-05 13:0.0002509224 14:0.5147059 
3 1:0.10903373 2:0.14790606 3:0.7514627 4:0.99995565 5:1.1110495e-05 6:1.1110495e-05 7:1.1110495e-05 8:1.1110495e-05 9:0.00034255569 10:0.99997783 11:1.1110742e-05 12:1.1110742e-05 13:0.0002509224 14:0.5147059 
3 1:0.11177784 2:0.1435325 3:0.74791116 4:0.99995565 5:1.1110495e-05 6:1.1110495e-05 7:1.1110495e-05 8:1.1110495e-05 9:0.00034255569 10:0.99997783 11:1.1110742e-05 12:1.1110742e-05 13:0.0002509224 14:0.5147059 
3 1:0.1130171 2:0.15054578 3:0.74301344 4:0.99995565 5:1.1110495e-05 6:1.1110495e-05 7:1.1110495e-05 8:1.1110495e-05 9:0.00034255569 10:0.99997783 11:1.1110742e-05 12:1.1110742e-05 13:0.0002509224 14:0.5147059 
3 1:0.1152228 2:0.14815152 3:0.74014205 4:0.99995565 5:1.1110495e-05 6:1.1110495e-05 7:1.1110495e-05 8:1.1110495e-05 9:0.00034255569 10:0.99997783 11:1.1110742e-05 12:1.1110742e-05 13:0.0002509224 14:0.5147059 
3 1:0.13367817 2:0.12736699 3:0.66762489 4:0.99884456 5:0.00112216 6:1.1110495e-05 7:1.1110495e-05 8:1.1110495e-05 9:0.0056897341 10:0.99997783 11:1.1110742e-05 12:1.1110742e-05 13:0.0002509224 14:0.56372547 15:1 
3 1:0.14387858 2:0.12091617 3:0.70108378 4:0.99995565 5:1.1110495e-05 6:1.1110495e-05 7:1.1110495e-05 8:1.1110495e-05 9:0.00034255569 10:0.99997783 11:1.1110742e-05 12:1.1110742e-05 13:0.0002509224 14:0.56372547 15:1 
3 1:0.14060856 2:0.11735322 3:0.71377683 4:0.99995565 5:1.1110495e-05 6:1.1110495e-05 7:1.1110495e-05 8:1.1110495e-05 9:0.00034255569 10:0.99997783 11:1.1110742e-05 12:1.1110742e-05 13:0.0002509224 14:0.56372547 15:1 
3 1:0.13997062 2:0.11667136 3:0.73478699 4:0.99995565 5:1.1110495e-05 6:1.1110495e-05 7:1.1110495e-05 8:1.1110495e-05 9:0.00034255569 10:0.99997783 11:1.1110742e-05 12:1.1110742e-05 13:0.0002509224 14:0.56372547 15:1 
3 1:0.13076407 2:0.11739566 3:0.74248165 4:0.99995565 5:1.1110495e-05 6:1.1110495e-05 7:1.1110495e-05 8:1.1110495e-05 9:0.00034255569 10:0.99997783 11:1.1110742e-05 12:1.1110742e-05 13:0.0002509224 14:0.56372547 15:1 
3 1:0.16270967 2:0.16610411 3:0.46539032 4:0.79552257 5:0.20444423 6:1.1110495e-05 7:1.1110495e-05 8:1.1110495e-05 9:0.31495953 10:0.99997783 11:1.1110742e-05 12:1.1110742e-05 13:0.0002509224 14:0.56372547 15:0.28085077 
3 1:0.17524879 2:0.20987335 3:0.37584803 4:0.75663584 5:0.24333096 6:1.1110495e-05 7:1.1110495e-05 8:1.1110495e-05 9:0.34502307 10:0.99997783 11:1.1110742e-05 12:1.1110742e-05 13:0.0002509224 14:0.56372547 15:0.31619555 
3 1:0.12644818 2:0.13559604 3:0.61445391 4:0.9855119 5:0.011121605 6:1.1110494e-05 7:0.0011221599 8:0.0022332093 9:0.05330959 10:0.99997783 11:1.1110742e-05 12:1.1110742e-05 13:0.0002509224 14:0.56372547 
3 1:0.12772267 2:0.13423292 3:0.64948535 4:0.99995565 5:1.1110495e-05 6:1.1110495e-05 7:1.1110495e-05 8:1.1110495e-05 9:0.00034255569 10:0.99997783 11:1.1110742e-05 12:1.1110742e-05 13:0.0002509224 14:0.56372547 
3 1:0.12429132 2:0.13211241 3:0.67247838 4:0.99995565 5:1.1110495e-05 6:1.1110495e-05 7:1.1110495e-05 8:1.1110495e-05 9:0.00034255569 10:0.99997783 11:1.1110742e-05 12:1.1110742e-05 13:0.0002509224 14:0.56372547 
3 1:0.12392676 2:0.12618029 3:0.68705779 4:0.99995565 5:1.1110495e-05 6:1.1110495e-05 7:1.1110495e-05 8:1.1110495e-05 9:0.00034255569 10:0.99997783 11:1.1110742e-05 12:1.1110742e-05 13:0.0002509224 14:0.56372547 
3 1:0.12374099 2:0.11548264 3:0.69992065 4:0.99995565 5:1.1110495e-05 6:1.1110495e-05 7:1.1110495e-05 8:1.1110495e-05 9:0.00034255569 10:0.99997783 11:1.1110742e-05 12:1.1110742e-05 13:0.0002509224 14:0.56372547 
3 1:0.11922898 2:0.10773866 3:0.71104872 4:0.99995565 5:1.1110495e-05 6:1.1110495e-05 7:1.1110495e-05 8:1.1110495e-05 9:0.00034255569 10:0.99997783 11:1.1110742e-05 12:1.1110742e-05 13:0.0002509224 14:0.56372547 
3 1:0.12562278 2:0.11367466 3:0.70854342 4:0.99995565 5:1.1110495e-05 6:1.1110495e-05 7:1.1110495e-05 8:1.1110495e-05 9:0.00034255569 10:0.99997783 11:1.1110742e-05 12:1.1110742e-05 13:0.0002509224 14:0.56372547 
3 1:0.12455781 2:0.11186107 3:0.71306664 4:0.99995565 5:1.1110495e-05 6:1.1110495e-05 7:1.1110495e-05 8:1.1110495e-05 9:0.00034255569 10:0.99997783 11:1.1110742e-05 12:1.1110742e-05 13:0.0002509224 14:0.56372547 
3 1:0.12906857 2:0.10457154 3:0.71402866 4:0.99995565 5:1.1110495e-05 6:1.1110495e-05 7:1.1110495e-05 8:1.1110495e-05 9:0.00034255569 10:0.99997783 11:1.1110742e-05 12:1.1110742e-05 13:0.0002509224 14:0.56372547 
3 1:0.12810473 2:0.10218947 3:0.71783704 4:0.99995565 5:1.1110495e-05 6:1.1110495e-05 7:1.1110495e-05 8:1.1110495e-05 9:0.00034255569 10:0.99997783 11:1.1110742e-05 12:1.1110742e-05 13:0.0002509224 14:0.56372547 
3 1:0.12168951 2:0.10964589 3:0.72507894 4:0.99995565 5:1.1110495e-05 6:1.1110495e-05 7:1.1110495e-05 8:1.1110495e-05 9:0.00034255569 10:0.99997783 11:1.1110742e-05 12:1.1110742e-05 13:0.0002509224 14:0.56372547 
3 1:0.12056506 2:0.11454104 3:0.72083473 4:0.99995565 5:1.1110495e-05 6:1.1110495e-05 7:1.1110495e-05 8:1.1110495e-05 9:0.00034255569 10:0.99997783 11:1.1110742e-05 12:1.1110742e-05 13:0.0002509224 14:0.56372547 
3 1:0.11788788 2:0.12119473 3:0.72224659 4:0.99995565 5:1.1110495e-05 6:1.1110495e-05 7:1.1110495e-05 8:1.1110495e-05 9:0.00034255569 10:0.99997783 11:1.1110742e-05 12:1.1110742e-05 13:0.0002509224 14:0.56372547 
3 1:0.12070076 2:0.12940349 3:0.71864331 4:0.99995565 5:1.1110495e-05 6:1.1110495e-05 7:1.1110495e-05 8:1.1110495e-05 9:0.00034255569 10:0.99997783 11:1.1110742e-05 12:1.1110742e-05 13:0.0002509224 14:0.56372547 
3 1:0.11754248 2:0.14168525 3:0.71754509 4:0.99995565 5:1.1110495e-05 6:1.1110495e-05 7:1.1110495e-05 8:1.1110495e-05 9:0.00034255569 10:0.99997783 11:1.1110742e-05 12:1.1110742e-05 13:0.0002509224 14:0.56372547 
3 1:0.11787622 2:0.14488783 3:0.71917921 4:0.99995565 5:1.1110495e-05 6:1.1110495e-05 7:1.1110495e-05 8:1.1110495e-05 9:0.00034255569 10:0.99997783 11:1.1110742e-05 12:1.1110742e-05 13:0.0002509224 14:0.56372547 
3 1:0.11585348 2:0.14116672 3:0.72443879 4:0.99995565 5:1.1110495e-05 6:1.1110495e-05 7:1.1110495e-05 8:1.1110495e-05 9:0.00034255569 10:0.99997783 11:1.1110742e-05 12:1.1110742e-05 13:0.0002509224 14:0.56372547 
3 1:0.11071388 2:0.14452308 3:0.72687 4:0.99995565 5:1.1110495e-05 6:1.1110495e-05 7:1.1110495e-05 8:1.1110495e-05 9:0.00034255569 10:0.99997783 11:1.1110742e-05 12:1.1110742e-05 13:0.0002509224 14:0.56372547 
3 1:0.11871213 2:0.14791548 3:0.72222942 4:0.99995565 5:1.1110495e-05 6:1.1110495e-05 7:1.1110495e-05 8:1.1110495e-05 9:0.00034255569 10:0.99997783 11:1.1110742e-05 12:1.1110742e-05 13:0.0002509224 14:0.56372547 
3 1:0.12103629 2:0.14660791 3:0.7164129 4:0.99995565 5:1.1110495e-05 6:1.1110495e-05 7:1.1110495e-05 8:1.1110495e-05 9:0.00034255569 10:0.99997783 11:1.1110742e-05 12:1.1110742e-05 13:0.0002509224 14:0.56372547 
3 1:0.28247356 2:0.10162663 3:0.36270988 4:0.60108882 5:0.047786236 6:0.17000167 7:0.17777902 8:0.0033442588 9:0.67019725 10:0.99997783 11:1.1110742e-05 12:1.1110742e-05 13:0.0002509224 14:0.61274511 
3 1:0.25050721 2:0.10412265 3:0.3885178 4:0.65886343 5:0.041119937 6:0.19111161 7:0.10444976 8:0.004455308 9:0.61044598 10:0.99997783 11:1.1110742e-05 12:1.1110742e-05 13:0.0002509224 14:0.61274511 
3 1:0.24424089 2:0.11311825 3:0.40870935 4:0.73663682 5:0.050008327 6:0.035564687 7:0.14666961 8:0.03112049 9:0.54873168 10:0.99997783 11:1.1110742e-05 12:1.1110742e-05 13:0.0002509224 14:0.61274511 
3 1:0.16695221 2:0.13176917 3:0.43650407 4:0.8432976 5:0.063340925 6:0.038897838 7:0.040008888 8:0.014454752 9:0.39442921 10:0.99997783 11:1.1110742e-05 12:1.1110742e-05 13:0.0002509224 14:0.61274511 
3 1:0.15164779 2:0.14144741 3:0.46207684 4:0.93218154 5:0.004455308 6:0.004455308 7:0.014454752 8:0.044453084 9:0.19469011 10:0.99997783 11:1.1110742e-05 12:1.1110742e-05 13:0.0002509224 14:0.61274511 
3 1:0.16898572 2:0.12422424 3:0.48414588 4:0.8877396 5:0.021121049 6:0.007788456 7:0.073340371 8:0.010010555 9:0.28749117 10:0.99997783 11:1.1110742e-05 12:1.1110742e-05 13:0.0002509224 14:0.61274511 
3 1:0.1650071 2:0.15299322 3:0.51257688 4:0.92551523 5:0.0011221599 6:1.1110494e-05 7:0.004455308 8:0.068896174 9:0.17882992 10:0.99997783 11:1.1110742e-05 12:1.1110742e-05 13:0.0002509224 14:0.61274511 
3 1:0.14220442 2:0.15239391 3:0.53171384 4:0.93662578 5:0.025565248 6:0.003344259 7:0.013343704 8:0.021121051 9:0.19460012 10:0.99997783 11:1.1110742e-05 12:1.1110742e-05 13:0.0002509224 14:0.61274511 
3 1:0.13005181 2:0.16195033 3:0.55096841 4:0.97884566 5:0.016676852 6:1.1110495e-05 7:1.1110495e-05 8:0.0044553084 9:0.070566617 10:0.99997783 11:1.1110742e-05 12:1.1110742e-05 13:0.0002509224 14:0.61274511 
3 1:0.15595075 2:0.10801554 3:0.33706605 4:0.82996505 5:0.091117166 6:0.04223099 7:0.033342596 8:0.003344259 9:0.39707458 10:0.99997783 11:1.1110742e-05 12:1.1110742e-05 13:0.0002509224 14:0.66176474 
3 1:0.61416411 2:0.16205196 3:0.10375939 4:0.0033442588 5:0.0011221599 6:0.29888341 7:0.69663906 8:1.1110494e-05 9:0.39740679 10:0.96775663 11:0.032232258 12:1.1110741e-05 13:0.12975968 14:0.66176474 
0.4581850940919033 1:0.5791679 2:0.14898014 3:0.10188141 4:0.018898951 5:0.0066774068 6:0.4044331 7:0.56997943 8:1.1110494e-05 9:0.49403262 10:0.99997783 11:1.1110742e-05 12:1.1110742e-05 13:0.0002509224 14:0.66176474 
3 1:0.58460587 2:0.14364828 3:0.10664825 4:0.022232099 5:0.0055663576 6:0.36443532 7:0.60775512 8:1.1110494e-05 9:0.48722419 10:0.99997783 11:1.1110742e-05 12:1.1110742e-05 13:0.0002509224 14:0.66176474 
3 1:0.57529372 2:0.10865887 3:0.10460035 4:0.054452531 5:0.0055663576 6:0.24444197 7:0.694417 8:0.0011221599 9:0.49247223 10:0.99997783 11:1.1110742e-05 12:1.1110742e-05 13:0.0002509224 14:0.66176474 
2.256668474055315 1:0.58153296 2:0.090394177 3:0.091088586 4:0.2633298 5:0.0022332093 6:0.030009445 7:0.40221098 8:0.30221653 9:0.74447548 10:0.99997783 11:1.1110742e-05 12:1.1110742e-05 13:0.0002509224 14:0.66176474 
3 1:0.16040443 2:0.1016905 3:0.3857221 4:0.8132993 5:0.11111606 6:0.031120496 7:0.034453645 8:0.010010556 9:0.42395818 10:0.99997783 11:1.1110742e-05 12:1.1110742e-05 13:0.0002509224 14:0.71078432 
3 1:0.30423817 2:0.10342341 3:0.3372559 4:0.48220655 5:0.09445031 6:0.33443698 7:0.08889506 8:1.1110494e-05 9:0.71837264 10:0.99997783 11:1.1110742e-05 12:1.1110742e-05 13:0.0002509224 14:0.71078432 
3 1:0.38129848 2:0.13534757 3:0.33040449 4:0.32110438 5:0.066674076 6:0.59220046 7:0.02001 8:1.1110494e-05 9:0.58031225 10:0.99997783 11:1.1110742e-05 12:1.1110742e-05 13:0.0002509224 14:0.71078432 
3 1:0.42646417 2:0.13503054 3:0.35205472 4:0.19888896 5:0.064451978 6:0.73663688 7:1.1110494e-05 8:1.1110494e-05 9:0.4494352 10:0.98108953 11:0.01889937 12:1.1110741e-05 13:0.085436709 14:0.71078432 
3 1:0.49745059 2:0.15801924 3:0.32762349 4:0.057785679 5:0.047786236 6:0.86885172 7:0.025565246 8:1.1110494e-05 9:0.32686841 10:0.96109021 11:0.038898703 12:1.1110741e-05 13:0.1497941 14:0.71078432 
3 1:0.52821809 2:0.1644797 3:0.20109668 4:0.0022332096 5:0.037786793 6:0.86551863 7:0.091117166 8:0.003344259 9:0.31052011 10:0.99331135 11:0.0066775554 12:1.1110741e-05 13:0.036628824 14:0.71078432 
3 1:0.54429072 2:0.14230065 3:0.13593827 4:0.004455308 5:0.023343148 6:0.71330482 7:0.25888562 8:1.1110494e-05 9:0.43667078 10:0.99997783 11:1.1110742e-05 12:1.1110742e-05 13:0.0002509224 14:0.71078432 
3 1:0.23596533 2:0.11895722 3:0.36784944 4:0.60997719 5:0.13111493 6:0.21222152 7:0.046675179 8:1.1110493e-05 9:0.64621979 10:0.99997783 11:1.1110742e-05 12:1.1110742e-05 13:0.0002509224 14:0.75980389 
3 1:0.24814248 2:0.096485034 3:0.32391471 4:0.61108828 5:0.110005 6:0.15000278 7:0.12111549 8:0.007788456 9:0.69703603 10:0.99997783 11:1.1110742e-05 12:1.1110742e-05 13:0.0002509224 14:0.75980389 
3 1:0.2904717 2:0.099748433 3:0.27375272 4:0.55886894 5:0.1122271 6:0.1144492 7:0.16000222 8:0.054452531 9:0.78935438 10:0.99997783 11:1.1110742e-05 12:1.1110742e-05 13:0.0002509224 14:0.75980389 
3 1:0.33664206 2:0.095165148 3:0.21436659 4:0.49665022 5:0.11778235 6:0.072229326 7:0.23999779 8:0.073340379 9:0.82230461 10:0.99997783 11:1.1110742e-05 12:1.1110742e-05 13:0.0002509224 14:0.75980389 
3 1:0.32776845 2:0.092911899 3:0.16818675 4:0.51887119 5:0.098894507 6:0.10444976 7:0.2199989 8:0.057785679 9:0.80963427 10:0.99997783 11:1.1110742e-05 12:1.1110742e-05 13:0.0002509224 14:0.75980389 
3 1:0.47298974 2:0.086230367 3:0.14270954 4:0.31888229 5:0.051119383 6:0.11111605 7:0.41998777 8:0.098894507 9:0.84114802 10:0.99997783 11:1.1110742e-05 12:1.1110742e-05 13:0.0002509224 14:0.75980389 
3 1:0.089234218 2:0.13281856 3:0.64726764 4:0.99995565 5:1.1110495e-05 6:1.1110495e-05 7:1.1110495e-05 8:1.1110495e-05 9:0.00034255569 10:0.99997783 11:1.1110742e-05 12:1.1110742e-05 13:0.0002509224 14:0.46568626 15:1 
3 1:0.26810616 2:0.092712022 3:0.60887939 4:0.19666687 5:0.76330209 6:0.040008891 7:1.1110495e-05 8:1.1110495e-05 9:0.4069902 10:0.99997783 11:1.1110742e-05 12:1.1110742e-05 13:0.0002509224 14:0.56372547 
3 1:0.25089702 2:0.10147056 3:0.6004619 4:0.25444144 5:0.74441427 6:0.00112216 7:1.1110495e-05 8:1.1110495e-05 9:0.35779276 10:0.99997783 11:1.1110742e-05 12:1.1110742e-05 13:0.0002509224 14:0.56372547 
3 1:0.28112203 2:0.18116175 3:0.46370083 4:0.35665798 5:0.36332428 6:0.27999559 7:1.1110495e-05 8:1.1110495e-05 9:0.6786471 10:0.93997979 11:0.060009111 12:1.1110741e-05 13:0.20674242 14:0.56372547 
3 1:0.24563661 2:0.15961955 3:0.47457364 4:0.61442149 5:0.060007781 6:0.32554862 7:1.1110495e-05 8:1.1110495e-05 9:0.5179981 10:0.98220062 11:0.017788297 12:1.1110741e-05 13:0.081411459 14:0.56372547 
3 1:0.2502549 2:0.15429863 3:0.47062141 4:0.59331155 5:0.084450871 6:0.32221547 7:1.1110495e-05 8:1.1110495e-05 9:0.54903078 10:0.96886772 11:0.031121185 12:1.1110741e-05 13:0.12630084 14:0.56372547 
3 1:0.23185857 2:0.11175767 3:0.44385949 4:0.60219991 5:0.1344481 6:0.26332983 7:1.1110495e-05 8:1.1110495e-05 9:0.57586735 10:0.99553353 11:0.0044554076 12:1.1110742e-05 13:0.02612677 14:0.56372547 
3 1:0.23646384 2:0.097487137 3:0.436313 4:0.5899784 5:0.091117166 6:0.31888232 7:1.1110495e-05 8:1.1110495e-05 9:0.55566555 10:0.99664456 11:0.003344333 12:1.1110741e-05 13:0.020517599 14:0.56372547 
3 1:0.27167532 2:0.097324245 3:0.46817037 4:0.52775955 5:0.08889506 6:0.38332316 7:1.1110494e-05 8:1.1110494e-05 9:0.57179248 10:0.99997783 11:1.1110742e-05 12:1.1110742e-05 13:0.0002509224 14:0.56372547 
3 1:0.30959418 2:0.10359696 3:0.48921183 4:0.44554195 5:0.058896732 6:0.49553916 7:1.1110495e-05 8:1.1110495e-05 9:0.54377633 10:0.99997783 11:1.1110742e-05 12:1.1110742e-05 13:0.0002509224 14:0.56372547 
3 1:0.31523994 2:0.10995539 3:0.46412218 4:0.4499861 5:0.067785122 6:0.48220655 7:1.1110494e-05 8:1.1110494e-05 9:0.55530912 10:0.99997783 11:1.1110742e-05 12:1.1110742e-05 13:0.0002509224 14:0.56372547 
3 1:0.29828751 2:0.11116453 3:0.4309276 4:0.4499861 5:0.13778123 6:0.41221043 7:1.1110494e-05 8:1.1110494e-05 9:0.62008536 10:0.99553353 11:0.0044554076 12:1.1110742e-05 13:0.02612677 14:0.56372547 
1.610042675746968 1:0.26998529 2:0.10772454 3:0.38291347 4:0.47665134 5:0.23555359 6:0.28777292 7:1.1110495e-05 8:1.1110495e-05 9:0.65392417 10:0.99997783 11:1.1110742e-05 12:1.1110742e-05 13:0.0002509224 14:0.56372547 
3 1:0.22392429 2:0.12224051 3:0.35050026 4:0.48553973 5:0.4555414 6:0.058896732 7:1.1110495e-05 8:1.1110495e-05 9:0.54430479 10:0.99886674 11:0.0011221849 12:1.1110742e-05 13:0.0080845477 14:0.56372547 
3 1:0.19671479 2:0.13003714 3:0.3490757 4:0.62553197 5:0.34999171 6:0.024454199 7:1.1110495e-05 8:1.1110495e-05 9:0.46718746 10:0.99997783 11:1.1110742e-05 12:1.1110742e-05 13:0.0002509224 14:0.56372547 
3 1:0.19043693 2:0.13044931 3:0.35115865 4:0.69552809 5:0.25221935 6:0.052230436 7:1.1110495e-05 8:1.1110495e-05 9:0.46873415 10:0.99664456 11:0.003344333 12:1.1110741e-05 13:0.020517599 14:0.56372547 
3 1:0.16420512 2:0.15635674 3:0.35190019 4:0.715527 5:0.28443977 6:1.1110495e-05 7:1.1110495e-05 8:1.1110495e-05 9:0.37124765 10:0.99664456 11:0.003344333 12:1.1110741e-05 13:0.020517599 14:0.56372547 
3 1:0.17350626 2:0.19204858 3:0.31726378 4:0.65441924 5:0.3455475 6:1.1110495e-05 7:1.1110495e-05 8:1.1110495e-05 9:0.40078962 10:0.97331202 11:0.026676888 12:1.1110741e-05 13:0.11207894 14:0.56372547 
3 1:0.10212722 2:0.2608951 3:0.43703267 4:0.99995565 5:1.1110495e-05 6:1.1110495e-05 7:1.1110495e-05 8:1.1110495e-05 9:0.00034255569 10:0.99886674 11:0.0011221849 12:1.1110742e-05 13:0.0080845477 14:0.46568626 15:1 
3 1:0.087357469 2:0.26468757 3:0.36128461 4:0.99995565 5:1.1110495e-05 6:1.1110495e-05 7:1.1110495e-05 8:1.1110495e-05 9:0.00034255569 10:0.9710899 11:0.028899038 12:1.1110742e-05 13:0.11927003 14:0.5147059 15:1 
3 1:0.093054257 2:0.24834254 3:0.38245708 4:0.99995565 5:1.1110495e-05 6:1.1110495e-05 7:1.1110495e-05 8:1.1110495e-05 9:0.00034255569 10:0.99886674 11:0.0011221849 12:1.1110742e-05 13:0.0080845477 14:0.5147059 15:1 
3 1:0.108058 2:0.22931243 3:0.41854352 4:0.99995565 5:1.1110495e-05 6:1.1110495e-05 7:1.1110495e-05 8:1.1110495e-05 9:0.00034255569 10:0.99553353 11:0.0044554076 12:1.1110742e-05 13:0.02612677 14:0.5147059 15:1 
3 1:0.1075817 2:0.20313592 3:0.43987259 4:0.99995565 5:1.1110495e-05 6:1.1110495e-05 7:1.1110495e-05 8:1.1110495e-05 9:0.00034255569 10:0.98775601 11:0.012232927 12:1.1110742e-05 13:0.060225688 14:0.56372547 15:1 
3 1:0.11248633 2:0.20000444 3:0.45536667 4:0.99995565 5:1.1110495e-05 6:1.1110495e-05 7:1.1110495e-05 8:1.1110495e-05 9:0.00034255569 10:0.99886674 11:0.0011221849 12:1.1110742e-05 13:0.0080845477 14:0.56372547 15:1 
3 1:0.11248785 2:0.20023076 3:0.45422986 4:0.99995565 5:1.1110495e-05 6:1.1110495e-05 7:1.1110495e-05 8:1.1110495e-05 9:0.00034255569 10:0.99886674 11:0.0011221849 12:1.1110742e-05 13:0.0080845477 14:0.56372547 15:1 
3 1:0.11208982 2:0.20860313 3:0.46257895 4:0.99995565 5:1.1110495e-05 6:1.1110495e-05 7:1.1110495e-05 8:1.1110495e-05 9:0.00034255569 10:0.99886674 11:0.0011221849 12:1.1110742e-05 13:0.0080845477 14:0.56372547 15:1 
3 1:0.11874503 2:0.19087568 3:0.46100959 4:0.99995565 5:1.1110495e-05 6:1.1110495e-05 7:1.1110495e-05 8:1.1110495e-05 9:0.00034255569 10:0.99997783 11:1.1110742e-05 12:1.1110742e-05 13:0.0002509224 14:0.56372547 15:1 
3 1:0.13106968 2:0.17711501 3:0.46758533 4:0.99995565 5:1.1110495e-05 6:1.1110495e-05 7:1.1110495e-05 8:1.1110495e-05 9:0.00034255569 10:0.99997783 11:1.1110742e-05 12:1.1110742e-05 13:0.0002509224 14:0.56372547 15:1 
3 1:0.12884322 2:0.16853577 3:0.45055825 4:0.99773353 5:1.1110495e-05 6:1.1110495e-05 7:1.1110495e-05 8:0.0022332096 9:0.010113061 10:0.99997783 11:1.1110742e-05 12:1.1110742e-05 13:0.0002509224 14:0.56372547 
3 1:0.11615663 2:0.17729938 3:0.51003206 4:0.99995565 5:1.1110495e-05 6:1.1110495e-05 7:1.1110495e-05 8:1.1110495e-05 9:0.00034255569 10:0.99997783 11:1.1110742e-05 12:1.1110742e-05 13:0.0002509224 14:0.56372547 
3 1:0.11268792 2:0.19406214 3:0.52647591 4:0.99995565 5:1.1110495e-05 6:1.1110495e-05 7:1.1110495e-05 8:1.1110495e-05 9:0.00034255569 10:0.99553353 11:0.0044554076 12:1.1110742e-05 13:0.02612677 14:0.56372547 
3 1:0.1119207 2:0.20075819 3:0.51890302 4:0.99995565 5:1.1110495e-05 6:1.1110495e-05 7:1.1110495e-05 8:1.1110495e-05 9:0.00034255569 10:0.99997783 11:1.1110742e-05 12:1.1110742e-05 13:0.0002509224 14:0.56372547 
3 1:0.1108695 2:0.20342737 3:0.52457637 4:0.99995565 5:1.1110495e-05 6:1.1110495e-05 7:1.1110495e-05 8:1.1110495e-05 9:0.00034255569 10:0.99886674 11:0.0011221849 12:1.1110742e-05 13:0.0080845477 14:0.56372547 
3 1:0.11863493 2:0.18849523 3:0.53160018 4:0.99995565 5:1.1110495e-05 6:1.1110495e-05 7:1.1110495e-05 8:1.1110495e-05 9:0.00034255569 10:0.99997783 11:1.1110742e-05 12:1.1110742e-05 13:0.0002509224 14:0.56372547 
3 1:0.13196675 2:0.18093272 3:0.46019223 4:0.9688462 5:0.004455308 6:1.1110494e-05 7:0.010010555 8:0.016676851 9:0.10517336 10:0.99775565 11:0.0022332589 12:1.1110741e-05 13:0.014564781 14:0.56372547 
3 1:0.12546368 2:0.19060233 3:0.47744328 4:0.95884675 5:0.0033442588 6:0.0011221599 7:0.024454197 8:0.012232654 9:0.13147293 10:0.99775565 11:0.0022332589 12:1.1110741e-05 13:0.014564781 14:0.56372547 
3 1:0.11733332 2:0.14754498 3:0.47441873 4:0.99773353 5:1.1110495e-05 6:1.1110495e-05 7:1.1110495e-05 8:0.0022332096 9:0.010113061 10:0.96442342 11:0.035565481 12:1.1110741e-05 13:0.13992451 14:0.56372547 
3 1:0.094803467 2:0.1766831 3:0.38505042 4:0.99440038 5:1.1110495e-05 6:1.1110495e-05 7:1.1110495e-05 8:0.0055663581 9:0.021659231 10:0.957757 11:0.042231929 12:1.1110742e-05 13:0.15939286 14:0.56372547 
3 1:0.11914055 2:0.13918225 3:0.58052981 4:0.9966225 5:1.1110495e-05 6:1.1110495e-05 7:1.1110495e-05 8:0.0033442592 9:0.014176381 10:0.95442379 11:0.045565151 12:1.1110742e-05 13:0.16874133 14:0.56372547 
3 1:0.12816319 2:0.23369281 3:0.50205153 4:0.99995565 5:1.1110495e-05 6:1.1110495e-05 7:1.1110495e-05 8:1.1110495e-05 9:0.00034255569 10:0.99997783 11:1.1110742e-05 12:1.1110742e-05 13:0.0002509224 14:0.46568626 15:1 
3 1:0.1243154 2:0.24073531 3:0.48921055 4:0.99995565 5:1.1110495e-05 6:1.1110495e-05 7:1.1110495e-05 8:1.1110495e-05 9:0.00034255569 10:0.99997783 11:1.1110742e-05 12:1.1110742e-05 13:0.0002509224 14:0.46568626 15:1 
3 1:0.1157846 2:0.25506809 3:0.53434479 4:0.99995565 5:1.1110495e-05 6:1.1110495e-05 7:1.1110495e-05 8:1.1110495e-05 9:0.00034255569 10:0.99997783 11:1.1110742e-05 12:1.1110742e-05 13:0.0002509224 14:0.46568626 15:1 
3 1:0.11556495 2:0.23623054 3:0.59483749 4:0.99995565 5:1.1110495e-05 6:1.1110495e-05 7:1.1110495e-05 8:1.1110495e-05 9:0.00034255569 10:0.99997783 11:1.1110742e-05 12:1.1110742e-05 13:0.0002509224 14:0.46568626 15:1 
3 1:0.13519314 2:0.21235389 3:0.53063613 4:0.99995565 5:1.1110495e-05 6:1.1110495e-05 7:1.1110495e-05 8:1.1110495e-05 9:0.00034255569 10:0.99664456 11:0.003344333 12:1.1110741e-05 13:0.020517599 14:0.5147059 15:1 
3 1:0.14122227 2:0.19829164 3:0.53287971 4:0.99995565 5:1.1110495e-05 6:1.1110495e-05 7:1.1110495e-05 8:1.1110495e-05 9:0.00034255569 10:0.99997783 11:1.1110742e-05 12:1.1110742e-05 13:0.0002509224 14:0.5147059 15:1 
3 1:0.13535011 2:0.20092399 3:0.54056185 4:0.99995565 5:1.1110495e-05 6:1.1110495e-05 7:1.1110495e-05 8:1.1110495e-05 9:0.00034255569 10:0.99997783 11:1.1110742e-05 12:1.1110742e-05 13:0.0002509224 14:0.5147059 15:1 
3 1:0.13302599 2:0.20303269 3:0.54128551 4:0.99995565 5:1.1110495e-05 6:1.1110495e-05 7:1.1110495e-05 8:1.1110495e-05 9:0.00034255569 10:0.99997783 11:1.1110742e-05 12:1.1110742e-05 13:0.0002509224 14:0.5147059 15:1 
3 1:0.1300402 2:0.22144343 3:0.52621704 4:0.99995565 5:1.1110495e-05 6:1.1110495e-05 7:1.1110495e-05 8:1.1110495e-05 9:0.00034255569 10:0.97442311 11:0.025565816 12:1.1110742e-05 13:0.1084193 14:0.5147059 15:1 
3 1:0.13055412 2:0.20413999 3:0.48767138 4:0.99551141 5:0.0044553084 6:1.1110495e-05 7:1.1110495e-05 8:1.1110495e-05 9:0.018005198 10:0.97997844 11:0.020010443 12:1.1110741e-05 13:0.08940132 14:0.5147059 
3 1:0.11558406 2:0.22305812 3:0.59933734 4:0.99995565 5:1.1110495e-05 6:1.1110495e-05 7:1.1110495e-05 8:1.1110495e-05 9:0.00034255569 10:0.99553353 11:0.0044554076 12:1.1110742e-05 13:0.02612677 14:0.5147059 
3 1:0.11701024 2:0.21445391 3:0.59625703 4:0.99995565 5:1.1110495e-05 6:1.1110495e-05 7:1.1110495e-05 8:1.1110495e-05 9:0.00034255569 10:0.99664456 11:0.003344333 12:1.1110741e-05 13:0.020517599 14:0.5147059 
3 1:0.1109456 2:0.22659463 3:0.59931219 4:0.99995565 5:1.1110495e-05 6:1.1110495e-05 7:1.1110495e-05 8:1.1110495e-05 9:0.00034255569 10:0.98886704 11:0.011121851 12:1.1110741e-05 13:0.055736646 14:0.5147059 
3 1:0.12845914 2:0.12666547 3:0.70764124 4:0.99995565 5:1.1110495e-05 6:1.1110495e-05 7:1.1110495e-05 8:1.1110495e-05 9:0.00034255569 10:0.99997783 11:1.1110742e-05 12:1.1110742e-05 13:0.0002509224 14:0.56372547 
0.09957460742986797 1:0.10038515 2:0.15656908 3:0.56089592 4:0.99995565 5:1.1110495e-05 6:1.1110495e-05 7:1.1110495e-05 8:1.1110495e-05 9:0.00034255569 10:0.99997783 11:1.1110742e-05 12:1.1110742e-05 13:0.0002509224 14:0.46568626 15:1 
3 1:0.0956112 2:0.16194478 3:0.30708078 4:0.98217887 5:1.1110495e-05 6:1.1110495e-05 7:1.1110495e-05 8:0.017787902 9:0.055741996 10:0.99997783 11:1.1110742e-05 12:1.1110742e-05 13:0.0002509224 14:0.5147059 
3 1:0.085531309 2:0.16317612 3:0.29124746 4:0.99884456 5:1.1110495e-05 6:1.1110495e-05 7:1.1110495e-05 8:0.00112216 9:0.0056897337 10:0.99997783 11:1.1110742e-05 12:1.1110742e-05 13:0.0002509224 14:0.5147059 
3 1:0.096523538 2:0.2017701 3:0.443461 4:0.99995565 5:1.1110495e-05 6:1.1110495e-05 7:1.1110495e-05 8:1.1110495e-05 9:0.00034255569 10:0.99886674 11:0.0011221849 12:1.1110742e-05 13:0.0080845477 14:0.56372547 15:1 
3 1:0.098474257 2:0.19341843 3:0.46129942 4:0.99995565 5:1.1110495e-05 6:1.1110495e-05 7:1.1110495e-05 8:1.1110495e-05 9:0.00034255569 10:0.99997783 11:1.1110742e-05 12:1.1110742e-05 13:0.0002509224 14:0.56372547 15:1 
3 1:0.10506849 2:0.18654837 3:0.46522531 4:0.99995565 5:1.1110495e-05 6:1.1110495e-05 7:1.1110495e-05 8:1.1110495e-05 9:0.00034255569 10:0.99997783 11:1.1110742e-05 12:1.1110742e-05 13:0.0002509224 14:0.56372547 15:1 
3 1:0.10368146 2:0.18345062 3:0.48058975 4:0.99995565 5:1.1110495e-05 6:1.1110495e-05 7:1.1110495e-05 8:1.1110495e-05 9:0.00034255569 10:0.99997783 11:1.1110742e-05 12:1.1110742e-05 13:0.0002509224 14:0.56372547 15:1 
3 1:0.10143431 2:0.18807147 3:0.49347395 4:0.99995565 5:1.1110495e-05 6:1.1110495e-05 7:1.1110495e-05 8:1.1110495e-05 9:0.00034255569 10:0.99997783 11:1.1110742e-05 12:1.1110742e-05 13:0.0002509224 14:0.56372547 15:1 
3 1:0.10990974 2:0.18348101 3:0.49447197 4:0.99995565 5:1.1110495e-05 6:1.1110495e-05 7:1.1110495e-05 8:1.1110495e-05 9:0.00034255569 10:0.99997783 11:1.1110742e-05 12:1.1110742e-05 13:0.0002509224 14:0.56372547 15:1 
3 1:0.11470824 2:0.1817829 3:0.5031563 4:0.99995565 5:1.1110495e-05 6:1.1110495e-05 7:1.1110495e-05 8:1.1110495e-05 9:0.00034255569 10:0.99997783 11:1.1110742e-05 12:1.1110742e-05 13:0.0002509224 14:0.56372547 15:0.8226217 
3 1:0.11618053 2:0.18341364 3:0.50678122 4:0.99995565 5:1.1110495e-05 6:1.1110495e-05 7:1.1110495e-05 8:1.1110495e-05 9:0.00034255569 10:0.99997783 11:1.1110742e-05 12:1.1110742e-05 13:0.0002509224 14:0.56372547 15:0.68596917 
3 1:0.11610229 2:0.18088354 3:0.51105142 4:0.99995565 5:1.1110495e-05 6:1.1110495e-05 7:1.1110495e-05 8:1.1110495e-05 9:0.00034255569 10:0.99997783 11:1.1110742e-05 12:1.1110742e-05 13:0.0002509224 14:0.56372547 
3 1:0.11801658 2:0.17779194 3:0.5188328 4:0.99995565 5:1.1110495e-05 6:1.1110495e-05 7:1.1110495e-05 8:1.1110495e-05 9:0.00034255569 10:0.99997783 11:1.1110742e-05 12:1.1110742e-05 13:0.0002509224 14:0.56372547 
3 1:0.10521286 2:0.16628569 3:0.47401583 4:0.99995565 5:1.1110495e-05 6:1.1110495e-05 7:1.1110495e-05 8:1.1110495e-05 9:0.00034255569 10:0.99997783 11:1.1110742e-05 12:1.1110742e-05 13:0.0002509224 14:0.5147059 
