svm_type c_svc
kernel_type polynomial
degree 3
gamma 1
coef0 0
nr_class 2
total_sv 5267
rho -1.02524
label 0 1
nr_sv 2649 2618
SV
3 1:0.095673747 2:0.1090982 3:0.74276483 4:0.9999705 5:4.9381015e-06 6:4.9381015e-06 7:4.9381015e-06 8:4.9381015e-06 9:4.9381015e-06 10:4.9381015e-06 11:0.00020120246 12:0.9876253 13:0.012350193 14:4.9381019e-06 15:4.9381019e-06 16:4.9381019e-06 17:4.9381019e-06 18:4.9381019e-06 19:0.034362979 20:4.938101e-06 21:4.938101e-06 22:4.938101e-06 23:0.019757342 24:0.36739963 25:0.61282325 26:4.938101e-06 27:0.3832342 28:0.0011659794 29:3.6764708e-05 
3 1:0.091767728 2:0.10794865 3:0.76460129 4:0.9999705 5:4.9381015e-06 6:4.9381015e-06 7:4.9381015e-06 8:4.9381015e-06 9:4.9381015e-06 10:4.9381015e-06 11:0.00020120246 12:0.99997056 13:4.9381019e-06 14:4.9381019e-06 15:4.9381019e-06 16:4.9381019e-06 17:4.9381019e-06 18:4.9381019e-06 19:0.00020117186 20:4.9381015e-06 21:4.9381015e-06 22:4.9381015e-06 23:4.9381015e-06 24:0.087903142 25:0.91207224 26:4.9381015e-06 27:0.15313321 28:0.00066056388 29:3.6764708e-05 
3 1:0.099084213 2:0.10729886 3:0.77972645 4:0.9999705 5:4.9381015e-06 6:4.9381015e-06 7:4.9381015e-06 8:4.9381015e-06 9:4.9381015e-06 10:4.9381015e-06 11:0.00020120246 12:0.99997056 13:4.9381019e-06 14:4.9381019e-06 15:4.9381019e-06 16:4.9381019e-06 17:4.9381019e-06 18:4.9381019e-06 19:0.00020117186 20:4.9381015e-06 21:4.9381015e-06 22:4.9381015e-06 23:4.9381015e-06 24:0.04444785 25:0.95552754 26:4.9381015e-06 27:0.093609616 28:0.00066293147 29:3.6764708e-05 
3 1:0.07384415 2:0.13667509 3:0.65080452 4:0.9999705 5:4.9381015e-06 6:4.9381015e-06 7:4.9381015e-06 8:4.9381015e-06 9:4.9381015e-06 10:4.9381015e-06 11:0.00020120246 12:0.58615762 13:0.41381788 14:4.9381019e-06 15:4.9381019e-06 16:4.9381019e-06 17:4.9381019e-06 18:4.9381019e-06 19:0.34869599 20:4.9381015e-06 21:4.9381015e-06 22:4.9381015e-06 23:0.13333368 24:0.83602554 25:0.030621165 26:4.9381015e-06 27:0.26998764 28:0.0024493567 29:3.6764708e-05 
3 1:0.072220713 2:0.127876 3:0.57303399 4:0.9999705 5:4.9381015e-06 6:4.9381015e-06 7:4.9381015e-06 8:4.9381015e-06 9:4.9381015e-06 10:4.9381015e-06 11:0.00020120246 12:0.72096783 13:0.2790077 14:4.9381019e-06 15:4.9381019e-06 16:4.9381019e-06 17:4.9381019e-06 18:4.9381019e-06 19:0.30439833 20:4.9381015e-06 21:4.9381015e-06 22:0.0029677988 23:0.98268712 24:0.014325432 25:4.9381015e-06 26:4.9381015e-06 27:0.049076077 28:0.00046777044 29:3.6764708e-05 
3 1:0.08701387 2:0.15940972 3:0.56780827 4:0.98910654 5:0.0054368488 6:4.938101e-06 7:4.938101e-06 8:4.938101e-06 9:0.0014863684 10:0.0039554187 11:0.036449812 12:0.40344787 13:0.59554005 14:0.00099255843 15:4.9381019e-06 16:4.9381019e-06 17:4.9381019e-06 18:4.9381019e-06 19:0.35046753 20:4.938101e-06 21:4.938101e-06 22:0.021732582 23:0.91849172 24:0.025189253 25:0.01235019 26:0.022226391 27:0.20197642 28:0.0057120104 29:3.6764708e-05 
3 1:0.090209186 2:0.21144246 3:0.54932284 4:0.9999705 5:4.9381015e-06 6:4.9381015e-06 7:4.9381015e-06 8:4.9381015e-06 9:4.9381015e-06 10:4.9381015e-06 11:0.00020120246 12:0.025189258 13:0.9140476 14:0.060743589 15:4.9381019e-06 16:4.9381019e-06 17:4.9381019e-06 18:4.9381019e-06 19:0.17743261 20:4.9381015e-06 21:4.9381015e-06 22:0.012350191 23:0.98762524 24:4.9381015e-06 25:4.9381015e-06 26:4.9381015e-06 27:0.034363009 28:0.00037847925 29:3.6764708e-05 
3 1:0.088218361 2:0.24433716 3:0.57176864 4:0.9999705 5:4.9381015e-06 6:4.9381015e-06 7:4.9381015e-06 8:4.9381015e-06 9:4.9381015e-06 10:4.9381015e-06 11:0.00020120246 12:0.0034616094 13:0.74862117 14:0.24789765 15:4.9381019e-06 16:4.9381019e-06 17:4.9381019e-06 18:4.9381019e-06 19:0.29926863 20:4.9381015e-06 21:4.9381015e-06 22:4.9381015e-06 23:0.97725523 24:0.022720205 25:4.9381015e-06 26:4.9381015e-06 27:0.055896949 28:0.00073857239 29:3.6764708e-05 
3 1:0.097246759 2:0.10408822 3:0.7419433 4:0.9999705 5:4.9381015e-06 6:4.9381015e-06 7:4.9381015e-06 8:4.9381015e-06 9:4.9381015e-06 10:4.9381015e-06 11:0.00020120246 12:0.99997056 13:4.9381019e-06 14:4.9381019e-06 15:4.9381019e-06 16:4.9381019e-06 17:4.9381019e-06 18:4.9381019e-06 19:0.00020117186 20:4.9381015e-06 21:4.9381015e-06 22:4.9381015e-06 23:4.9381015e-06 24:0.58912039 25:0.41085497 26:4.9381015e-06 27:0.3481566 28:6.6376786e-05 29:0.00011029412 
3 1:0.10644329 2:0.10526832 3:0.74765444 4:0.9999705 5:4.9381015e-06 6:4.9381015e-06 7:4.9381015e-06 8:4.9381015e-06 9:4.9381015e-06 10:4.9381015e-06 11:0.00020120246 12:0.99997056 13:4.9381019e-06 14:4.9381019e-06 15:4.9381019e-06 16:4.9381019e-06 17:4.9381019e-06 18:4.9381019e-06 19:0.00020117186 20:4.938101e-06 21:4.938101e-06 22:4.938101e-06 23:4.938101e-06 24:0.16839418 25:0.83158112 26:4.938101e-06 27:0.23313136 28:2.9787501e-05 29:0.00011029412 
3 1:0.10683221 2:0.10460281 3:0.75432235 4:0.9999705 5:4.9381015e-06 6:4.9381015e-06 7:4.9381015e-06 8:4.9381015e-06 9:4.9381015e-06 10:4.9381015e-06 11:0.00020120246 12:0.99997056 13:4.9381019e-06 14:4.9381019e-06 15:4.9381019e-06 16:4.9381019e-06 17:4.9381019e-06 18:4.9381019e-06 19:0.00020117186 20:4.938101e-06 21:4.938101e-06 22:4.938101e-06 23:4.938101e-06 24:0.027658302 25:0.97231704 26:4.938101e-06 27:0.06517832 28:9.4023359e-05 29:0.00011029412 
3 1:0.29281041 2:0.04638781 3:0.81549507 4:0.6943019 5:0.0044492288 6:4.938101e-06 7:4.938101e-06 8:0.14271605 9:0.068644539 10:0.089878373 11:0.49119005 12:0.99206966 13:0.0079059014 14:4.9381019e-06 15:4.9381019e-06 16:4.9381019e-06 17:4.9381019e-06 18:4.9381019e-06 19:0.023878902 20:4.9650707e-06 21:4.9650707e-06 22:4.9650707e-06 23:0.051145192 24:0.080439106 25:0.56354052 26:0.30486029 27:0.53461438 28:0.012222131 29:0.00011029412 
3 1:0.10184526 2:0.27108189 3:0.61685461 4:0.9999705 5:4.9381015e-06 6:4.9381015e-06 7:4.9381015e-06 8:4.9381015e-06 9:4.9381015e-06 10:4.9381015e-06 11:0.00020120246 12:4.9381019e-06 13:0.63504487 14:0.36493069 15:4.9381019e-06 16:4.9381019e-06 17:4.9381019e-06 18:4.9381019e-06 19:0.33738324 20:4.9381015e-06 21:4.9381015e-06 22:4.9381015e-06 23:0.72195536 24:0.27802005 25:4.9381015e-06 26:4.9381015e-06 27:0.30391526 28:0.0012347123 29:0.00011029412 
3 1:0.098233037 2:0.31685266 3:0.59587091 4:0.99206936 5:0.00049874815 6:0.00049874815 7:4.938101e-06 8:0.0054368488 9:0.00049874815 10:0.00099255831 11:0.02803342 12:0.020251155 13:0.32147536 14:0.64788389 15:0.010374952 16:4.9381019e-06 17:4.9381019e-06 18:4.9381019e-06 19:0.39702708 20:4.938101e-06 21:4.938101e-06 22:4.938101e-06 23:0.91898549 24:0.05432405 25:0.019263532 26:0.0074120895 27:0.17908929 28:0.0036136811 29:0.00011029412 
3 1:0.11527021 2:0.10590292 3:0.72901314 4:0.9999705 5:4.9381015e-06 6:4.9381015e-06 7:4.9381015e-06 8:4.9381015e-06 9:4.9381015e-06 10:4.9381015e-06 11:0.00020120246 12:0.99997056 13:4.9381019e-06 14:4.9381019e-06 15:4.9381019e-06 16:4.9381019e-06 17:4.9381019e-06 18:4.9381019e-06 19:0.00020117186 20:4.938101e-06 21:4.938101e-06 22:4.938101e-06 23:4.938101e-06 24:0.79602683 25:0.20394851 26:4.938101e-06 27:0.26010886 28:7.7966899e-05 29:0.00018382353 
3 1:0.11182614 2:0.1119169 3:0.73405737 4:0.9999705 5:4.9381015e-06 6:4.9381015e-06 7:4.9381015e-06 8:4.9381015e-06 9:4.9381015e-06 10:4.9381015e-06 11:0.00020120246 12:0.99997056 13:4.9381019e-06 14:4.9381019e-06 15:4.9381019e-06 16:4.9381019e-06 17:4.9381019e-06 18:4.9381019e-06 19:0.00020117186 20:4.9381015e-06 21:4.9381015e-06 22:4.9381015e-06 23:4.9381015e-06 24:0.82022357 25:0.17975183 26:4.9381015e-06 27:0.24222001 28:5.4884869e-05 29:0.00018382353 
3 1:0.12463618 2:0.19348736 3:0.5131619 4:0.99206948 5:0.0079059005 6:4.9381015e-06 7:4.9381015e-06 8:4.9381015e-06 9:4.9381015e-06 10:4.9381015e-06 11:0.023878992 12:0.0039554196 13:0.99602008 14:4.9381019e-06 15:4.9381019e-06 16:4.9381019e-06 17:4.9381019e-06 18:4.9381019e-06 19:0.013442398 20:4.9381015e-06 21:0.0044492297 22:0.39999115 23:0.15753038 24:0.43801454 25:4.9381015e-06 26:4.9381015e-06 27:0.53625846 28:0.012659746 29:0.00018382353 
3 1:0.11342403 2:0.11034998 3:0.68625599 4:0.9999705 5:4.9381015e-06 6:4.9381015e-06 7:4.9381015e-06 8:4.9381015e-06 9:4.9381015e-06 10:4.9381015e-06 11:0.00020120246 12:0.97824293 13:0.021732587 14:4.9381019e-06 15:4.9381019e-06 16:4.9381019e-06 17:4.9381019e-06 18:4.9381019e-06 19:0.053976357 20:4.9381015e-06 21:4.9381015e-06 22:4.9381015e-06 23:0.022226393 24:0.97774905 25:4.9381015e-06 26:4.9381015e-06 27:0.054939549 28:0.00059731444 29:0.00025735295 
3 1:0.12173342 2:0.10750862 3:0.69024152 4:0.98960048 5:0.010374951 6:4.9381015e-06 7:4.9381015e-06 8:4.9381015e-06 9:4.9381015e-06 10:4.9381015e-06 11:0.029828435 12:0.99997056 13:4.9381019e-06 14:4.9381019e-06 15:4.9381019e-06 16:4.9381019e-06 17:4.9381019e-06 18:4.9381019e-06 19:0.00020117186 20:4.9381015e-06 21:4.9381015e-06 22:4.9381015e-06 23:4.9381015e-06 24:0.9999705 25:4.9381015e-06 26:4.9381015e-06 27:0.00020120246 28:0.00016977279 29:0.00025735295 
3 1:0.1195006 2:0.11089727 3:0.70823932 4:0.9979952 5:0.0019801788 6:4.9381015e-06 7:4.9381015e-06 8:4.9381015e-06 9:4.9381015e-06 10:4.9381015e-06 11:0.0075184521 12:0.99997056 13:4.9381019e-06 14:4.9381019e-06 15:4.9381019e-06 16:4.9381019e-06 17:4.9381019e-06 18:4.9381019e-06 19:0.00020117186 20:4.9381015e-06 21:4.9381015e-06 22:4.9381015e-06 23:4.9381015e-06 24:0.9999705 25:4.9381015e-06 26:4.9381015e-06 27:0.00020120246 28:0.00013318103 29:0.00025735295 
3 1:0.11553717 2:0.12036743 3:0.71236068 4:0.9999705 5:4.9381015e-06 6:4.9381015e-06 7:4.9381015e-06 8:4.9381015e-06 9:4.9381015e-06 10:4.9381015e-06 11:0.00020120246 12:0.99997056 13:4.9381019e-06 14:4.9381019e-06 15:4.9381019e-06 16:4.9381019e-06 17:4.9381019e-06 18:4.9381019e-06 19:0.00020117186 20:4.9381015e-06 21:4.9381015e-06 22:4.9381015e-06 23:4.9381015e-06 24:0.9999705 25:4.9381015e-06 26:4.9381015e-06 27:0.00020120246 28:9.5858399e-05 29:0.00025735295 
3 1:0.11690793 2:0.13303198 3:0.70749098 4:0.9999705 5:4.9381015e-06 6:4.9381015e-06 7:4.9381015e-06 8:4.9381015e-06 9:4.9381015e-06 10:4.9381015e-06 11:0.00020120246 12:0.9254052 13:0.074570276 14:4.9381019e-06 15:4.9381019e-06 16:4.9381019e-06 17:4.9381019e-06 18:4.9381019e-06 19:0.13650574 20:4.9381015e-06 21:4.9381015e-06 22:4.9381015e-06 23:4.9381015e-06 24:0.9999705 25:4.9381015e-06 26:4.9381015e-06 27:0.00020120246 28:9.8887409e-05 29:0.00025735295 
3 1:0.13036737 2:0.20845555 3:0.4966031 4:0.94367611 5:0.056299292 6:4.9381015e-06 7:4.9381015e-06 8:4.9381015e-06 9:4.9381015e-06 10:4.9381015e-06 11:0.1115087 12:0.00049874827 13:0.93281239 14:0.066669315 15:4.9381019e-06 16:4.9381019e-06 17:4.9381019e-06 18:4.9381019e-06 19:0.12819345 20:4.9381015e-06 21:4.9381015e-06 22:0.39999115 23:0.47159362 24:0.12839557 25:4.9381015e-06 26:4.9381015e-06 27:0.50607461 28:0.01187414 29:0.00025735295 
3 1:0.11821008 2:0.10504662 3:0.66481364 4:0.98614377 5:0.013831622 6:4.9381015e-06 7:4.9381015e-06 8:4.9381015e-06 9:4.9381015e-06 10:4.9381015e-06 11:0.037654277 12:0.98614389 13:0.013831624 14:4.9381019e-06 15:4.9381019e-06 16:4.9381019e-06 17:4.9381019e-06 18:4.9381019e-06 19:0.037654221 20:4.9381015e-06 21:4.9381015e-06 22:4.9381015e-06 23:0.022226393 24:0.97774905 25:4.9381015e-06 26:4.9381015e-06 27:0.054939549 28:0.00053457631 29:0.00033088238 
3 1:0.12403645 2:0.10823125 3:0.67112803 4:0.96639138 5:0.033584028 6:4.9381015e-06 7:4.9381015e-06 8:4.9381015e-06 9:4.9381015e-06 10:4.9381015e-06 11:0.07570409 12:0.99997056 13:4.9381019e-06 14:4.9381019e-06 15:4.9381019e-06 16:4.9381019e-06 17:4.9381019e-06 18:4.9381019e-06 19:0.00020117186 20:4.9381015e-06 21:4.9381015e-06 22:4.9381015e-06 23:4.9381015e-06 24:0.9999705 25:4.9381015e-06 26:4.9381015e-06 27:0.00020120246 28:3.5440331e-05 29:0.00033088238 
3 1:0.11737298 2:0.12276982 3:0.68120348 4:0.99947667 5:0.00049874821 6:4.9381015e-06 7:4.9381015e-06 8:4.9381015e-06 9:4.9381015e-06 10:4.9381015e-06 11:0.0023726993 12:0.98318106 13:0.016794486 14:4.9381019e-06 15:4.9381019e-06 16:4.9381019e-06 17:4.9381019e-06 18:4.9381019e-06 19:0.043996114 20:4.9381015e-06 21:4.9381015e-06 22:4.9381015e-06 23:4.9381015e-06 24:0.9999705 25:4.9381015e-06 26:4.9381015e-06 27:0.00020120246 28:4.7396898e-05 29:0.00033088238 
3 1:0.11631332 2:0.12738547 3:0.68518066 4:0.9999705 5:4.9381015e-06 6:4.9381015e-06 7:4.9381015e-06 8:4.9381015e-06 9:4.9381015e-06 10:4.9381015e-06 11:0.00020120246 12:0.97774911 13:0.022226397 14:4.9381019e-06 15:4.9381019e-06 16:4.9381019e-06 17:4.9381019e-06 18:4.9381019e-06 19:0.054939523 20:4.9381015e-06 21:4.9381015e-06 22:4.9381015e-06 23:4.9381015e-06 24:0.9999705 25:4.9381015e-06 26:4.9381015e-06 27:0.00020120246 28:3.73529e-05 29:0.00033088238 
3 1:0.11814416 2:0.13634722 3:0.67781514 4:0.9999705 5:4.9381015e-06 6:4.9381015e-06 7:4.9381015e-06 8:4.9381015e-06 9:4.9381015e-06 10:4.9381015e-06 11:0.00020120246 12:0.74220169 13:0.25777385 14:4.9381019e-06 15:4.9381019e-06 16:4.9381019e-06 17:4.9381019e-06 18:4.9381019e-06 19:0.29345357 20:4.9381015e-06 21:4.9381015e-06 22:4.9381015e-06 23:4.9381015e-06 24:0.9999705 25:4.9381015e-06 26:4.9381015e-06 27:0.00020120246 28:8.827493e-05 29:0.00033088238 
3 1:0.13621292 2:0.21676786 3:0.46701401 4:0.73578203 5:0.26419336 6:4.9381015e-06 7:4.9381015e-06 8:4.9381015e-06 9:4.9381015e-06 10:4.9381015e-06 11:0.2968874 12:0.0029677993 13:0.74713975 14:0.24987289 15:4.9381019e-06 16:4.9381019e-06 17:4.9381019e-06 18:4.9381019e-06 19:0.29900232 20:4.9381015e-06 21:0.10913698 22:0.28147674 23:0.60936666 24:4.9381015e-06 25:4.9381015e-06 26:4.9381015e-06 27:0.46285108 28:0.01359301 29:0.00033088238 
3 1:0.11461294 2:0.19365184 3:0.72656304 4:0.9999705 5:4.9381015e-06 6:4.9381015e-06 7:4.9381015e-06 8:4.9381015e-06 9:4.9381015e-06 10:4.9381015e-06 11:0.00020120246 12:0.055805489 13:0.94417 14:4.9381019e-06 15:4.9381019e-06 16:4.9381019e-06 17:4.9381019e-06 18:4.9381019e-06 19:0.11079209 20:4.938101e-06 21:4.938101e-06 22:4.938101e-06 23:0.27802002 24:0.15061702 25:0.57134318 26:4.938101e-06 27:0.49388841 28:0.014492466 29:0.00033088238 
3 1:0.13183822 2:0.11878149 3:0.63071114 4:0.81182879 5:0.18814661 6:4.9381015e-06 7:4.9381015e-06 8:4.9381015e-06 9:4.9381015e-06 10:4.9381015e-06 11:0.24864744 12:0.7673859 13:0.22024426 14:0.008399711 15:0.0039554192 16:4.938101e-06 17:4.938101e-06 18:4.938101e-06 19:0.30763119 20:4.9381015e-06 21:4.9381015e-06 22:0.0088935206 23:0.24839143 24:0.74269539 25:4.9381015e-06 26:4.9381015e-06 27:0.31302392 28:0.0034382131 29:0.00040441175 
3 1:0.13450076 2:0.1226106 3:0.64375907 4:0.85725933 5:0.14271607 6:4.9381015e-06 7:4.9381015e-06 8:4.9381015e-06 9:4.9381015e-06 10:4.9381015e-06 11:0.21079391 12:0.79257029 13:0.19407234 14:0.013337813 15:4.9381019e-06 16:4.9381019e-06 17:4.9381019e-06 18:4.9381019e-06 19:0.2879172 20:4.9381015e-06 21:4.9381015e-06 22:4.9381015e-06 23:0.18962803 24:0.81034738 25:4.9381015e-06 26:4.9381015e-06 27:0.24975678 28:0.002585948 29:0.00040441175 
3 1:0.12216237 2:0.13274552 3:0.661668 4:0.9979952 5:0.0019801788 6:4.9381015e-06 7:4.9381015e-06 8:4.9381015e-06 9:4.9381015e-06 10:4.9381015e-06 11:0.0075184521 12:0.82466799 13:0.17036945 14:0.0044492297 15:0.00049874827 16:4.9381019e-06 17:4.9381019e-06 18:4.9381019e-06 19:0.25106928 20:4.9381015e-06 21:4.9381015e-06 22:4.9381015e-06 23:0.12543271 24:0.87454271 25:4.9381015e-06 26:4.9381015e-06 27:0.19421981 28:0.0018421029 29:0.00040441175 
3 1:0.11846776 2:0.13409509 3:0.66762829 4:0.9999705 5:4.9381015e-06 6:4.9381015e-06 7:4.9381015e-06 8:4.9381015e-06 9:4.9381015e-06 10:4.9381015e-06 11:0.00020120246 12:0.84293896 13:0.15456752 14:0.002473989 15:4.9381019e-06 16:4.9381019e-06 17:4.9381019e-06 18:4.9381019e-06 19:0.23007846 20:4.9381015e-06 21:4.9381015e-06 22:4.9381015e-06 23:0.049879763 24:0.95009565 25:4.9381015e-06 26:4.9381015e-06 27:0.10200167 28:0.00070647703 29:0.00040441175 
3 1:0.12315802 2:0.13445422 3:0.65942854 4:0.98960048 5:0.010374951 6:4.9381015e-06 7:4.9381015e-06 8:4.9381015e-06 9:4.9381015e-06 10:4.9381015e-06 11:0.029828435 12:0.8562718 13:0.1437037 14:4.9381019e-06 15:4.9381019e-06 16:4.9381019e-06 17:4.9381019e-06 18:4.9381019e-06 19:0.2117018 20:4.9381015e-06 21:4.9381015e-06 22:4.9381015e-06 23:0.031608786 24:0.96836662 25:4.9381015e-06 26:4.9381015e-06 27:0.072262444 28:0.00049041957 29:0.00040441175 
3 1:0.1334836 2:0.17162834 3:0.52979183 4:0.81429785 5:0.18567754 6:4.9381015e-06 7:4.9381015e-06 8:4.9381015e-06 9:4.9381015e-06 10:4.9381015e-06 11:0.246782 12:0.082471244 13:0.90713423 14:0.010374952 15:4.9381019e-06 16:4.9381019e-06 17:4.9381019e-06 18:4.9381019e-06 19:0.17567232 20:4.9381015e-06 21:4.9381015e-06 22:0.071113601 23:0.92886186 24:4.9381015e-06 25:4.9381015e-06 26:4.9381015e-06 27:0.13198681 28:0.0012688369 29:0.00047794118 
3 1:0.13314345 2:0.17372702 3:0.5389998 4:0.85627174 5:0.1437037 6:4.9381015e-06 7:4.9381015e-06 8:4.9381015e-06 9:4.9381015e-06 10:4.9381015e-06 11:0.21170183 12:0.020744966 13:0.97774911 14:0.0014863686 15:4.9381019e-06 16:4.9381019e-06 17:4.9381019e-06 18:4.9381019e-06 19:0.057719678 20:4.9381015e-06 21:4.9381015e-06 22:0.022720205 23:0.97725523 24:4.9381015e-06 25:4.9381015e-06 26:4.9381015e-06 27:0.055896949 28:0.00057568774 29:0.00047794118 
3 1:0.13116626 2:0.18279442 3:0.53684121 4:0.89676416 5:0.10321126 6:4.9381015e-06 7:4.9381015e-06 8:4.9381015e-06 9:4.9381015e-06 10:4.9381015e-06 11:0.17082275 12:4.9381019e-06 13:0.99157584 14:0.0083997119 15:4.9381019e-06 16:4.9381019e-06 17:4.9381019e-06 18:4.9381019e-06 19:0.025097337 20:4.9381015e-06 21:4.9381015e-06 22:0.020744964 23:0.9792304 24:4.9381015e-06 25:4.9381015e-06 26:4.9381015e-06 27:0.052032299 28:0.00053814839 29:0.00047794118 
3 1:0.13487783 2:0.18896478 3:0.5176422 4:0.7649169 5:0.23505856 6:4.9381015e-06 7:4.9381015e-06 8:4.9381015e-06 9:4.9381015e-06 10:4.9381015e-06 11:0.28040162 12:0.02765831 13:0.95454001 14:0.011856383 15:0.0059306603 16:4.9381019e-06 17:4.9381019e-06 18:4.9381019e-06 19:0.11656081 20:4.9381015e-06 21:0.019263534 22:0.07308884 23:0.90762794 24:4.9381015e-06 25:4.9381015e-06 26:4.9381015e-06 27:0.18268967 28:0.0028792587 29:0.00047794118 
3 1:0.13714357 2:0.19387619 3:0.51399893 4:0.75109017 5:0.24888526 6:4.9381015e-06 7:4.9381015e-06 8:4.9381015e-06 9:4.9381015e-06 10:4.9381015e-06 11:0.28851604 12:0.032596406 13:0.93725657 14:0.025683066 15:0.0044492292 16:4.938101e-06 17:4.938101e-06 18:4.938101e-06 19:0.14936519 20:4.9381015e-06 21:0.027164495 22:0.083952665 23:0.88886321 24:4.9381015e-06 25:4.9381015e-06 26:4.9381015e-06 27:0.21116285 28:0.0035913421 29:0.00047794118 
3 1:0.13570791 2:0.2159137 3:0.4821777 4:0.72047395 5:0.27950147 6:4.9381015e-06 7:4.9381015e-06 8:4.9381015e-06 9:4.9381015e-06 10:4.9381015e-06 11:0.30463892 12:0.033584028 13:0.8498522 14:0.082471229 15:0.034077838 16:4.938101e-06 17:4.938101e-06 18:4.938101e-06 19:0.29465067 20:4.9381015e-06 21:0.038028318 22:0.2464162 23:0.71553588 24:4.9381015e-06 25:4.9381015e-06 26:4.9381015e-06 27:0.36447835 28:0.00582234 29:0.00047794118 
3 1:0.1362675 2:0.26650557 3:0.29476172 4:0.71454823 5:0.28542718 6:4.9381015e-06 7:4.9381015e-06 8:4.9381015e-06 9:4.9381015e-06 10:4.9381015e-06 11:0.30747783 12:0.083952673 13:0.39307785 14:0.49727181 15:0.025683068 16:4.9381019e-06 17:4.9381019e-06 18:4.9381019e-06 19:0.522461 20:4.9381015e-06 21:0.64393336 22:0.24493477 23:0.097285531 24:0.013831622 25:4.9381015e-06 26:4.9381015e-06 27:0.46974206 28:0.0097957123 29:0.00047794118 
3 1:0.10417763 2:0.17355934 3:0.59577554 4:0.99206936 5:0.0074120895 6:4.938101e-06 7:4.938101e-06 8:4.938101e-06 9:4.938101e-06 10:0.00049874815 11:0.024814241 12:0.24197194 13:0.75800353 14:4.9381019e-06 15:4.9381019e-06 16:4.9381019e-06 17:4.9381019e-06 18:4.9381019e-06 19:0.28452581 20:4.9381015e-06 21:4.9381015e-06 22:0.023214014 23:0.53381366 24:0.44295263 25:4.9381015e-06 26:4.9381015e-06 27:0.4025715 28:0.0061046598 29:3.6764708e-05 
3 1:0.10675178 2:0.14297067 3:0.66026086 4:0.97824275 5:0.020251151 6:4.938101e-06 7:4.938101e-06 8:4.938101e-06 9:4.938101e-06 10:0.0014863684 11:0.056738887 12:0.57282478 13:0.42715076 14:4.9381019e-06 15:4.9381019e-06 16:4.9381019e-06 17:4.9381019e-06 18:4.9381019e-06 19:0.35089377 20:4.938101e-06 21:0.0019801785 22:0.0093873292 23:0.30320433 24:0.51850551 25:0.16691275 26:4.938101e-06 27:0.54343551 28:0.0075695422 29:3.6764708e-05 
3 1:0.12745912 2:0.11595707 3:0.71399987 4:0.90170211 5:0.078520745 6:4.938101e-06 7:4.938101e-06 8:4.938101e-06 9:0.01185638 10:0.0079058995 11:0.19739665 12:0.7871384 13:0.21036808 14:0.002473989 15:4.9381019e-06 16:4.9381019e-06 17:4.9381019e-06 18:4.9381019e-06 19:0.27310333 20:4.938101e-06 21:4.938101e-06 22:0.0049430388 23:0.090865992 24:0.41924971 25:0.48097596 26:0.0039554187 27:0.50499499 28:0.0083315829 29:3.6764708e-05 
3 1:0.10487927 2:0.22875431 3:0.22161239 4:0.99305713 5:0.0069182804 6:4.9381015e-06 7:4.9381015e-06 8:4.9381015e-06 9:4.9381015e-06 10:4.9381015e-06 11:0.021393105 12:0.05037358 13:0.87898707 14:0.070619799 15:4.9381019e-06 16:4.9381019e-06 17:4.9381019e-06 18:4.9381019e-06 19:0.23193377 20:0.0044492297 21:0.97132951 22:0.024201635 23:4.9381015e-06 24:4.9381015e-06 25:4.9381015e-06 26:4.9381015e-06 27:0.073308587 28:0.00065522845 29:3.6764708e-05 
3 1:0.10544711 2:0.21091926 3:0.37515312 4:0.99453855 5:0.0054368498 6:4.9381015e-06 7:4.9381015e-06 8:4.9381015e-06 9:4.9381015e-06 10:4.9381015e-06 11:0.017523389 12:0.11160604 13:0.75750983 14:0.13086464 15:4.9381019e-06 16:4.9381019e-06 17:4.9381019e-06 18:4.9381019e-06 19:0.3707616 20:0.0093873302 21:0.42171881 22:0.17283849 23:0.39604068 24:4.9381015e-06 25:4.9381015e-06 26:4.9381015e-06 27:0.55416334 28:0.021202033 29:3.6764708e-05 
3 1:0.1123309 2:0.24008852 3:0.47548941 4:0.9999705 5:4.9381015e-06 6:4.9381015e-06 7:4.9381015e-06 8:4.9381015e-06 9:4.9381015e-06 10:4.9381015e-06 11:0.00020120246 12:4.938101e-06 13:0.93528128 14:0.060743582 15:0.0014863685 16:0.0019801788 17:0.00049874821 18:4.938101e-06 19:0.13291633 20:4.9381015e-06 21:0.0024739888 22:0.32196915 23:0.67553717 24:4.9381015e-06 25:4.9381015e-06 26:4.9381015e-06 27:0.33144128 28:0.0015092082 29:3.6764708e-05 
3 1:0.10506911 2:0.29550752 3:0.44042787 4:0.9999705 5:4.9381015e-06 6:4.9381015e-06 7:4.9381015e-06 8:4.9381015e-06 9:4.9381015e-06 10:4.9381015e-06 11:0.00020120246 12:4.9381019e-06 13:0.42468169 14:0.57529378 15:4.9381019e-06 16:4.9381019e-06 17:4.9381019e-06 18:4.9381019e-06 19:0.35051504 20:4.9381015e-06 21:4.9381015e-06 22:0.9333061 23:0.066669308 24:4.9381015e-06 25:4.9381015e-06 26:4.9381015e-06 27:0.12603951 28:0.00048881426 29:3.6764708e-05 
3 1:0.11086254 2:0.19109091 3:0.46393085 4:0.98663747 5:0.0054368488 6:4.938101e-06 7:4.938101e-06 8:0.00049874815 9:0.0019801785 10:0.0054368488 11:0.044304699 12:0.29826626 13:0.6014657 14:0.052348815 15:0.047904521 16:4.938101e-06 17:4.938101e-06 18:4.938101e-06 19:0.49682188 20:4.9381015e-06 21:0.0014863685 22:0.47159362 23:0.52048087 24:0.0064244699 25:4.9381015e-06 26:4.9381015e-06 27:0.37855315 28:0.0047145872 29:3.6764708e-05 
3 1:0.068393707 2:0.26027009 3:0.51789415 4:0.98169953 5:0.018275913 6:4.9381015e-06 7:4.9381015e-06 8:4.9381015e-06 9:4.9381015e-06 10:4.9381015e-06 11:0.047061268 12:0.10172984 13:0.46665558 14:0.43159506 15:4.9381019e-06 16:4.9381019e-06 17:4.9381019e-06 18:4.9381019e-06 19:0.48874891 20:4.938101e-06 21:4.938101e-06 22:0.60442847 23:0.28147671 24:0.028645923 25:0.06716311 26:0.018275911 27:0.52292281 28:0.014761319 29:0.00011029412 
3 1:0.07124383 2:0.27618128 3:0.48775065 4:0.9999705 5:4.9381015e-06 6:4.9381015e-06 7:4.9381015e-06 8:4.9381015e-06 9:4.9381015e-06 10:4.9381015e-06 11:0.00020120246 12:4.9381019e-06 13:0.54171473 14:0.45826077 15:4.9381019e-06 16:4.9381019e-06 17:4.9381019e-06 18:4.9381019e-06 19:0.35457438 20:4.9381015e-06 21:4.9381015e-06 22:0.59652758 23:0.40344784 24:4.9381015e-06 25:4.9381015e-06 26:4.9381015e-06 27:0.34672639 28:0.0013298847 29:0.00011029412 
3 1:0.097499654 2:0.21862015 3:0.54840106 4:0.9999705 5:4.9381015e-06 6:4.9381015e-06 7:4.9381015e-06 8:4.9381015e-06 9:4.9381015e-06 10:4.9381015e-06 11:0.00020120246 12:0.040003564 13:0.84837085 14:0.11160604 15:4.9381019e-06 16:4.9381019e-06 17:4.9381019e-06 18:4.9381019e-06 19:0.26375094 20:4.9381015e-06 21:4.9381015e-06 22:0.20147948 23:0.57134324 24:0.22715761 25:4.9381015e-06 26:4.9381015e-06 27:0.50337166 28:0.0058264509 29:0.00011029412 
3 1:0.10700765 2:0.19267961 3:0.49313015 4:0.98071188 5:0.019263534 6:4.9381015e-06 7:4.9381015e-06 8:4.9381015e-06 9:4.9381015e-06 10:4.9381015e-06 11:0.049069427 12:0.15160467 13:0.81972986 14:0.028645929 15:4.9381019e-06 16:4.9381019e-06 17:4.9381019e-06 18:4.9381019e-06 19:0.28313652 20:4.9381015e-06 21:0.023707826 22:0.3738192 23:0.43653309 24:0.14419749 25:0.012844002 26:0.0088935206 27:0.61443019 28:0.013492399 29:0.00011029412 
3 1:0.16291212 2:0.24420115 3:0.39202908 4:0.72096765 5:0.15259226 6:0.034571644 7:0.014819241 8:0.071113594 9:0.0034616087 10:0.0024739886 11:0.4748078 12:0.40739828 13:0.05333643 14:0.3832016 15:0.13629654 16:0.015313053 17:0.0044492292 18:4.938101e-06 19:0.64211875 20:0.026670685 21:0.30567342 22:0.3096239 23:0.3580173 24:4.9381015e-06 25:4.9381015e-06 26:4.9381015e-06 27:0.61147964 28:0.013273563 29:0.00011029412 
3 1:0.11000821 2:0.32552752 3:0.34032559 4:0.99552619 5:0.0044492297 6:4.9381015e-06 7:4.9381015e-06 8:4.9381015e-06 9:4.9381015e-06 10:4.9381015e-06 11:0.014830157 12:0.033584028 13:0.3693749 14:0.39949733 15:0.18419611 16:0.013337811 17:4.938101e-06 18:4.938101e-06 19:0.62578702 20:4.9381015e-06 21:0.39949733 22:0.57825661 23:0.022226393 24:4.9381015e-06 25:4.9381015e-06 26:4.9381015e-06 27:0.39474404 28:0.0028251559 29:0.00011029412 
3 1:0.10103879 2:0.3250519 3:0.32879293 4:0.9999705 5:4.9381015e-06 6:4.9381015e-06 7:4.9381015e-06 8:4.9381015e-06 9:4.9381015e-06 10:4.9381015e-06 11:0.00020120246 12:0.037040696 13:0.41085497 14:0.31456199 15:0.22616997 16:0.011362571 17:4.938101e-06 18:4.938101e-06 19:0.63648498 20:4.9381015e-06 21:0.51159221 22:0.48097602 23:0.00741209 24:4.9381015e-06 25:4.9381015e-06 26:4.9381015e-06 27:0.37592825 28:0.0030019409 29:0.00011029412 
2.916482387735038 1:0.11023014 2:0.41858509 3:0.41226396 4:0.99552619 5:0.0044492297 6:4.9381015e-06 7:4.9381015e-06 8:4.9381015e-06 9:4.9381015e-06 10:4.9381015e-06 11:0.014830157 12:0.037040696 13:0.088890761 14:0.31209293 15:0.54368991 16:0.017288292 17:0.00099255831 18:4.938101e-06 19:0.56992745 20:4.938101e-06 21:0.14419748 22:0.68887001 23:0.10024839 24:0.053336427 25:0.01333781 26:4.938101e-06 27:0.50393516 28:0.0099334717 29:0.00011029412 
3 1:0.11612279 2:0.41495094 3:0.59685743 4:0.9999705 5:4.9381015e-06 6:4.9381015e-06 7:4.9381015e-06 8:4.9381015e-06 9:4.9381015e-06 10:4.9381015e-06 11:0.00020120246 12:4.938101e-06 13:0.019757343 14:0.61726761 15:0.3441906 16:0.018769724 17:4.938101e-06 18:4.938101e-06 19:0.41997558 20:4.9381015e-06 21:0.0014863685 22:0.26024288 23:0.3782635 24:0.29431576 25:0.065681688 26:4.9381015e-06 27:0.65094566 28:0.013985272 29:0.00011029412 
3 1:0.071904227 2:0.37674201 3:0.44451222 4:0.9999705 5:4.9381015e-06 6:4.9381015e-06 7:4.9381015e-06 8:4.9381015e-06 9:4.9381015e-06 10:4.9381015e-06 11:0.00020120246 12:4.938101e-06 13:0.00049874821 14:0.85874081 15:0.14074083 16:4.938101e-06 17:4.938101e-06 18:4.938101e-06 19:0.21109875 20:4.9381015e-06 21:4.9381015e-06 22:0.9999705 23:4.9381015e-06 24:4.9381015e-06 25:4.9381015e-06 26:4.9381015e-06 27:0.00020120246 28:0.00012599198 29:0.00018382353 
3 1:0.31827265 2:0.025603486 3:0.44350392 4:0.41233641 5:0.23505856 6:0.042966418 7:0.025683066 8:0.15259227 9:0.053830244 10:0.077533126 11:0.81059015 12:0.99997056 13:4.9381019e-06 14:4.9381019e-06 15:4.9381019e-06 16:4.9381019e-06 17:4.9381019e-06 18:4.9381019e-06 19:0.00020117186 20:4.9381015e-06 21:4.9381015e-06 22:0.4755441 23:0.52443129 24:4.9381015e-06 25:4.9381015e-06 26:4.9381015e-06 27:0.35575175 28:0.0023247034 29:0.00018382353 
0.8517359483943764 1:0.15175155 2:0.30289817 3:0.41580877 4:0.80096489 5:0.075064071 6:0.040003557 7:0.0074120895 8:0.053830236 9:0.0039554187 10:0.018769721 11:0.40651622 12:0.35110399 13:0.024695449 14:0.10074222 15:0.5234437 16:4.9381019e-06 17:4.9381019e-06 18:4.9381019e-06 19:0.52887046 20:4.9381015e-06 21:0.0044492297 22:0.71405441 23:0.28147674 24:4.9381015e-06 25:4.9381015e-06 26:4.9381015e-06 27:0.31946713 28:0.0060458863 29:0.00018382353 
3 1:0.08063636 2:0.50381511 3:0.35921437 4:0.9999705 5:4.9381015e-06 6:4.9381015e-06 7:4.9381015e-06 8:4.9381015e-06 9:4.9381015e-06 10:4.9381015e-06 11:0.00020120246 12:4.938101e-06 13:4.938101e-06 14:0.0029677988 15:0.96540374 16:0.031608786 17:4.938101e-06 18:4.938101e-06 19:0.082579039 20:4.9381015e-06 21:0.63356334 22:0.36641207 23:4.9381015e-06 24:4.9381015e-06 25:4.9381015e-06 26:4.9381015e-06 27:0.33780256 28:0.00013151034 29:0.00018382353 
2.711778581655272 1:0.26790577 2:0.19756456 3:0.36741135 4:0.56887418 5:0.16987561 6:0.0034616087 7:0.015806861 8:0.1496294 9:0.044447847 10:0.047904518 11:0.65541899 12:0.37184399 13:0.41875595 14:0.15456751 15:0.034077838 16:0.018275913 17:0.0024739888 18:4.938101e-06 19:0.62910062 20:0.04494166 21:0.30369815 22:0.42912593 23:0.17777659 24:0.04444785 25:4.9381015e-06 26:4.9381015e-06 27:0.673186 28:0.014529971 29:0.00025735295 
3 1:0.12193298 2:0.17145316 3:0.26465002 4:0.88392508 5:0.11605033 6:4.9381015e-06 7:4.9381015e-06 8:4.9381015e-06 9:4.9381015e-06 10:4.9381015e-06 11:0.18464588 12:0.21777523 13:0.78121269 14:0.00099255843 15:4.9381019e-06 16:4.9381019e-06 17:4.9381019e-06 18:4.9381019e-06 19:0.27336594 20:4.9381015e-06 21:0.9900943 22:0.0098811407 23:4.9381015e-06 24:4.9381015e-06 25:4.9381015e-06 26:4.9381015e-06 27:0.028665574 28:0.00037777479 29:0.00033088238 
3 1:0.11371041 2:0.20548335 3:0.20437545 4:0.96935427 5:0.030621165 6:4.9381015e-06 7:4.9381015e-06 8:4.9381015e-06 9:4.9381015e-06 10:4.9381015e-06 11:0.070517279 12:0.061731212 13:0.92342997 14:0.014819244 15:4.9381019e-06 16:4.9381019e-06 17:4.9381019e-06 18:4.9381019e-06 19:0.15835136 20:4.9381015e-06 21:0.9999705 22:4.9381015e-06 23:4.9381015e-06 24:4.9381015e-06 25:4.9381015e-06 26:4.9381015e-06 27:0.00020120246 28:0.00048406821 29:0.00040441175 
3 1:0.073927842 2:0.30733961 3:0.34537214 4:0.9999705 5:4.9381015e-06 6:4.9381015e-06 7:4.9381015e-06 8:4.9381015e-06 9:4.9381015e-06 10:4.9381015e-06 11:0.00020120246 12:4.938101e-06 13:0.40443543 14:0.55998564 15:0.035559267 16:4.938101e-06 17:4.938101e-06 18:4.938101e-06 19:0.41610947 20:4.9381015e-06 21:0.47900078 22:0.50319743 23:0.017782103 24:4.9381015e-06 25:4.9381015e-06 26:4.9381015e-06 27:0.39572617 28:0.0037145924 29:0.00040441175 
3 1:0.12006095 2:0.16746899 3:0.17508018 4:0.90466511 5:0.095310293 6:4.9381015e-06 7:4.9381015e-06 8:4.9381015e-06 9:4.9381015e-06 10:4.9381015e-06 11:0.16186698 12:0.28789628 13:0.71109164 14:0.00099255843 15:4.9381019e-06 16:4.9381019e-06 17:4.9381019e-06 18:4.9381019e-06 19:0.31246564 20:0.033090215 21:0.96688515 22:4.9381015e-06 23:4.9381015e-06 24:4.9381015e-06 25:4.9381015e-06 26:4.9381015e-06 27:0.074849628 28:0.00012537367 29:0.00047794118 
3 1:0.10315402 2:0.29804772 3:0.26327488 4:0.96244079 5:0.035559267 6:4.938101e-06 7:4.938101e-06 8:4.938101e-06 9:4.938101e-06 10:0.0019801785 11:0.086364418 12:0.054324053 13:0.43455786 14:0.44344643 15:0.057286914 16:0.0098811407 17:0.00049874821 18:4.938101e-06 19:0.56236142 20:0.04494166 21:0.69232672 22:0.26271194 23:4.9381015e-06 24:4.9381015e-06 25:4.9381015e-06 26:4.9381015e-06 27:0.38306022 28:0.0041540675 29:0.00047794118 
3 1:0.19025058 2:0.23550537 3:0.42047197 4:0.82417393 5:4.938101e-06 6:4.938101e-06 7:4.938101e-06 8:0.035065453 9:0.034077831 10:0.10666791 11:0.32422972 12:0.30221677 13:0.29184678 14:0.38468307 15:0.021238776 16:4.9381019e-06 17:4.9381019e-06 18:4.9381019e-06 19:0.6015414 20:4.9381015e-06 21:0.021732584 22:0.84343266 23:0.13481511 24:4.9381015e-06 25:4.9381015e-06 26:4.9381015e-06 27:0.25552016 28:0.0026943719 29:0.00055147061 
3 1:0.055446405 2:0.27041301 3:0.39195341 4:0.98910654 5:4.938101e-06 6:4.938101e-06 7:4.938101e-06 8:4.938101e-06 9:4.938101e-06 10:0.010868761 11:0.030979149 12:0.10172983 13:0.41233641 14:0.48245746 15:0.0034616091 16:4.938101e-06 17:4.938101e-06 18:4.938101e-06 19:0.49808666 20:4.9381015e-06 21:0.092347436 22:0.86911076 23:0.038522128 24:4.9381015e-06 25:4.9381015e-06 26:4.9381015e-06 27:0.24030006 28:0.0024058721 29:0.00055147061 
3 1:0.10961115 2:0.25767398 3:0.50408596 4:0.93083692 5:4.938101e-06 6:4.938101e-06 7:4.938101e-06 8:0.015313051 9:0.015806861 10:0.038028315 11:0.16484618 12:0.23653999 13:0.34122774 14:0.28839007 15:0.13234605 16:0.0014863685 17:4.938101e-06 18:4.938101e-06 19:0.69064754 20:4.9381015e-06 21:0.082471237 22:0.43060738 23:0.30863628 24:0.1782704 25:4.9381015e-06 26:4.9381015e-06 27:0.63673711 28:0.014178214 29:0.00055147061 
3 1:0.096657775 2:0.19865392 3:0.38985032 4:0.97379839 5:4.938101e-06 6:4.938101e-06 7:4.938101e-06 8:0.014325431 9:0.0034616087 10:0.0083997101 11:0.075347014 12:0.158518 13:0.73430067 14:0.099754594 15:0.0074120909 16:4.9381019e-06 17:4.9381019e-06 18:4.9381019e-06 19:0.40352553 20:0.014819242 21:0.13481511 22:0.66467339 23:0.18271469 24:0.0029677988 25:4.9381015e-06 26:4.9381015e-06 27:0.478971 28:0.0071387393 29:0.00055147061 
3 1:0.1462774 2:0.19183487 3:0.38702402 4:0.88688785 5:0.0024739886 6:4.938101e-06 7:0.00049874815 8:0.043460228 9:0.028645923 10:0.038028315 11:0.25055113 12:0.39554685 13:0.36295536 14:0.21135567 15:0.027164495 16:0.0029677988 17:4.938101e-06 18:4.938101e-06 19:0.60565293 20:0.019263534 21:0.18518375 22:0.61232954 23:0.13827178 24:0.033584028 25:0.011362571 26:4.9381015e-06 27:0.57926655 28:0.01126498 29:0.00055147061 
3 1:0.096870504 2:0.23043327 3:0.2673969 4:0.99750137 5:0.0024739888 6:4.9381015e-06 7:4.9381015e-06 8:4.9381015e-06 9:4.9381015e-06 10:4.9381015e-06 11:0.0090681873 12:0.11407506 13:0.72146142 14:0.13530889 15:0.018275911 16:0.0079058995 17:0.0029677986 18:4.9381006e-06 19:0.45355198 20:0.057780724 21:0.70615345 22:0.23604618 23:4.9381015e-06 24:4.9381015e-06 25:4.9381015e-06 26:4.9381015e-06 27:0.38617054 28:0.0036969034 29:0.00055147061 
3 1:0.087478459 2:0.27323964 3:0.34804684 4:0.9999705 5:4.9381015e-06 6:4.9381015e-06 7:4.9381015e-06 8:4.9381015e-06 9:4.9381015e-06 10:4.9381015e-06 11:0.00020120246 12:0.0039554192 13:0.62072426 14:0.34024009 15:0.033584028 16:0.0014863685 17:4.938101e-06 18:4.938101e-06 19:0.41547403 20:0.055311676 21:0.20542996 22:0.73923874 23:4.9381015e-06 24:4.9381015e-06 25:4.9381015e-06 26:4.9381015e-06 27:0.3642661 28:0.0047453349 29:0.00055147061 
3 1:0.078479543 2:0.29545054 3:0.34764773 4:0.9984889 5:4.938101e-06 6:4.938101e-06 7:4.938101e-06 8:4.938101e-06 9:4.938101e-06 10:0.0014863684 11:0.0059046941 12:0.02963355 13:0.4148055 14:0.50467891 15:0.049879767 16:0.00099255843 17:4.9381019e-06 18:4.9381019e-06 19:0.49895889 20:0.085434094 21:0.21135567 22:0.70319062 23:4.9381015e-06 24:4.9381015e-06 25:4.9381015e-06 26:4.9381015e-06 27:0.40418842 28:0.0065068826 29:0.00055147061 
3 1:0.094636239 2:0.19978717 3:0.29853606 4:0.97676128 5:0.00099255831 6:4.938101e-06 7:4.938101e-06 8:4.938101e-06 9:0.0019801785 10:0.020251151 11:0.062339649 12:0.28789628 13:0.57134336 14:0.14074084 15:4.9381019e-06 16:4.9381019e-06 17:4.9381019e-06 18:4.9381019e-06 19:0.49051818 20:0.1002484 21:0.30172294 22:0.59800905 23:4.9381015e-06 24:4.9381015e-06 25:4.9381015e-06 26:4.9381015e-06 27:0.46241978 28:0.0053242282 29:0.00055147061 
3 1:0.085882418 2:0.12320515 3:0.83400786 4:0.9999705 5:4.9381015e-06 6:4.9381015e-06 7:4.9381015e-06 8:4.9381015e-06 9:4.9381015e-06 10:4.9381015e-06 11:0.00020120246 12:0.97725528 13:0.022720208 14:4.9381019e-06 15:4.9381019e-06 16:4.9381019e-06 17:4.9381019e-06 18:4.9381019e-06 19:0.055896919 20:4.938101e-06 21:4.938101e-06 22:4.938101e-06 23:4.938101e-06 24:4.938101e-06 25:0.99997038 26:4.938101e-06 27:0.0002012637 28:0.00020819093 29:0.00011029412 
3 1:0.085590683 2:0.13890506 3:0.82840109 4:0.9999705 5:4.9381015e-06 6:4.9381015e-06 7:4.9381015e-06 8:4.9381015e-06 9:4.9381015e-06 10:4.9381015e-06 11:0.00020120246 12:0.67850012 13:0.32147536 14:4.9381019e-06 15:4.9381019e-06 16:4.9381019e-06 17:4.9381019e-06 18:4.9381019e-06 19:0.32287881 20:4.938101e-06 21:4.938101e-06 22:4.938101e-06 23:4.938101e-06 24:4.938101e-06 25:0.99997038 26:4.938101e-06 27:0.0002012637 28:0.00015214844 29:0.00011029412 
3 1:0.096197113 2:0.12065663 3:0.83772117 4:0.9999705 5:4.9381015e-06 6:4.9381015e-06 7:4.9381015e-06 8:4.9381015e-06 9:4.9381015e-06 10:4.9381015e-06 11:0.00020120246 12:0.99453866 13:0.0054368502 14:4.9381019e-06 15:4.9381019e-06 16:4.9381019e-06 17:4.9381019e-06 18:4.9381019e-06 19:0.01752333 20:4.938101e-06 21:4.938101e-06 22:4.938101e-06 23:4.938101e-06 24:4.938101e-06 25:0.99898273 26:0.00099255831 27:0.0042048194 28:0.00024619093 29:0.00025735295 
3 1:0.09509328 2:0.12853281 3:0.82465839 4:0.9999705 5:4.9381015e-06 6:4.9381015e-06 7:4.9381015e-06 8:4.9381015e-06 9:4.9381015e-06 10:4.9381015e-06 11:0.00020120246 12:0.96441627 13:0.035559271 14:4.9381019e-06 15:4.9381019e-06 16:4.9381019e-06 17:4.9381019e-06 18:4.9381019e-06 19:0.079083867 20:4.938101e-06 21:4.938101e-06 22:4.938101e-06 23:4.938101e-06 24:4.938101e-06 25:0.99997038 26:4.938101e-06 27:0.0002012637 28:0.00013123878 29:0.00025735295 
3 1:0.092789344 2:0.13864423 3:0.81909311 4:0.9999705 5:4.9381015e-06 6:4.9381015e-06 7:4.9381015e-06 8:4.9381015e-06 9:4.9381015e-06 10:4.9381015e-06 11:0.00020120246 12:0.757016 13:0.24295954 14:4.9381019e-06 15:4.9381019e-06 16:4.9381019e-06 17:4.9381019e-06 18:4.9381019e-06 19:0.28510392 20:4.938101e-06 21:4.938101e-06 22:4.938101e-06 23:4.938101e-06 24:0.0029677986 25:0.99700749 26:4.938101e-06 27:0.010566832 28:0.00014672766 29:0.00025735295 
3 1:0.10509405 2:0.11623777 3:0.8280496 4:0.9999705 5:4.9381015e-06 6:4.9381015e-06 7:4.9381015e-06 8:4.9381015e-06 9:4.9381015e-06 10:4.9381015e-06 11:0.00020120246 12:0.99997056 13:4.9381019e-06 14:4.9381019e-06 15:4.9381019e-06 16:4.9381019e-06 17:4.9381019e-06 18:4.9381019e-06 19:0.00020117186 20:4.938101e-06 21:4.938101e-06 22:4.938101e-06 23:4.938101e-06 24:4.938101e-06 25:0.99997038 26:4.938101e-06 27:0.0002012637 28:0.00013896052 29:0.00033088238 
3 1:0.10348865 2:0.12337717 3:0.82729828 4:0.9999705 5:4.9381015e-06 6:4.9381015e-06 7:4.9381015e-06 8:4.9381015e-06 9:4.9381015e-06 10:4.9381015e-06 11:0.00020120246 12:0.99552625 13:0.0044492297 14:4.9381019e-06 15:4.9381019e-06 16:4.9381019e-06 17:4.9381019e-06 18:4.9381019e-06 19:0.014830126 20:4.938101e-06 21:4.938101e-06 22:4.938101e-06 23:4.938101e-06 24:4.938101e-06 25:0.99997038 26:4.938101e-06 27:0.0002012637 28:0.00015945677 29:0.00033088238 
3 1:0.099753186 2:0.12691575 3:0.82155043 4:0.9999705 5:4.9381015e-06 6:4.9381015e-06 7:4.9381015e-06 8:4.9381015e-06 9:4.9381015e-06 10:4.9381015e-06 11:0.00020120246 12:0.99453866 13:0.0054368502 14:4.9381019e-06 15:4.9381019e-06 16:4.9381019e-06 17:4.9381019e-06 18:4.9381019e-06 19:0.01752333 20:4.938101e-06 21:4.938101e-06 22:4.938101e-06 23:4.938101e-06 24:4.938101e-06 25:0.99997038 26:4.938101e-06 27:0.0002012637 28:8.5531014e-05 29:0.00033088238 
3 1:0.096729845 2:0.13672355 3:0.81684995 4:0.9999705 5:4.9381015e-06 6:4.9381015e-06 7:4.9381015e-06 8:4.9381015e-06 9:4.9381015e-06 10:4.9381015e-06 11:0.00020120246 12:0.84244514 13:0.15753038 14:4.9381019e-06 15:4.9381019e-06 16:4.9381019e-06 17:4.9381019e-06 18:4.9381019e-06 19:0.22399488 20:4.938101e-06 21:4.938101e-06 22:4.938101e-06 23:4.938101e-06 24:4.938101e-06 25:0.99997038 26:4.938101e-06 27:0.0002012637 28:0.00011276635 29:0.00033088238 
3 1:0.11296248 2:0.11736782 3:0.82068038 4:0.9999705 5:4.9381015e-06 6:4.9381015e-06 7:4.9381015e-06 8:4.9381015e-06 9:4.9381015e-06 10:4.9381015e-06 11:0.00020120246 12:0.99898291 13:0.00099255843 14:4.9381019e-06 15:4.9381019e-06 16:4.9381019e-06 17:4.9381019e-06 18:4.9381019e-06 19:0.0042047282 20:4.938101e-06 21:4.938101e-06 22:4.938101e-06 23:4.938101e-06 24:0.00049874815 25:0.99947655 26:4.938101e-06 27:0.0023727606 28:0.00012065732 29:0.00040441175 
3 1:0.10853148 2:0.12785137 3:0.81575274 4:0.9999705 5:4.9381015e-06 6:4.9381015e-06 7:4.9381015e-06 8:4.9381015e-06 9:4.9381015e-06 10:4.9381015e-06 11:0.00020120246 12:0.96244097 13:0.037534513 14:4.9381019e-06 15:4.9381019e-06 16:4.9381019e-06 17:4.9381019e-06 18:4.9381019e-06 19:0.082405239 20:4.938101e-06 21:4.938101e-06 22:4.938101e-06 23:4.938101e-06 24:0.0034616087 25:0.99651372 26:4.938101e-06 27:0.01202287 28:0.00015192672 29:0.00040441175 
3 1:0.10437488 2:0.1313159 3:0.8193869 4:0.9999705 5:4.9381015e-06 6:4.9381015e-06 7:4.9381015e-06 8:4.9381015e-06 9:4.9381015e-06 10:4.9381015e-06 11:0.00020120246 12:0.96836668 13:0.03160879 14:4.9381019e-06 15:4.9381019e-06 16:4.9381019e-06 17:4.9381019e-06 18:4.9381019e-06 19:0.072262421 20:4.938101e-06 21:4.938101e-06 22:4.938101e-06 23:4.938101e-06 24:4.938101e-06 25:0.99997038 26:4.938101e-06 27:0.0002012637 28:0.00011573531 29:0.00040441175 
3 1:0.099929221 2:0.13658248 3:0.81380814 4:0.9999705 5:4.9381015e-06 6:4.9381015e-06 7:4.9381015e-06 8:4.9381015e-06 9:4.9381015e-06 10:4.9381015e-06 11:0.00020120246 12:0.87701184 13:0.12296367 14:4.9381019e-06 15:4.9381019e-06 16:4.9381019e-06 17:4.9381019e-06 18:4.9381019e-06 19:0.19174145 20:4.938101e-06 21:4.938101e-06 22:4.938101e-06 23:4.938101e-06 24:4.938101e-06 25:0.99997038 26:4.938101e-06 27:0.0002012637 28:8.6511311e-05 29:0.00040441175 
3 1:0.094883822 2:0.14074118 3:0.81174248 4:0.9999705 5:4.9381015e-06 6:4.9381015e-06 7:4.9381015e-06 8:4.9381015e-06 9:4.9381015e-06 10:4.9381015e-06 11:0.00020120246 12:0.65430343 13:0.34567207 14:4.9381019e-06 15:4.9381019e-06 16:4.9381019e-06 17:4.9381019e-06 18:4.9381019e-06 19:0.33148599 20:4.938101e-06 21:4.938101e-06 22:4.938101e-06 23:4.938101e-06 24:4.938101e-06 25:0.99997038 26:4.938101e-06 27:0.0002012637 28:0.000103004 29:0.00040441175 
3 1:0.1715045 2:0.085513271 3:0.31988546 4:0.6829443 5:0.25184807 6:0.0014863684 7:0.00099255831 8:0.010868761 9:0.01333781 10:0.038522124 11:0.4401204 12:0.85232133 13:0.14765418 14:4.9381019e-06 15:4.9381019e-06 16:4.9381019e-06 17:4.9381019e-06 18:4.9381019e-06 19:0.21529292 20:4.9381015e-06 21:0.45875457 22:0.36888111 23:0.17234468 24:4.9381015e-06 25:4.9381015e-06 26:4.9381015e-06 27:0.5286091 28:0.012558891 29:0.00055147061 
2.583801819077673 1:0.1903279 2:0.068760842 3:0.30524462 4:0.52245599 5:0.34912866 6:0.020251151 7:0.0098811397 8:0.053830236 9:0.024695443 10:0.019757342 11:0.59478247 12:0.89627045 13:0.10370508 14:4.9381019e-06 15:4.9381019e-06 16:4.9381019e-06 17:4.9381019e-06 18:4.9381019e-06 19:0.17137069 20:4.9381015e-06 21:0.49677795 22:0.32740107 23:0.17580135 24:4.9381015e-06 25:4.9381015e-06 26:4.9381015e-06 27:0.5236482 28:0.013609672 29:0.00055147061 
3 1:0.41872448 2:0.081955977 3:0.10512386 4:0.48788929 5:0.071113594 6:0.0014863684 7:0.00099255831 8:0.037534501 9:0.12098841 10:0.27999526 11:0.66284764 12:0.92491144 13:0.068644553 14:0.0064244703 15:4.9381019e-06 16:4.9381019e-06 17:4.9381019e-06 18:4.9381019e-06 19:0.14838909 20:0.98367476 21:0.016300673 22:4.9381015e-06 23:4.9381015e-06 24:4.9381015e-06 25:4.9381015e-06 26:4.9381015e-06 27:0.04295956 28:0.00028713292 29:0.00055147061 
3 1:0.41529536 2:0.1111487 3:0.096422918 4:0.52591264 5:0.059262142 6:4.9381001e-06 7:4.9381001e-06 8:0.0069182785 9:0.085927889 10:0.32196909 11:0.57337141 12:0.77874362 13:0.21975048 14:0.0014863686 15:4.9381019e-06 16:4.9381019e-06 17:4.9381019e-06 18:4.9381019e-06 19:0.27629352 20:0.98861283 21:0.011362571 22:4.9381015e-06 23:4.9381015e-06 24:4.9381015e-06 25:4.9381015e-06 26:4.9381015e-06 27:0.032118075 28:0.0002873108 29:0.00055147061 
3 1:0.12997843 2:0.20576531 3:0.37478805 4:0.80689073 5:0.1930847 6:4.9381015e-06 7:4.9381015e-06 8:4.9381015e-06 9:4.9381015e-06 10:4.9381015e-06 11:0.25231692 12:0.034077842 13:0.96491009 14:0.00099255843 15:4.9381019e-06 16:4.9381019e-06 17:4.9381019e-06 18:4.9381019e-06 19:0.080540575 20:4.9381015e-06 21:0.0049430393 22:0.99256331 23:0.0024739888 24:4.9381015e-06 25:4.9381015e-06 26:4.9381015e-06 27:0.025050195 28:0.00054938212 29:0.00062499999 
3 1:0.12111735 2:0.21806802 3:0.35991105 4:0.98762524 5:0.012350191 6:4.9381015e-06 7:4.9381015e-06 8:4.9381015e-06 9:4.9381015e-06 10:4.9381015e-06 11:0.034363005 12:0.023707826 13:0.93281227 14:0.039509747 15:0.0039554192 16:4.938101e-06 17:4.938101e-06 18:4.938101e-06 19:0.1558762 20:0.0321026 21:0.030621165 22:0.90614653 23:0.031114977 24:4.9381015e-06 25:4.9381015e-06 26:4.9381015e-06 27:0.21306174 28:0.0030214551 29:0.00062499999 
1.97617544088891 1:0.19617571 2:0.013794853 3:0.94508713 4:0.80195242 5:4.9381001e-06 6:4.9381001e-06 7:4.9381001e-06 8:4.9381001e-06 9:0.0039554182 10:0.19407228 11:0.26584339 12:0.99997056 13:4.9381019e-06 14:4.9381019e-06 15:4.9381019e-06 16:4.9381019e-06 17:4.9381019e-06 18:4.9381019e-06 19:0.00020117186 20:6.7156011e-06 21:6.7156011e-06 22:6.7156011e-06 23:6.7156011e-06 24:0.012766358 25:0.26460141 26:0.72260541 27:0.33020931 28:0.0058209202 29:3.6764708e-05 
3 1:0.088634387 2:0.12803401 3:0.53117037 4:0.9999705 5:4.9381015e-06 6:4.9381015e-06 7:4.9381015e-06 8:4.9381015e-06 9:4.9381015e-06 10:4.9381015e-06 11:0.00020120246 12:0.85182756 13:0.148148 14:4.9381019e-06 15:4.9381019e-06 16:4.9381019e-06 17:4.9381019e-06 18:4.9381019e-06 19:0.21573728 20:4.9381015e-06 21:4.9381015e-06 22:0.024695445 23:0.95602137 24:0.019263534 25:4.9381015e-06 26:4.9381015e-06 27:0.10828955 28:0.001350051 29:3.6764708e-05 
3 1:0.096097216 2:0.15858451 3:0.45973682 4:0.9999705 5:4.9381015e-06 6:4.9381015e-06 7:4.9381015e-06 8:4.9381015e-06 9:4.9381015e-06 10:4.9381015e-06 11:0.00020120246 12:0.049385957 13:0.95058954 14:4.9381019e-06 15:4.9381019e-06 16:4.9381019e-06 17:4.9381019e-06 18:4.9381019e-06 19:0.10125246 20:4.9381015e-06 21:4.9381015e-06 22:0.36493063 23:0.63504481 24:4.9381015e-06 25:4.9381015e-06 26:4.9381015e-06 27:0.33738327 28:0.00047684024 29:3.6764708e-05 
3 1:0.0953881 2:0.16100995 3:0.45171419 4:0.9999705 5:4.9381015e-06 6:4.9381015e-06 7:4.9381015e-06 8:4.9381015e-06 9:4.9381015e-06 10:4.9381015e-06 11:0.00020120246 12:0.14617275 13:0.85380274 14:4.9381019e-06 15:4.9381019e-06 16:4.9381019e-06 17:4.9381019e-06 18:4.9381019e-06 19:0.21395379 20:4.9381015e-06 21:4.9381015e-06 22:0.5491218 23:0.45085359 24:4.9381015e-06 25:4.9381015e-06 26:4.9381015e-06 27:0.35388076 28:0.00069998688 29:3.6764708e-05 
3 1:0.088131994 2:0.13884883 3:0.52452564 4:0.9999705 5:4.9381015e-06 6:4.9381015e-06 7:4.9381015e-06 8:4.9381015e-06 9:4.9381015e-06 10:4.9381015e-06 11:0.00020120246 12:0.64788389 13:0.35209161 14:4.9381019e-06 15:4.9381019e-06 16:4.9381019e-06 17:4.9381019e-06 18:4.9381019e-06 19:0.33354434 20:4.9381015e-06 21:4.9381015e-06 22:0.021238776 23:0.95503372 24:0.023707826 25:4.9381015e-06 26:4.9381015e-06 27:0.11033646 28:0.00088372437 29:3.6764708e-05 
3 1:0.085857108 2:0.20344317 3:0.32098612 4:0.9999705 5:4.9381015e-06 6:4.9381015e-06 7:4.9381015e-06 8:4.9381015e-06 9:4.9381015e-06 10:4.9381015e-06 11:0.00020120246 12:4.9381019e-06 13:0.98861295 14:0.0088935215 15:0.002473989 16:4.9381019e-06 17:4.9381019e-06 18:4.9381019e-06 19:0.035156325 20:0.014325432 21:0.36739966 22:0.61825526 23:4.9381015e-06 24:4.9381015e-06 25:4.9381015e-06 26:4.9381015e-06 27:0.37320971 28:0.0025249212 29:0.00011029412 
3 1:0.061130937 2:0.28825453 3:0.12577346 4:0.9999705 5:4.9381015e-06 6:4.9381015e-06 7:4.9381015e-06 8:4.9381015e-06 9:4.9381015e-06 10:4.9381015e-06 11:0.00020120246 12:0.04543547 13:0.43702692 14:0.49381506 15:0.021238774 16:0.0024739888 17:4.938101e-06 18:4.938101e-06 19:0.48688179 20:0.91059083 21:0.082471237 22:0.0069182804 23:4.9381015e-06 24:4.9381015e-06 25:4.9381015e-06 26:4.9381015e-06 27:0.16739132 28:0.0015731805 29:0.00011029412 
3 1:0.091736086 2:0.11921719 3:0.54114193 4:0.9999705 5:4.9381015e-06 6:4.9381015e-06 7:4.9381015e-06 8:4.9381015e-06 9:4.9381015e-06 10:4.9381015e-06 11:0.00020120246 12:0.99503249 13:0.0049430397 14:4.9381019e-06 15:4.9381019e-06 16:4.9381019e-06 17:4.9381019e-06 18:4.9381019e-06 19:0.016189471 20:4.9381015e-06 21:4.9381015e-06 22:4.9381015e-06 23:0.93429375 24:0.065681688 25:4.9381015e-06 26:4.9381015e-06 27:0.12469607 28:0.001123264 29:0.00011029412 
3 1:0.097231857 2:0.14083089 3:0.48609126 4:0.9999705 5:4.9381015e-06 6:4.9381015e-06 7:4.9381015e-06 8:4.9381015e-06 9:4.9381015e-06 10:4.9381015e-06 11:0.00020120246 12:0.51307374 13:0.48690179 14:4.9381019e-06 15:4.9381019e-06 16:4.9381019e-06 17:4.9381019e-06 18:4.9381019e-06 19:0.35619 20:4.9381015e-06 21:4.9381015e-06 22:0.0024739888 23:0.99651384 24:0.00099255843 25:4.9381015e-06 26:4.9381015e-06 27:0.013070427 28:0.00024339637 29:0.00011029412 
3 1:0.093527995 2:0.12181894 3:0.53253078 4:0.9999705 5:4.9381015e-06 6:4.9381015e-06 7:4.9381015e-06 8:4.9381015e-06 9:4.9381015e-06 10:4.9381015e-06 11:0.00020120246 12:0.47603798 13:0.52393752 14:4.9381019e-06 15:4.9381019e-06 16:4.9381019e-06 17:4.9381019e-06 18:4.9381019e-06 19:0.35577628 20:4.9381015e-06 21:4.9381015e-06 22:0.0034616091 23:0.74072015 24:0.25579858 25:4.9381015e-06 26:4.9381015e-06 27:0.30367064 28:0.0047503491 29:0.00011029412 
3 1:0.097579524 2:0.08700937 3:0.65424407 4:0.9999705 5:4.9381015e-06 6:4.9381015e-06 7:4.9381015e-06 8:4.9381015e-06 9:4.9381015e-06 10:4.9381015e-06 11:0.00020120246 12:0.99602008 13:0.0039554196 14:4.9381019e-06 15:4.9381019e-06 16:4.9381019e-06 17:4.9381019e-06 18:4.9381019e-06 19:0.013442398 20:4.9381015e-06 21:4.9381015e-06 22:4.9381015e-06 23:0.12938319 24:0.87059218 25:4.9381015e-06 26:4.9381015e-06 27:0.19812602 28:0.0039167381 29:0.00011029412 
3 1:0.092851922 2:0.13361019 3:0.53923494 4:0.9999705 5:4.9381015e-06 6:4.9381015e-06 7:4.9381015e-06 8:4.9381015e-06 9:4.9381015e-06 10:4.9381015e-06 11:0.00020120246 12:0.92984951 13:0.070125982 14:4.9381019e-06 15:4.9381019e-06 16:4.9381019e-06 17:4.9381019e-06 18:4.9381019e-06 19:0.13067879 20:4.9381015e-06 21:4.9381015e-06 22:4.9381015e-06 23:0.97429234 24:0.025683066 25:4.9381015e-06 26:4.9381015e-06 27:0.061526712 28:0.00047190531 29:0.00011029412 
0.1962834765965807 1:0.13431959 2:0.07370127 3:0.44481558 4:0.8859002 5:4.938101e-06 6:4.938101e-06 7:4.938101e-06 8:4.938101e-06 9:4.938101e-06 10:0.11407507 11:0.18257511 12:0.99997056 13:4.9381019e-06 14:4.9381019e-06 15:4.9381019e-06 16:4.9381019e-06 17:4.9381019e-06 18:4.9381019e-06 19:0.00020117186 20:4.9381015e-06 21:0.031114977 22:0.49974081 23:0.45233503 24:0.016794482 25:4.9381015e-06 26:4.9381015e-06 27:0.45340791 28:0.0061529703 29:0.00011029412 
3 1:0.091178186 2:0.17913127 3:0.4015865 4:0.9999705 5:4.9381015e-06 6:4.9381015e-06 7:4.9381015e-06 8:4.9381015e-06 9:4.9381015e-06 10:4.9381015e-06 11:0.00020120246 12:0.00049874827 13:0.99947673 14:4.9381019e-06 15:4.9381019e-06 16:4.9381019e-06 17:4.9381019e-06 18:4.9381019e-06 19:0.0023726688 20:4.9381015e-06 21:0.0014863685 22:0.99848902 23:4.9381015e-06 24:4.9381015e-06 25:4.9381015e-06 26:4.9381015e-06 27:0.0059046345 28:0.00033587654 29:0.00018382353 
3 1:0.097538799 2:0.18077131 3:0.36812213 4:0.9999705 5:4.9381015e-06 6:4.9381015e-06 7:4.9381015e-06 8:4.9381015e-06 9:4.9381015e-06 10:4.9381015e-06 11:0.00020120246 12:0.001980179 13:0.99799538 14:4.9381019e-06 15:4.9381019e-06 16:4.9381019e-06 17:4.9381019e-06 18:4.9381019e-06 19:0.0075183609 20:4.9381015e-06 21:0.11061841 22:0.88935697 23:4.9381015e-06 24:4.9381015e-06 25:4.9381015e-06 26:4.9381015e-06 27:0.17890331 28:0.0016098666 29:0.00018382353 
3 1:0.097702466 2:0.12221344 3:0.49856153 4:0.9999705 5:4.9381015e-06 6:4.9381015e-06 7:4.9381015e-06 8:4.9381015e-06 9:4.9381015e-06 10:4.9381015e-06 11:0.00020120246 12:0.9352814 13:0.064694069 14:4.9381019e-06 15:4.9381019e-06 16:4.9381019e-06 17:4.9381019e-06 18:4.9381019e-06 19:0.12334446 20:4.9381015e-06 21:4.9381015e-06 22:0.08197742 23:0.91404748 24:0.0039554192 25:4.9381015e-06 26:4.9381015e-06 27:0.15896133 28:0.0013487753 29:0.00018382353 
3 1:0.11200815 2:0.083854847 3:0.58212095 4:0.9999705 5:4.9381015e-06 6:4.9381015e-06 7:4.9381015e-06 8:4.9381015e-06 9:4.9381015e-06 10:4.9381015e-06 11:0.00020120246 12:0.99997056 13:4.9381019e-06 14:4.9381019e-06 15:4.9381019e-06 16:4.9381019e-06 17:4.9381019e-06 18:4.9381019e-06 19:0.00020117186 20:4.9381015e-06 21:4.9381015e-06 22:4.9381015e-06 23:0.56146705 24:0.43850833 25:4.9381015e-06 26:4.9381015e-06 27:0.35247138 28:0.0011007955 29:0.00018382353 
2.289013687732147 1:0.094187491 2:0.093738765 3:0.66983074 4:0.9999705 5:4.9381015e-06 6:4.9381015e-06 7:4.9381015e-06 8:4.9381015e-06 9:4.9381015e-06 10:4.9381015e-06 11:0.00020120246 12:0.98663765 13:0.013337813 14:4.9381019e-06 15:4.9381019e-06 16:4.9381019e-06 17:4.9381019e-06 18:4.9381019e-06 19:0.036566801 20:4.9381015e-06 21:4.9381015e-06 22:4.9381015e-06 23:0.098273158 24:0.90170223 25:4.9381015e-06 26:4.9381015e-06 27:0.16526757 28:0.0039096121 29:0.00018382353 
3 1:0.09198045 2:0.13889088 3:0.54314107 4:0.9999705 5:4.9381015e-06 6:4.9381015e-06 7:4.9381015e-06 8:4.9381015e-06 9:4.9381015e-06 10:4.9381015e-06 11:0.00020120246 12:0.72639972 13:0.27357578 14:4.9381019e-06 15:4.9381019e-06 16:4.9381019e-06 17:4.9381019e-06 18:4.9381019e-06 19:0.3017104 20:4.9381015e-06 21:4.9381015e-06 22:4.9381015e-06 23:0.97774905 24:0.022226393 25:4.9381015e-06 26:4.9381015e-06 27:0.054939549 28:0.00035289052 29:0.00018382353 
3 1:0.096745826 2:0.16807525 3:0.42796773 4:0.9999705 5:4.9381015e-06 6:4.9381015e-06 7:4.9381015e-06 8:4.9381015e-06 9:4.9381015e-06 10:4.9381015e-06 11:0.00020120246 12:0.0014863686 13:0.99848914 14:4.9381019e-06 15:4.9381019e-06 16:4.9381019e-06 17:4.9381019e-06 18:4.9381019e-06 19:0.0059045735 20:4.9381015e-06 21:4.9381015e-06 22:0.9999705 23:4.9381015e-06 24:4.9381015e-06 25:4.9381015e-06 26:4.9381015e-06 27:0.00020120246 28:0.00023164866 29:0.00025735295 
3 1:0.10029663 2:0.16300467 3:0.42134213 4:0.9999705 5:4.9381015e-06 6:4.9381015e-06 7:4.9381015e-06 8:4.9381015e-06 9:4.9381015e-06 10:4.9381015e-06 11:0.00020120246 12:0.034077842 13:0.96589768 14:4.9381019e-06 15:4.9381019e-06 16:4.9381019e-06 17:4.9381019e-06 18:4.9381019e-06 19:0.076554656 20:4.9381015e-06 21:4.9381015e-06 22:0.9999705 23:4.9381015e-06 24:4.9381015e-06 25:4.9381015e-06 26:4.9381015e-06 27:0.00020120246 28:9.7265292e-05 29:0.00025735295 
3 1:0.098056011 2:0.14325026 3:0.44079378 4:0.9999705 5:4.9381015e-06 6:4.9381015e-06 7:4.9381015e-06 8:4.9381015e-06 9:4.9381015e-06 10:4.9381015e-06 11:0.00020120246 12:0.48591417 13:0.51406133 14:4.9381019e-06 15:4.9381019e-06 16:4.9381019e-06 17:4.9381019e-06 18:4.9381019e-06 19:0.35616243 20:4.9381015e-06 21:4.9381015e-06 22:0.70319062 23:0.29678485 24:4.9381015e-06 25:4.9381015e-06 26:4.9381015e-06 27:0.31267267 28:0.00046854091 29:0.00025735295 
3 1:0.1024164 2:0.16650227 3:0.41308147 4:0.9999705 5:4.9381015e-06 6:4.9381015e-06 7:4.9381015e-06 8:4.9381015e-06 9:4.9381015e-06 10:4.9381015e-06 11:0.00020120246 12:0.32196918 13:0.64640248 14:0.03160879 15:4.9381019e-06 16:4.9381019e-06 17:4.9381019e-06 18:4.9381019e-06 19:0.38869336 20:4.9381015e-06 21:0.10419887 22:0.62023044 23:0.27555102 24:4.9381015e-06 25:4.9381015e-06 26:4.9381015e-06 27:0.45599464 28:0.0036783835 29:0.00025735295 
3 1:0.11915369 2:0.093882076 3:0.59311032 4:0.8987394 5:0.10123602 6:4.9381015e-06 7:4.9381015e-06 8:4.9381015e-06 9:4.9381015e-06 10:4.9381015e-06 11:0.16861726 12:0.99157584 13:0.0083997119 14:4.9381019e-06 15:4.9381019e-06 16:4.9381019e-06 17:4.9381019e-06 18:4.9381019e-06 19:0.025097337 20:4.9381015e-06 21:4.9381015e-06 22:0.012350191 23:0.53085083 24:0.4567793 25:4.9381015e-06 26:4.9381015e-06 27:0.38470167 28:0.0019378839 29:0.00025735295 
3 1:0.092456713 2:0.14046642 3:0.53960395 4:0.9999705 5:4.9381015e-06 6:4.9381015e-06 7:4.9381015e-06 8:4.9381015e-06 9:4.9381015e-06 10:4.9381015e-06 11:0.00020120246 12:0.59504622 13:0.40492928 14:4.9381019e-06 15:4.9381019e-06 16:4.9381019e-06 17:4.9381019e-06 18:4.9381019e-06 19:0.34702173 20:4.9381015e-06 21:4.9381015e-06 22:4.9381015e-06 23:0.98614377 24:0.013831622 25:4.9381015e-06 26:4.9381015e-06 27:0.037654277 28:0.00018789236 29:0.00025735295 
3 1:0.3347162 2:0.090819307 3:0.084561631 4:0.59257704 5:0.089384563 6:0.00099255831 7:4.938101e-06 8:0.019263532 9:0.024201632 10:0.27357572 11:0.54144222 12:0.91306001 13:0.08691553 14:4.9381019e-06 15:4.9381019e-06 16:4.9381019e-06 17:4.9381019e-06 18:4.9381019e-06 19:0.15194267 20:0.97824287 21:0.021732584 22:4.9381015e-06 23:4.9381015e-06 24:4.9381015e-06 25:4.9381015e-06 26:4.9381015e-06 27:0.053976383 28:0.00058107346 29:0.00025735295 
3 1:0.10207133 2:0.15928371 3:0.43656513 4:0.9999705 5:4.9381015e-06 6:4.9381015e-06 7:4.9381015e-06 8:4.9381015e-06 9:4.9381015e-06 10:4.9381015e-06 11:0.00020120246 12:0.049385957 13:0.95058954 14:4.9381019e-06 15:4.9381019e-06 16:4.9381019e-06 17:4.9381019e-06 18:4.9381019e-06 19:0.10125246 20:4.9381015e-06 21:4.9381015e-06 22:0.9999705 23:4.9381015e-06 24:4.9381015e-06 25:4.9381015e-06 26:4.9381015e-06 27:0.00020120246 28:0.00022944943 29:0.00033088238 
3 1:0.10505284 2:0.15666351 3:0.43883181 4:0.9999705 5:4.9381015e-06 6:4.9381015e-06 7:4.9381015e-06 8:4.9381015e-06 9:4.9381015e-06 10:4.9381015e-06 11:0.00020120246 12:0.034571651 13:0.96540385 14:4.9381019e-06 15:4.9381019e-06 16:4.9381019e-06 17:4.9381019e-06 18:4.9381019e-06 19:0.077401474 20:4.9381015e-06 21:4.9381015e-06 22:0.99947667 23:0.00049874821 24:4.9381015e-06 25:4.9381015e-06 26:4.9381015e-06 27:0.0023726993 28:4.6163157e-05 29:0.00033088238 
3 1:0.10060469 2:0.14380907 3:0.46198186 4:0.9999705 5:4.9381015e-06 6:4.9381015e-06 7:4.9381015e-06 8:4.9381015e-06 9:4.9381015e-06 10:4.9381015e-06 11:0.00020120246 12:0.45677936 13:0.54319614 14:4.9381019e-06 15:4.9381019e-06 16:4.9381019e-06 17:4.9381019e-06 18:4.9381019e-06 19:0.35444477 20:4.9381015e-06 21:4.9381015e-06 22:0.33579585 23:0.66417956 24:4.9381015e-06 25:4.9381015e-06 26:4.9381015e-06 27:0.32813621 28:0.00019808227 29:0.00033088238 
3 1:0.099108927 2:0.13035142 3:0.48044601 4:0.9999705 5:4.9381015e-06 6:4.9381015e-06 7:4.9381015e-06 8:4.9381015e-06 9:4.9381015e-06 10:4.9381015e-06 11:0.00020120246 12:0.95602143 13:0.043954045 14:4.9381019e-06 15:4.9381019e-06 16:4.9381019e-06 17:4.9381019e-06 18:4.9381019e-06 19:0.092829555 20:4.9381015e-06 21:4.9381015e-06 22:0.026176875 23:0.97379851 24:4.9381015e-06 25:4.9381015e-06 26:4.9381015e-06 27:0.0624469 28:9.7144381e-05 29:0.00033088238 
3 1:0.099007733 2:0.16561188 3:0.38469362 4:0.9999705 5:4.9381015e-06 6:4.9381015e-06 7:4.9381015e-06 8:4.9381015e-06 9:4.9381015e-06 10:4.9381015e-06 11:0.00020120246 12:0.34616587 13:0.61529237 14:0.035065457 15:0.0034616091 16:4.938101e-06 17:4.938101e-06 18:4.938101e-06 19:0.41282988 20:0.041484989 21:0.10321126 22:0.63356334 23:0.2217257 24:4.9381015e-06 25:4.9381015e-06 26:4.9381015e-06 27:0.50862479 28:0.0068545206 29:0.00033088238 
3 1:0.1272192 2:0.093173422 3:0.60608226 4:0.71454823 5:0.28542718 6:4.9381015e-06 7:4.9381015e-06 8:4.9381015e-06 9:4.9381015e-06 10:4.9381015e-06 11:0.30747783 12:0.99750155 13:0.002473989 14:4.9381019e-06 15:4.9381019e-06 16:4.9381019e-06 17:4.9381019e-06 18:4.9381019e-06 19:0.0090680961 20:4.9381015e-06 21:4.9381015e-06 22:0.00099255843 23:0.49332127 24:0.4957903 25:0.0098811407 26:4.9381015e-06 27:0.38495761 28:0.0015159022 29:0.00033088238 
3 1:0.10522961 2:0.096168488 3:0.69400531 4:0.9999705 5:4.9381015e-06 6:4.9381015e-06 7:4.9381015e-06 8:4.9381015e-06 9:4.9381015e-06 10:4.9381015e-06 11:0.00020120246 12:0.97873676 13:0.021238776 14:4.9381019e-06 15:4.9381019e-06 16:4.9381019e-06 17:4.9381019e-06 18:4.9381019e-06 19:0.053007297 20:4.9381015e-06 21:4.9381015e-06 22:4.9381015e-06 23:0.11605033 24:0.54566514 25:0.33826488 26:4.9381015e-06 27:0.48685348 28:0.0054704156 29:0.00033088238 
3 1:0.098760448 2:0.13943726 3:0.53199548 4:0.9999705 5:4.9381015e-06 6:4.9381015e-06 7:4.9381015e-06 8:4.9381015e-06 9:4.9381015e-06 10:4.9381015e-06 11:0.00020120246 12:0.757016 13:0.24295954 14:4.9381019e-06 15:4.9381019e-06 16:4.9381019e-06 17:4.9381019e-06 18:4.9381019e-06 19:0.28510392 20:4.9381015e-06 21:4.9381015e-06 22:4.9381015e-06 23:0.98960048 24:0.010374951 25:4.9381015e-06 26:4.9381015e-06 27:0.029828437 28:0.00022540119 29:0.00033088238 
3 1:0.10561083 2:0.15706021 3:0.43542507 4:0.9999705 5:4.9381015e-06 6:4.9381015e-06 7:4.9381015e-06 8:4.9381015e-06 9:4.9381015e-06 10:4.9381015e-06 11:0.00020120246 12:0.081483617 13:0.9184919 14:4.9381019e-06 15:4.9381019e-06 16:4.9381019e-06 17:4.9381019e-06 18:4.9381019e-06 19:0.14528017 20:4.9381015e-06 21:4.9381015e-06 22:0.9999705 23:4.9381015e-06 24:4.9381015e-06 25:4.9381015e-06 26:4.9381015e-06 27:0.00020120246 28:0.00026452253 29:0.00040441175 
3 1:0.10795023 2:0.15100151 3:0.44224265 4:0.9999705 5:4.9381015e-06 6:4.9381015e-06 7:4.9381015e-06 8:4.9381015e-06 9:4.9381015e-06 10:4.9381015e-06 11:0.00020120246 12:0.17827041 13:0.82170504 14:4.9381019e-06 15:4.9381019e-06 16:4.9381019e-06 17:4.9381019e-06 18:4.9381019e-06 19:0.24106054 20:4.9381015e-06 21:4.9381015e-06 22:0.99750137 23:0.0024739888 24:4.9381015e-06 25:4.9381015e-06 26:4.9381015e-06 27:0.0090681873 28:4.0984749e-05 29:0.00040441175 
3 1:0.10539906 2:0.14185399 3:0.45943725 4:0.9999705 5:4.9381015e-06 6:4.9381015e-06 7:4.9381015e-06 8:4.9381015e-06 9:4.9381015e-06 10:4.9381015e-06 11:0.00020120246 12:0.59060192 13:0.40937358 14:4.9381019e-06 15:4.9381019e-06 16:4.9381019e-06 17:4.9381019e-06 18:4.9381019e-06 19:0.34787986 20:4.9381015e-06 21:4.9381015e-06 22:0.2518481 23:0.74812728 24:4.9381015e-06 25:4.9381015e-06 26:4.9381015e-06 27:0.29018581 28:0.00013241009 29:0.00040441175 
3 1:0.10105175 2:0.13831976 3:0.46942776 4:0.9999705 5:4.9381015e-06 6:4.9381015e-06 7:4.9381015e-06 8:4.9381015e-06 9:4.9381015e-06 10:4.9381015e-06 11:0.00020120246 12:0.72985643 13:0.27011913 14:4.9381019e-06 15:4.9381019e-06 16:4.9381019e-06 17:4.9381019e-06 18:4.9381019e-06 19:0.29996023 20:4.9381015e-06 21:4.9381015e-06 22:0.043460231 23:0.95651519 24:4.9381015e-06 25:4.9381015e-06 26:4.9381015e-06 27:0.092046566 28:8.3541396e-05 29:0.00040441175 
3 1:0.11069723 2:0.13230106 3:0.43046993 4:0.99898285 5:0.00099255843 6:4.9381015e-06 7:4.9381015e-06 8:4.9381015e-06 9:4.9381015e-06 10:4.9381015e-06 11:0.0042047589 12:0.81972986 13:0.18024567 14:4.9381019e-06 15:4.9381019e-06 16:4.9381019e-06 17:4.9381019e-06 18:4.9381019e-06 19:0.24260481 20:4.9381015e-06 21:4.9381015e-06 22:0.69627726 23:0.30369815 24:4.9381015e-06 25:4.9381015e-06 26:4.9381015e-06 27:0.31567881 28:0.0005195993 29:0.00040441175 
3 1:0.12920165 2:0.16798705 3:0.31530643 4:0.90565264 5:0.081483603 6:4.938101e-06 7:4.938101e-06 8:4.938101e-06 9:4.938101e-06 10:0.012844001 11:0.17998433 12:0.47258124 13:0.38616446 14:0.12642033 15:0.014819242 16:4.938101e-06 17:4.938101e-06 18:4.938101e-06 19:0.53738654 20:0.015313053 21:0.51702416 22:0.35159776 23:0.11555651 24:0.00049874821 25:4.9381015e-06 26:4.9381015e-06 27:0.52718467 28:0.0077045825 29:0.00040441175 
3 1:0.13672709 2:0.097503647 3:0.57444674 4:0.36591825 5:0.63405716 6:4.9381015e-06 7:4.9381015e-06 8:4.9381015e-06 9:4.9381015e-06 10:4.9381015e-06 11:0.33766332 12:0.99997056 13:4.9381019e-06 14:4.9381019e-06 15:4.9381019e-06 16:4.9381019e-06 17:4.9381019e-06 18:4.9381019e-06 19:0.00020117186 20:4.9381015e-06 21:4.9381015e-06 22:4.9381015e-06 23:0.70467198 24:0.2953034 25:4.9381015e-06 26:4.9381015e-06 27:0.3120133 28:0.00060165161 29:0.00040441175 
3 1:0.12602724 2:0.097980365 3:0.61333323 4:0.77034879 5:0.22962664 6:4.9381015e-06 7:4.9381015e-06 8:4.9381015e-06 9:4.9381015e-06 10:4.9381015e-06 11:0.27706552 12:0.99947673 13:0.00049874827 14:4.9381019e-06 15:4.9381019e-06 16:4.9381019e-06 17:4.9381019e-06 18:4.9381019e-06 19:0.0023726688 20:4.9381015e-06 21:4.9381015e-06 22:0.00049874821 23:0.1886404 24:0.8108412 25:4.9381015e-06 26:4.9381015e-06 27:0.25113645 28:0.0030222221 29:0.00040441175 
3 1:0.10557615 2:0.14046045 3:0.52106148 4:0.9999705 5:4.9381015e-06 6:4.9381015e-06 7:4.9381015e-06 8:4.9381015e-06 9:4.9381015e-06 10:4.9381015e-06 11:0.00020120246 12:0.73825121 13:0.26172432 14:4.9381019e-06 15:4.9381019e-06 16:4.9381019e-06 17:4.9381019e-06 18:4.9381019e-06 19:0.29557964 20:4.9381015e-06 21:4.9381015e-06 22:4.9381015e-06 23:0.9999705 24:4.9381015e-06 25:4.9381015e-06 26:4.9381015e-06 27:0.00020120245 28:0.00022714834 29:0.00040441175 
3 1:0.10715023 2:0.22657496 3:0.15865402 4:0.98268712 5:0.017288292 6:4.9381015e-06 7:4.9381015e-06 8:4.9381015e-06 9:4.9381015e-06 10:4.9381015e-06 11:0.045025188 12:0.24542861 13:0.39258403 14:0.36196783 15:4.9381019e-06 16:4.9381019e-06 17:4.9381019e-06 18:4.9381019e-06 19:0.55496216 20:0.64590859 21:0.35258538 22:0.0014863685 23:4.9381015e-06 24:4.9381015e-06 25:4.9381015e-06 26:4.9381015e-06 27:0.33907092 28:0.0026752669 29:0.00040441175 
3 1:0.13328056 2:0.18878947 3:0.30649707 4:0.77084261 5:0.22913285 6:4.9381015e-06 7:4.9381015e-06 8:4.9381015e-06 9:4.9381015e-06 10:4.9381015e-06 11:0.27675802 12:0.42320025 13:0.43208888 14:0.12493891 15:0.019757347 16:4.9381019e-06 17:4.9381019e-06 18:4.9381019e-06 19:0.54682267 20:0.04444785 21:0.47653174 22:0.45085359 23:0.028152116 24:4.9381015e-06 25:4.9381015e-06 26:4.9381015e-06 27:0.48894569 28:0.0073202229 29:0.00047794118 
3 1:0.1232963 2:0.11247237 3:0.46396393 4:0.93379992 5:0.066175498 6:4.9381015e-06 7:4.9381015e-06 8:4.9381015e-06 9:4.9381015e-06 10:4.9381015e-06 11:0.1253688 12:0.97231722 13:0.026670689 14:0.00099255843 15:4.9381019e-06 16:4.9381019e-06 17:4.9381019e-06 18:4.9381019e-06 19:0.067351915 20:4.9381015e-06 21:4.9381015e-06 22:0.30715483 23:0.69282055 24:4.9381015e-06 25:4.9381015e-06 26:4.9381015e-06 27:0.31713822 28:0.0020237309 29:0.00047794118 
3 1:0.12792242 2:0.10855047 3:0.52637559 4:0.78121257 5:0.21876283 6:4.9381015e-06 7:4.9381015e-06 8:4.9381015e-06 9:4.9381015e-06 10:4.9381015e-06 11:0.27013466 12:0.99997056 13:4.9381019e-06 14:4.9381019e-06 15:4.9381019e-06 16:4.9381019e-06 17:4.9381019e-06 18:4.9381019e-06 19:0.00020117186 20:4.9381015e-06 21:4.9381015e-06 22:0.015806863 23:0.98416859 24:4.9381015e-06 25:4.9381015e-06 26:4.9381015e-06 27:0.041915134 28:0.00080234621 29:0.00047794118 
3 1:0.10875082 2:0.24514869 3:0.14381595 4:0.99404478 5:0.0059306598 6:4.9381015e-06 7:4.9381015e-06 8:4.9381015e-06 9:4.9381015e-06 10:4.9381015e-06 11:0.018834012 12:0.13530889 13:0.55307221 14:0.29629096 15:0.0083997101 16:0.0064244689 17:0.00049874815 18:4.9381006e-06 19:0.53191072 20:0.67306817 21:0.32690725 22:4.9381015e-06 23:4.9381015e-06 24:4.9381015e-06 25:4.9381015e-06 26:4.9381015e-06 27:0.3249293 28:0.0044820937 29:0.00047794118 
0.708080974651799 1:0.10185049 2:0.35321686 3:0.81593227 4:0.9999705 5:4.9381015e-06 6:4.9381015e-06 7:4.9381015e-06 8:4.9381015e-06 9:4.9381015e-06 10:4.9381015e-06 11:0.00020120246 12:4.9381019e-06 13:4.9381019e-06 14:0.99898291 15:0.00099255843 16:4.9381019e-06 17:4.9381019e-06 18:4.9381019e-06 19:0.0042047282 20:4.938101e-06 21:4.938101e-06 22:4.938101e-06 23:4.938101e-06 24:0.44394022 25:0.5560351 26:4.938101e-06 27:0.35313058 28:0.0012426036 29:3.6764708e-05 
3 1:0.12161945 2:0.18944597 3:0.98862666 4:0.9654038 5:0.034571648 6:4.9381015e-06 7:4.9381015e-06 8:4.9381015e-06 9:4.9381015e-06 10:4.9381015e-06 11:0.077401496 12:0.20888665 13:0.78861982 14:0.002473989 15:4.9381019e-06 16:4.9381019e-06 17:4.9381019e-06 18:4.9381019e-06 19:0.27209538 20:4.938101e-06 21:4.938101e-06 22:4.938101e-06 23:4.938101e-06 24:0.0034616087 25:0.040991176 26:0.95552742 27:0.099832825 28:0.0017339643 29:3.6764708e-05 
2.60377542736033 1:0.12033961 2:0.15101685 3:0.98069227 4:0.81479162 5:0.18518375 6:4.9381015e-06 7:4.9381015e-06 8:4.9381015e-06 9:4.9381015e-06 10:4.9381015e-06 11:0.24640645 12:0.53727043 13:0.42912596 14:0.032596409 15:0.00099255843 16:4.9381019e-06 17:4.9381019e-06 18:4.9381019e-06 19:0.41906562 20:4.938101e-06 21:4.938101e-06 22:4.938101e-06 23:4.938101e-06 24:0.010868761 25:0.10469268 26:0.88441879 27:0.20261955 28:0.0042976527 29:3.6764708e-05 
3 1:0.11981779 2:0.19508025 3:0.9911561 4:0.93133086 5:0.068644546 6:4.9381015e-06 7:4.9381015e-06 8:4.9381015e-06 9:4.9381015e-06 10:4.9381015e-06 11:0.12870236 12:0.12148225 13:0.87849325 14:4.9381019e-06 15:4.9381019e-06 16:4.9381019e-06 17:4.9381019e-06 18:4.9381019e-06 19:0.19024053 20:4.938101e-06 21:4.938101e-06 22:4.938101e-06 23:4.938101e-06 24:4.938101e-06 25:0.039509743 26:0.96046555 27:0.085671134 28:0.0012264422 29:3.6764708e-05 
0.7668744410208856 1:0.11012481 2:0.41146675 3:0.82300484 4:0.9999705 5:4.9381015e-06 6:4.9381015e-06 7:4.9381015e-06 8:4.9381015e-06 9:4.9381015e-06 10:4.9381015e-06 11:0.00020120246 12:4.938101e-06 13:4.938101e-06 14:0.74022633 15:0.25974908 16:4.938101e-06 17:4.938101e-06 18:4.938101e-06 19:0.2945219 20:4.938101e-06 21:4.938101e-06 22:4.938101e-06 23:4.938101e-06 24:0.50220984 25:0.49776551 26:4.938101e-06 27:0.356361 28:0.00088313123 29:0.00011029412 
3 1:0.10125587 2:0.22025344 3:0.9581939 4:0.9999705 5:4.9381015e-06 6:4.9381015e-06 7:4.9381015e-06 8:4.9381015e-06 9:4.9381015e-06 10:4.9381015e-06 11:0.00020120246 12:0.10716175 13:0.75207782 14:0.14074084 15:4.9381019e-06 16:4.9381019e-06 17:4.9381019e-06 18:4.9381019e-06 19:0.37505648 20:4.9381015e-06 21:4.9381015e-06 22:4.9381015e-06 23:4.9381015e-06 24:4.9381015e-06 25:0.3051796 26:0.69479579 27:0.31630784 28:0.002293952 29:0.00011029412 
0.06648272376768738 1:0.10915992 2:0.50740582 3:0.69223797 4:0.9999705 5:4.9381015e-06 6:4.9381015e-06 7:4.9381015e-06 8:4.9381015e-06 9:4.9381015e-06 10:4.9381015e-06 11:0.00020120246 12:4.9381019e-06 13:4.9381019e-06 14:4.9381019e-06 15:0.99997056 16:4.9381019e-06 17:4.9381019e-06 18:4.9381019e-06 19:0.00020117185 20:4.9381015e-06 21:4.9381015e-06 22:4.9381015e-06 23:0.44394025 24:0.55603516 25:4.9381015e-06 26:4.9381015e-06 27:0.35313058 28:0.00069024676 29:0.00025735295 
3 1:0.090959132 2:0.37446898 3:0.40195215 4:0.9999705 5:4.9381015e-06 6:4.9381015e-06 7:4.9381015e-06 8:4.9381015e-06 9:4.9381015e-06 10:4.9381015e-06 11:0.00020120246 12:4.938101e-06 13:0.00099255831 14:0.90812176 15:0.074570268 16:0.016300673 17:4.938101e-06 18:4.938101e-06 19:0.18256477 20:4.9381015e-06 21:0.048398331 22:0.95157707 23:4.9381015e-06 24:4.9381015e-06 25:4.9381015e-06 26:4.9381015e-06 27:0.09974613 28:0.00046167788 29:0.00062499999 
3 1:0.089754358 2:0.34856427 3:0.38894972 4:0.9999705 5:4.9381015e-06 6:4.9381015e-06 7:4.9381015e-06 8:4.9381015e-06 9:4.9381015e-06 10:4.9381015e-06 11:0.00020120246 12:4.938101e-06 13:0.041978799 14:0.87108606 15:0.06420026 16:0.022720205 17:4.938101e-06 18:4.938101e-06 19:0.26504996 20:4.9381015e-06 21:0.088890761 22:0.91108465 23:4.9381015e-06 24:4.9381015e-06 25:4.9381015e-06 26:4.9381015e-06 27:0.15431747 28:0.00081239251 29:0.00062499999 
3 1:0.092391558 2:0.19860752 3:0.6547727 4:0.9999705 5:4.9381015e-06 6:4.9381015e-06 7:4.9381015e-06 8:4.9381015e-06 9:4.9381015e-06 10:4.9381015e-06 11:0.00020120246 12:4.9381019e-06 13:0.99997056 14:4.9381019e-06 15:4.9381019e-06 16:4.9381019e-06 17:4.9381019e-06 18:4.9381019e-06 19:0.00020117185 20:4.9381015e-06 21:4.9381015e-06 22:0.00049874821 23:0.094322674 24:0.90515894 25:4.9381015e-06 26:4.9381015e-06 27:0.1628682 28:0.00094124419 29:3.6764708e-05 
3 1:0.092514209 2:0.20460004 3:0.65975028 4:0.9999705 5:4.9381015e-06 6:4.9381015e-06 7:4.9381015e-06 8:4.9381015e-06 9:4.9381015e-06 10:4.9381015e-06 11:0.00020120246 12:4.9381019e-06 13:0.99997056 14:4.9381019e-06 15:4.9381019e-06 16:4.9381019e-06 17:4.9381019e-06 18:4.9381019e-06 19:0.00020117185 20:4.9381015e-06 21:4.9381015e-06 22:4.9381015e-06 23:0.045929279 24:0.95404613 25:4.9381015e-06 26:4.9381015e-06 27:0.095932111 28:0.00063132815 29:3.6764708e-05 
3 1:0.097025357 2:0.21787485 3:0.66263252 4:0.9999705 5:4.9381015e-06 6:4.9381015e-06 7:4.9381015e-06 8:4.9381015e-06 9:4.9381015e-06 10:4.9381015e-06 11:0.00020120246 12:4.9381019e-06 13:0.9742924 14:0.025683068 15:4.9381019e-06 16:4.9381019e-06 17:4.9381019e-06 18:4.9381019e-06 19:0.061526679 20:4.9381015e-06 21:4.9381015e-06 22:4.9381015e-06 23:0.12543271 24:0.87454271 25:4.9381015e-06 26:4.9381015e-06 27:0.19421981 28:0.0016395686 29:3.6764708e-05 
0.3935056058183378 1:0.35441703 2:0.05074564 3:0.78068388 4:0.64492089 5:4.938101e-06 6:4.938101e-06 7:4.938101e-06 8:4.938101e-06 9:0.038522124 10:0.3165372 11:0.39708257 12:0.99305719 13:0.0069182809 14:4.9381019e-06 15:4.9381019e-06 16:4.9381019e-06 17:4.9381019e-06 18:4.9381019e-06 19:0.021393077 20:4.9381015e-06 21:4.9381015e-06 22:4.9381015e-06 23:0.0014863685 24:0.14617273 25:0.84293884 26:0.0093873302 27:0.24605125 28:0.0025085416 29:3.6764708e-05 
3 1:0.082936466 2:0.13602345 3:0.6775229 4:0.9999705 5:4.9381015e-06 6:4.9381015e-06 7:4.9381015e-06 8:4.9381015e-06 9:4.9381015e-06 10:4.9381015e-06 11:0.00020120246 12:0.78664458 13:0.21333094 14:4.9381019e-06 15:4.9381019e-06 16:4.9381019e-06 17:4.9381019e-06 18:4.9381019e-06 19:0.26653686 20:4.9381015e-06 21:4.9381015e-06 22:4.9381015e-06 23:0.024201635 24:0.97577375 25:4.9381015e-06 26:4.9381015e-06 27:0.058735739 28:0.00048596569 29:3.6764708e-05 
3 1:0.082220748 2:0.14649437 3:0.65616381 4:0.9999705 5:4.9381015e-06 6:4.9381015e-06 7:4.9381015e-06 8:4.9381015e-06 9:4.9381015e-06 10:4.9381015e-06 11:0.00020120246 12:0.48640797 13:0.51356757 14:4.9381019e-06 15:4.9381019e-06 16:4.9381019e-06 17:4.9381019e-06 18:4.9381019e-06 19:0.35617647 20:4.9381015e-06 21:4.9381015e-06 22:4.9381015e-06 23:0.07308884 24:0.92688656 25:4.9381015e-06 26:4.9381015e-06 27:0.13458019 28:0.00073502318 29:3.6764708e-05 
3 1:0.079010293 2:0.16164462 3:0.64156783 4:0.9999705 5:4.9381015e-06 6:4.9381015e-06 7:4.9381015e-06 8:4.9381015e-06 9:4.9381015e-06 10:4.9381015e-06 11:0.00020120246 12:0.20987427 13:0.79010123 14:4.9381019e-06 15:4.9381019e-06 16:4.9381019e-06 17:4.9381019e-06 18:4.9381019e-06 19:0.26420048 20:4.938101e-06 21:4.938101e-06 22:4.938101e-06 23:0.15357988 24:0.84540784 25:0.00099255831 26:4.938101e-06 27:0.22447945 28:0.0013558775 29:3.6764708e-05 
3 1:0.073352039 2:0.17128502 3:0.63134015 4:0.9999705 5:4.9381015e-06 6:4.9381015e-06 7:4.9381015e-06 8:4.9381015e-06 9:4.9381015e-06 10:4.9381015e-06 11:0.00020120246 12:0.075064085 13:0.92491144 14:4.9381019e-06 15:4.9381019e-06 16:4.9381019e-06 17:4.9381019e-06 18:4.9381019e-06 19:0.13714392 20:4.9381015e-06 21:4.9381015e-06 22:0.0034616091 23:0.22271331 24:0.77380544 25:4.9381015e-06 26:4.9381015e-06 27:0.28406858 28:0.0015064856 29:3.6764708e-05 
3 1:0.07820151 2:0.17800809 3:0.62477559 4:0.9999705 5:4.9381015e-06 6:4.9381015e-06 7:4.9381015e-06 8:4.9381015e-06 9:4.9381015e-06 10:4.9381015e-06 11:0.00020120246 12:0.0064244703 13:0.99355102 14:4.9381019e-06 15:4.9381019e-06 16:4.9381019e-06 17:4.9381019e-06 18:4.9381019e-06 19:0.020123355 20:4.9381015e-06 21:4.9381015e-06 22:4.9381015e-06 23:0.24839143 24:0.75158399 25:4.9381015e-06 26:4.9381015e-06 27:0.28823543 28:0.00046646941 29:3.6764708e-05 
3 1:0.073001929 2:0.19315739 3:0.60962009 4:0.9999705 5:4.9381015e-06 6:4.9381015e-06 7:4.9381015e-06 8:4.9381015e-06 9:4.9381015e-06 10:4.9381015e-06 11:0.00020120246 12:0.00049874827 13:0.99947673 14:4.9381019e-06 15:4.9381019e-06 16:4.9381019e-06 17:4.9381019e-06 18:4.9381019e-06 19:0.0023726688 20:4.9381015e-06 21:4.9381015e-06 22:0.0024739888 23:0.81627309 24:0.18123326 25:4.9381015e-06 26:4.9381015e-06 27:0.25198475 28:0.00066331116 29:3.6764708e-05 
3 1:0.083619364 2:0.19267233 3:0.62012786 4:0.9999705 5:4.9381015e-06 6:4.9381015e-06 7:4.9381015e-06 8:4.9381015e-06 9:4.9381015e-06 10:4.9381015e-06 11:0.00020120246 12:4.9381019e-06 13:0.99997056 14:4.9381019e-06 15:4.9381019e-06 16:4.9381019e-06 17:4.9381019e-06 18:4.9381019e-06 19:0.00020117185 20:4.9381015e-06 21:4.9381015e-06 22:4.9381015e-06 23:0.39554685 24:0.60442853 25:4.9381015e-06 26:4.9381015e-06 27:0.34507173 28:0.00055893674 29:0.00011029412 
3 1:0.090520844 2:0.19439767 3:0.60530424 4:0.9999705 5:4.9381015e-06 6:4.9381015e-06 7:4.9381015e-06 8:4.9381015e-06 9:4.9381015e-06 10:4.9381015e-06 11:0.00020120246 12:4.9381019e-06 13:0.99997056 14:4.9381019e-06 15:4.9381019e-06 16:4.9381019e-06 17:4.9381019e-06 18:4.9381019e-06 19:0.00020117185 20:4.9381015e-06 21:4.9381015e-06 22:0.0019801788 23:0.6404767 24:0.3575235 25:4.9381015e-06 26:4.9381015e-06 27:0.34208107 28:0.00099373783 29:0.00011029412 
3 1:0.076376893 2:0.087037638 3:0.7422561 4:0.99552608 5:4.938101e-06 6:4.938101e-06 7:4.938101e-06 8:4.938101e-06 9:4.938101e-06 10:0.0044492288 11:0.014830215 12:0.99453866 13:0.0054368502 14:4.9381019e-06 15:4.9381019e-06 16:4.9381019e-06 17:4.9381019e-06 18:4.9381019e-06 19:0.01752333 20:4.938101e-06 21:4.938101e-06 22:4.938101e-06 23:4.938101e-06 24:0.56689894 25:0.43307638 26:4.938101e-06 27:0.35175058 28:0.00078349153 29:0.00011029412 
3 1:0.08496663 2:0.085000336 3:0.75333214 4:0.9999705 5:4.9381015e-06 6:4.9381015e-06 7:4.9381015e-06 8:4.9381015e-06 9:4.9381015e-06 10:4.9381015e-06 11:0.00020120246 12:0.99997056 13:4.9381019e-06 14:4.9381019e-06 15:4.9381019e-06 16:4.9381019e-06 17:4.9381019e-06 18:4.9381019e-06 19:0.00020117186 20:4.938101e-06 21:4.938101e-06 22:4.938101e-06 23:4.938101e-06 24:0.27900761 25:0.72096765 26:4.938101e-06 27:0.30439839 28:0.00043276124 29:0.00011029412 
3 1:0.085645162 2:0.12700157 3:0.69278663 4:0.9999705 5:4.9381015e-06 6:4.9381015e-06 7:4.9381015e-06 8:4.9381015e-06 9:4.9381015e-06 10:4.9381015e-06 11:0.00020120246 12:0.89330757 13:0.10666794 14:4.9381019e-06 15:4.9381019e-06 16:4.9381019e-06 17:4.9381019e-06 18:4.9381019e-06 19:0.17463042 20:4.9381015e-06 21:4.9381015e-06 22:4.9381015e-06 23:0.029139737 24:0.97083569 25:4.9381015e-06 26:4.9381015e-06 27:0.067867726 28:0.00057983591 29:0.00011029412 
3 1:0.08857742 2:0.13686875 3:0.66884923 4:0.9999705 5:4.9381015e-06 6:4.9381015e-06 7:4.9381015e-06 8:4.9381015e-06 9:4.9381015e-06 10:4.9381015e-06 11:0.00020120246 12:0.75504071 13:0.2449348 14:4.9381019e-06 15:4.9381019e-06 16:4.9381019e-06 17:4.9381019e-06 18:4.9381019e-06 19:0.28625214 20:4.9381015e-06 21:4.9381015e-06 22:4.9381015e-06 23:0.067656927 24:0.93231845 25:4.9381015e-06 26:4.9381015e-06 27:0.1273749 28:0.00086218503 29:0.00011029412 
3 1:0.08835198 2:0.15042911 3:0.65115958 4:0.9999705 5:4.9381015e-06 6:4.9381015e-06 7:4.9381015e-06 8:4.9381015e-06 9:4.9381015e-06 10:4.9381015e-06 11:0.00020120246 12:0.27653867 13:0.72343689 14:4.9381019e-06 15:4.9381019e-06 16:4.9381019e-06 17:4.9381019e-06 18:4.9381019e-06 19:0.30318591 20:4.9381015e-06 21:4.9381015e-06 22:4.9381015e-06 23:0.049879763 24:0.95009565 25:4.9381015e-06 26:4.9381015e-06 27:0.10200167 28:0.00056300889 29:0.00011029412 
3 1:0.083523773 2:0.15764116 3:0.6384272 4:0.9999705 5:4.9381015e-06 6:4.9381015e-06 7:4.9381015e-06 8:4.9381015e-06 9:4.9381015e-06 10:4.9381015e-06 11:0.00020120246 12:0.049385957 13:0.95058954 14:4.9381019e-06 15:4.9381019e-06 16:4.9381019e-06 17:4.9381019e-06 18:4.9381019e-06 19:0.10125246 20:4.9381015e-06 21:4.9381015e-06 22:4.9381015e-06 23:0.0034616091 24:0.99651384 25:4.9381015e-06 26:4.9381015e-06 27:0.01202281 28:7.7707213e-05 29:0.00011029412 
3 1:0.080308251 2:0.1701764 3:0.62645441 4:0.9999705 5:4.9381015e-06 6:4.9381015e-06 7:4.9381015e-06 8:4.9381015e-06 9:4.9381015e-06 10:4.9381015e-06 11:0.00020120246 12:0.0029677993 13:0.99700773 14:4.9381019e-06 15:4.9381019e-06 16:4.9381019e-06 17:4.9381019e-06 18:4.9381019e-06 19:0.010566712 20:4.9381015e-06 21:4.9381015e-06 22:4.9381015e-06 23:0.10913698 24:0.89083844 25:4.9381015e-06 26:4.9381015e-06 27:0.17731066 28:5.4190816e-05 29:0.00011029412 
3 1:0.079850547 2:0.18383358 3:0.61755097 4:0.9999705 5:4.9381015e-06 6:4.9381015e-06 7:4.9381015e-06 8:4.9381015e-06 9:4.9381015e-06 10:4.9381015e-06 11:0.00020120246 12:0.00049874827 13:0.99947673 14:4.9381019e-06 15:4.9381019e-06 16:4.9381019e-06 17:4.9381019e-06 18:4.9381019e-06 19:0.0023726688 20:4.9381015e-06 21:4.9381015e-06 22:4.9381015e-06 23:0.64590859 24:0.35406682 25:4.9381015e-06 26:4.9381015e-06 27:0.33415899 28:0.00010317097 29:0.00011029412 
3 1:0.074483857 2:0.20113434 3:0.60449189 4:0.9999705 5:4.9381015e-06 6:4.9381015e-06 7:4.9381015e-06 8:4.9381015e-06 9:4.9381015e-06 10:4.9381015e-06 11:0.00020120246 12:4.9381019e-06 13:0.99997056 14:4.9381019e-06 15:4.9381019e-06 16:4.9381019e-06 17:4.9381019e-06 18:4.9381019e-06 19:0.00020117185 20:4.9381015e-06 21:4.9381015e-06 22:4.9381015e-06 23:0.90417135 24:0.095804103 25:4.9381015e-06 26:4.9381015e-06 27:0.16243729 28:0.00056409097 29:0.00011029412 
3 1:0.089857697 2:0.20053108 3:0.5846805 4:0.9999705 5:4.9381015e-06 6:4.9381015e-06 7:4.9381015e-06 8:4.9381015e-06 9:4.9381015e-06 10:4.9381015e-06 11:0.00020120246 12:4.9381019e-06 13:0.99997056 14:4.9381019e-06 15:4.9381019e-06 16:4.9381019e-06 17:4.9381019e-06 18:4.9381019e-06 19:0.00020117185 20:4.9381015e-06 21:4.9381015e-06 22:0.008399711 23:0.9812057 24:0.010374951 25:4.9381015e-06 26:4.9381015e-06 27:0.054679472 28:0.00058007886 29:0.00018382353 
3 1:0.09843947 2:0.22072752 3:0.54970139 4:0.9999705 5:4.9381015e-06 6:4.9381015e-06 7:4.9381015e-06 8:4.9381015e-06 9:4.9381015e-06 10:4.9381015e-06 11:0.00020120246 12:4.9381019e-06 13:0.99355102 14:0.0064244703 15:4.9381019e-06 16:4.9381019e-06 17:4.9381019e-06 18:4.9381019e-06 19:0.020123355 20:4.9381015e-06 21:4.9381015e-06 22:0.048892144 23:0.95108324 24:4.9381015e-06 25:4.9381015e-06 26:4.9381015e-06 27:0.10050067 28:0.0011307922 29:0.00018382353 
3 1:0.089955494 2:0.090192221 3:0.75272119 4:0.9999705 5:4.9381015e-06 6:4.9381015e-06 7:4.9381015e-06 8:4.9381015e-06 9:4.9381015e-06 10:4.9381015e-06 11:0.00020120246 12:0.99997056 13:4.9381019e-06 14:4.9381019e-06 15:4.9381019e-06 16:4.9381019e-06 17:4.9381019e-06 18:4.9381019e-06 19:0.00020117186 20:4.9381015e-06 21:4.9381015e-06 22:4.9381015e-06 23:4.9381015e-06 24:0.30271056 25:0.69726485 26:4.9381015e-06 27:0.31525654 28:0.00055294984 29:0.00018382353 
3 1:0.090163819 2:0.09747196 3:0.72834271 4:0.9999705 5:4.9381015e-06 6:4.9381015e-06 7:4.9381015e-06 8:4.9381015e-06 9:4.9381015e-06 10:4.9381015e-06 11:0.00020120246 12:0.99700773 13:0.0029677993 14:4.9381019e-06 15:4.9381019e-06 16:4.9381019e-06 17:4.9381019e-06 18:4.9381019e-06 19:0.010566712 20:4.9381015e-06 21:4.9381015e-06 22:4.9381015e-06 23:4.9381015e-06 24:0.80442166 25:0.19555376 26:4.9381015e-06 27:0.25412139 28:0.00056976744 29:0.00018382353 
3 1:0.089792848 2:0.13929796 3:0.66452253 4:0.9999705 5:4.9381015e-06 6:4.9381015e-06 7:4.9381015e-06 8:4.9381015e-06 9:4.9381015e-06 10:4.9381015e-06 11:0.00020120246 12:0.71405447 13:0.28592104 14:4.9381019e-06 15:4.9381019e-06 16:4.9381019e-06 17:4.9381019e-06 18:4.9381019e-06 19:0.30771038 20:4.9381015e-06 21:4.9381015e-06 22:4.9381015e-06 23:0.026176875 24:0.97379851 25:4.9381015e-06 26:4.9381015e-06 27:0.0624469 28:0.00030182014 29:0.00018382353 
3 1:0.087211162 2:0.15897638 3:0.64870095 4:0.9999705 5:4.9381015e-06 6:4.9381015e-06 7:4.9381015e-06 8:4.9381015e-06 9:4.9381015e-06 10:4.9381015e-06 11:0.00020120246 12:0.071607418 13:0.92836809 14:4.9381019e-06 15:4.9381019e-06 16:4.9381019e-06 17:4.9381019e-06 18:4.9381019e-06 19:0.13263796 20:4.9381015e-06 21:4.9381015e-06 22:4.9381015e-06 23:4.9381015e-06 24:0.9999705 25:4.9381015e-06 26:4.9381015e-06 27:0.00020120246 28:7.2161791e-05 29:0.00018382353 
3 1:0.086116664 2:0.16992426 3:0.63346869 4:0.9999705 5:4.9381015e-06 6:4.9381015e-06 7:4.9381015e-06 8:4.9381015e-06 9:4.9381015e-06 10:4.9381015e-06 11:0.00020120246 12:0.00049874827 13:0.99947673 14:4.9381019e-06 15:4.9381019e-06 16:4.9381019e-06 17:4.9381019e-06 18:4.9381019e-06 19:0.0023726688 20:4.9381015e-06 21:4.9381015e-06 22:4.9381015e-06 23:0.025189256 24:0.97478616 25:4.9381015e-06 26:4.9381015e-06 27:0.060601514 28:6.6521512e-05 29:0.00018382353 
3 1:0.082016706 2:0.18101129 3:0.61888039 4:0.9999705 5:4.9381015e-06 6:4.9381015e-06 7:4.9381015e-06 8:4.9381015e-06 9:4.9381015e-06 10:4.9381015e-06 11:0.00020120246 12:4.9381019e-06 13:0.99898291 14:0.00099255843 15:4.9381019e-06 16:4.9381019e-06 17:4.9381019e-06 18:4.9381019e-06 19:0.0042047282 20:4.9381015e-06 21:4.9381015e-06 22:4.9381015e-06 23:0.3091301 24:0.69084537 25:4.9381015e-06 26:4.9381015e-06 27:0.31795919 28:0.00044716123 29:0.00018382353 
3 1:0.083665982 2:0.18777691 3:0.60951382 4:0.9999705 5:4.9381015e-06 6:4.9381015e-06 7:4.9381015e-06 8:4.9381015e-06 9:4.9381015e-06 10:4.9381015e-06 11:0.00020120246 12:0.051361196 13:0.9461453 14:0.002473989 15:4.9381019e-06 16:4.9381019e-06 17:4.9381019e-06 18:4.9381019e-06 19:0.1130333 20:4.9381015e-06 21:4.9381015e-06 22:4.9381015e-06 23:0.78960741 24:0.21036805 25:4.9381015e-06 26:4.9381015e-06 27:0.26453653 28:0.0013575637 29:0.00018382353 
3 1:0.079427764 2:0.20443007 3:0.59761184 4:0.9999705 5:4.9381015e-06 6:4.9381015e-06 7:4.9381015e-06 8:4.9381015e-06 9:4.9381015e-06 10:4.9381015e-06 11:0.00020120246 12:0.023214016 13:0.97676152 14:4.9381019e-06 15:4.9381019e-06 16:4.9381019e-06 17:4.9381019e-06 18:4.9381019e-06 19:0.056848638 20:4.9381015e-06 21:4.9381015e-06 22:4.9381015e-06 23:0.88046843 24:0.11950699 25:4.9381015e-06 26:4.9381015e-06 27:0.18822284 28:0.0014508041 29:0.00018382353 
3 1:0.091917709 2:0.17990369 3:0.58987248 4:0.9999705 5:4.9381015e-06 6:4.9381015e-06 7:4.9381015e-06 8:4.9381015e-06 9:4.9381015e-06 10:4.9381015e-06 11:0.00020120246 12:0.035065461 13:0.96491009 14:4.9381019e-06 15:4.9381019e-06 16:4.9381019e-06 17:4.9381019e-06 18:4.9381019e-06 19:0.078244507 20:4.9381015e-06 21:4.9381015e-06 22:0.0079059005 23:0.71158534 24:0.28048909 25:4.9381015e-06 26:4.9381015e-06 27:0.32745317 28:0.0010215029 29:0.00025735295 
3 1:0.08293236 2:0.11822017 3:0.76762956 4:0.99848902 5:0.0014863685 6:4.9381015e-06 7:4.9381015e-06 8:4.9381015e-06 9:4.9381015e-06 10:4.9381015e-06 11:0.0059046345 12:0.66171062 13:0.33826491 14:4.9381019e-06 15:4.9381019e-06 16:4.9381019e-06 17:4.9381019e-06 18:4.9381019e-06 19:0.32899457 20:4.938101e-06 21:4.938101e-06 22:4.938101e-06 23:0.26765001 24:0.19209705 25:0.14716034 26:0.39307776 27:0.67778343 28:0.02500953 29:0.00025735295 
3 1:0.089058176 2:0.09415891 3:0.74621248 4:0.9999705 5:4.9381015e-06 6:4.9381015e-06 7:4.9381015e-06 8:4.9381015e-06 9:4.9381015e-06 10:4.9381015e-06 11:0.00020120246 12:0.99997056 13:4.9381019e-06 14:4.9381019e-06 15:4.9381019e-06 16:4.9381019e-06 17:4.9381019e-06 18:4.9381019e-06 19:0.00020117186 20:4.9381015e-06 21:4.9381015e-06 22:4.9381015e-06 23:4.9381015e-06 24:0.3580173 25:0.64195812 26:4.9381015e-06 27:0.33536196 28:0.00018818337 29:0.00025735295 
3 1:0.10282842 2:0.095813401 3:0.74623334 4:0.9999705 5:4.9381015e-06 6:4.9381015e-06 7:4.9381015e-06 8:4.9381015e-06 9:4.9381015e-06 10:4.9381015e-06 11:0.00020120246 12:0.99997056 13:4.9381019e-06 14:4.9381019e-06 15:4.9381019e-06 16:4.9381019e-06 17:4.9381019e-06 18:4.9381019e-06 19:0.00020117186 20:4.9381015e-06 21:4.9381015e-06 22:4.9381015e-06 23:4.9381015e-06 24:0.23999667 25:0.75997871 26:4.9381015e-06 27:0.28336129 28:0.00019069512 29:0.00025735295 
3 1:0.09792994 2:0.098292127 3:0.73392898 4:0.9999705 5:4.9381015e-06 6:4.9381015e-06 7:4.9381015e-06 8:4.9381015e-06 9:4.9381015e-06 10:4.9381015e-06 11:0.00020120246 12:0.99898291 13:0.00099255843 14:4.9381019e-06 15:4.9381019e-06 16:4.9381019e-06 17:4.9381019e-06 18:4.9381019e-06 19:0.0042047282 20:4.9381015e-06 21:4.9381015e-06 22:4.9381015e-06 23:4.9381015e-06 24:0.70220298 25:0.29777244 26:4.9381015e-06 27:0.31310934 28:0.00034864087 29:0.00025735295 
3 1:0.096261233 2:0.13075805 3:0.68012094 4:0.9999705 5:4.9381015e-06 6:4.9381015e-06 7:4.9381015e-06 8:4.9381015e-06 9:4.9381015e-06 10:4.9381015e-06 11:0.00020120246 12:0.95108336 13:0.048892144 14:4.9381019e-06 15:4.9381019e-06 16:4.9381019e-06 17:4.9381019e-06 18:4.9381019e-06 19:0.10050061 20:4.9381015e-06 21:4.9381015e-06 22:4.9381015e-06 23:0.0039554192 24:0.99602002 25:4.9381015e-06 26:4.9381015e-06 27:0.013442427 28:9.5174932e-05 29:0.00025735295 
3 1:0.091259666 2:0.14962797 3:0.65448654 4:0.9999705 5:4.9381015e-06 6:4.9381015e-06 7:4.9381015e-06 8:4.9381015e-06 9:4.9381015e-06 10:4.9381015e-06 11:0.00020120246 12:0.41529933 13:0.58467621 14:4.9381019e-06 15:4.9381019e-06 16:4.9381019e-06 17:4.9381019e-06 18:4.9381019e-06 19:0.3489587 20:4.9381015e-06 21:4.9381015e-06 22:4.9381015e-06 23:0.092841245 24:0.90713418 25:4.9381015e-06 26:4.9381015e-06 27:0.1589932 28:0.00065404025 29:0.00025735295 
3 1:0.088226169 2:0.16431643 3:0.64170408 4:0.9999705 5:4.9381015e-06 6:4.9381015e-06 7:4.9381015e-06 8:4.9381015e-06 9:4.9381015e-06 10:4.9381015e-06 11:0.00020120246 12:0.078026943 13:0.92194861 14:4.9381019e-06 15:4.9381019e-06 16:4.9381019e-06 17:4.9381019e-06 18:4.9381019e-06 19:0.14093561 20:4.9381015e-06 21:4.9381015e-06 22:4.9381015e-06 23:0.090866007 24:0.90910941 25:4.9381015e-06 26:4.9381015e-06 27:0.15666747 28:0.00072311738 29:0.00025735295 
3 1:0.09002687 2:0.17553964 3:0.62512571 4:0.9999705 5:4.9381015e-06 6:4.9381015e-06 7:4.9381015e-06 8:4.9381015e-06 9:4.9381015e-06 10:4.9381015e-06 11:0.00020120246 12:0.020251155 13:0.97972435 14:4.9381019e-06 15:4.9381019e-06 16:4.9381019e-06 17:4.9381019e-06 18:4.9381019e-06 19:0.051050987 20:4.9381015e-06 21:4.9381015e-06 22:4.9381015e-06 23:0.23505856 24:0.7649169 25:4.9381015e-06 26:4.9381015e-06 27:0.28040165 28:0.00073236576 29:0.00025735295 
3 1:0.085693911 2:0.17988181 3:0.61714941 4:0.9999705 5:4.9381015e-06 6:4.9381015e-06 7:4.9381015e-06 8:4.9381015e-06 9:4.9381015e-06 10:4.9381015e-06 11:0.00020120246 12:0.047904529 13:0.95207101 14:4.9381019e-06 15:4.9381019e-06 16:4.9381019e-06 17:4.9381019e-06 18:4.9381019e-06 19:0.098988809 20:4.9381015e-06 21:4.9381015e-06 22:4.9381015e-06 23:0.59356475 24:0.40641069 25:4.9381015e-06 26:4.9381015e-06 27:0.34731248 28:0.0009228774 29:0.00025735295 
3 1:0.088175088 2:0.19332103 3:0.600169 4:0.9999705 5:4.9381015e-06 6:4.9381015e-06 7:4.9381015e-06 8:4.9381015e-06 9:4.9381015e-06 10:4.9381015e-06 11:0.00020120246 12:0.0029677993 13:0.99602008 14:0.00099255843 15:4.9381019e-06 16:4.9381019e-06 17:4.9381019e-06 18:4.9381019e-06 19:0.014568761 20:4.9381015e-06 21:4.9381015e-06 22:4.9381015e-06 23:0.9377504 24:0.062225018 25:4.9381015e-06 26:4.9381015e-06 27:0.11992899 28:0.00020972719 29:0.00025735295 
3 1:0.083215706 2:0.20733532 3:0.58909863 4:0.9999705 5:4.9381015e-06 6:4.9381015e-06 7:4.9381015e-06 8:4.9381015e-06 9:4.9381015e-06 10:4.9381015e-06 11:0.00020120246 12:4.9381019e-06 13:0.99997056 14:4.9381019e-06 15:4.9381019e-06 16:4.9381019e-06 17:4.9381019e-06 18:4.9381019e-06 19:0.00020117185 20:4.9381015e-06 21:4.9381015e-06 22:4.9381015e-06 23:0.99355096 24:0.0064244699 25:4.9381015e-06 26:4.9381015e-06 27:0.020123385 28:0.00018216486 29:0.00025735295 
3 1:0.091173202 2:0.15677467 3:0.59070051 4:0.9999705 5:4.9381015e-06 6:4.9381015e-06 7:4.9381015e-06 8:4.9381015e-06 9:4.9381015e-06 10:4.9381015e-06 11:0.00020120246 12:0.28443959 13:0.71405447 14:0.0014863686 15:4.9381019e-06 16:4.9381019e-06 17:4.9381019e-06 18:4.9381019e-06 19:0.31245926 20:4.938101e-06 21:4.938101e-06 22:0.022720201 23:0.65331572 24:0.3165372 25:0.0074120895 26:4.938101e-06 27:0.39300361 28:0.0020928106 29:0.00033088238 
3 1:0.08575286 2:0.095792405 3:0.7424525 4:0.9999705 5:4.9381015e-06 6:4.9381015e-06 7:4.9381015e-06 8:4.9381015e-06 9:4.9381015e-06 10:4.9381015e-06 11:0.00020120246 12:0.99997056 13:4.9381019e-06 14:4.9381019e-06 15:4.9381019e-06 16:4.9381019e-06 17:4.9381019e-06 18:4.9381019e-06 19:0.00020117186 20:4.9381015e-06 21:4.9381015e-06 22:4.9381015e-06 23:4.9381015e-06 24:0.60245329 25:0.39752212 26:4.9381015e-06 27:0.34549794 28:0.00022280576 29:0.00033088238 
3 1:0.092063807 2:0.09297812 3:0.7436325 4:0.9999705 5:4.9381015e-06 6:4.9381015e-06 7:4.9381015e-06 8:4.9381015e-06 9:4.9381015e-06 10:4.9381015e-06 11:0.00020120246 12:0.99997056 13:4.9381019e-06 14:4.9381019e-06 15:4.9381019e-06 16:4.9381019e-06 17:4.9381019e-06 18:4.9381019e-06 19:0.00020117186 20:4.938101e-06 21:4.938101e-06 22:4.938101e-06 23:4.938101e-06 24:0.42073113 25:0.5792442 26:4.938101e-06 27:0.34988242 28:8.6330845e-05 29:0.00033088238 
3 1:0.10430969 2:0.088619597 3:0.73714167 4:0.9999705 5:4.9381015e-06 6:4.9381015e-06 7:4.9381015e-06 8:4.9381015e-06 9:4.9381015e-06 10:4.9381015e-06 11:0.00020120246 12:0.99997056 13:4.9381019e-06 14:4.9381019e-06 15:4.9381019e-06 16:4.9381019e-06 17:4.9381019e-06 18:4.9381019e-06 19:0.00020117186 20:4.938101e-06 21:4.938101e-06 22:4.938101e-06 23:4.938101e-06 24:0.61973661 25:0.38023871 26:4.938101e-06 27:0.34148309 28:9.0087786e-05 29:0.00033088238 
3 1:0.10649004 2:0.095625035 3:0.73601443 4:0.9999705 5:4.9381015e-06 6:4.9381015e-06 7:4.9381015e-06 8:4.9381015e-06 9:4.9381015e-06 10:4.9381015e-06 11:0.00020120246 12:0.99997056 13:4.9381019e-06 14:4.9381019e-06 15:4.9381019e-06 16:4.9381019e-06 17:4.9381019e-06 18:4.9381019e-06 19:0.00020117186 20:4.9381015e-06 21:4.9381015e-06 22:4.9381015e-06 23:4.9381015e-06 24:0.76936114 25:0.23061427 26:4.9381015e-06 27:0.27767846 28:3.0787385e-05 29:0.00033088238 
3 1:0.10098209 2:0.12349406 3:0.68078268 4:0.9999705 5:4.9381015e-06 6:4.9381015e-06 7:4.9381015e-06 8:4.9381015e-06 9:4.9381015e-06 10:4.9381015e-06 11:0.00020120246 12:0.94663912 13:0.053336438 14:4.9381019e-06 15:4.9381019e-06 16:4.9381019e-06 17:4.9381019e-06 18:4.9381019e-06 19:0.10717307 20:4.9381015e-06 21:4.9381015e-06 22:4.9381015e-06 23:0.0069182804 24:0.99305713 25:4.9381015e-06 26:4.9381015e-06 27:0.021393107 28:0.00037549651 29:0.00033088238 
3 1:0.10394308 2:0.14193794 3:0.66117561 4:0.9999705 5:4.9381015e-06 6:4.9381015e-06 7:4.9381015e-06 8:4.9381015e-06 9:4.9381015e-06 10:4.9381015e-06 11:0.00020120246 12:0.67603105 13:0.32394442 14:4.9381019e-06 15:4.9381019e-06 16:4.9381019e-06 17:4.9381019e-06 18:4.9381019e-06 19:0.32381943 20:4.9381015e-06 21:4.9381015e-06 22:4.9381015e-06 23:0.041978799 24:0.95799661 25:4.9381015e-06 26:4.9381015e-06 27:0.089679323 28:0.00050717808 29:0.00033088238 
3 1:0.099382065 2:0.15119475 3:0.64995325 4:0.9999705 5:4.9381015e-06 6:4.9381015e-06 7:4.9381015e-06 8:4.9381015e-06 9:4.9381015e-06 10:4.9381015e-06 11:0.00020120246 12:0.19259091 13:0.80738461 14:4.9381019e-06 15:4.9381019e-06 16:4.9381019e-06 17:4.9381019e-06 18:4.9381019e-06 19:0.2519536 20:4.9381015e-06 21:4.9381015e-06 22:4.9381015e-06 23:4.9381015e-06 24:0.9999705 25:4.9381015e-06 26:4.9381015e-06 27:0.00020120246 28:0.00014606296 29:0.00033088238 
3 1:0.09540654 2:0.16381443 3:0.63026118 4:0.9999705 5:4.9381015e-06 6:4.9381015e-06 7:4.9381015e-06 8:4.9381015e-06 9:4.9381015e-06 10:4.9381015e-06 11:0.00020120246 12:0.0044492297 13:0.99552625 14:4.9381019e-06 15:4.9381019e-06 16:4.9381019e-06 17:4.9381019e-06 18:4.9381019e-06 19:0.014830126 20:4.9381015e-06 21:4.9381015e-06 22:4.9381015e-06 23:0.0059306598 24:0.99404478 25:4.9381015e-06 26:4.9381015e-06 27:0.018834015 28:5.0480598e-05 29:0.00033088238 
3 1:0.092208117 2:0.17631656 3:0.61861569 4:0.9999705 5:4.9381015e-06 6:4.9381015e-06 7:4.9381015e-06 8:4.9381015e-06 9:4.9381015e-06 10:4.9381015e-06 11:0.00020120246 12:4.9381019e-06 13:0.99997056 14:4.9381019e-06 15:4.9381019e-06 16:4.9381019e-06 17:4.9381019e-06 18:4.9381019e-06 19:0.00020117185 20:4.9381015e-06 21:4.9381015e-06 22:4.9381015e-06 23:0.27406958 24:0.72590584 25:4.9381015e-06 26:4.9381015e-06 27:0.30195794 28:4.7029604e-05 29:0.00033088238 
3 1:0.091623701 2:0.1884933 3:0.60259068 4:0.9999705 5:4.9381015e-06 6:4.9381015e-06 7:4.9381015e-06 8:4.9381015e-06 9:4.9381015e-06 10:4.9381015e-06 11:0.00020120246 12:4.9381019e-06 13:0.99997056 14:4.9381019e-06 15:4.9381019e-06 16:4.9381019e-06 17:4.9381019e-06 18:4.9381019e-06 19:0.00020117185 20:4.9381015e-06 21:4.9381015e-06 22:4.9381015e-06 23:0.8641727 24:0.13580273 25:4.9381015e-06 26:4.9381015e-06 27:0.20432246 28:0.00017304803 29:0.00033088238 
3 1:0.089774497 2:0.19503231 3:0.59016758 4:0.9999705 5:4.9381015e-06 6:4.9381015e-06 7:4.9381015e-06 8:4.9381015e-06 9:4.9381015e-06 10:4.9381015e-06 11:0.00020120246 12:4.9381019e-06 13:0.99997056 14:4.9381019e-06 15:4.9381019e-06 16:4.9381019e-06 17:4.9381019e-06 18:4.9381019e-06 19:0.00020117185 20:4.9381015e-06 21:4.9381015e-06 22:4.9381015e-06 23:0.98515612 24:0.014819242 25:4.9381015e-06 26:4.9381015e-06 27:0.039801918 28:0.00016171094 29:0.00033088238 
3 1:0.088411339 2:0.21317182 3:0.57407665 4:0.9999705 5:4.9381015e-06 6:4.9381015e-06 7:4.9381015e-06 8:4.9381015e-06 9:4.9381015e-06 10:4.9381015e-06 11:0.00020120246 12:4.9381019e-06 13:0.99700773 14:0.0029677993 15:4.9381019e-06 16:4.9381019e-06 17:4.9381019e-06 18:4.9381019e-06 19:0.010566712 20:4.9381015e-06 21:4.9381015e-06 22:0.0044492297 23:0.99453855 24:0.00099255843 25:4.9381015e-06 26:4.9381015e-06 27:0.018831449 28:0.00034283218 29:0.00033088238 
3 1:0.10622973 2:0.15054148 3:0.54341841 4:0.97478604 5:0.0074120895 6:4.938101e-06 7:4.938101e-06 8:4.938101e-06 9:0.0034616087 10:0.014325431 11:0.072903335 12:0.39307785 13:0.60442865 14:0.002473989 15:4.9381019e-06 16:4.9381019e-06 17:4.9381019e-06 18:4.9381019e-06 19:0.35275945 20:4.938101e-06 21:0.0014863684 22:0.11259364 23:0.7609663 24:0.070619777 25:0.05432405 26:4.938101e-06 27:0.41573283 28:0.0068267663 29:0.00040441175 
3 1:0.084989101 2:0.12541166 3:0.74563974 4:0.9999705 5:4.9381015e-06 6:4.9381015e-06 7:4.9381015e-06 8:4.9381015e-06 9:4.9381015e-06 10:4.9381015e-06 11:0.00020120246 12:0.66269821 13:0.33727729 14:4.9381019e-06 15:4.9381019e-06 16:4.9381019e-06 17:4.9381019e-06 18:4.9381019e-06 19:0.32865289 20:4.938101e-06 21:4.938101e-06 22:4.938101e-06 23:0.0024739886 24:0.52739406 25:0.47011214 26:4.938101e-06 27:0.3635079 28:0.0094297919 29:0.00040441175 
3 1:0.10993443 2:0.1038598 3:0.71702367 4:0.9999705 5:4.9381015e-06 6:4.9381015e-06 7:4.9381015e-06 8:4.9381015e-06 9:4.9381015e-06 10:4.9381015e-06 11:0.00020120246 12:0.99997056 13:4.9381019e-06 14:4.9381019e-06 15:4.9381019e-06 16:4.9381019e-06 17:4.9381019e-06 18:4.9381019e-06 19:0.00020117186 20:4.9381015e-06 21:4.9381015e-06 22:4.9381015e-06 23:4.9381015e-06 24:0.93873799 25:0.061237395 26:4.9381015e-06 27:0.11854787 28:0.00022456211 29:0.00040441175 
0.5168607858625497 1:0.10336294 2:0.11023967 3:0.70571852 4:0.9999705 5:4.9381015e-06 6:4.9381015e-06 7:4.9381015e-06 8:4.9381015e-06 9:4.9381015e-06 10:4.9381015e-06 11:0.00020120246 12:0.99997056 13:4.9381019e-06 14:4.9381019e-06 15:4.9381019e-06 16:4.9381019e-06 17:4.9381019e-06 18:4.9381019e-06 19:0.00020117186 20:4.9381015e-06 21:4.9381015e-06 22:4.9381015e-06 23:4.9381015e-06 24:0.97725523 25:0.022720205 26:4.9381015e-06 27:0.055896949 28:0.0001672003 29:0.00040441175 
3 1:0.10399144 2:0.12352552 3:0.6647197 4:0.9999705 5:4.9381015e-06 6:4.9381015e-06 7:4.9381015e-06 8:4.9381015e-06 9:4.9381015e-06 10:4.9381015e-06 11:0.00020120246 12:0.98663765 13:0.013337813 14:4.9381019e-06 15:4.9381019e-06 16:4.9381019e-06 17:4.9381019e-06 18:4.9381019e-06 19:0.036566801 20:4.9381015e-06 21:4.9381015e-06 22:4.9381015e-06 23:0.00099255843 24:0.99898285 25:4.9381015e-06 26:4.9381015e-06 27:0.0042047584 28:0.00013458935 29:0.00040441175 
3 1:0.11102647 2:0.14187868 3:0.64310801 4:0.9999705 5:4.9381015e-06 6:4.9381015e-06 7:4.9381015e-06 8:4.9381015e-06 9:4.9381015e-06 10:4.9381015e-06 11:0.00020120246 12:0.63010675 13:0.36986876 14:4.9381019e-06 15:4.9381019e-06 16:4.9381019e-06 17:4.9381019e-06 18:4.9381019e-06 19:0.33876207 20:4.9381015e-06 21:4.9381015e-06 22:4.9381015e-06 23:0.0093873302 24:0.99058813 25:4.9381015e-06 26:4.9381015e-06 27:0.027489901 28:0.00015814403 29:0.00040441175 
3 1:0.10759011 2:0.15338185 3:0.63012534 4:0.9999705 5:4.9381015e-06 6:4.9381015e-06 7:4.9381015e-06 8:4.9381015e-06 9:4.9381015e-06 10:4.9381015e-06 11:0.00020120246 12:0.11308747 13:0.88688803 14:4.9381019e-06 15:4.9381019e-06 16:4.9381019e-06 17:4.9381019e-06 18:4.9381019e-06 19:0.18153225 20:4.9381015e-06 21:4.9381015e-06 22:4.9381015e-06 23:0.0059306598 24:0.99404478 25:4.9381015e-06 26:4.9381015e-06 27:0.018834015 28:7.9252204e-05 29:0.00040441175 
3 1:0.10141475 2:0.16484743 3:0.61653024 4:0.9999705 5:4.9381015e-06 6:4.9381015e-06 7:4.9381015e-06 8:4.9381015e-06 9:4.9381015e-06 10:4.9381015e-06 11:0.00020120246 12:0.002473989 13:0.99750155 14:4.9381019e-06 15:4.9381019e-06 16:4.9381019e-06 17:4.9381019e-06 18:4.9381019e-06 19:0.0090680961 20:4.9381015e-06 21:4.9381015e-06 22:4.9381015e-06 23:0.21086188 24:0.78911358 25:4.9381015e-06 26:4.9381015e-06 27:0.26487181 28:9.3836155e-05 29:0.00040441175 
